tree
version=v4
num_class=1
num_tree_per_iteration=1
label_index=0
max_feature_idx=30
objective=binary sigmoid:1
feature_names=Column_0 Column_1 Column_2 Column_3 Column_4 Column_5 Column_6 Column_7 Column_8 Column_9 Column_10 Column_11 Column_12 Column_13 Column_14 Column_15 Column_16 Column_17 Column_18 Column_19 Column_20 Column_21 Column_22 Column_23 Column_24 Column_25 Column_26 Column_27 Column_28 Column_29 Column_30
feature_infos=[18:60] [0:2] [102:1498] [0:2] [1:29] [1:5] [0:5] [374:2068] [1:4] [0:1] [30:100] [1:4] [1:5] [0:8] [1:4] [0:2] [1009:19973] [2097:26999] [0:9] [0:1] [11:25] [3:4] [1:4] [0:3] [0:40] [0:6] [1:4] [0:36] [0:17] [0:15] [0:17]
tree_sizes=2256 2705 2823 2604 2607 2708 2831 2711 2818 2614 2711 2819 2487 2720 2606 2913 2612 2715 2836 2931 2710 2921 3049 2929 2712 2835 2740 2729

Tree=0
num_leaves=21
num_cat=0
split_feature=23 14 22 13 13 18 20 5 13 13 22 2 14 5 10 7 7 7 2 7
split_gain=33.1913 20.2906 18.2191 14.0329 12.4029 11.6289 8.6285 6.86725 5.32953 6.12472 4.31541 2.65539 3.5249 4.10064 2.18528 1.13681 0.920586 2.53631 0.478828 0.143619
threshold=1.0000000180025095e-35 2.5000000000000004 3.5000000000000004 5.5000000000000009 5.5000000000000009 3.5000000000000004 14.500000000000002 2.5000000000000004 2.5000000000000004 1.0000000180025095e-35 2.5000000000000004 974.50000000000011 1.5000000000000002 2.5000000000000004 58.500000000000007 1692.0000000000002 1575.0000000000002 873.50000000000011 1253.5000000000002 991.50000000000011
decision_type=2 2 2 2 2 2 2 2 2 2 2 2 2 2 2 2 2 2 2 2
left_child=1 2 3 -1 7 6 -6 -3 9 -2 -11 12 -10 -14 -12 18 17 -15 -13 -9
right_child=8 4 -4 -5 5 -7 -8 19 11 10 14 15 13 16 -16 -17 -18 -19 -20 -21
leaf_value=-1.4352494767490858 -1.8067897408192135 -1.5627848080679834 -1.6312335357083565 -1.0459391714984725 -1.4678456118980758 -1.252832596194799 -1.7895861027873994 -1.8366858406878328 -1.6030547423403256 -1.7121359990206442 -1.3935201249883011 -1.8859264757655585 -1.6441997217476321 -1.8859264757655583 -1.5837680332431505 -1.7382045705323812 -1.8859264757655585 -1.7050425101739128 -1.8101716525690574 -1.8859264757655585
leaf_weight=7.9879826605319995 7.5818140506744411 4.332465171813964 7.8525931239128104 6.9048663675785065 7.175645440816881 4.7386337816715232 6.2279186844825745 4.0616860985755903 6.36330822110176 6.9048663675785091 4.0616860985755903 9.0710989534854907 7.4464245140552547 5.821750074625017 5.9571396112442017 4.0616860985755912 5.8217500746250144 6.6340872943401337 5.2801919281482688 5.6863605380058289
leaf_count=59 56 32 58 51 53 35 46 30 47 51 30 67 55 43 44 30 43 49 39 42
internal_value=-1.64742 -1.52936 -1.38473 -1.25475 -1.63145 -1.52213 -1.61734 -1.77229 -1.73394 -1.65741 -1.59048 -1.77108 -1.73633 -1.7693 -1.50664 -1.83162 -1.82027 -1.78959 -1.85805 -1.86541
internal_weight=0 54.9682 22.7454 14.8928 32.2227 18.1422 13.4036 14.0805 75.0058 24.5055 16.9237 50.5003 32.0873 25.724 10.0188 18.413 18.2776 12.4558 14.3513 9.74805
internal_count=960 406 168 110 238 134 99 104 554 181 125 373 237 190 74 136 135 92 106 72
is_linear=0
shrinkage=1


Tree=1
num_leaves=25
num_cat=0
split_feature=16 27 27 2 8 6 25 8 3 2 25 29 15 18 2 7 7 16 25 18 16 8 7 18
split_gain=50.4701 15.2458 11.2879 12.5289 8.39114 6.00238 4.68604 4.43471 8.36517 3.70876 3.47745 7.68966 10.4346 4.70195 3.17973 2.55933 2.44957 1.99818 1.44098 1.31897 0.977319 0.849543 0.177388 0.000853653
threshold=2439.5000000000005 2.5000000000000004 1.5000000000000002 969.00000000000011 1.5000000000000002 1.5000000000000002 4.5000000000000009 1.5000000000000002 1.5000000000000002 229.00000000000003 2.5000000000000004 1.0000000180025095e-35 1.5000000000000002 3.5000000000000004 740.50000000000011 1179.5000000000002 1555.0000000000002 5950.5000000000009 2.5000000000000004 1.5000000000000002 4950.5000000000009 3.5000000000000004 1287.0000000000002 1.5000000000000002
decision_type=2 2 2 2 2 2 2 2 2 2 2 2 2 2 2 2 2 2 2 2 2 2 2 2
left_child=2 4 -1 -4 -2 -6 7 8 18 -9 11 21 13 17 16 -7 19 -13 -3 -12 -16 -11 -8 -22
right_child=1 6 3 -5 5 15 22 9 -10 10 14 12 -14 -15 20 -17 -18 -19 -20 -21 23 -23 -24 -25
leaf_value=0.50588583170305845 0.34173327886569138 -0.16171686713296218 0.35202455726338699 -0.052746133318372773 -0.10403584337272663 0.23613187913116349 -0.18610285642806915 -0.2399256508642047 0.21530508372160423 -0.12442769057619928 -0.19760284488298546 -0.041102332733902416 0.26330391389185226 0.10580451926046897 -0.12990871969632786 0.027727203567584763 0.054372209940502472 -0.23430220610007543 -0.0051101649489587349 -0.040986172523500092 -0.23853687111279359 -0.23937848765366027 -0.24031852799331027 -0.23465173026271066
leaf_weight=6.6690051257610348 4.4473059996962574 5.2740483134984952 7.373780280351637 5.2271658182144165 7.2678812965750721 4.9891271665692312 3.962114565074442 6.5804934054613105 5.6500780656933776 6.7238241136074084 4.6259318068623561 4.0210263282060641 5.9015391469001761 4.6403979659080496 5.528862550854682 4.4678613543510437 4.7190176695585242 4.5806445553898811 4.2391577884554863 4.0201041176915169 4.060353145003317 4.1645508632063866 6.178061380982399 5.1081214398145676
leaf_count=47 32 41 51 37 53 35 31 49 40 48 34 30 41 35 42 33 34 37 31 30 31 31 46 41
internal_value=0 -0.0551344 0.295475 0.184116 0.0975642 0.0326372 -0.0910648 -0.0747988 0.0225495 -0.0976225 -0.0815035 -0.0342032 0.0421208 -0.0564529 -0.132124 0.137673 -0.0615248 -0.143987 -0.0919317 -0.124782 -0.196323 -0.168394 -0.219135 -0.236372
internal_weight=0 111.151 19.27 12.6009 21.1722 16.7249 89.9783 79.8382 15.1633 64.6749 58.0944 30.032 19.1436 13.2421 28.0624 9.45699 13.3651 8.60167 9.51321 8.64604 14.6973 10.8884 10.1402 9.16847
internal_count=960 825 135 88 153 121 672 595 112 483 434 222 143 102 212 68 98 67 72 64 114 79 77 72
is_linear=0
shrinkage=0.2


Tree=2
num_leaves=26
num_cat=0
split_feature=16 27 15 0 4 27 0 9 0 23 0 0 23 20 0 2 28 4 2 27 4 8 23 2 2
split_gain=32.0958 10.641 8.54279 6.85032 7.18225 9.93866 7.04774 6.61288 8.49046 5.58946 3.12539 3.00595 6.12039 2.56934 1.49664 2.08727 1.82994 1.79563 1.35422 1.21333 1.06117 0.378573 0.00372268 0.00164586 0.000382081
threshold=2974.5000000000005 1.5000000000000002 1.5000000000000002 26.500000000000004 10.500000000000002 4.5000000000000009 40.500000000000007 1.0000000180025095e-35 31.500000000000004 1.0000000180025095e-35 49.500000000000007 28.500000000000004 1.0000000180025095e-35 11.500000000000002 35.500000000000007 1253.5000000000002 2.5000000000000004 3.5000000000000004 643.00000000000011 7.5000000000000009 3.5000000000000004 3.5000000000000004 1.0000000180025095e-35 671.00000000000011 1145.0000000000002
decision_type=2 2 2 2 2 2 2 2 2 2 2 2 2 2 2 2 2 2 2 2 2 2 2 2 2
left_child=1 2 -1 -2 10 6 -6 8 -3 -7 13 -9 -13 -5 16 21 17 -15 -11 -12 -18 22 -16 -24 -20
right_child=3 7 -4 4 5 9 -8 11 -10 18 19 12 -14 14 15 -17 20 -19 24 -21 -22 -23 23 -25 -26
leaf_value=0.14331314012039584 0.13140716805270497 0.38822749397529766 0.47671104725478958 -0.023547792449394117 0.33868902855361027 0.049967530922025938 -0.013810288297054702 -0.12851761488683014 0.00051987708189995532 -0.084477820706862924 -0.083299522217079855 0.22097768836597462 -0.078377894822180993 0.049411661982972678 -0.24004356783730124 -0.070197115452587763 -0.23787472825172201 -0.13960219557446468 -0.23223077911541729 0.075650945156670868 -0.11504663240048529 -0.17749342842039051 -0.23582934383338394 -0.23017892253206998 -0.22922406872890694
leaf_weight=6.4486992061138135 6.3363986313343039 4.9625917077064532 5.8748711496591568 6.4929178953170767 4.7821538895368594 7.3470272123813656 4.3167895525693893 5.0944106727838543 4.1476784348487854 4.0407027527689916 3.8674714192748061 4.9948113113641721 6.0299817770719528 4.0926175639033335 5.7063506692647996 4.7080417424440375 4.9342690855264646 3.9515874087810516 3.5109222903847694 3.8166599869728088 6.546106144785881 6.4055736660957328 4.8561619371175748 3.583716444671154 3.2606054395437241
leaf_count=38 45 31 32 51 34 50 31 36 31 34 30 30 43 31 43 37 39 30 30 30 53 50 39 32 30
internal_value=0 0.149921 0.30225 -0.0693009 -0.0840512 0.000845857 0.171454 0.0755138 0.211714 -0.0846395 -0.1233 -0.0014639 0.0572459 -0.141125 -0.158171 -0.190315 -0.116585 -0.0434384 -0.176106 -0.00434982 -0.167838 -0.217832 -0.236098 -0.23343 -0.230783
internal_weight=0 37.553 12.3236 92.5561 86.2197 27.2582 9.09894 25.2295 9.11027 18.1593 58.9615 16.1192 11.0248 51.2773 44.7844 25.2598 19.5246 8.0442 10.8122 7.68413 11.4804 20.5518 14.1462 8.43988 6.77153
internal_count=960 241 70 719 674 209 65 171 62 144 465 109 73 405 354 201 153 61 94 60 92 164 114 71 60
is_linear=0
shrinkage=0.2


Tree=3
num_leaves=24
num_cat=0
split_feature=19 16 3 24 1 14 18 16 18 18 24 14 28 25 28 10 17 6 10 10 16 16 16
split_gain=52.6095 26.7276 14.4246 7.93679 6.77846 6.4929 5.12601 4.54512 7.54187 3.93176 3.47434 3.14459 2.9907 2.35868 1.88831 1.08581 2.12157 3.65856 0.876942 0.179557 0.0148154 0.00635417 0.0020848
threshold=1.0000000180025095e-35 3852.5000000000005 1.5000000000000002 2.5000000000000004 1.5000000000000002 1.5000000000000002 1.5000000000000002 5365.5000000000009 2.5000000000000004 3.5000000000000004 7.5000000000000009 2.5000000000000004 6.5000000000000009 2.5000000000000004 1.5000000000000002 56.500000000000007 14007.500000000002 1.5000000000000002 91.500000000000014 37.500000000000007 4402.0000000000009 3912.0000000000005 6219.5000000000009
decision_type=2 2 2 2 2 2 2 2 2 2 2 2 2 2 2 2 2 2 2 2 2 2 2
left_child=3 4 13 -1 -2 7 -4 8 -5 15 -11 -6 14 -3 -12 19 18 -18 20 -7 -17 -21 -16
right_child=1 2 6 5 11 9 -8 -9 -10 10 12 -13 -14 -15 22 16 17 -19 -20 21 -22 -23 -24
leaf_value=0.074541978900896644 0.55010164452335464 -0.019330716159940621 0.04746142889225325 -0.070532932054834602 0.39088525609274982 -0.18684633593177011 0.33616370543608953 -0.12721307827826112 0.27797650809336355 0.06033524906649719 -0.073890743736385198 0.17152495731560904 0.0097870794280092224 -0.19600789305699065 -0.24067950124506676 -0.24438084596189205 -0.19741752972816712 0.034137621307268197 -0.11974321936434616 -0.24215572832764934 -0.22919091506146555 -0.23234569134860295 -0.23394292347544693
leaf_weight=10.198361545801161 6.0001149401068696 6.405592568218708 4.1210258081555367 5.6670943126082438 5.3366898000240326 4.0158789530396453 6.10343237221241 7.0363463237881652 4.4216859713196754 5.6063018217682865 4.5446409359574336 5.123702198266983 4.9249465167522422 5.7228881120681763 4.0499602109193802 4.9833936542272586 5.8471854478120786 5.118660606443882 3.4278377369046202 4.3749839887022954 5.2999014332890511 6.6638184636831284 3.3638448715209961
leaf_count=54 33 52 32 41 29 34 43 55 28 36 32 34 42 52 31 38 53 42 29 32 50 59 29
internal_value=0 0.187238 0.0448168 -0.0915432 0.380641 -0.11289 0.219801 -0.00383689 0.0822109 -0.142905 -0.076081 0.283438 -0.121379 -0.102697 -0.175399 -0.180729 -0.154905 -0.0893317 -0.207349 -0.223059 -0.236552 -0.236234 -0.237623
internal_weight=0 38.8134 22.3529 89.5448 16.4605 79.3465 10.2245 17.1251 10.0888 62.2214 22.4897 10.4604 16.8834 12.1285 11.9584 39.7317 24.677 10.9658 13.7111 15.0547 10.2833 11.0388 7.41381
internal_count=960 275 179 685 96 631 75 124 69 507 170 63 134 104 92 337 212 95 117 125 88 91 60
is_linear=0
shrinkage=0.2


Tree=4
num_leaves=24
num_cat=0
split_feature=30 14 2 16 2 16 7 24 29 24 28 20 2 24 2 13 2 24 16 2 16 16 16
split_gain=13.8632 8.65516 5.80145 4.46138 3.97996 3.79203 3.62623 4.03017 5.29518 4.04444 5.56552 3.47243 3.15445 2.41384 2.21266 2.55751 1.53445 1.53134 1.53157 0.297417 0.0256495 0.00265748 0.000299946
threshold=1.0000000180025095e-35 1.5000000000000002 1444.0000000000002 2427.0000000000005 779.00000000000011 2930.5000000000005 1575.0000000000002 7.5000000000000009 5.5000000000000009 4.5000000000000009 2.5000000000000004 12.500000000000002 919.00000000000011 23.500000000000004 430.50000000000006 6.5000000000000009 561.50000000000011 11.500000000000002 6384.5000000000009 1206.5000000000002 3980.5000000000005 5678.0000000000009 6322.5000000000009
decision_type=2 2 2 2 2 2 2 2 2 2 2 2 2 2 2 2 2 2 2 2 2 2 2
left_child=1 -1 3 4 -2 -3 7 9 13 -5 -11 -10 -7 16 -8 19 21 18 -18 20 -16 -9 -22
right_child=2 5 -4 6 -6 12 14 8 11 10 -12 -13 -14 -15 15 -17 17 -19 -20 -21 22 -23 -24
leaf_value=0.31041262787937174 0.16420373004900005 0.13454261479195936 0.1896161138433336 -0.11672080082429122 -0.050818352059778193 -0.12108760204620239 -0.021699083726095199 -0.2341827198443551 0.18078571781119221 0.22488604323308273 -0.052041124070842104 -0.052238196006342552 0.10657941129179012 -0.0020931167540074406 -0.24702173799146046 -0.066475526354211667 -0.13297330607306784 -0.19670880506063884 0.035503063956296425 -0.16301177986576021 -0.22786595886215977 -0.22651412498373019 -0.22500024185529074
leaf_weight=6.8639444485306766 6.5065357238054258 10.860359437763693 4.0640716552734366 4.7643581181764629 7.3137299790978432 6.4146081805229169 5.3568370416760471 3.6746717244386735 4.2220272198319417 6.5271186828613263 5.2280897051095963 6.4899556189775467 3.923210434615612 5.0930673480033866 4.1568282023072261 6.7167533040046683 5.4484550282359105 5.9847663938999167 3.5742141306400299 2.9780822321772566 3.00574591755867 3.5575656071305275 2.842618502676487
leaf_count=36 34 54 30 37 47 48 45 32 33 45 44 57 30 44 31 54 47 57 30 29 30 36 30
internal_value=0 0.115217 -0.0443067 -0.0544808 0.0504133 0.0520132 -0.0726878 -0.0437642 -0.0795812 0.0387227 0.101724 0.039606 -0.0346878 -0.126292 -0.135672 -0.166664 -0.154734 -0.118265 -0.0662336 -0.218495 -0.23501 -0.230411 -0.226473
internal_weight=0 28.0621 97.5055 93.4414 13.8203 21.1982 79.6212 54.5643 38.0447 16.5196 11.7552 10.712 10.3378 27.3327 25.0569 19.7 22.2397 15.0074 9.02267 12.9833 10.0052 7.23224 5.84836
internal_count=960 168 792 762 81 132 681 462 336 126 89 90 78 246 219 174 202 134 77 120 91 68 60
is_linear=0
shrinkage=0.2


Tree=5
num_leaves=25
num_cat=0
split_feature=19 12 15 26 24 1 4 14 4 25 4 14 16 16 28 28 27 25 13 4 13 27 16 4
split_gain=31.4876 11.4488 11.7446 5.74907 4.17084 3.40154 2.83714 2.58876 3.44447 1.82355 1.76512 1.43539 1.30456 3.42012 2.2167 2.74805 1.41085 1.01658 0.914972 0.671647 0.660078 0.00579967 0.00134462 0.00116314
threshold=1.0000000180025095e-35 1.5000000000000002 1.5000000000000002 1.5000000000000002 2.5000000000000004 1.5000000000000002 12.500000000000002 1.5000000000000002 8.5000000000000018 4.5000000000000009 6.5000000000000009 3.5000000000000004 4373.5000000000009 4950.5000000000009 6.5000000000000009 7.5000000000000009 4.5000000000000009 2.5000000000000004 6.5000000000000009 6.5000000000000009 3.5000000000000004 5.5000000000000009 3044.5000000000005 7.5000000000000009
decision_type=2 2 2 2 2 2 2 2 2 2 2 2 2 2 2 2 2 2 2 2 2 2 2 2
left_child=3 5 6 -1 -5 -2 11 8 20 12 -7 -3 16 -14 18 -16 17 -9 23 -17 -6 -11 -18 -15
right_child=1 2 -4 4 7 10 -8 9 -10 21 -12 -13 13 14 15 19 22 -19 -20 -21 -22 -23 -24 -25
leaf_value=0.12474835268448932 0.35661954370095006 -0.071537377149762563 0.25210647784935514 0.022619804848644069 -0.05851632992613718 0.10597742128828402 0.050948269402606043 -0.17498480721608145 0.078383008942099416 -0.23529725836665036 0.25708418771791391 -0.23270823550189373 0.067131669409912886 -0.22408381036048147 0.049896438993796505 -0.084567900854389089 -0.23270174895604448 -0.048511919748902572 -0.1124150830152842 -0.2232808370529884 -0.16795332101032007 -0.22361218442205413 -0.22722311979548265 -0.22916292123366083
leaf_weight=5.1265441328287116 7.0497024431824693 6.038382939994337 6.8082740232348433 10.575063385069368 4.0524167194962484 6.1017341688275337 5.3986796289682379 5.2798091545701045 5.9686535894870749 3.7344560511410227 6.2693071290850639 3.4865616038441658 4.5178500004112747 4.2141262702643889 5.046681519597767 2.8005170039832592 3.4964873045682898 4.9028587713837624 4.5793908163905144 2.7845804914832115 4.834808737039566 3.117247961461544 3.6756287291646004 3.1527861654758453
leaf_count=37 32 54 44 52 31 35 44 40 44 33 34 32 40 47 52 30 32 36 37 33 36 35 39 31
internal_value=0 0.134149 0.034426 -0.0803078 -0.0940076 0.24574 -0.0648816 -0.11265 -0.0391302 -0.133939 0.182554 -0.130533 -0.119135 -0.0917144 -0.123499 -0.057071 -0.161947 -0.114089 -0.182618 -0.153726 -0.118052 -0.229981 -0.229894 -0.226257
internal_weight=0 41.1526 21.7319 81.8599 76.7334 19.4207 14.9236 66.1583 14.8559 51.3024 12.371 9.52494 44.4507 27.0959 22.5781 10.6318 17.3548 10.1827 11.9463 5.5851 8.88723 6.8517 7.17212 7.36691
internal_count=960 275 174 685 648 101 130 596 111 485 69 86 417 270 230 115 147 76 115 63 67 68 71 78
is_linear=0
shrinkage=0.2


Tree=6
num_leaves=26
num_cat=0
split_feature=19 12 3 15 30 18 24 2 17 16 30 18 2 16 17 2 29 9 2 24 2 17 2 15 24
split_gain=20.3334 6.69585 7.77772 6.86531 3.74097 4.04298 5.98914 4.80562 3.97251 3.13772 3.03255 2.40351 1.95695 1.54842 1.42661 1.41677 2.15052 0.947912 0.783092 0.725734 0.635501 0.298451 0.237053 0.00417642 0.00240321
threshold=1.0000000180025095e-35 1.5000000000000002 1.5000000000000002 1.5000000000000002 1.0000000180025095e-35 3.5000000000000004 7.5000000000000009 438.00000000000006 10171.500000000002 2605.0000000000005 1.0000000180025095e-35 3.5000000000000004 1361.5000000000002 2427.0000000000005 15680.000000000002 886.00000000000011 5.5000000000000009 1.0000000180025095e-35 465.50000000000006 15.500000000000002 391.00000000000006 19338.500000000004 703.50000000000011 1.5000000000000002 9.5000000000000018
decision_type=2 2 2 2 2 2 2 2 2 2 2 2 2 2 2 2 2 2 2 2 2 2 2 2 2
left_child=4 10 11 -4 8 12 -7 -8 -1 -10 -2 19 15 -12 -9 16 17 18 -6 -3 -19 23 -22 24 -17
right_child=1 2 3 -5 5 6 7 14 9 -11 13 -13 -14 -15 -16 21 -18 20 -20 -21 22 -23 -24 -25 -26
leaf_value=-0.11893932490990017 0.30359486651145534 -0.10152723386193244 0.0023127011413011014 0.31336034093954557 -0.14102590283509683 0.16989304330884383 0.10225377785651762 -0.082270769496995952 0.18662967384019372 -0.016752562301890421 0.20859254050087139 0.029008967667669684 -0.0019529971890132716 0.076751012703553667 -0.22853694188529847 -0.22536860621886748 0.012268105376990949 -0.11984435050616893 0.0023544585980664716 -0.23404412912498215 -0.23622818870532242 -0.14617773315176497 -0.16617294279797112 -0.23074710402212975 -0.21727336223317917
leaf_weight=6.4510584697127369 6.0547952130436924 3.0988037325441837 6.4767384827136993 5.0525869131088257 3.8253061138093516 4.9383608102798489 3.9984212294220915 5.3770721852779371 5.5263307243585569 6.7285002283751965 6.3823170065879813 3.6950840577483177 4.1359067894518367 8.0670424029231054 5.2929266281425953 2.8780393749475461 4.0806316658854476 4.7965246699750432 2.5323549509048462 3.5432792045176029 5.3851624317467195 2.539897918701171 3.0131061039865017 2.6999678686261177 2.9916397631168365
leaf_count=40 27 32 51 24 36 31 34 56 25 51 29 32 34 45 55 32 41 45 28 35 51 28 29 26 43
internal_value=0 0.10267 0.025681 0.138626 -0.0697602 -0.0946605 -0.0206132 -0.0847502 0.00809227 0.0749629 0.184775 -0.100289 -0.132003 0.134986 -0.154827 -0.147485 -0.119794 -0.147356 -0.0839153 -0.17222 -0.177923 -0.206391 -0.211094 -0.224237 -0.221243
internal_weight=0 42.3706 21.8665 11.5293 77.1912 58.4853 19.6068 14.6684 18.7059 12.2548 20.5042 10.3372 38.8785 14.4494 10.67 34.7426 23.6331 19.5525 6.35766 6.64208 13.1948 11.1095 8.39827 8.56965 5.86968
internal_count=960 275 174 75 685 569 176 145 116 76 101 99 393 74 111 359 230 189 64 67 125 129 80 101 75
is_linear=0
shrinkage=0.2


Tree=7
num_leaves=25
num_cat=0
split_feature=19 0 8 8 27 18 3 0 22 18 3 22 27 16 0 20 16 0 0 9 18 18 22 23
split_gain=13.497 7.96003 6.96265 6.2932 7.46482 5.59711 4.19326 4.14833 3.78111 4.07353 3.91524 3.62213 2.89677 2.60006 3.63238 1.99207 1.94243 1.92884 1.90274 1.3089 2.17731 0.202432 0.172256 0.000980061
threshold=1.0000000180025095e-35 35.500000000000007 2.5000000000000004 1.5000000000000002 1.5000000000000002 2.5000000000000004 1.5000000000000002 32.500000000000007 1.5000000000000002 3.5000000000000004 1.5000000000000002 2.5000000000000004 4.5000000000000009 10507.000000000002 45.500000000000007 13.500000000000002 3187.5000000000005 45.500000000000007 37.500000000000007 1.0000000180025095e-35 2.5000000000000004 1.5000000000000002 2.5000000000000004 1.0000000180025095e-35
decision_type=2 2 2 2 2 2 2 2 2 2 2 2 2 2 2 2 2 2 2 2 2 2 2 2
left_child=3 2 -2 4 -1 18 16 8 -5 10 15 -4 22 14 19 -10 -3 -18 -6 21 -21 -14 -9 -15
right_child=1 6 11 7 5 -7 -8 12 9 -11 -12 -13 13 23 -16 -17 17 -19 -20 20 -22 -23 -24 -25
leaf_value=0.30039623594061021 0.29459997990678083 0.017625448944734189 0.19062498096700087 0.13416124838450547 -0.23292040224187394 0.11385539381333101 0.10452613511029921 -0.19455165645972528 -0.088075014684549299 0.10666838714923912 0.034061609664082775 -0.011672696276855734 -0.14494095803738624 -0.22399620523633301 0.13085159949821754 -0.26328615080499018 -0.23440389596694025 -0.02440196848108948 -0.021747553033997755 -0.14036589089358434 0.075487040626909252 -0.22493384353008003 -0.24626140393277962 -0.2184199854223616
leaf_weight=3.6281656846404102 9.1680483892560005 4.2086109220981616 6.0467710122466096 4.5422265641391304 4.1319037489593011 6.2954925335943699 7.0963929221034041 4.3466288968920725 4.7084383182227629 4.1687008924782267 4.7579401060938826 8.5409273803234083 2.5344656519591862 2.1639011576771727 3.2540633343160144 5.7843833826482296 4.497649222612381 2.8631980083882809 2.9078315757215023 4.6863681152462959 3.1095328070223331 2.5272524692118168 6.3288556225597858 3.0207645744085312
leaf_count=20 48 20 35 36 42 51 45 40 40 29 40 51 32 26 30 47 46 30 32 57 33 29 58 43
internal_value=0 0.0812247 0.15802 -0.060665 0.0460415 -0.0231617 -0.0165113 -0.0930267 -0.0301115 -0.068535 -0.116426 0.072182 -0.140179 -0.0975562 -0.0579139 -0.184664 -0.0907523 -0.152718 -0.145693 -0.105687 -0.0542691 -0.18488 -0.225207 -0.220747
internal_weight=0 42.4216 23.7557 72.8969 16.9634 13.3352 18.6659 55.9335 23.9617 19.4195 15.2508 14.5877 31.9718 21.2963 16.1117 10.4928 11.5695 7.36085 7.03974 12.8576 7.7959 5.06172 10.6755 5.18467
internal_count=960 275 134 685 145 125 141 540 192 156 127 86 348 250 181 87 96 76 74 151 90 61 98 69
is_linear=0
shrinkage=0.2


Tree=8
num_leaves=26
num_cat=0
split_feature=19 0 26 0 7 7 20 15 3 26 7 4 0 18 23 4 7 20 0 7 22 5 4 29 18
split_gain=9.02484 4.93274 3.36901 4.69091 3.37669 3.46447 3.17318 2.99144 2.77318 3.00084 2.65315 4.20552 3.15395 2.5117 5.13992 2.34985 3.04118 2.00822 1.94117 1.42176 1.33279 1.24413 0.20652 0.0356107 0.0145728
threshold=1.0000000180025095e-35 35.500000000000007 1.5000000000000002 22.500000000000004 1016.5000000000001 1161.5000000000002 11.500000000000002 1.0000000180025095e-35 1.5000000000000002 2.5000000000000004 1129.0000000000002 6.5000000000000009 29.500000000000004 3.5000000000000004 1.0000000180025095e-35 8.5000000000000018 1748.0000000000002 13.500000000000002 36.500000000000007 1575.0000000000002 2.5000000000000004 3.5000000000000004 2.5000000000000004 1.0000000180025095e-35 1.5000000000000002
decision_type=2 2 2 2 2 2 2 2 2 2 2 2 2 2 2 2 2 2 2 2 2 2 2 2 2
left_child=2 10 -1 -4 13 18 -7 24 9 -3 12 -12 -2 21 -15 19 20 -11 -6 -9 -17 23 -21 -5 -8
right_child=1 8 3 4 5 6 7 15 -10 17 11 -13 -14 14 -16 16 -18 -19 -20 22 -22 -23 -24 -25 -26
leaf_value=0.10215142297887923 0.28997180028421859 0.076151801828932858 0.1451165003761152 -0.25066140925615044 0.21312941187288797 0.079297025203264565 -0.24291801222212697 -0.053306046358083059 0.079487861602250132 -0.043166663202624217 -0.072855114280729313 0.16173129562927785 0.083919128197563142 0.11312294399694214 -0.19389488057572424 0.0044727112961945462 0.12485511741779004 -0.25146433606460478 -0.018469668832423052 -0.16180682941439226 -0.17734909066237931 -0.11272769369310197 -0.23799378120993048 -0.22508236825376066 -0.22164483360826437
leaf_weight=5.1771862022578707 6.1498055532574671 3.4057075083255786 3.9663677290081969 4.9117217324674147 2.9476675726473323 4.9070568718016139 2.6484197266399887 5.1551700718700904 7.4223528876900664 3.5881289876997471 5.4714043661952001 6.9268564805388451 5.7491971850395203 3.9168103262782079 4.9222241826355457 3.1915653347969037 4.6440811827778816 3.8250968605279922 2.8445934057235718 2.9770562443882227 3.259575679898262 4.7917992323637 2.7266714870929718 3.910249263048172 2.5076899826526642
leaf_count=37 31 27 22 43 27 50 28 55 45 29 32 39 32 27 51 32 42 40 33 39 33 53 30 50 33
internal_value=0 0.0639416 -0.0530519 -0.0655621 -0.0794286 -0.0429459 -0.0686961 -0.0954834 -0.0146604 -0.0792511 0.122952 0.0582073 0.190414 -0.140864 -0.0578471 -0.063287 0.00144472 -0.150645 0.0993905 -0.129428 -0.0873966 -0.194764 -0.198228 -0.239324 -0.232572
internal_weight=0 42.5385 69.4059 64.2287 60.2624 37.8095 32.0173 27.1102 18.2413 10.8189 24.2973 12.3983 11.899 22.4528 8.83903 21.9541 11.0952 7.41323 5.79226 10.8589 6.45114 13.6138 5.70373 8.82197 5.15611
internal_count=960 275 685 648 626 402 342 292 141 96 134 71 63 224 78 231 107 69 60 124 65 146 69 93 61
is_linear=0
shrinkage=0.2


Tree=9
num_leaves=24
num_cat=0
split_feature=19 14 8 4 30 18 1 24 8 30 3 8 10 4 10 20 17 14 17 10 14 24 4
split_gain=6.07694 4.0758 3.71914 5.08337 3.3581 5.83218 3.71091 2.96259 2.89952 4.85808 3.87171 2.00841 2.0567 2.43594 1.77475 1.88204 2.08898 1.83959 1.42466 0.795192 0.777505 0.049185 0.00796678
threshold=1.0000000180025095e-35 1.5000000000000002 2.5000000000000004 7.5000000000000009 1.0000000180025095e-35 4.5000000000000009 1.5000000000000002 10.500000000000002 1.5000000000000002 1.0000000180025095e-35 1.5000000000000002 2.5000000000000004 57.500000000000007 3.5000000000000004 81.500000000000014 12.500000000000002 10669.500000000002 2.5000000000000004 11826.000000000002 72.500000000000014 2.5000000000000004 6.5000000000000009 9.5000000000000018
decision_type=2 2 2 2 2 2 2 2 2 2 2 2 2 2 2 2 2 2 2 2 2 2 2
left_child=1 2 -1 -4 -2 6 -6 18 9 -3 19 20 13 -13 15 -14 -17 -16 -8 -11 -10 -22 -15
right_child=4 8 3 -5 5 -7 7 -9 11 10 -12 12 14 22 17 16 -18 -19 -20 -21 21 -23 -24
leaf_value=0.15563127220612472 0.15821148244030814 0.19372357007767221 -0.19363141319996779 0.096911695019855942 0.093348284267018966 0.18366295869675636 0.044391688229592371 -0.20566364136378998 -0.10194644437652119 -0.23505507272100076 0.12045917665072187 -0.045288886767729943 0.14569411125002882 -0.21784143575760925 0.01416070516790667 -0.16432750032380672 0.069950299775221353 -0.18674458120320897 -0.085273100735594826 -0.089088117998460017 -0.25411749814642326 -0.21591099432560537 -0.23235231524778355
leaf_weight=6.6592220030725029 9.134675305336712 3.9060516506433478 4.5129969194531423 5.1660285517573357 7.8324715048074749 6.9874933622777453 6.5020818561315554 4.8234863840043536 2.7966114208102208 3.115727022290228 2.7822113037109375 5.6073233950883168 3.3408348839730042 2.5284473896026611 3.072812106460332 2.8924757353961468 3.2141157127916813 4.4823440164327621 7.0802334323525429 2.866176251322031 2.2125319242477417 3.4483754653483629 3.7698617503046989
leaf_count=50 52 22 47 37 54 41 38 46 29 36 28 52 30 38 30 35 42 55 44 33 21 58 42
internal_value=0 -0.0461409 0.0405903 -0.0385586 0.0508156 0.0212895 -0.021952 -0.0710173 -0.0744612 0.00821832 -0.074459 -0.102497 -0.0774165 -0.141167 -0.0327765 0.0250073 -0.0410188 -0.105033 -0.0232004 -0.165116 -0.188222 -0.230844 -0.226527
internal_weight=0 66.3741 16.3382 9.67903 42.3604 33.2258 26.2383 18.4058 50.0359 12.6702 8.76411 37.3657 28.9082 11.9056 17.0026 9.44743 6.10659 7.55516 13.5823 5.9819 8.45752 5.66091 6.29831
internal_count=960 685 134 84 275 223 182 128 551 119 97 432 324 132 192 107 77 85 82 69 108 79 80
is_linear=0
shrinkage=0.2


Tree=10
num_leaves=25
num_cat=0
split_feature=23 0 26 18 27 20 1 1 16 0 7 7 0 27 17 15 4 16 16 26 27 0 17 17
split_gain=4.98924 4.85393 4.98952 3.16666 3.09134 3.10446 2.83155 5.12408 4.52699 2.15681 2.13605 2.7755 2.03825 3.14503 2.80727 1.74597 2.56674 2.06223 1.78112 1.64659 1.45 1.2711 0.350769 0.252444
threshold=1.0000000180025095e-35 33.500000000000007 2.5000000000000004 3.5000000000000004 2.5000000000000004 13.500000000000002 1.0000000180025095e-35 1.5000000000000002 3161.5000000000005 25.500000000000004 1037.5000000000002 1420.5000000000002 43.500000000000007 6.5000000000000009 14781.500000000002 1.0000000180025095e-35 12.500000000000002 4850.5000000000009 3458.0000000000005 2.5000000000000004 5.5000000000000009 46.500000000000007 14624.000000000002 14332.000000000002
decision_type=2 2 2 2 2 2 2 2 2 2 2 2 2 2 2 2 2 2 2 2 2 2 2 2
left_child=1 4 3 -3 22 -6 -2 8 -8 -9 21 -12 15 -14 -15 16 18 23 -11 -19 -10 -4 -1 -17
right_child=6 2 10 -5 5 -7 7 9 20 12 11 -13 13 14 -16 17 -18 19 -20 -21 -22 -23 -24 -25
leaf_value=0.13262967341477935 -0.19090189695445933 -0.020715486886593509 -0.22514302513326015 0.23310434252075016 0.11301863700647348 -0.067711365765377701 0.233501037899457 0.071470002954508213 0.078835123228080159 -0.012444181130393953 0.083121966885864845 -0.12792025604753987 -0.13536578479199066 0.25196559329353913 -0.054079654102164344 -0.20156144800346337 0.083210629149512549 -0.22315075340349555 -0.22627746411491625 -0.017449604635296476 -0.11283082549806106 -0.05687899615159317 0.20255562111254594 -0.27649636527967475
leaf_weight=5.0997034423053282 5.2565766889601937 3.9551894571632173 4.9748011641204384 3.909555658698082 8.8889915086328966 6.6428960599005213 4.645729983225463 3.7519161123782387 2.8838318102061749 2.8258946351706982 4.8827761337161046 5.0922596082091331 4.1063870508223754 2.4641383104026318 2.3348417580127716 3.6028170846402645 3.5032099336385727 2.3413605429232121 3.4731106162071228 4.6439952757209539 3.4890198465436697 2.8102320916950703 6.5614816918969154 3.5903118513524532
leaf_count=28 55 38 53 23 59 58 32 26 24 21 37 52 49 30 31 43 29 31 46 59 48 26 32 30
internal_value=0 0.0352956 -0.027162 0.105458 0.0941512 0.0357215 -0.0515957 -0.0362301 0.0833556 -0.0721945 -0.0858906 -0.0246152 -0.088585 -0.00687829 0.103066 -0.118927 -0.0540233 -0.163798 -0.130346 -0.0863968 -0.0260985 -0.164403 0.171975 -0.238964
internal_weight=0 52.8179 25.6248 7.86475 27.1931 15.5319 52.9131 47.6566 11.0186 36.638 17.7601 9.97504 32.8861 8.90537 4.79898 23.9807 9.80222 14.1785 6.29901 6.98536 6.37285 7.78503 11.6612 7.19313
internal_count=960 406 229 61 177 117 554 499 104 395 168 89 369 110 61 259 96 163 67 90 72 79 60 73
is_linear=0
shrinkage=0.2


Tree=11
num_leaves=26
num_cat=0
split_feature=8 14 6 16 19 4 18 16 16 16 27 18 18 22 0 0 13 16 11 10 4 16 0 19 10
split_gain=4.38145 4.72356 5.99393 3.72848 3.52354 3.2385 2.65586 3.89158 2.93199 2.42744 4.34499 2.60796 3.25395 2.66465 1.61087 1.98062 1.34027 1.03847 1.20954 0.579401 0.509238 0.451414 0.303437 0.0421623 0.000472954
threshold=1.5000000000000002 3.5000000000000004 3.5000000000000004 2044.5000000000002 1.0000000180025095e-35 11.500000000000002 4.5000000000000009 4402.0000000000009 7879.5000000000009 10574.000000000002 9.5000000000000018 3.5000000000000004 6.5000000000000009 1.5000000000000002 38.500000000000007 30.500000000000004 6.5000000000000009 5841.5000000000009 2.5000000000000004 66.500000000000014 3.5000000000000004 6273.0000000000009 30.500000000000004 1.0000000180025095e-35 76.500000000000014
decision_type=2 2 2 2 2 2 2 2 2 2 2 2 2 2 2 2 2 2 2 2 2 2 2 2 2
left_child=6 3 17 -2 9 14 7 19 -9 10 11 13 -13 -5 15 -6 22 18 -3 -1 -20 -12 -15 -19 -11
right_child=1 2 -4 4 5 -7 -8 8 -10 24 21 12 -14 16 -16 -17 -18 23 20 -21 -22 -23 -24 -25 -26
leaf_value=0.069590620058659916 0.17702009462899448 -0.03599891716971531 0.13598027060183565 0.02756851936234252 0.03910780574594655 0.15179332038847029 0.17715836167897625 -0.19303091360937119 0.045219373578862604 -0.21439923679682349 0.076631737415718493 0.13034565862764708 -0.11677856603469541 -0.24976379509027624 0.078621099209167211 -0.14030452704041466 -0.062799365238305857 -0.21673806802469231 -0.11088990961309425 0.17217800535718703 -0.21711249544052436 0.19960138259107293 -0.17326882151498318 -0.25171704038883247 -0.21907168238847136
leaf_weight=4.5766532365232759 4.3169546276330939 3.857012560591107 3.2203600071370593 3.5274471845477917 4.6061476096510905 7.4885583147406569 6.4527521282434455 4.0684085395187122 4.1981147397309542 1.8472130410373204 2.5637491736561051 4.5079051349312049 4.0425282008945942 4.3908123560249788 5.4541874546557656 5.2855208404362202 3.2875428944826117 3.0771325659006825 3.0442077238112688 4.2445422746241093 4.4358726069331169 2.235140111297369 3.9315697625279427 2.4968187715858221 1.632244726642966
leaf_count=32 22 34 33 32 27 47 41 42 43 34 37 48 37 41 42 36 36 55 31 30 49 23 56 25 27
internal_value=0 -0.0304277 -0.114101 -0.00193407 -0.0160313 0.0439723 0.0678396 0.026558 -0.0720366 -0.0588937 -0.0396321 -0.074789 0.0135087 -0.124665 -0.00864285 -0.0567595 -0.170918 -0.161724 -0.126973 0.118953 -0.173883 0.133906 -0.213627 -0.232407 -0.216591
internal_weight=0 79.2489 20.1314 59.1175 54.8006 22.8344 23.5405 17.0877 8.26652 31.9662 28.4867 23.6878 8.55043 15.1374 15.3459 9.89167 11.6099 16.911 11.3371 8.8212 7.48008 4.79889 8.32238 5.57395 3.47946
internal_count=960 772 227 545 523 152 188 147 85 371 310 250 85 165 105 63 133 194 114 62 80 60 97 80 61
is_linear=0
shrinkage=0.2


Tree=12
num_leaves=23
num_cat=0
split_feature=1 1 0 8 0 0 7 10 17 10 17 0 7 7 7 7 7 7 0 10 27 13
split_gain=3.70674 5.87379 4.62065 3.12319 2.41985 2.92422 4.52577 2.2084 2.33373 2.53001 3.35417 2.26126 2.13332 2.37436 1.92316 1.7971 1.73515 2.2682 1.6881 1.06723 0.851049 0.184418
threshold=1.0000000180025095e-35 1.5000000000000002 35.500000000000007 1.5000000000000002 51.500000000000007 26.500000000000004 1129.0000000000002 71.500000000000014 18586.000000000004 62.500000000000007 14624.000000000002 37.500000000000007 1086.5000000000002 1337.0000000000002 1330.0000000000002 1274.0000000000002 957.50000000000011 1385.0000000000002 43.500000000000007 47.500000000000007 5.5000000000000009 4.5000000000000009
decision_type=2 2 2 2 2 2 2 2 2 2 2 2 2 2 2 2 2 2 2 2 2 2
left_child=15 2 14 16 5 6 -5 8 9 10 11 -7 21 -14 -2 -1 -3 -18 -4 -10 -15 -9
right_child=1 3 18 4 -6 7 -8 12 19 -11 -12 -13 13 20 -16 -17 17 -19 -20 -21 -22 -23
leaf_value=-0.054839287661849173 0.099701053435204398 -0.04115886930668039 -0.1148683840357065 0.18299120969307001 0.092508655454909924 -0.015198228433354936 -0.097911518241919904 -0.1764637624517072 -0.23251189786011339 0.16399031783560819 0.13330614925597703 -0.23191724626323015 0.073194030180849787 -0.086802654077481001 0.26029628045408482 -0.22702027885166354 0.19929934273909572 0.021040713867132785 0.069835044062461923 -0.069164141804939488 -0.22074381209365998 -0.24368406690500546
leaf_weight=6.2092581745237094 5.9745140280574578 5.4529728572815683 3.7346902284771195 4.584539217874406 4.6055800952017298 4.4588821418583411 4.5924610700458288 2.5479344632476595 2.7338114418089381 3.187827840447425 3.2312343027442694 3.3899761568754911 2.9914250969886771 5.2966034822165948 5.9563229270279408 3.9782027546316385 4.8967772889882308 6.8483777996152639 4.211001830175519 3.8572280369699001 2.9568003788590431 4.5439914129674435
leaf_count=55 46 42 46 29 50 49 32 39 36 33 28 45 28 51 46 44 33 57 37 42 44 48
internal_value=0 0.00520558 0.101182 -0.0219785 -0.046018 -0.0592072 0.0424186 -0.0830011 -0.0384904 0.00697756 -0.0381962 -0.108801 -0.133634 -0.0794588 0.179876 -0.122076 0.0520743 0.0953601 -0.0169806 -0.136917 -0.134787 -0.219534
internal_weight=0 90.053 19.8765 70.1764 52.9783 48.3727 9.177 39.1957 20.859 14.2679 11.0801 7.84886 18.3368 11.2448 11.9308 10.1875 17.1981 11.7452 7.94569 6.59104 8.2534 7.09193
internal_count=960 861 175 686 554 504 61 443 233 155 122 94 210 123 92 99 132 90 83 78 95 87
is_linear=0
shrinkage=0.2


Tree=13
num_leaves=25
num_cat=0
split_feature=19 15 4 10 7 25 29 27 4 27 7 13 4 23 7 27 22 27 7 23 7 27 7 29
split_gain=3.47072 2.64426 3.41756 3.36795 2.21186 2.13334 2.03319 1.75838 1.97133 1.72698 4.67718 3.24347 3.39596 1.94939 3.19932 2.41779 1.75293 1.575 1.54461 1.17492 0.514802 0.00953688 0.00782653 0.0010689
threshold=1.0000000180025095e-35 1.5000000000000002 6.5000000000000009 70.500000000000014 1149.0000000000002 4.5000000000000009 1.5000000000000002 1.5000000000000002 9.5000000000000018 8.5000000000000018 829.50000000000011 2.5000000000000004 2.5000000000000004 1.0000000180025095e-35 1446.5000000000002 4.5000000000000009 2.5000000000000004 2.5000000000000004 1195.5000000000002 1.0000000180025095e-35 1598.0000000000002 3.5000000000000004 1195.5000000000002 1.0000000180025095e-35
decision_type=2 2 2 2 2 2 2 2 2 2 2 2 2 2 2 2 2 2 2 2 2 2 2 2
left_child=5 3 -3 4 -2 7 -5 8 -1 13 -11 -12 -13 15 21 18 -17 -7 -9 -14 -16 -15 -19 -23
right_child=1 2 -4 6 -6 17 -8 9 -10 10 11 12 19 14 20 16 -18 22 -20 -21 -22 23 -24 -25
leaf_value=-0.027709221279504915 0.12880739665735416 0.014150352527597415 0.21021385375017534 -0.1631126683462378 -0.02372927939972979 -0.023714364432357811 0.024182670856778821 0.1175494480595598 0.14069891486088223 -0.2219745448783994 0.24440196146106719 0.15767110109345614 0.0023212233381798343 -0.2307908796346653 0.066252043154721593 -0.016575516682938336 -0.22774180322322049 -0.23231047886533346 -0.046363162883964554 -0.21638427893528678 -0.0627407565523799 -0.21183789726611316 -0.21438758531981464 -0.21841151231959724
leaf_weight=6.4150548875331861 8.2169344946742076 7.4821490906178933 6.7773564010858536 6.0897234510630351 7.0778740476816884 2.655389003455638 3.7435753010213375 4.8746821302920598 4.907021913677454 2.6238180864602318 3.1980665195733291 3.1371031124144793 1.7504831831902268 2.8199390638619644 1.9543074071407316 3.1931284833699456 3.0980816464871168 1.5859991628676651 4.35320845246315 2.239639526233077 3.3744426956400275 1.7052637580782173 2.5279605193063617 2.3570774383842945
leaf_count=46 57 45 37 54 53 21 29 36 30 48 37 34 26 33 24 29 42 22 37 42 52 37 50 39
internal_value=0 0.0385461 0.107337 -0.000490777 0.058219 -0.0381801 -0.0918086 -0.0244319 0.0452794 -0.0438343 0.0164694 0.0770617 0.00197426 -0.0719942 -0.131775 -0.0249565 -0.120564 -0.143792 0.0402245 -0.120437 -0.0154329 -0.221855 -0.221297 -0.215652
internal_weight=0 39.3876 14.2595 25.1281 15.2948 58.7707 9.8333 52.0013 11.3221 40.6792 12.9491 10.3253 7.12723 27.7301 12.211 15.5191 6.29121 6.76935 9.22789 3.99012 5.32875 6.88228 4.11396 4.06234
internal_count=960 275 82 193 110 685 83 592 76 516 187 139 102 329 185 144 71 93 73 68 76 109 72 76
is_linear=0
shrinkage=0.2


Tree=14
num_leaves=24
num_cat=0
split_feature=14 1 0 21 0 16 1 30 16 27 28 23 8 16 10 16 16 10 23 27 16 30 10
split_gain=3.65351 3.52544 3.75021 3.60696 2.976 4.8553 2.71051 3.90851 2.68511 2.49579 2.45314 3.20415 2.37303 1.52595 1.72476 1.75146 2.50721 1.51158 3.22817 0.840234 0.781331 0.77634 0.6227
threshold=1.5000000000000002 1.0000000180025095e-35 33.500000000000007 3.5000000000000004 43.500000000000007 10189.000000000002 1.5000000000000002 1.5000000000000002 4890.5000000000009 16.500000000000004 2.5000000000000004 1.0000000180025095e-35 2.5000000000000004 2742.0000000000005 85.500000000000014 5463.5000000000009 4579.0000000000009 56.500000000000007 1.0000000180025095e-35 4.5000000000000009 4872.5000000000009 5.5000000000000009 59.500000000000007
decision_type=2 2 2 2 2 2 2 2 2 2 2 2 2 2 2 2 2 2 2 2 2 2 2
left_child=10 22 3 6 13 8 -3 -8 -6 -7 12 -12 -1 -4 15 16 -15 -9 -19 -17 -13 -21 -2
right_child=1 2 4 -5 5 9 7 17 -10 -11 11 20 -14 14 -16 19 -18 18 -20 21 -22 -23 -24
leaf_value=0.21076258471314971 -0.24468659309682247 0.1695185432537846 -0.22593487461811784 -0.15212547321227277 0.012688422724145113 -0.22495832506408475 0.15480364186691423 0.040062551796645612 0.24118612686427157 0.037245747171981973 0.082052758480679777 -0.23050009234964924 0.038554268365835399 -0.10274710142700674 -0.22184452710686103 -0.23345271701919745 0.14054112500487678 0.024216078153235832 -0.23615952264264803 0.011402173265959131 -0.061677065056278985 -0.15599450412491822 -0.11999851077377546
leaf_weight=6.0829659625887889 2.5076749967411152 6.9045102316886249 3.7158174552023437 3.5814795959740868 5.0173178538680059 3.8651521764695635 6.2488817721605328 5.8597603775560838 3.486656941473484 2.3258709404617548 6.2948373332619649 2.0525076128542423 6.7553261294960976 3.4122170060873049 2.9626168217509976 2.0430845227092505 3.365584360435605 4.1657545883208513 3.5090431459248066 2.0619275961071253 2.3544101342558861 2.3958912687376142 4.4364494401961565
leaf_count=37 35 50 34 37 45 58 38 56 36 24 48 24 48 46 50 25 33 30 51 29 36 44 46
internal_value=0 -0.0295816 -0.0150942 0.036337 -0.0600205 0.00828348 0.0616283 0.0239741 0.106373 -0.126452 0.0612021 -0.00951316 0.120149 -0.110315 -0.0838621 -0.0530768 0.0180601 -0.0364296 -0.0948319 -0.127244 -0.140306 -0.0785665 -0.165026
internal_weight=0 71.8657 64.9216 30.2694 34.6521 14.695 26.688 19.7834 8.50397 6.19102 23.54 10.7018 12.8383 19.9571 16.2413 13.2787 6.7778 13.5346 7.6748 6.5009 4.40692 4.45782 6.94412
internal_count=960 767 686 262 424 163 225 175 81 82 193 108 85 261 227 177 79 137 81 98 60 73 81
is_linear=0
shrinkage=0.2


Tree=15
num_leaves=27
num_cat=0
split_feature=14 17 18 17 13 22 18 4 18 17 13 12 17 20 14 28 20 3 14 27 27 29 22 4 27 8
split_gain=2.44429 2.64923 2.66438 2.27997 2.54022 3.10275 2.71813 3.74404 3.08269 2.09349 1.99522 1.78627 2.59896 1.59573 1.54602 2.68731 1.39413 1.27392 1.10454 1.23639 1.88378 0.791653 0.777799 0.566617 0.0256877 0.0101472
threshold=1.5000000000000002 17063.500000000004 3.5000000000000004 7628.5000000000009 7.5000000000000009 1.5000000000000002 4.5000000000000009 12.500000000000002 7.5000000000000009 21176.500000000004 2.5000000000000004 1.5000000000000002 4628.5000000000009 16.500000000000004 3.5000000000000004 2.5000000000000004 14.500000000000002 1.5000000000000002 2.5000000000000004 5.5000000000000009 2.5000000000000004 1.5000000000000002 2.5000000000000004 3.5000000000000004 2.5000000000000004 2.5000000000000004
decision_type=2 2 2 2 2 2 2 2 2 2 2 2 2 2 2 2 2 2 2 2 2 2 2 2 2 2
left_child=1 2 16 11 5 14 7 13 21 -3 -9 12 -2 18 15 -5 -1 -12 -7 20 -20 -8 -13 -21 -15 -24
right_child=3 9 -4 4 -6 6 8 10 -10 -11 17 22 -14 24 -16 -17 -18 -19 19 23 -22 -23 25 -25 -26 -27
leaf_value=-0.022257737615665366 0.10902603641215439 -0.14669001936386752 0.22212217818738564 0.24004798151321688 0.13451346862882238 -0.18797922169237524 0.037744315370592613 0.14400617443053612 -0.13178890283985484 0.05070128464383581 -0.14308774495078613 -0.097321108412065163 -0.12662944745294538 -0.24779366227437954 -0.045458829837334132 0.0088669534106977383 0.1300906582011413 0.044413360313104958 -0.0059897619174614745 0.087779915765327537 -0.23711558936336841 0.16853376252909724 -0.24054808360059707 -0.053738531165602822 -0.21808754117837956 -0.21981688695499546
leaf_weight=5.7900300882756728 3.1970529463142139 3.9372647926211339 4.8331594560295335 3.8337727021425945 4.6372320540249339 3.8534251516684952 3.4144135396927577 3.4829469937831146 2.9871970526874065 4.7324289195239544 2.8431184198707342 3.3161903712898493 4.5166884521022439 1.9859794564545143 3.2039641728624693 4.2309317663311958 4.1067645065486431 2.9567898698151112 2.746639706194399 2.2187280226498842 2.8997631017118692 4.0433651469647884 1.864525044336915 2.3098225556313992 2.8145249392837286 1.9137404980137944
leaf_count=46 29 40 32 25 34 44 35 29 35 42 35 44 45 21 40 43 33 29 21 27 44 33 25 37 57 35
internal_value=0 0.0487748 0.100403 -0.02599 -0.00707 -0.0202471 -0.0472285 -0.0795972 0.0398889 -0.0389422 0.0243537 -0.0955754 -0.0289592 -0.130846 0.0720721 0.118765 0.0409606 -0.0474998 -0.0967868 -0.0622507 -0.124687 0.108654 -0.168007 0.0155973 -0.230377 -0.230047
internal_weight=0 23.3996 14.73 69.2708 54.4626 49.8254 38.5567 28.1117 10.445 8.66969 9.28286 14.8082 7.71374 18.8289 11.2687 8.0647 9.89679 5.79991 14.0284 10.175 5.6464 7.45778 7.09446 4.52855 4.8005 3.77827
internal_count=960 193 111 767 589 555 447 344 103 82 93 178 74 251 108 68 79 64 173 129 65 68 104 64 78 60
is_linear=0
shrinkage=0.2


Tree=16
num_leaves=24
num_cat=0
split_feature=11 16 22 16 16 7 7 19 30 10 13 14 10 10 7 0 22 16 16 16 13 28 30
split_gain=2.94687 2.80681 2.64854 3.43218 2.83972 2.7299 1.98505 1.79904 2.22601 2.03242 1.63496 2.95806 1.53419 2.3655 1.91382 1.51507 1.34139 1.55896 1.17034 1.16905 0.897644 0.00585255 0.00368943
threshold=1.5000000000000002 13896.000000000002 1.5000000000000002 9702.0000000000018 4714.0000000000009 1086.5000000000002 654.50000000000011 1.0000000180025095e-35 1.5000000000000002 67.500000000000014 5.5000000000000009 1.5000000000000002 88.500000000000014 67.500000000000014 1110.5000000000002 43.500000000000007 3.5000000000000004 6146.5000000000009 19041.500000000004 2630.5000000000005 6.5000000000000009 3.5000000000000004 2.5000000000000004
decision_type=2 2 2 2 2 2 2 2 2 2 2 2 2 2 2 2 2 2 2 2 2 2 2
left_child=-1 2 7 4 6 -5 -4 8 -2 -10 11 -8 13 14 -12 16 17 20 22 -13 -6 -18 -3
right_child=1 18 3 5 15 -7 10 -9 9 -11 12 19 -14 -15 -16 -17 21 -19 -20 -21 -22 -23 -24
leaf_value=0.1348059503582773 0.14872779458132043 -0.22752565759915486 0.089573701664903083 -0.040176755079374342 -0.10808298596280939 0.20798035441436316 0.15529406592100631 0.1528446623567451 -0.12550668986066973 0.06927127057988415 0.060574374833946926 0.029042772771007603 0.048043380579195098 -0.22116516635758124 -0.12383432728209075 -0.0017967978613194638 -0.23538604533710725 -0.19475070730232624 -0.022086964140023806 -0.12324513554105876 0.052893255817689923 -0.22112548934716558 -0.21472922664578836
leaf_weight=5.5202306415885678 3.6398906260728863 1.8380604041740292 6.4232610417529932 3.0792520670220247 2.8005028488114494 4.1805453859269619 4.3386309705674675 5.7732073031365863 4.7526596579700691 3.9023291692137718 3.9474624022841471 3.9110262729227525 3.3502522464841595 4.5318795796483746 5.238466702401638 4.12458587065339 2.1159580359235397 3.799895528703928 1.754274155013263 4.1621247385628521 2.7425369312986732 2.5246362835168839 1.768258756957948
leaf_count=56 25 24 55 38 39 45 30 42 57 38 31 32 28 45 52 43 27 59 28 57 26 42 41
internal_value=0 -0.0160081 -0.00654448 -0.026388 -0.0437423 0.102724 -0.0111739 0.0607472 0.0175017 -0.0376859 -0.0331255 0.0221071 -0.0732903 -0.102923 -0.0445885 -0.108316 -0.139735 -0.0960787 -0.156074 -0.0494695 -0.0284366 -0.227628 -0.221251
internal_weight=0 84.6997 79.3391 61.271 54.0112 7.2598 35.9031 18.0681 12.2949 8.65499 29.4798 12.4118 17.0681 13.7178 9.18593 18.1081 13.9835 9.34294 5.36059 8.07315 5.54304 4.64059 3.60632
internal_count=960 904 811 649 566 83 330 162 120 95 275 119 156 128 83 236 193 124 93 89 65 69 65
is_linear=0
shrinkage=0.2


Tree=17
num_leaves=25
num_cat=0
split_feature=14 28 13 17 23 17 13 17 28 2 28 26 29 2 2 2 17 2 14 17 14 22 12 0
split_gain=1.6843 5.2138 2.49797 1.97644 1.93592 2.55054 1.95087 1.63739 2.02615 1.47847 1.37269 1.56091 1.346 1.27301 2.03499 2.16501 1.45341 1.1646 1.30258 0.968525 0.907588 0.86862 0.616824 0.00832174
threshold=3.5000000000000004 6.5000000000000009 1.0000000180025095e-35 13530.500000000002 1.0000000180025095e-35 23529.500000000004 2.5000000000000004 8042.5000000000009 1.5000000000000002 621.50000000000011 2.5000000000000004 2.5000000000000004 3.5000000000000004 305.00000000000006 740.50000000000011 561.50000000000011 7628.5000000000009 430.50000000000006 2.5000000000000004 14465.000000000002 1.5000000000000002 2.5000000000000004 1.5000000000000002 34.500000000000007
decision_type=2 2 2 2 2 2 2 2 2 2 2 2 2 2 2 2 2 2 2 2 2 2 2 2
left_child=2 10 19 -3 7 6 9 20 -9 -6 11 -2 17 -8 15 -15 -16 -10 -19 -1 -4 -18 -13 -12
right_child=1 3 4 -5 5 -7 13 8 12 -11 23 22 -14 14 16 -17 21 18 -20 -21 -22 -23 -24 -25
leaf_value=-0.04046509361133125 0.019584544534839234 -0.031425470899883505 0.044208143332065408 0.18318161024799795 -0.031012398071720224 -0.17810452528337131 -0.18480494761918184 0.17330177369088828 0.10390563441554941 0.14351030475805557 -0.24379876288990207 -0.098622783066165981 0.14799393991188139 -0.032539659331100389 -0.22650695670129428 0.19467839001453399 0.04839595829593496 -0.09214682864179613 0.051842011091308177 -0.22568217420031528 -0.088300323244391951 -0.1011769924295811 -0.22094531989401878 -0.22429517714335781
leaf_weight=2.2227045232430092 3.4884569048881549 3.1351777780801049 3.9949648529291135 3.7935582268983126 2.9967848276719504 3.5054299859330049 2.0049278642982271 6.5962969055399325 4.1948208063840893 5.5146060287952423 1.8080960372462862 4.4555182615295053 3.8993079308420411 3.8807318694889537 2.0770437419414503 2.9543748283758759 2.8376159407198429 5.1251813378185016 4.9308734177611768 2.2956681605428457 4.2855388261377811 3.4306690422818065 2.6177685288712382 1.6958037661388514
leaf_count=30 37 51 25 47 37 45 25 46 28 47 25 43 34 45 33 32 34 47 43 34 39 51 47 35
internal_value=0 -0.0559324 0.00901689 0.0860742 0.0194425 -0.0180724 0.00375843 0.0526128 0.0783726 0.0820624 -0.125885 -0.089898 0.0438727 -0.0350232 -0.015241 0.065672 -0.0815115 0.0153831 -0.0215435 -0.134569 -0.024371 -0.0334662 -0.143893 -0.234359
internal_weight=0 20.9944 66.7475 6.92874 62.2292 29.2022 25.6968 33.027 24.7465 8.51139 14.0656 10.5617 18.1502 17.1854 15.1804 6.83511 8.34533 14.2509 10.0561 4.51837 8.2805 6.26828 7.07329 3.5039
internal_count=960 285 675 98 611 349 304 262 198 84 187 127 152 220 195 77 118 118 90 64 64 85 90 60
is_linear=0
shrinkage=0.2


Tree=18
num_leaves=26
num_cat=0
split_feature=19 18 13 17 3 22 22 30 17 17 17 30 18 22 24 5 5 17 17 17 24 28 17 4 23
split_gain=2.30184 1.47993 1.64312 3.175 2.70862 3.30313 2.67677 1.82815 1.82217 3.20017 2.93721 1.44544 1.85802 1.99538 1.46757 1.19208 1.14124 1.0789 0.996195 0.77152 0.596124 0.260658 0.149519 0.046817 0.0272732
threshold=1.0000000180025095e-35 1.0000000180025095e-35 2.5000000000000004 14781.500000000002 1.5000000000000002 1.5000000000000002 2.5000000000000004 1.5000000000000002 14007.500000000002 16375.000000000002 21446.000000000004 1.0000000180025095e-35 4.5000000000000009 1.5000000000000002 10.500000000000002 3.5000000000000004 3.5000000000000004 9127.0000000000018 14332.000000000002 14465.000000000002 9.5000000000000018 3.5000000000000004 19560.000000000004 7.5000000000000009 1.0000000180025095e-35
decision_type=2 2 2 2 2 2 2 2 2 2 2 2 2 2 2 2 2 2 2 2 2 2 2 2 2
left_child=1 19 3 6 5 -4 -3 -5 20 -10 -11 -2 13 -13 16 22 18 -8 -15 -1 -6 -9 24 -17 -7
right_child=11 2 4 7 8 15 17 21 9 10 -12 12 -14 14 -16 23 -18 -19 -20 -21 -22 -23 -24 -25 -26
leaf_value=-0.22129596221665288 0.11398031667882674 -0.043835682696007544 0.046451889751667197 0.037394482334065324 -0.010458116567612447 -0.24721211206735449 0.094751277363873704 -0.11941678589377697 0.28050424697350812 -0.17272179470641424 0.10006232729345746 0.083815565215010088 0.1072300617865807 0.0039385253776862235 -0.1617498084503104 -0.095700352548722514 0.066265576199693005 0.25974736828187106 -0.14183270845460696 -0.068277270932133052 -0.13283268526561867 -0.22733358535859122 -0.16716036577938709 -0.047269477767739335 -0.21822267973564946
leaf_weight=2.2607401171699157 7.0940925516188136 3.2825750857591647 3.7798083294183025 3.0150931235402814 3.1020137295126924 3.0601154398173076 3.1176297017373145 1.7713087713345887 2.1320011252537352 2.4992542248219252 4.28759756218642 5.8515505045652452 6.405693916603922 3.9889818541705591 3.7735897796228519 1.5657159686088564 4.127788795158267 3.2251256173476577 3.5389495342969894 3.1606779964640737 3.2715351842343807 1.8101815320551393 1.7259028572589157 1.6291315788403151 2.2545039486140013
leaf_count=46 52 35 37 23 35 35 42 33 17 38 46 43 41 29 51 35 27 28 32 44 48 30 35 25 53
internal_value=0 -0.0333073 -0.0215452 0.0295238 -0.0498122 -0.113324 0.102773 -0.0773569 0.00839493 0.066756 -0.000390267 0.0334337 0.0127953 -0.0156302 -0.0533449 -0.172327 -0.0182484 0.178647 -0.0645899 -0.132086 -0.0732728 -0.173961 -0.218305 -0.0710043 -0.234915
internal_weight=0 50.9509 45.5295 16.2219 29.3076 14.0152 9.62533 6.59658 15.2924 8.91885 6.78685 34.7806 27.6866 21.2809 15.4293 10.2354 11.6557 6.34276 7.52793 5.42142 6.37355 3.58149 7.04052 3.19485 5.31462
internal_count=960 685 595 191 404 220 105 86 184 101 84 275 223 182 139 183 88 70 61 90 83 63 123 60 88
is_linear=0
shrinkage=0.2


Tree=19
num_leaves=27
num_cat=0
split_feature=19 0 2 12 0 4 2 26 2 2 10 10 29 0 24 18 12 24 15 24 28 24 2 4 0 10
split_gain=1.57273 2.14872 2.70646 2.23491 1.99358 3.23859 1.57409 2.18602 1.8206 1.97247 1.43068 2.14617 1.61446 1.35914 1.34009 1.04648 1.00031 1.78171 0.922729 0.813565 0.522899 0.269588 0.00620045 0.00290367 0.000909262 5.21754e-05
threshold=1.0000000180025095e-35 26.500000000000004 1168.5000000000002 1.5000000000000002 48.500000000000007 11.500000000000002 1329.5000000000002 1.5000000000000002 312.00000000000006 201.50000000000003 81.500000000000014 63.500000000000007 3.5000000000000004 38.500000000000007 2.5000000000000004 5.5000000000000009 1.5000000000000002 10.500000000000002 1.5000000000000002 10.500000000000002 2.5000000000000004 5.5000000000000009 482.50000000000006 13.500000000000002 29.500000000000004 50.500000000000007
decision_type=2 2 2 2 2 2 2 2 2 2 2 2 2 2 2 2 2 2 2 2 2 2 2 2 2 2
left_child=6 -2 3 -3 5 20 7 -1 9 -9 11 12 14 21 -10 22 -13 -18 -8 -15 -5 -12 -16 24 -24 -26
right_child=1 2 -4 4 -6 -7 18 8 10 -11 13 16 -14 19 15 -17 17 -19 -20 -21 -22 -23 23 -25 25 -27
leaf_value=0.10851755658832951 0.1417339607403007 0.11422883282827112 -0.10286597804952032 -0.10219637230490071 0.12525828314891543 0.068646444123450737 -0.0018309405285206104 -0.093904831810421446 -0.0048085076873106711 0.10236509520086112 -0.25438394874796555 -0.052773107418214463 0.04334609415266355 0.042848036130688549 -0.23099469677681095 -0.061239406997215175 0.19551396528209447 -0.052279154121387665 0.15219767111652288 -0.14116545982626216 -0.22854085202424496 -0.16212022200404733 -0.21623679642644744 -0.22293060098873241 -0.20849273284532274 -0.21049235903392616
leaf_weight=3.4965872745960942 5.4670266509056082 9.2743710614740902 7.038205253891646 2.6061320789158327 3.0613371338695279 4.2879578117281199 3.6582807525992385 3.3847075961530191 2.4455406703054967 5.1867869738489389 2.8765693660825473 3.4486365737393481 2.5076191630214444 1.7739211805164816 1.234313297085462 2.3770201234146953 2.6961606033146381 2.0381043897941709 2.7068200297653675 2.0973652489483356 2.6351668611168861 2.2636163621209562 1.224406745284796 1.3374210577458141 1.1679489342495801 0.94366812938824285
leaf_count=31 36 54 59 28 28 32 49 51 15 52 29 44 39 20 18 32 33 38 21 44 38 55 23 25 39 27
internal_value=0 0.0267529 0.00500426 0.0397271 -0.0151518 -0.0602594 -0.0290838 -0.0429753 -0.0565563 0.0248621 -0.0794884 -0.051362 -0.101134 -0.146347 -0.134899 -0.173299 0.0291573 0.0888389 0.0636712 -0.0568458 -0.165719 -0.213753 -0.218387 -0.215057 -0.211901 -0.209386
internal_weight=0 34.3702 28.9032 21.865 12.5906 9.52926 48.8655 42.5004 39.0038 8.57149 30.4323 21.4208 13.2379 9.01147 10.7303 8.28478 8.1829 4.73426 6.3651 3.87129 5.2413 5.14019 5.90776 4.67344 3.33602 2.11162
internal_count=960 275 239 180 126 98 685 615 584 103 481 333 218 148 179 164 115 71 70 64 66 84 132 114 89 66
is_linear=0
shrinkage=0.2


Tree=20
num_leaves=25
num_cat=0
split_feature=7 15 22 14 28 27 14 7 18 7 0 27 14 18 5 10 28 29 8 6 6 14 10 14
split_gain=1.79206 2.00888 1.72 1.95385 1.48729 1.69264 2.46358 2.36018 1.66311 1.61593 1.43212 1.58431 1.42947 1.31359 1.31197 1.20085 1.19338 1.17733 1.14057 1.086 0.831979 0.402566 0.194582 0.00296401
threshold=1969.5000000000002 1.5000000000000002 2.5000000000000004 2.5000000000000004 7.5000000000000009 6.5000000000000009 3.5000000000000004 1086.5000000000002 4.5000000000000009 1228.5000000000002 33.500000000000007 2.5000000000000004 1.5000000000000002 2.5000000000000004 3.5000000000000004 81.500000000000014 3.5000000000000004 1.0000000180025095e-35 3.5000000000000004 2.5000000000000004 2.5000000000000004 3.5000000000000004 63.500000000000007 2.5000000000000004
decision_type=2 2 2 2 2 2 2 2 2 2 2 2 2 2 2 2 2 2 2 2 2 2 2 2
left_child=1 4 3 -3 5 6 9 14 22 15 11 -4 -6 -9 -7 19 -12 20 -5 -1 -11 23 -8 -14
right_child=-2 2 10 18 12 7 8 13 -10 17 16 -13 21 -15 -16 -17 -18 -19 -20 -21 -22 -23 -24 -25
leaf_value=0.0031535538824314434 -0.13603475560401013 0.17569305603509378 0.11758707229706744 -0.063522825811064693 0.028259089470077534 -0.14312842175693394 -0.15706817747674373 0.060948564370980202 0.017042696343473787 -0.046817644836226607 -0.13592703932740405 -0.05127793207101377 -0.2254042302283808 0.25038180978542929 0.063452030264894363 -0.065212453188421823 0.021788648859275402 0.00089906165600443051 0.10553749404707247 0.13822828509795082 -0.21144947088455657 -0.088191908779310518 -0.23970232449156317 -0.21285698655543206
leaf_weight=4.3082966767251545 4.016009450890123 6.3567428141832369 5.7777961418032664 3.2670861519873142 1.928794715553521 2.6154867717996222 1.9122768766246725 3.4801728324964643 1.8561387597583232 2.3133997656404954 4.1851502414792767 3.6115465313196182 1.5252095395699143 2.5277265319600701 2.3209497481584549 3.1060060327872625 3.5442168433219194 5.4138388223946095 3.1212123855948448 5.3220637068152428 2.6166473384946585 1.3622358264401553 2.8218313418328762 1.487597243860364
leaf_count=47 54 47 35 38 20 43 32 56 29 29 50 43 29 28 27 36 42 56 25 44 33 30 46 41
internal_value=0 0.00101533 0.041564 0.0971912 -0.0247939 -0.0107653 -0.0355625 0.0564609 -0.143412 -0.00476742 0.000148966 0.0526343 -0.115178 0.14065 -0.0460011 0.042924 -0.0636082 -0.0634896 0.0190771 0.0778004 -0.134197 -0.178415 -0.206323 -0.219209
internal_weight=0 76.7824 29.8638 12.745 46.9187 40.6148 29.6705 10.9443 6.59025 23.0803 17.1187 9.38934 6.30384 6.0079 4.93644 12.7364 7.72937 10.3439 6.3883 9.63036 4.93005 4.37504 4.73411 3.01281
internal_count=960 906 280 110 626 506 352 154 107 245 170 78 120 84 70 127 92 118 63 91 62 100 78 70
is_linear=0
shrinkage=0.2


Tree=21
num_leaves=27
num_cat=0
split_feature=25 1 16 6 0 29 14 17 17 0 18 20 16 10 16 17 0 0 16 17 17 27 14 10 16 16
split_gain=2.48091 1.81095 1.85313 1.55329 1.64977 1.35127 1.95086 3.81786 3.3967 1.89475 1.5901 1.39373 1.82921 1.36484 1.34298 1.20248 1.25869 1.09018 0.819722 0.818373 0.709399 0.527699 0.44979 0.0407202 0.0224962 0.0017653
threshold=4.5000000000000009 1.0000000180025095e-35 2077.0000000000005 4.5000000000000009 29.500000000000004 5.5000000000000009 2.5000000000000004 7790.5000000000009 15320.000000000002 37.500000000000007 3.5000000000000004 11.500000000000002 5463.5000000000009 76.500000000000014 2586.0000000000005 6265.0000000000009 26.500000000000004 47.500000000000007 2781.5000000000005 17246.000000000004 12303.000000000002 3.5000000000000004 3.5000000000000004 64.500000000000014 3294.5000000000005 5157.0000000000009
decision_type=2 2 2 2 2 2 2 2 2 2 2 2 2 2 2 2 2 2 2 2 2 2 2 2 2 2
left_child=1 20 -3 5 -5 6 8 24 10 -7 18 -9 14 21 -13 -2 -17 -11 -4 -16 -1 -10 -14 -18 -8 -26
right_child=15 2 3 4 -6 9 7 11 13 17 -12 12 22 -15 19 16 23 -19 -20 -21 -22 -23 -24 -25 25 -27
leaf_value=-0.1726102928671609 0.023887079524979093 0.16760009065102169 0.12239443764350995 0.21875269027146396 0.0083514248489447839 0.16995245273851403 -0.24785294099436148 0.096324653021949064 -0.06915082831149677 -0.11258468251828323 0.18492319461092988 -0.11837771087228784 -0.089841839555628356 0.031980800468203924 -0.021843096835725353 -0.03300664924215959 -0.24822753593236557 0.0757637802515021 -0.013709850717887202 0.09718518811553091 -0.039360639704911521 -0.19112034519043514 -0.2192267179962101 -0.20650259192799914 -0.22203158281785337 -0.21209242821078653
leaf_weight=2.682672173716127 1.9255838319659222 3.0909554394893339 2.8760995734483021 2.7707166448235503 3.226708753965795 4.0849886555224639 1.3687760569155241 3.5198665196076062 3.1893835067749006 2.354911845177412 4.9318598872050643 3.0376921733841327 2.1495413728989652 3.7278942242264748 4.8495966633781773 2.0614572344347835 1.894402757752687 2.5715592289343476 4.6026469999924302 4.4130841577425599 3.9532027551904321 2.5559473847970366 2.1494121886789799 1.848459333181381 1.3326539453119042 1.541719610802829
leaf_count=36 24 24 20 17 48 39 18 34 29 41 38 30 40 43 54 17 37 24 52 47 51 40 53 36 26 42
internal_value=0 0.00624745 0.0165063 0.00888202 0.105554 -0.00161029 -0.0154162 -0.0543482 0.0279252 0.0692405 0.0967666 -0.0179886 -0.0422286 -0.0622619 -0.00297868 -0.113067 -0.158502 -0.014269 0.0386317 0.0348664 -0.0932292 -0.123412 -0.154532 -0.227621 -0.22675 -0.216701
internal_weight=0 70.9819 64.346 61.2551 5.99743 55.2576 46.2462 24.3623 21.8838 9.01146 12.4106 20.1192 16.5993 9.47323 12.3004 7.7299 5.80432 4.92647 7.47875 9.26268 6.63587 5.74533 4.29895 3.74286 4.24315 2.87437
internal_count=960 846 759 735 65 670 566 344 222 104 110 258 224 112 131 114 90 65 72 101 87 69 93 73 86 68
is_linear=0
shrinkage=0.2


Tree=22
num_leaves=28
num_cat=0
split_feature=25 8 30 19 4 3 26 16 23 19 0 0 16 4 0 29 25 29 16 16 16 16 16 23 16 16 4
split_gain=1.74963 2.16443 1.81645 1.47139 1.35479 1.25258 1.23604 1.73222 1.77438 1.55524 2.66059 2.01688 1.44995 1.28664 1.19815 0.891712 0.796342 1.10959 1.39827 0.949504 2.48014 0.91678 0.840021 0.832934 0.693012 0.182134 0.00114768
threshold=4.5000000000000009 1.5000000000000002 1.0000000180025095e-35 1.0000000180025095e-35 9.5000000000000018 1.5000000000000002 2.5000000000000004 5365.5000000000009 1.0000000180025095e-35 1.0000000180025095e-35 29.500000000000004 46.500000000000007 3691.5000000000005 11.500000000000002 38.500000000000007 1.0000000180025095e-35 1.5000000000000002 6.5000000000000009 7129.5000000000009 4950.5000000000009 3852.5000000000005 9714.5000000000018 2764.0000000000005 1.0000000180025095e-35 2439.5000000000005 2847.5000000000005 7.5000000000000009
decision_type=2 2 2 2 2 2 2 2 2 2 2 2 2 2 2 2 2 2 2 2 2 2 2 2 2 2 2
left_child=1 2 -1 5 15 14 7 12 -9 16 -11 13 24 25 -4 -2 -8 18 19 20 22 -20 23 -18 -3 -12 -21
right_child=4 6 3 -5 -6 -7 9 8 -10 10 11 -13 -14 -15 -16 -17 17 -19 21 26 -22 -23 -24 -25 -26 -27 -28
leaf_value=0.18657132808506979 -0.075265767850104859 0.077862457121824713 -0.1960167706162716 0.12066630822529523 0.014471962872698987 0.0792131697528871 0.046935382365924525 0.038947234276945485 -0.21496463303216184 0.13835238201217767 -0.19330673451235952 0.098135665877097059 0.1644833653737281 0.010969034078341261 0.0048790426986192129 -0.25267786318056917 -0.008875723567086399 -0.22441475062912652 0.15847822334747586 -0.21016817532540313 0.10434871322706706 -0.048159550653953387 -0.22536225652768463 -0.16234543360819145 -0.045630068855529345 -0.11883183648149015 -0.21910898645135909
leaf_weight=3.9360347185283926 2.2264745538122943 3.73523405659944 2.1613191226497275 4.56975266803056 2.6484080790542066 2.9946108534932137 2.0170263797044781 2.4588712248951188 1.9933236297219989 4.6586941499263075 2.1774866804480535 3.1092159347608677 4.2788711553439498 3.2136590518057346 2.6355030005797744 2.3079092991538346 2.8790783267468267 2.0426159044727674 1.557519948575645 1.0935380780138069 2.42402309924364 1.9144914052449165 2.4056083029136062 2.7809165036305785 3.5407213503494859 3.3103968491777778 1.2094314517453311
leaf_count=27 30 26 35 38 39 29 27 25 57 36 15 30 45 27 37 45 23 34 17 33 37 55 44 40 34 48 27
internal_value=0 0.00453002 0.0682437 0.030566 -0.0991825 -0.0222788 -0.0151355 0.0312579 -0.0747334 -0.0353189 0.0103594 -0.0401268 0.0720975 -0.0895304 -0.0856392 -0.165565 -0.0723337 -0.0854744 -0.0680253 -0.0985755 -0.0730448 0.0445367 -0.126358 -0.0842798 0.0177669 -0.148382 -0.214864
internal_weight=0 69.0979 16.2972 12.3612 7.18279 7.79143 52.8007 16.007 4.45219 36.7937 16.4695 11.8108 11.5548 8.70154 4.79682 4.53438 20.3242 18.3072 16.2646 12.7926 10.4896 3.47201 8.0656 5.65999 7.27596 5.48788 2.30297
internal_count=960 846 166 139 114 101 680 187 82 493 156 120 105 90 72 75 337 310 276 204 144 72 107 63 60 63 60
is_linear=0
shrinkage=0.2


Tree=23
num_leaves=27
num_cat=0
split_feature=30 15 26 7 19 2 2 20 25 20 2 30 10 10 6 15 4 18 30 2 2 3 25 2 2 10
split_gain=1.31152 1.15624 1.03964 1.19384 1.25145 1.31142 1.71743 1.6433 1.3728 1.34131 1.72059 1.41434 1.08075 1.93014 1.43159 1.06425 1.44019 1.43701 1.19806 1.08144 1.05115 0.861054 0.604304 0.511968 0.383361 0.00609751
threshold=9.5000000000000018 1.5000000000000002 1.5000000000000002 1969.5000000000002 1.0000000180025095e-35 312.00000000000006 1329.5000000000002 18.500000000000004 2.5000000000000004 15.500000000000002 1082.5000000000002 1.5000000000000002 63.500000000000007 73.500000000000014 2.5000000000000004 1.5000000000000002 4.5000000000000009 4.5000000000000009 1.0000000180025095e-35 921.50000000000011 229.00000000000003 1.5000000000000002 2.5000000000000004 703.50000000000011 992.50000000000011 68.500000000000014
decision_type=2 2 2 2 2 2 2 2 2 2 2 2 2 2 2 2 2 2 2 2 2 2 2 2 2 2
left_child=2 -2 -1 4 5 20 7 9 -8 10 12 -11 21 -14 -15 17 -17 18 -6 22 -4 -7 -20 -13 -9 -12
right_child=1 -3 3 -5 15 6 8 24 -10 11 25 23 13 14 -16 16 -18 -19 19 -21 -22 -23 -24 -25 -26 -27
leaf_value=0.086066465964778127 -0.22337119059927824 0.0016697827739493546 -0.025869896679411565 -0.13476985111808532 0.077282480849847845 -0.18894489873663547 0.16349675202086675 -0.2316279895393244 -0.042120617019990543 0.16670455110551596 -0.21652516266129751 0.044731964688514196 0.14811826823063215 -0.17929280127505753 0.031895728047647995 0.0021134404944791294 0.1565557694037174 0.12440780916487444 -0.07320945490924273 -0.14880074134669538 0.13115611622995055 -0.026965770667939443 0.050136896312691186 -0.1388126059264255 -0.10081353614545888 -0.23665867943581362
leaf_weight=5.3049664050340644 2.0165557148866347 1.6691489536315205 3.3347214730456463 2.7583385310135773 3.3239572457969215 2.764976049074912 2.6123810494318596 2.4899970144033428 2.5830365885049105 2.2259131800383321 1.2660117503255599 1.1339471116662028 2.5440783984959126 2.3651387142017484 2.8085285858251154 4.4757720939815062 5.2459028270095587 3.1060079112648955 3.1871454790234548 3.6096226451918483 3.4896884211339056 2.4993120892904699 3.1680151214823127 1.3103098983410744 1.3998914761468766 1.1466538421809671
leaf_count=46 49 17 55 46 29 58 26 53 36 18 35 23 28 42 38 32 40 21 30 49 29 36 30 37 30 27
internal_value=0 -0.121457 0.000941732 -0.00602185 -0.000302335 -0.0244949 -0.0429712 -0.0655793 0.0612687 -0.0425148 -0.0709959 0.0513699 -0.0421715 0.00548764 -0.064649 0.0330222 0.0854519 0.00193269 -0.0266937 -0.0613771 0.054426 -0.112042 -0.0117219 -0.0536621 -0.184551 -0.226094
internal_weight=0 3.6857 70.1543 64.8493 62.091 35.9746 29.1502 23.9548 5.19542 20.0649 15.3947 4.67017 12.982 7.71775 5.17367 26.1164 9.72167 16.3947 13.2887 9.96478 6.82441 5.26429 6.35516 2.44426 3.88989 2.41267
internal_count=960 66 894 848 802 571 487 425 62 342 264 78 202 108 80 231 72 159 138 109 84 94 60 60 83 62
is_linear=0
shrinkage=0.2


Tree=24
num_leaves=25
num_cat=0
split_feature=25 7 8 7 14 28 16 7 16 22 3 22 3 16 9 16 7 16 7 28 16 16 7 24
split_gain=1.14264 1.54735 1.39784 1.69859 1.3218 1.93287 1.10237 1.00148 0.975578 1.94591 2.09344 1.52799 1.35017 1.55076 0.947246 1.20746 1.00033 0.922514 0.900058 0.756786 0.553342 0.503604 0.0715022 0.00268476
threshold=4.5000000000000009 1236.0000000000002 1.5000000000000002 957.50000000000011 3.5000000000000004 6.5000000000000009 5205.0000000000009 1385.0000000000002 8620.5000000000018 3.5000000000000004 1.5000000000000002 1.5000000000000002 1.5000000000000002 4714.0000000000009 1.0000000180025095e-35 2781.5000000000005 1490.0000000000002 3729.5000000000005 847.50000000000011 2.5000000000000004 4750.0000000000009 10795.500000000002 1575.0000000000002 7.5000000000000009
decision_type=2 2 2 2 2 2 2 2 2 2 2 2 2 2 2 2 2 2 2 2 2 2 2 2
left_child=2 -2 3 -1 8 17 -7 -5 11 10 21 19 14 -14 15 -13 18 -6 -16 -4 -9 -10 -3 -19
right_child=1 22 4 7 5 6 -8 20 9 -11 -12 12 13 -15 16 -17 -18 23 -20 -21 -22 -23 -24 -25
leaf_value=-0.038917097338305479 -0.001030948627246342 -0.2316424940941858 0.11628960604506527 0.1784847403444576 -0.071722234043655214 0.15382727563603094 -0.060604016995046389 0.10993060941957261 -0.042155919802203144 0.19696070686506206 0.13982737767187428 -0.044079712940298554 0.12150552925833671 -0.062376626391517177 0.011265642082959368 -0.23243181871246765 0.04819480981674968 -0.22809617308428043 -0.1405492398586953 -0.0057067408761728011 -0.009141385297560355 -0.21784774051411412 -0.16733356787535258 -0.21595151736697815
leaf_weight=5.1099793915636829 3.7470644505228838 1.3276119050569835 4.5728697050362843 4.1221513580530864 3.5780515265651029 1.7515639923512938 2.1193209597840905 3.1799996308982372 1.2971068834885948 2.8942021345719695 2.0410564802587032 2.7057424373924741 3.7877864930778733 3.5575484624132514 2.5383249847218394 2.7401694925501943 3.6609099367633462 1.154181410558522 4.0615119850263 3.6633526738733053 3.0665098819881678 1.3133866265416143 1.4435216789133845 1.9723529850598422
leaf_count=59 47 27 32 36 47 21 46 30 22 33 23 27 34 50 31 50 53 24 43 46 41 39 40 59
internal_value=0 -0.0848308 0.00301225 0.0554585 -0.0134177 -0.0761029 0.0364255 0.10197 0.003653 0.0682027 -0.0119108 -0.0119144 -0.038333 0.0324463 -0.0714334 -0.138851 -0.0356514 -0.141071 -0.0821606 0.0620274 0.0514763 -0.13055 -0.198143 -0.220435
internal_weight=0 6.5182 64.8881 15.4786 49.4094 10.5755 3.87088 10.3687 38.834 7.54575 4.65155 31.2882 23.052 7.34533 15.7067 5.44591 10.2607 6.70459 6.59984 8.23622 6.24651 2.61049 2.77113 3.12653
internal_count=960 114 846 166 680 197 67 107 483 117 84 366 288 84 204 77 127 130 74 78 71 61 67 83
is_linear=0
shrinkage=0.2


Tree=25
num_leaves=26
num_cat=0
split_feature=11 16 16 4 29 0 18 0 27 27 18 16 0 10 16 10 10 13 16 0 29 16 27 27 17
split_gain=1.31838 1.38466 1.36495 1.35987 1.88924 1.83474 1.27015 1.82475 1.18238 1.13972 1.48265 1.0691 0.965599 0.909631 0.885653 0.876903 0.879686 0.850437 1.23142 0.473051 0.635265 0.352186 0.0278174 0.0142307 0.00268769
threshold=1.5000000000000002 13896.000000000002 19112.500000000004 11.500000000000002 3.5000000000000004 25.500000000000004 2.5000000000000004 30.500000000000004 9.5000000000000018 5.5000000000000009 2.5000000000000004 9479.5000000000018 33.500000000000007 80.500000000000014 2427.0000000000005 73.500000000000014 55.500000000000007 6.5000000000000009 2514.5000000000005 32.500000000000007 1.0000000180025095e-35 5300.0000000000009 3.5000000000000004 2.5000000000000004 17246.000000000004
decision_type=2 2 2 2 2 2 2 2 2 2 2 2 2 2 2 2 2 2 2 2 2 2 2 2 2
left_child=-1 3 24 4 5 -2 8 -8 14 10 -5 12 -6 17 -7 16 -11 18 -9 22 -21 -12 -16 -20 -3
right_child=1 2 -4 9 11 6 7 13 -10 15 21 -13 -14 -15 19 -17 -18 -19 23 20 -22 -23 -24 -25 -26
leaf_value=0.10114386059225761 0.04368067806770904 -0.21210506510398297 0.042876990402147562 0.14512658657064187 0.10877457425253055 -0.063632807580166165 0.13169581656207113 -0.015319454649354816 0.018435415764228677 -0.06200891539143201 -0.039169249576576012 0.17682762482131442 -0.058495374693079395 0.015264592913092977 -0.25056163709081869 -0.12843579657371226 0.10321261123126453 -0.0074889317662667088 -0.24294326210138339 -0.054244753153098429 -0.22858534662768237 0.055644988416406929 -0.21552132069603491 -0.21561678395234704 -0.22547096035650119
leaf_weight=4.4052671990357331 7.1877170782536259 1.1651876401156185 1.1888107203412799 6.1448607514612394 2.4702529567293814 3.7425714284181613 2.3770427852869025 1.688723361119626 2.2069137061480424 2.5505416290834537 3.2247835379093885 2.3173305988311768 3.1290649976581335 4.0021266173571348 1.9349528923630717 2.2375634294003248 2.6060725166462362 2.4376877793110907 1.3670471268706026 1.9142097127623858 1.4842689211945979 3.0484067159704864 1.7045630724169312 1.7231350510846821 1.2445726310834286
leaf_count=56 59 41 25 58 29 40 22 14 43 33 34 29 57 50 18 45 28 32 21 42 37 27 45 48 27
internal_value=0 -0.0119091 -0.132493 -0.00485337 -0.0253557 -0.0459701 -0.0702103 -0.0274821 -0.11494 0.0382864 0.0753016 0.0625811 0.0152992 -0.061209 -0.142243 -0.0238782 0.0214915 -0.103619 -0.152655 -0.184046 -0.130387 0.00690497 -0.234151 -0.227706 -0.219008
internal_weight=0 65.0984 3.59857 61.4998 41.6876 33.771 26.5832 13.5958 12.9875 19.8122 12.4181 7.91665 5.59932 11.2187 10.7806 7.39418 5.15661 7.21659 4.77891 7.03799 3.39848 6.27319 3.63952 3.09018 2.40976
internal_count=960 904 93 811 586 471 412 187 225 225 119 115 86 165 182 106 61 115 83 142 79 61 63 69 68
is_linear=0
shrinkage=0.2


Tree=26
num_leaves=25
num_cat=0
split_feature=1 1 10 0 17 25 2 2 2 2 30 28 30 17 17 2 23 17 10 10 10 28 9 28
split_gain=1.01098 2.21025 1.91302 2.17929 1.37851 1.05499 1.14614 1.55916 1.89517 1.26771 0.946728 0.986419 0.926903 1.1224 1.73903 1.3084 1.14562 0.903301 0.890328 0.859315 0.786488 0.697787 0.436303 0.325329
threshold=1.0000000180025095e-35 1.5000000000000002 92.500000000000014 35.500000000000007 25643.000000000004 4.5000000000000009 336.50000000000006 438.00000000000006 593.50000000000011 643.00000000000011 1.0000000180025095e-35 6.5000000000000009 1.0000000180025095e-35 11537.000000000002 14007.500000000002 882.50000000000011 1.0000000180025095e-35 18632.500000000004 59.500000000000007 55.500000000000007 64.500000000000014 4.5000000000000009 1.0000000180025095e-35 2.5000000000000004
decision_type=2 2 2 2 2 2 2 2 2 2 2 2 2 2 2 2 2 2 2 2 2 2 2 2
left_child=18 2 3 22 5 6 10 -8 20 -10 -3 -12 -11 15 -15 -14 -17 -7 -1 -16 -9 -21 -2 -5
right_child=1 4 -4 23 -6 17 7 8 9 12 11 -13 13 14 19 16 -18 -19 -20 21 -22 -23 -24 -25
leaf_value=-0.19642994163589006 0.16714678805461664 0.027661145669384324 0.23668536063483481 -0.11964836483147473 0.13570947203636757 -0.047321328755320552 0.12521096758734532 -0.047213579866298733 0.1508147053123691 0.068827804341529644 -0.2059265823608071 -0.025841703482587748 -0.12048098402825996 -0.23707223445864392 -0.11904344944256239 0.14598571965712115 -0.027599781042478191 -0.23746733476397425 -0.031601918220176675 0.066144823739746547 -0.22417443535172799 -0.077863803944988375 0.067262287069287274 -0.014478886717593221
leaf_weight=1.8801258068997402 2.987782175652681 2.0107391923665991 2.3586648730561128 2.3193504214286804 2.2315178196877232 2.5961604851763687 3.5551281897351137 1.8700857767835284 2.1833077836781767 4.9257909841835525 3.0658288961276412 2.0171440979465842 1.8341414015740172 2.03910640021786 2.9913775275927019 3.5566597091965377 2.6568548455834389 1.6247870880179105 4.3291333131492138 3.6473921607248485 2.1707231234759092 2.1329230759292841 4.2198118837550282 2.3877655449323356
leaf_count=40 28 20 19 28 26 45 40 31 24 46 53 30 31 37 52 34 56 35 59 50 35 41 54 46
internal_value=0 0.00317399 0.0721214 0.0395439 -0.0177158 -0.0253447 -0.0154643 -2.66297e-05 -0.0148637 0.00496309 -0.0885069 -0.134461 -0.00842556 -0.028604 -0.0707016 0.0279477 0.0717618 -0.120515 -0.0815108 -0.0320263 -0.142277 0.013006 0.108668 -0.0662993
internal_weight=0 61.383 14.2734 11.9147 47.1097 44.8782 40.6572 33.5635 30.0084 25.9676 7.09371 5.08297 23.7842 18.8585 10.8108 8.04766 6.21351 4.22095 6.20926 8.77169 4.04081 5.78032 7.20759 4.70712
internal_count=960 861 175 156 686 660 580 477 437 371 103 83 347 301 180 121 90 80 99 143 66 91 82 74
is_linear=0
shrinkage=0.2


Tree=27
num_leaves=25
num_cat=0
split_feature=11 13 5 7 7 0 13 27 28 5 5 17 27 7 7 0 7 28 5 7 2 2 17 27
split_gain=0.756229 0.656097 1.27561 1.11221 2.39882 1.08366 0.987346 1.50237 2.55428 1.82725 1.34209 1.20455 1.83692 1.01473 0.762173 0.617563 0.611966 0.579374 0.544873 0.498703 0.341827 0.230718 0.00316788 0.000979388
threshold=1.5000000000000002 2.5000000000000004 3.5000000000000004 1016.5000000000001 1337.0000000000002 30.500000000000004 6.5000000000000009 4.5000000000000009 3.5000000000000004 3.5000000000000004 1.5000000000000002 14007.500000000002 4.5000000000000009 1315.5000000000002 1216.5000000000002 33.500000000000007 1043.0000000000002 2.5000000000000004 2.5000000000000004 914.50000000000011 758.00000000000011 528.50000000000011 10171.500000000002 16.500000000000004
decision_type=2 2 2 2 2 2 2 2 2 2 2 2 2 2 2 2 2 2 2 2 2 2 2 2
left_child=-1 2 3 5 -5 -2 7 14 -9 15 -8 17 -13 -14 19 -10 -4 -12 -6 -3 -19 -16 -17 -24
right_child=1 6 16 4 18 -7 10 8 9 -11 11 12 13 -15 21 22 -18 20 -20 -21 -22 -23 23 -25
leaf_value=0.076272523726773678 0.072237578337838115 -0.12251714924923421 0.016104606268308508 0.19315882603896173 0.052896161087835458 -0.12347455214304588 -0.13620196009096927 0.14198337712046419 -0.055525129293934529 0.045162499443381451 -0.077792127089930552 0.14933574864299012 -0.14486602346395935 0.058329133353803589 -0.12744563162028205 -0.22689946802817917 -0.14467042712911482 0.080926611762967018 -0.064977243586798003 -0.012381209400343318 -0.036003319838417328 -0.22467969638901406 -0.20717158456273302 -0.21678104937219037
leaf_weight=4.3351709614507845 2.0358674847520914 3.2511853161267954 1.5662097907625132 4.4796764154452813 3.6594845980871469 2.548016979591921 2.3211283045820919 3.3765681074000877 1.5004860216286031 3.1686563692055643 4.5619325488805789 5.5056165959686023 1.7171511552296577 2.2996000172570348 1.8671304835006597 0.86724226945079896 2.395312191452831 2.1429937211796641 2.7455066239926964 3.3278561006300151 1.8750175205059347 2.0454902331111953 0.83719854056835152 0.86008966760709882
leaf_count=56 21 44 31 41 48 46 28 57 30 55 54 50 36 32 20 25 43 34 43 32 31 43 37 23
internal_value=0 -0.010179 0.0201548 0.0460882 0.0808905 -0.0365518 -0.0243725 -0.0547122 -0.00164609 -0.0686901 0.00697512 0.0253337 0.0743053 -0.0285363 -0.108378 -0.157438 -0.0811071 -0.029017 0.00236959 -0.0668074 0.0263609 -0.178279 -0.217066 -0.212041
internal_weight=0 60.9554 19.4301 15.4686 10.8847 4.58388 41.5253 21.1019 10.6102 7.23367 20.4234 18.1023 9.52237 4.01675 10.4917 4.06502 3.96152 8.57994 6.40499 6.57904 4.01801 3.91262 2.56453 1.69729
internal_count=960 904 273 199 132 67 631 366 227 170 265 237 118 68 139 115 74 119 91 76 65 63 85 60
is_linear=0
shrinkage=0.2


end of trees

feature_importances:
Column_16=71
Column_0=50
Column_7=47
Column_2=45
Column_17=40
Column_10=36
Column_27=34
Column_18=32
Column_4=30
Column_14=27
Column_28=23
Column_13=20
Column_22=19
Column_24=19
Column_30=17
Column_8=16
Column_23=16
Column_19=15
Column_29=15
Column_25=14
Column_3=13
Column_20=13
Column_1=12
Column_15=12
Column_5=10
Column_26=9
Column_6=7
Column_12=6
Column_9=5
Column_11=4
Column_21=1

parameters:
[boosting: gbdt]
[objective: binary]
[metric: custom]
[tree_learner: serial]
[device_type: cpu]
[data_sample_strategy: bagging]
[data: ]
[valid: ]
[num_iterations: 10000]
[learning_rate: 0.2]
[num_leaves: 63]
[num_threads: 0]
[seed: 1239]
[deterministic: 0]
[force_col_wise: 0]
[force_row_wise: 0]
[histogram_pool_size: -1]
[max_depth: -1]
[min_data_in_leaf: 30]
[min_sum_hessian_in_leaf: 0.001]
[bagging_fraction: 1]
[pos_bagging_fraction: 1]
[neg_bagging_fraction: 1]
[bagging_freq: 0]
[bagging_seed: 21187]
[feature_fraction: 0.5]
[feature_fraction_bynode: 1]
[feature_fraction_seed: 30770]
[extra_trees: 0]
[extra_seed: 27351]
[early_stopping_round: 0]
[early_stopping_min_delta: 0]
[first_metric_only: 0]
[max_delta_step: 0]
[lambda_l1: 0]
[lambda_l2: 0]
[linear_lambda: 0]
[min_gain_to_split: 0]
[drop_rate: 0.1]
[max_drop: 50]
[skip_drop: 0.5]
[xgboost_dart_mode: 0]
[uniform_drop: 0]
[drop_seed: 3778]
[top_rate: 0.2]
[other_rate: 0.1]
[min_data_per_group: 100]
[max_cat_threshold: 32]
[cat_l2: 10]
[cat_smooth: 10]
[max_cat_to_onehot: 4]
[top_k: 20]
[monotone_constraints: ]
[monotone_constraints_method: basic]
[monotone_penalty: 0]
[feature_contri: ]
[forcedsplits_filename: ]
[refit_decay_rate: 0.9]
[cegb_tradeoff: 1]
[cegb_penalty_split: 0]
[cegb_penalty_feature_lazy: ]
[cegb_penalty_feature_coupled: ]
[path_smooth: 0]
[interaction_constraints: ]
[verbosity: -1]
[saved_feature_importance_type: 0]
[use_quantized_grad: 0]
[num_grad_quant_bins: 4]
[quant_train_renew_leaf: 0]
[stochastic_rounding: 1]
[linear_tree: 0]
[max_bin: 255]
[max_bin_by_feature: ]
[min_data_in_bin: 3]
[bin_construct_sample_cnt: 200000]
[data_random_seed: 4084]
[is_enable_sparse: 1]
[enable_bundle: 1]
[use_missing: 1]
[zero_as_missing: 0]
[feature_pre_filter: 1]
[pre_partition: 0]
[two_round: 0]
[header: 0]
[label_column: ]
[weight_column: ]
[group_column: ]
[ignore_column: ]
[categorical_feature: ]
[forcedbins_filename: ]
[precise_float_parser: 0]
[parser_config_file: ]
[objective_seed: 9093]
[num_class: 1]
[is_unbalance: 0]
[scale_pos_weight: 1]
[sigmoid: 1]
[boost_from_average: 1]
[reg_sqrt: 0]
[alpha: 0.9]
[fair_c: 1]
[poisson_max_delta_step: 0.7]
[tweedie_variance_power: 1.5]
[lambdarank_truncation_level: 30]
[lambdarank_norm: 1]
[label_gain: ]
[lambdarank_position_bias_regularization: 0]
[eval_at: ]
[multi_error_top_k: 1]
[auc_mu_weights: ]
[num_machines: 1]
[local_listen_port: 12400]
[time_out: 120]
[machine_list_filename: ]
[machines: ]
[gpu_platform_id: -1]
[gpu_device_id: -1]
[gpu_use_dp: 0]
[num_gpu: 1]

end of parameters

pandas_categorical:null
