tree
version=v4
num_class=1
num_tree_per_iteration=1
label_index=0
max_feature_idx=30
objective=binary sigmoid:1
feature_names=Column_0 Column_1 Column_2 Column_3 Column_4 Column_5 Column_6 Column_7 Column_8 Column_9 Column_10 Column_11 Column_12 Column_13 Column_14 Column_15 Column_16 Column_17 Column_18 Column_19 Column_20 Column_21 Column_22 Column_23 Column_24 Column_25 Column_26 Column_27 Column_28 Column_29 Column_30
feature_infos=[18:60] [0:2] [102:1499] [0:2] [1:29] [1:5] [0:5] [374:2068] [1:4] [0:1] [30:100] [1:4] [1:5] [0:8] [1:4] [0:2] [1009:19973] [2097:26999] [0:9] [0:1] [11:25] [3:4] [1:4] [0:3] [0:37] [0:6] [1:4] [0:36] [0:17] [0:15] [0:17]
tree_sizes=2566 2834 2826 2626 2725 2516 2622 2843 2732 2841 2833 2529 2522 2617 2952 2942 2832 2738 2639 2517 2621 2733 2845 2841 2641 2831 2945

Tree=0
num_leaves=24
num_cat=0
split_feature=13 23 14 13 18 22 2 13 13 13 13 10 10 14 7 29 29 15 7 2 2 20 2
split_gain=26.8982 14.3947 11.9847 16.2111 21.4683 10.2222 7.8785 7.65189 6.01622 4.43856 7.16508 7.64193 3.88995 2.60644 2.53837 2.76485 7.459 2.29025 1.59269 1.97842 1.28202 0.610833 0.130795
threshold=7.5000000000000009 1.0000000180025095e-35 3.5000000000000004 5.5000000000000009 3.5000000000000004 3.5000000000000004 761.50000000000011 2.5000000000000004 1.5000000000000002 2.5000000000000004 1.0000000180025095e-35 58.500000000000007 62.500000000000007 2.5000000000000004 683.50000000000011 1.5000000000000002 3.5000000000000004 1.0000000180025095e-35 1215.5000000000002 604.50000000000011 794.50000000000011 12.500000000000002 880.00000000000011
decision_type=2 2 2 2 2 2 2 2 2 2 2 2 2 2 2 2 2 2 2 2 2 2 2
left_child=1 2 3 7 5 -5 -2 8 -1 10 -3 -12 -4 -13 21 17 -17 22 -19 -20 -18 -11 -16
right_child=6 9 12 4 -6 -7 -8 -9 -10 14 11 13 -14 -15 15 16 20 18 19 -21 -22 -23 -24
leaf_value=-1.6743456273617019 -1.3727467375106317 -1.7377067386749518 -1.7412025241267173 -1.5040550977179004 -1.3358162612023374 -1.7015003893530947 -1.5697092778215347 -1.7263840257961165 -1.5309453736114103 -1.7174311830547118 -1.5424510691177937 -1.6189499128992604 -1.6388355539883419 -1.7267469788802274 -1.7420515005935746 -1.5556405249421845 -1.6743456273617019 -1.6435702304381232 -1.7666718181324375 -1.6743456273617019 -1.7455686888134123 -1.7666718181324375 -1.7666718181324375
leaf_weight=5.4155814647674578 4.0616860985755903 6.9048663675785091 7.8525931239128095 6.0925291478633863 4.8740233182907096 4.6032442450523376 4.061686098575592 7.4464245140552512 6.3633082211017609 4.0616860985755903 7.5818140506744411 4.0616860985755903 7.0402559041976929 5.0094128549098969 4.061686098575592 4.7386337816715232 5.4155814647674543 4.8740233182907113 4.0616860985755903 5.4155814647674561 4.738633781671524 6.6340872943401337 4.6032442450523376
leaf_count=40 30 51 58 45 36 34 30 55 47 30 56 30 52 37 30 35 40 36 30 40 35 49 34
internal_value=-1.64742 -1.65916 -1.61774 -1.58561 -1.50976 -1.58903 -1.47123 -1.64704 -1.59688 -1.68768 -1.65206 -1.61655 -1.69281 -1.67848 -1.70495 -1.69281 -1.65924 -1.71453 -1.69002 -1.71391 -1.70758 -1.74797 -1.75513
internal_weight=0 121.851 49.688 34.7951 15.5698 10.6958 8.12337 19.2253 11.7789 72.1626 23.5578 16.6529 14.8928 9.0711 48.6048 37.9091 14.8928 23.0162 14.3513 9.47727 10.1542 10.6958 8.66493
internal_count=960 900 367 257 115 79 60 142 87 533 174 123 110 67 359 280 110 170 106 70 75 79 64
is_linear=0
shrinkage=1


Tree=1
num_leaves=26
num_cat=0
split_feature=16 27 8 15 18 2 7 16 25 16 29 27 5 16 16 3 25 2 16 22 7 16 16 17 16
split_gain=52.7575 24.0233 16.2606 11.7407 10.9013 9.94931 5.42305 4.83535 6.97272 4.05589 3.49987 3.13507 3.8788 3.43124 2.85616 1.97918 3.64552 1.84358 1.28576 1.21279 0.177492 0.159747 0.000518833 4.98379e-05 3.57205e-05
threshold=2807.0000000000005 1.5000000000000002 1.5000000000000002 1.5000000000000002 4.5000000000000009 443.50000000000006 1542.5000000000002 2296.5000000000005 2.5000000000000004 13200.000000000002 1.0000000180025095e-35 2.5000000000000004 1.5000000000000002 9692.0000000000018 4735.5000000000009 1.5000000000000002 2.5000000000000004 373.50000000000006 6205.0000000000009 1.5000000000000002 1027.5000000000002 3814.0000000000005 5206.5000000000009 15591.500000000002 17585.000000000004
decision_type=2 2 2 2 2 2 2 2 2 2 2 2 2 2 2 2 2 2 2 2 2 2 2 2 2
left_child=1 3 4 -1 6 -3 10 -7 -9 11 -2 14 -13 15 -4 17 -17 -14 -18 -19 -11 -21 -23 -24 -22
right_child=2 5 9 -5 -6 7 -8 8 -10 20 -12 12 13 -15 -16 16 18 19 -20 21 24 22 23 -25 -26
leaf_value=0.14118324012092834 -0.023592374551733322 0.16365126633073046 0.058531621986773821 0.36370193035055143 0.17920847198013848 -0.07556945894950326 -0.079811363693177192 0.13928573154543922 -0.027944203722824891 -0.092284023432532891 0.095075728289932021 0.016854335626868052 -0.033144999146981088 0.0030637217790345206 -0.046075591801971377 0.0072747266578195875 -0.11956373340537407 -0.057447770784156194 -0.045195365542131626 -0.096627122096615337 -0.11820775339724948 -0.11942840330332008 -0.1184198475906124 -0.11795155081752236 -0.11863417628959552
leaf_weight=4.9753037020564097 4.2117152065038699 5.9695494323968914 5.0293207168579084 4.5301886945962906 4.6620805263519278 4.517500787973403 5.0873737260699263 4.6189155876636487 5.4178735613822937 3.8808349817991239 6.0632242113351822 6.6073581352829924 4.6614010110497501 6.5463968515396109 5.4262052774429321 7.0794424712657955 5.4022023826837522 4.8501825332641628 4.0809952393174171 4.2801088169217136 3.8988292664289474 5.2638134732842436 4.4544952139258367 4.6395528241991997 3.9593602865934372
leaf_count=36 32 42 36 31 33 33 38 33 39 30 45 49 35 49 40 52 40 36 31 31 30 39 34 36 30
internal_value=0 0.115805 -0.0353234 0.247233 0.0452725 0.0549356 0.00462631 0.0103451 0.0490148 -0.0554818 0.0464335 -0.046152 -0.0552575 -0.0645529 0.00424261 -0.0744528 -0.0470244 -0.0905912 -0.0875601 -0.101992 -0.109781 -0.113584 -0.118638 -0.118181 -0.118423
internal_weight=0 30.0293 100.085 9.50549 20.0244 20.5238 15.3623 14.5543 10.0368 80.0605 10.2749 68.3215 57.8659 51.2586 10.4555 44.7122 16.5626 28.1496 9.4832 23.4882 11.739 18.638 14.3579 9.09405 7.85819
internal_count=960 214 746 67 148 147 115 105 72 598 77 508 432 383 76 334 123 211 71 176 90 140 109 70 60
is_linear=0
shrinkage=0.1


Tree=2
num_leaves=26
num_cat=0
split_feature=16 0 27 8 8 4 2 2 4 16 16 11 5 28 5 4 20 4 17 16 16 16 23 2 0
split_gain=40.7958 18.9266 16.581 10.9172 6.99235 6.87709 5.41103 8.14353 4.63338 3.16269 3.04505 6.31679 3.54338 3.21093 3.03717 2.91857 2.57554 2.17808 1.58606 1.54115 0.688835 0.185562 0.000725903 0.000108677 1.30466e-05
threshold=3421.5000000000005 33.500000000000007 1.5000000000000002 1.5000000000000002 2.5000000000000004 12.500000000000002 1168.5000000000002 703.50000000000011 7.5000000000000009 13200.000000000002 9692.0000000000018 2.5000000000000004 1.5000000000000002 4.5000000000000009 3.5000000000000004 4.5000000000000009 17.500000000000004 8.5000000000000018 10560.000000000002 2438.5000000000005 5431.0000000000009 18282.500000000004 1.0000000180025095e-35 790.50000000000011 46.500000000000007
decision_type=2 2 2 2 2 2 2 2 2 2 2 2 2 2 2 2 2 2 2 2 2 2 2 2 2
left_child=1 2 8 5 -4 15 7 -3 -1 10 12 -12 -5 14 18 -2 22 -16 -14 -6 -20 24 -15 -24 -11
right_child=3 6 4 9 19 -7 -8 -9 -10 21 11 -13 13 16 17 -17 -18 -19 20 -21 -22 -23 23 -25 -26
leaf_value=0.16674628038826167 0.029852245703119052 -0.051050862175492755 0.14553411756746265 0.022522088412375303 0.05732325375865778 0.11237877915851197 -0.098442582408249268 0.12599262852299575 0.30300720315173274 -0.11628733243111955 0.094371141285853985 -0.075172135063776624 -0.024381108227482094 -0.11836944301657065 -0.048629454958650294 -0.067512433200707239 -0.032583819208150504 0.049659258447460324 -0.06781943418576046 -0.023112614495096242 -0.11823504072868118 -0.088686463404096361 -0.11732957712474079 -0.11663427745805473 -0.11655561416244559
leaf_weight=5.1183280050754565 6.6468077600002307 5.5951294153928739 7.0831334590911892 4.9205514639616004 4.4706493467092496 6.4069185703992835 4.6581628918647757 4.8503041863441467 4.8697946667671204 3.6046098172664625 4.2038137540221197 4.604544535279274 5.3150092586874988 5.819338612258437 4.2803934738039988 5.7351256161928177 4.6941818967461577 4.7637875601649284 5.8948963880538923 5.098668560385704 5.0162589475512505 3.614680603146553 4.0132411718368513 5.1107500717043877 3.6462730690836906
leaf_count=32 48 38 48 36 31 45 34 34 29 30 31 35 41 45 33 42 37 37 45 36 39 30 32 42 30
internal_value=0 0.0806152 0.131315 -0.0393573 0.0702159 0.0282738 -0.00881215 0.0311587 0.233181 -0.0576403 -0.0484576 0.00574287 -0.0580389 -0.0668659 -0.0432942 -0.0152456 -0.097199 0.00314157 -0.0691767 0.0144659 -0.0909973 -0.107195 -0.117497 -0.11694 -0.116422
internal_weight=0 41.7442 26.6406 88.2912 16.6525 18.7889 15.1036 10.4454 9.98812 69.5023 58.6368 8.80836 49.8284 44.9079 25.2703 12.3819 19.6375 9.04418 16.2262 9.56932 10.9112 10.8656 14.9433 9.12399 7.25088
internal_count=960 282 176 678 115 135 106 72 61 543 453 66 387 351 195 90 156 70 125 67 84 90 119 74 60
is_linear=0
shrinkage=0.1


Tree=3
num_leaves=24
num_cat=0
split_feature=19 16 24 3 26 16 14 24 18 18 24 18 24 16 16 6 20 20 10 20 16 16 16
split_gain=60.7651 48.4439 15.1443 10.9581 7.61622 6.41815 4.08909 3.61047 2.44385 1.99452 1.87833 1.69821 3.88428 1.69608 4.65096 1.0001 0.938051 1.61917 0.445612 0.177034 0.16386 0.00904463 9.7243e-05
threshold=1.0000000180025095e-35 3814.0000000000005 2.5000000000000004 1.5000000000000002 1.5000000000000002 2474.0000000000005 1.5000000000000002 7.5000000000000009 2.5000000000000004 2.5000000000000004 11.500000000000002 4.5000000000000009 8.5000000000000018 7643.0000000000009 10215.000000000002 1.5000000000000002 14.500000000000002 16.500000000000004 60.500000000000007 11.500000000000002 16596.500000000004 3980.5000000000005 5245.5000000000009
decision_type=2 2 2 2 2 2 2 2 2 2 2 2 2 2 2 2 2 2 2 2 2 2 2
left_child=2 5 -1 10 -4 -2 7 -6 -5 -9 -3 13 -13 16 -15 -14 19 -18 -19 -8 -16 -21 -23
right_child=1 3 4 8 6 -7 11 9 -10 -11 -12 12 15 14 20 -17 17 18 -20 21 -22 22 -24
leaf_value=0.071958515179313384 0.30278115627945368 -0.0096200099052972249 0.072793899342461138 0.04514339966108602 0.055344704614561237 0.17390069896582272 -0.095636485067829319 -0.097040761809914486 0.14749390502818857 -0.0095998463505573631 -0.085536609028090335 0.016815428284942865 -0.05436377691141029 0.017175056261878482 -0.11742810519910168 -0.11884049296843012 -0.028575618430612116 -0.078142592230514993 -0.11904869053623393 -0.12118390623267057 -0.088575379194416437 -0.11659972749703847 -0.1158931962725611
leaf_weight=9.8572844788432104 8.1096711084246618 6.4630587324500084 4.1473610252141944 4.8918113112449646 4.5199433639645568 7.3806054294109336 4.3751921951770809 5.0226235389709455 4.4597370848059654 5.4274754971265793 6.5742781683802605 5.7055086791515341 4.7076868414878827 5.2032840773463231 4.3692744895815849 4.9197263643145561 4.3623053207993499 4.8109351322054845 5.9648654609918594 6.9007680714130384 3.5820298865437508 3.6190562695264816 4.2189842760562897
leaf_count=57 49 51 31 38 32 49 34 41 32 41 56 39 37 42 35 38 32 36 45 49 30 30 36
internal_value=0 0.105415 -0.0451412 0.0113494 -0.0592424 0.241374 -0.0662892 -0.0193284 0.0939542 -0.0516265 -0.0479021 -0.0774943 -0.0485654 -0.0868509 -0.0563293 -0.0873122 -0.0985728 -0.0799772 -0.100786 -0.1133 -0.10443 -0.118544 -0.116219
internal_weight=0 37.8792 91.7143 22.3889 81.857 15.4903 77.7097 14.97 9.35155 10.4501 13.0373 62.7396 15.3329 47.4067 13.1546 9.62741 34.2521 15.1381 10.7758 19.114 7.9513 14.7388 7.83804
internal_count=960 275 685 177 628 98 597 114 70 82 107 483 114 369 107 75 262 113 81 149 65 115 66
is_linear=0
shrinkage=0.1


Tree=4
num_leaves=25
num_cat=0
split_feature=30 14 24 16 6 29 14 2 28 27 25 2 24 2 16 13 1 24 7 11 6 13 13 16
split_gain=26.7334 13.2601 8.2433 7.67903 5.288 5.0473 5.56503 5.24176 4.76685 4.56088 5.03716 3.61261 3.50694 3.46986 2.86888 2.27091 2.16136 3.54611 2.0687 0.721109 0.61336 0.198854 0.00325377 0.000146108
threshold=1.0000000180025095e-35 2.5000000000000004 7.5000000000000009 2920.5000000000005 1.5000000000000002 5.5000000000000009 1.5000000000000002 818.00000000000011 3.5000000000000004 3.5000000000000004 2.5000000000000004 645.50000000000011 12.500000000000002 897.50000000000011 2690.5000000000005 5.5000000000000009 1.5000000000000002 12.500000000000002 1113.5000000000002 2.5000000000000004 1.5000000000000002 1.0000000180025095e-35 2.5000000000000004 12872.000000000002
decision_type=2 2 2 2 2 2 2 2 2 2 2 2 2 2 2 2 2 2 2 2 2 2 2 2
left_child=1 14 4 -3 11 6 8 12 -4 10 -6 -2 -7 -11 -1 19 -17 -18 -5 -8 -9 -21 -23 -24
right_child=2 3 5 18 9 7 15 20 -10 13 -12 -13 -14 -15 -16 16 17 -19 -20 21 -22 22 23 -25
leaf_value=0.22052467975975595 0.022623714966151336 0.099606733259867269 0.070469381275842777 0.0078226764809201151 0.020486816820610713 0.11118659918888388 -0.070867955402647037 -0.031784772326959518 -0.062823174460585302 -0.045329388464454383 0.16304074224635975 -0.080783164817765485 -0.010747914548665888 0.066480944398045125 0.11694356453045698 0.0062414134974336753 -0.11796283120778323 -0.0022360514079622653 -0.091442440205042358 -0.090667732016447788 -0.089975875433496985 -0.11849078392937146 -0.1155400956425585 -0.11469488673652289
leaf_weight=5.7910026311874407 6.1301262304186803 8.1565768420696276 5.2285812795162183 4.7347189113497716 4.751813970506193 4.7763603925704974 6.4583100229501751 3.48086954653263 5.5108146816492081 6.5449888408184034 5.1816649660468102 7.5266202911734581 4.659916378557682 4.8192563056945801 4.9677580073475838 4.7602375596761712 6.9921282455325127 4.2615891396999359 3.7719994336366653 3.9619972035288837 3.7765810936689377 4.493217021226882 4.3599625080823881 3.8523936867713928
leaf_count=29 42 46 39 37 30 37 53 29 45 47 33 55 38 36 34 37 56 33 30 34 32 35 38 35
internal_value=0 0.086156 -0.0251185 0.0302802 0.0142054 -0.0457657 -0.061695 0.00182961 0.00207163 0.0453513 0.0948481 -0.0343667 0.0509717 0.00208622 0.172697 -0.0791916 -0.0502455 -0.0741391 -0.0361929 -0.0992359 -0.0620658 -0.110228 -0.116327 -0.115144
internal_weight=0 27.4221 101.527 16.6633 34.9545 66.573 49.8792 16.6937 10.7394 21.2977 9.93348 13.6567 9.43628 11.3642 10.7588 39.1398 16.014 11.2537 8.50672 23.1259 7.25745 16.6676 12.7056 8.21236
internal_count=960 176 784 113 243 541 405 136 84 146 63 97 75 83 63 321 126 89 67 195 61 142 108 73
is_linear=0
shrinkage=0.1


Tree=5
num_leaves=23
num_cat=0
split_feature=19 16 4 24 26 30 14 16 16 4 3 4 1 16 28 27 24 27 25 30 16 16
split_gain=46.13 27.8718 12.5981 9.89842 6.44202 3.57308 3.33348 3.03589 2.86588 1.99164 1.5276 2.43675 2.1231 2.26237 1.13785 1.12306 1.32494 0.958053 0.2689 0.435704 0.170591 0.00356132
threshold=1.0000000180025095e-35 3814.0000000000005 12.500000000000002 2.5000000000000004 1.5000000000000002 1.0000000180025095e-35 1.5000000000000002 2510.0000000000005 5346.5000000000009 3.5000000000000004 1.5000000000000002 16.500000000000004 1.5000000000000002 7106.5000000000009 3.5000000000000004 4.5000000000000009 6.5000000000000009 12.500000000000002 2.5000000000000004 5.5000000000000009 4058.5000000000005 4058.5000000000005
decision_type=2 2 2 2 2 2 2 2 2 2 2 2 2 2 2 2 2 2 2 2 2 2
left_child=3 5 9 -1 -5 -2 8 -7 20 -3 15 12 -12 -14 -11 16 -8 18 19 -17 -6 -20
right_child=1 2 -4 4 6 7 10 -9 -10 14 11 -13 13 -15 -16 17 -18 -19 21 -21 -22 -23
leaf_value=0.04758549261533776 0.23932239331339922 -0.0034374255391295956 0.11672883715475135 0.064261530625697366 0.0055025751335654521 0.19822188879107844 -0.027413116598082651 0.095615487333452487 -0.070261118298063099 -0.11727125952321832 0.032866466658467743 -0.1186277901317867 -0.088233898941300251 0.0058456584326832661 -0.040030882224316756 -0.070672160865825201 -0.09001871003249215 -0.057870688485634203 -0.11753154006731799 -0.11535585039985917 0.033902435810923053 -0.11403809425954906
leaf_weight=10.792750909924505 6.4515581279993084 6.9364960044622439 7.5794371888041487 4.3014539480209342 4.6555554419755918 5.7088074535131437 6.3991391211748105 5.8268624469637871 6.3651211112737647 3.700351282954216 3.903107278048993 3.9726014584302893 6.8372700661420822 4.0821759700775146 3.9356690794229507 4.4508540183305794 7.1659010201692581 5.227460876107215 5.8255886211991292 4.2812175154685974 3.8759350478649139 5.8469170182943344
leaf_count=57 31 55 58 31 32 31 46 36 53 30 30 31 57 34 34 39 59 47 47 38 29 55
internal_value=0 0.0872502 0.0121615 -0.0421158 -0.0546579 0.179725 -0.0616757 0.146394 -0.0194809 -0.0422258 -0.0725144 -0.0490762 -0.0304357 -0.0530628 -0.0774609 -0.0837532 -0.0604853 -0.096067 -0.105853 -0.09258 0.0184049 -0.115782
internal_weight=0 40.1392 22.152 87.983 77.1903 17.9872 72.8888 11.5357 14.8966 14.5725 57.9922 18.7952 14.8226 10.9194 7.63602 39.1971 13.565 25.632 20.4046 8.73207 8.53149 11.6725
internal_count=960 275 177 685 628 98 597 67 114 119 483 152 121 91 64 331 105 226 179 77 61 102
is_linear=0
shrinkage=0.1


Tree=6
num_leaves=24
num_cat=0
split_feature=19 12 3 24 18 24 2 16 30 2 1 16 2 2 16 13 13 2 17 16 5 24 29
split_gain=36.7067 20.4241 9.31335 8.35059 4.36723 7.14951 3.66815 6.27509 2.45913 2.08686 2.26916 2.50222 2.74644 1.99248 1.84129 1.75474 2.29649 1.16145 0.98083 0.633063 0.139292 0.00251823 0.000389065
threshold=1.0000000180025095e-35 1.5000000000000002 1.5000000000000002 2.5000000000000004 4.5000000000000009 6.5000000000000009 1101.0000000000002 2545.0000000000005 3.5000000000000004 623.50000000000011 1.5000000000000002 3903.0000000000005 351.00000000000006 1000.0000000000001 7474.0000000000009 6.5000000000000009 2.5000000000000004 1363.5000000000002 7703.0000000000009 2978.0000000000005 3.5000000000000004 8.5000000000000018 1.5000000000000002
decision_type=2 2 2 2 2 2 2 2 2 2 2 2 2 2 2 2 2 2 2 2 2 2 2
left_child=3 6 13 -1 9 -6 7 -2 -4 10 -5 -12 -13 14 -3 16 -7 18 -11 -20 21 -21 -23
right_child=1 2 8 4 5 15 -8 -9 -10 17 11 12 -14 -15 -16 -17 -18 -19 19 20 -22 22 -24
leaf_value=0.041863214294739576 0.2393161281545905 -0.069536996289562725 0.12524494714027762 0.0086709635583180154 0.10216842850681605 -0.018692679695375199 0.080977719961124864 0.10703032242400656 0.025737918133224569 -0.056713862835503226 -0.12106359020449083 -0.093873155158619784 0.0059873044538875757 -0.11524713365802855 0.028516345822506662 0.0071683283813244797 -0.11429621555510801 -0.037543290252364719 -0.062580888428937456 -0.11636928160442926 -0.094247641025868384 -0.11254063087429092 -0.11390295447112131
leaf_weight=11.027809888124464 7.3093629628419894 4.2986470609903336 5.1987622380256653 6.2955878227949169 4.3685395121574429 4.968357749283312 5.9405575841665259 7.039161317050457 4.7552412003278732 6.7208197861909893 4.9823275879025486 4.7521445453166944 6.5504740849137306 3.6752590015530586 3.4539087489247322 4.6653560549020758 5.083195373415947 5.000607267022132 3.6105587109923389 3.887908153235915 4.8366026431322089 3.7803181260824186 4.7060150280594826
leaf_count=57 33 37 35 51 28 40 32 40 35 58 36 43 57 33 30 35 48 42 29 33 44 39 45
internal_value=0 0.0751898 0.00699302 -0.0393316 -0.0513976 -0.0101696 0.14706 0.174419 0.0777083 -0.065672 -0.0423138 -0.062024 -0.0359987 -0.0546023 -0.0258524 -0.0435159 -0.0670406 -0.0818796 -0.0899294 -0.100651 -0.108637 -0.114262 -0.113296
internal_weight=0 41.6709 21.3818 85.2366 74.2088 19.0854 20.2891 14.3485 9.954 55.1234 22.5805 16.2849 11.3026 11.4278 7.75256 14.7169 10.0516 32.5428 27.5422 20.8214 17.2108 12.3742 8.48633
internal_count=960 275 170 685 628 151 105 73 70 477 187 136 100 100 67 123 88 290 248 190 161 117 84
is_linear=0
shrinkage=0.1


Tree=7
num_leaves=26
num_cat=0
split_feature=19 12 0 0 27 3 23 8 23 22 3 16 16 27 3 20 22 8 18 27 20 16 20 16 16
split_gain=29.5295 15.2712 9.13988 7.43604 10.7258 7.43094 9.8393 6.62783 5.66674 2.98138 2.71857 1.81029 1.49962 1.12258 1.17869 3.14979 1.20068 0.888213 0.533292 0.398906 0.818384 0.366318 0.178058 0.0250726 0.000709769
threshold=1.0000000180025095e-35 1.5000000000000002 33.500000000000007 31.500000000000004 2.5000000000000004 1.5000000000000002 1.0000000180025095e-35 1.5000000000000002 1.0000000180025095e-35 1.5000000000000002 1.5000000000000002 4845.5000000000009 6156.5000000000009 18.500000000000004 1.5000000000000002 15.500000000000002 1.5000000000000002 2.5000000000000004 3.5000000000000004 6.5000000000000009 14.500000000000002 9856.0000000000018 14.500000000000002 2972.5000000000005 5245.5000000000009
decision_type=2 2 2 2 2 2 2 2 2 2 2 2 2 2 2 2 2 2 2 2 2 2 2 2 2
left_child=3 2 17 4 8 12 -7 11 -1 -6 22 -5 -3 14 16 18 -9 -2 -16 23 -21 -13 -11 -18 -25
right_child=1 5 -4 7 9 6 -8 13 -10 10 -12 21 -14 -15 15 -17 19 -19 -20 20 -22 -23 -24 24 -26
leaf_value=0.13465543634877622 0.20239223032275311 -0.0938386033350046 0.039502866262006699 0.055293263301890827 0.025947310562886728 0.17630391872221593 -0.019391563193503991 -0.048404582602812544 0.0013226381101414638 -0.11704374307891073 -0.0096501683790605995 -0.045111544540722193 -0.019217360838586498 -0.022624100528799956 -0.11597499847748574 0.019683194559177577 -0.12241795465229532 0.15103008741343291 -0.064570728412783204 -0.11219487676114846 -0.046574817185266675 -0.00063198521152508678 -0.087844566619210362 -0.11441698377327512 -0.11250181554336514
leaf_weight=6.8163615912199038 6.4101881235837954 4.7326907068490982 7.8100291341543189 4.5749771744012815 4.1105961129069355 4.5779140591621399 5.8554202765226364 4.4219248369336155 5.9875559136271477 4.9986926913261396 4.6111820042133322 4.0190315172076225 6.249189168214798 3.2748545259237281 4.3621577620506269 3.6472265720367423 4.8636579215526599 7.0918474048376083 3.7559504583477974 5.278733551502226 2.9698390141129494 3.4332430362701416 3.5871147587895393 3.3271968141198158 4.6250051781535149
leaf_count=34 30 43 41 35 33 28 42 41 35 43 38 32 57 32 40 31 35 34 31 56 29 29 32 31 48
internal_value=0 0.06568 0.125608 -0.0367081 0.00291468 0.0060404 0.0664752 -0.0594106 0.0723044 -0.0484189 -0.0715825 0.00577779 -0.0513757 -0.0787569 -0.0836916 -0.057511 -0.0957774 0.175415 -0.0921921 -0.105722 -0.0885688 -0.0246199 -0.104844 -0.116762 -0.113303
internal_weight=0 42.7273 21.3121 82.6653 30.1115 21.4152 10.4333 52.5538 12.8039 17.3076 13.197 12.0273 10.9819 40.5265 37.2517 11.7653 25.4864 13.502 8.11811 21.0644 8.24857 7.45227 8.58581 12.8159 7.9522
internal_count=960 275 105 685 215 170 70 470 69 146 113 96 100 374 342 102 240 64 71 199 85 61 75 114 79
is_linear=0
shrinkage=0.1


Tree=8
num_leaves=25
num_cat=0
split_feature=19 0 4 18 0 15 23 20 0 7 4 4 18 29 15 20 20 4 13 20 18 29 7 0
split_gain=23.9201 8.70173 11.3889 10.107 6.42576 6.41407 5.71132 3.37076 3.17334 2.04374 1.93616 3.20437 5.78184 2.04859 1.95844 1.85733 0.987993 1.0012 1.83843 0.751535 0.614064 0.505364 0.162679 0.00130026
threshold=1.0000000180025095e-35 26.500000000000004 21.500000000000004 4.5000000000000009 31.500000000000004 1.5000000000000002 1.0000000180025095e-35 13.500000000000002 28.500000000000004 1191.0000000000002 8.5000000000000018 11.500000000000002 3.5000000000000004 5.5000000000000009 1.5000000000000002 12.500000000000002 16.500000000000004 3.5000000000000004 4.5000000000000009 14.500000000000002 1.5000000000000002 1.0000000180025095e-35 1179.5000000000002 38.500000000000007
decision_type=2 2 2 2 2 2 2 2 2 2 2 2 2 2 2 2 2 2 2 2 2 2 2 2
left_child=4 -2 3 5 6 15 8 -8 9 -1 13 12 -12 16 19 -3 17 18 -6 -13 -17 -9 -19 -18
right_child=1 2 -4 -5 10 -7 7 21 -10 -11 11 14 -14 -15 -16 20 23 22 -20 -21 -22 -23 -24 -25
leaf_value=0.056906619705695487 0.15370883729969392 -0.0017815882258581262 0.16963498080340678 0.1182768676407193 -0.0034625013722283634 0.066494948054790101 0.015660391185256663 -0.050857853920989397 0.11471465031429146 -0.036764698378958786 -0.053954359984693279 -0.055159472126809099 0.11510064225574013 -0.015133997009580159 -0.011874719678626789 -0.093676579521926942 -0.11664532780918875 -0.084593716856097484 -0.093386837168422138 -0.11517298887366204 -0.047259085782476715 -0.098461322006554997 -0.11576245106405945 -0.11402255275705178
leaf_weight=5.1677952185273188 7.7726194038987151 5.2400113195180991 5.4765664041042319 6.9958538860082617 4.411168880760675 6.387319140136241 6.5409516170620909 3.85960805416107 4.7844508886337271 4.2405291795730591 4.9730000123381632 3.4160124734044057 3.4104897528886795 4.9920601770281783 4.7078537493944159 6.561487600207327 3.4204732850193968 3.2348057851195327 4.6914163902401924 5.3620225340127945 5.0385804697871208 5.2822350412607193 3.4716777354478836 4.2249730080366135
leaf_count=32 37 34 34 45 42 38 51 27 31 29 49 34 28 47 41 49 30 31 46 49 38 45 32 41
internal_value=0 0.0578251 0.0369491 0.012906 -0.0342902 -0.0188307 0.00244592 -0.0391482 0.0484068 0.014687 -0.0561026 -0.0337301 0.014819 -0.0733023 -0.0639105 -0.0511941 -0.0856828 -0.0714099 -0.049809 -0.0918185 -0.0735148 -0.0783635 -0.100729 -0.115196
internal_weight=0 43.4724 35.6998 30.2233 80.1915 23.2274 29.8756 15.6828 14.1928 9.40832 50.316 21.8694 8.38349 28.4466 13.4859 16.8401 23.4545 15.8091 9.10259 8.77804 11.6001 9.14184 6.70648 7.64545
internal_count=960 275 238 204 685 159 215 123 92 61 470 201 77 269 124 121 222 151 88 83 87 72 63 71
is_linear=0
shrinkage=0.1


Tree=9
num_leaves=26
num_cat=0
split_feature=19 8 30 8 29 24 17 17 14 24 20 24 17 14 24 4 14 2 3 2 24 8 10 20 4
split_gain=19.3667 9.25668 9.84318 6.70041 5.53976 6.33757 5.18725 5.47058 4.33719 3.72342 4.84588 3.36904 3.13351 2.85645 3.44675 2.45323 2.2197 3.43687 1.53345 2.45593 0.324089 0.000349732 0.000318594 0.000190936 0.000132902
threshold=1.0000000180025095e-35 1.5000000000000002 1.0000000180025095e-35 1.5000000000000002 1.5000000000000002 10.500000000000002 13524.500000000002 20637.500000000004 1.5000000000000002 7.5000000000000009 17.500000000000004 8.5000000000000018 11534.000000000002 3.5000000000000004 8.5000000000000018 9.5000000000000018 3.5000000000000004 904.50000000000011 1.5000000000000002 867.50000000000011 22.500000000000004 3.5000000000000004 56.500000000000007 16.500000000000004 5.5000000000000009
decision_type=2 2 2 2 2 2 2 2 2 2 2 2 2 2 2 2 2 2 2 2 2 2 2 2 2
left_child=3 -2 -3 6 13 -6 11 -8 12 10 16 -1 -5 14 -4 -14 17 -10 20 -20 21 22 -11 -24 -23
right_child=1 2 4 8 5 -7 7 -9 9 18 -12 -13 15 -15 -16 -17 -18 -19 19 -21 -22 24 23 -25 -26
leaf_value=0.02710869109660892 0.14603198967922307 0.11639267436771944 0.047063968201219122 0.06183278437840415 0.11824632478269309 -0.034895831071111133 0.15702082636154155 0.0020051100688783974 0.059396979410742658 -0.11229102739608793 -0.12298573268217693 -0.094071365714652633 -0.091519044816385398 -0.096604295835217069 -0.072748045724725499 0.024347677064959813 -0.064311692004321325 -0.048485109646037035 -0.09440570766205908 0.019254376558596596 -0.073567336842627423 -0.11002829864978786 -0.11049838118635469 -0.11167930491788768 -0.11105332972218906
leaf_weight=4.6926827803254145 8.3068066388368589 9.4696885198354703 5.2461090013384837 5.3572805970907194 6.2303433269262296 4.7721133977174759 4.2640360668301565 4.8843131810426712 7.2479474246501976 3.8565031513571757 4.5936743691563597 4.4889078810811043 4.007073350250721 5.7843986079096785 4.427533894777298 3.3592876270413399 4.8826996758580199 4.9833529815077782 5.1709798425436038 3.0063362643122673 2.7151484712958327 2.4251559525728217 2.6667818576097488 2.8136534541845322 2.6438910663127899
leaf_count=35 44 50 30 41 35 40 31 39 48 41 35 39 36 39 37 28 39 35 51 31 33 30 32 31 30
internal_value=0 0.0508954 0.0289005 -0.0319233 -0.00241118 0.0518237 0.0209641 0.0742578 -0.0481534 -0.0621731 -0.0317898 -0.0321366 0.0036407 -0.0410136 -0.00777285 -0.0386802 -0.00731138 0.015443 -0.0882438 -0.0526193 -0.105259 -0.111232 -0.111595 -0.111105 -0.110563
internal_weight=0 44.237 35.9302 78.0597 26.4605 11.0025 18.3299 9.14835 59.7298 47.0061 21.7077 9.18159 12.7236 15.458 9.67364 7.36636 17.114 12.2313 25.2985 8.17732 17.1211 14.406 9.33694 5.48044 5.06905
internal_count=960 275 231 685 181 75 144 70 541 436 157 74 105 106 67 64 122 83 279 82 197 164 104 63 60
is_linear=0
shrinkage=0.1


Tree=10
num_leaves=26
num_cat=0
split_feature=0 27 23 3 16 29 29 17 24 4 0 16 4 17 17 17 15 18 17 0 27 16 4 17 4
split_gain=10.066 12.2407 5.53871 5.2567 4.4471 4.72424 4.31893 4.4689 2.6967 2.66488 2.66414 2.38525 3.92785 3.55661 3.67761 2.35728 2.18756 1.77283 1.6651 1.50443 1.20151 0.299859 0.0017647 0.000567938 0.000348208
threshold=33.500000000000007 3.5000000000000004 1.0000000180025095e-35 1.5000000000000002 3421.5000000000005 2.5000000000000004 1.5000000000000002 18404.000000000004 6.5000000000000009 8.5000000000000018 39.500000000000007 4284.5000000000009 15.500000000000002 14624.000000000002 10244.500000000002 13524.500000000002 1.0000000180025095e-35 3.5000000000000004 17800.500000000004 38.500000000000007 5.5000000000000009 15583.000000000002 7.5000000000000009 19378.000000000004 6.5000000000000009
decision_type=2 2 2 2 2 2 2 2 2 2 2 2 2 2 2 2 2 2 2 2 2 2 2 2 2
left_child=1 2 15 11 8 20 7 10 -3 -8 -5 12 18 14 17 -1 -4 -13 19 -2 -6 23 -22 -15 -25
right_child=3 4 16 6 5 -7 9 -9 -10 -11 -12 13 -14 21 -16 -17 -18 -19 -20 -21 22 -23 -24 24 -26
leaf_value=0.067555932664297158 -0.070696379955330665 -0.01990913929133074 -0.025639124856177333 -0.049906615777948443 -0.051049129835457341 0.035255327169795826 0.0094548518653899613 -0.11964624300342819 0.088279869962719304 0.11084739501536206 0.059237003335290334 -0.11202211102102211 0.06617288767177347 -0.11110798110074116 0.043485743143131604 0.14530560413787955 0.058331748431755474 -0.012405017924946901 -0.10270113825699462 0.0088614552705363267 -0.11600514360515186 -0.074792201640097519 -0.11266570916906181 -0.1119007158518277 -0.11330501293244122
leaf_weight=6.6353873983025613 4.1144177243113536 4.5291911512613314 5.0887459442019445 4.1114087924361247 5.7118026986718196 4.5547351688146582 5.4362113550305349 3.8155148178338996 4.6892427653074265 4.954813040792942 4.9041193574666977 4.4455261602997798 3.9946995824575415 3.4402816295623762 4.3851856105029583 9.4577607288956624 7.9481712430715561 2.9867356643080711 3.8108024261891833 5.6283044442534447 3.1040713489055634 2.6941859871149054 3.2280768416821957 3.2136269882321358 3.9189972728490829
leaf_count=33 36 32 29 32 47 41 46 32 31 36 38 49 28 40 43 48 49 32 28 40 30 30 34 36 40
internal_value=0 0.0295683 0.0740021 -0.0284011 -0.0205674 -0.0514972 0.00987998 -0.0289293 0.0351246 0.0578025 0.00946354 -0.0492528 -0.0209726 -0.0690366 -0.0291395 0.113249 0.0255551 -0.0719899 -0.0466575 -0.0247364 -0.0843049 -0.104574 -0.114303 -0.112163 -0.112672
internal_weight=0 54.9472 29.1301 65.8548 25.8171 16.5987 23.2221 12.831 9.21843 10.391 9.01553 42.6328 17.5482 25.0845 11.8174 16.0931 13.0369 7.43226 13.5535 9.74272 12.044 13.2671 6.33215 10.5729 7.13262
internal_count=960 374 159 586 215 152 184 102 63 82 70 402 132 270 124 81 78 81 104 76 111 146 64 116 76
is_linear=0
shrinkage=0.1


Tree=11
num_leaves=23
num_cat=0
split_feature=19 16 4 8 13 13 0 27 8 0 4 28 13 27 10 13 10 13 13 16 16 16
split_gain=15.7173 9.01505 6.20589 5.71717 5.39569 5.24901 4.96002 4.19342 5.89033 3.90612 2.24705 3.32552 1.39115 1.2144 1.18367 1.62567 3.22738 0.338187 1.11959 0.0104751 0.00332263 0.000449784
threshold=1.0000000180025095e-35 3505.5000000000005 12.500000000000002 1.5000000000000002 2.5000000000000004 6.5000000000000009 31.500000000000004 4.5000000000000009 3.5000000000000004 33.500000000000007 5.5000000000000009 2.5000000000000004 5.5000000000000009 19.500000000000004 92.500000000000014 6.5000000000000009 64.500000000000014 3.5000000000000004 4.5000000000000009 3292.5000000000005 4720.0000000000009 5346.5000000000009
decision_type=2 2 2 2 2 2 2 2 2 2 2 2 2 2 2 2 2 2 2 2 2 2
left_child=3 9 10 4 -1 -6 7 8 -5 -2 11 -3 -9 14 15 17 -17 19 -19 -8 -20 -21
right_child=1 2 -4 6 5 -7 13 12 -10 -11 -12 -13 -14 -15 -16 16 -18 18 20 21 -22 -23
leaf_value=0.092326190783502085 0.12901833589024414 0.065218494600167973 0.072371485919160636 0.072329846510247472 -0.085548758087187607 0.046954529480724018 -0.11678638643731463 -0.11237652265208781 -0.059480204198803323 0.036085241552278657 -0.082173943016276924 -0.052515781909204341 -0.029805572293675295 -0.0062845569398506662 -0.028308414954858047 0.0054950753620673217 -0.11647077215173299 -0.029743477085478094 -0.11328545310640455 -0.11108819041921361 -0.10816611232013967 -0.10940962518781433
leaf_weight=6.4543733820319202 12.630956798791887 4.0920668914914149 8.7318504303693754 9.0834087431430834 6.1477967426180822 5.8198956623673439 3.4919767752289861 3.637468256056307 5.4093429446220389 7.0455924272537223 5.8071080669760695 5.7990430220961571 4.6473060920834541 2.786635346710681 4.6005034260451785 4.9440710395574552 3.8661013096570969 2.5073429755866519 2.9921968728303909 2.5699320770800114 2.1999354101717472 4.2138160653412342
leaf_count=48 54 28 59 50 53 43 31 39 34 35 53 46 44 30 48 48 35 34 31 30 32 55
internal_value=0 0.0453662 0.0047925 -0.0297922 0.0186321 -0.0211123 -0.0454563 -0.00930869 0.0231324 0.0957417 -0.0327971 -0.00380775 -0.0660587 -0.0695503 -0.0751675 -0.0832157 -0.0480263 -0.100463 -0.0846172 -0.112336 -0.111116 -0.110046
internal_weight=0 44.1066 24.4301 75.3721 18.4221 11.9677 56.95 22.7775 14.4928 19.6765 15.6982 9.89111 8.28477 34.1725 31.3859 26.7854 8.81017 17.9752 7.69948 10.2757 5.19213 6.78375
internal_count=960 275 186 685 144 96 541 167 84 89 127 74 83 374 344 296 83 213 97 116 63 85
is_linear=0
shrinkage=0.1


Tree=12
num_leaves=23
num_cat=0
split_feature=30 10 8 7 15 7 10 7 0 22 0 17 0 7 23 13 10 23 0 7 30 2
split_gain=10.1344 6.32474 6.31398 6.98593 5.04484 4.02875 3.65019 3.48298 3.44283 4.5887 2.64598 2.90816 2.37806 2.07711 2.57925 1.46412 2.69648 0.748853 0.163725 0.146985 0.0180197 0.000503259
threshold=1.0000000180025095e-35 70.500000000000014 1.5000000000000002 1496.5000000000002 1.5000000000000002 965.00000000000011 92.500000000000014 1306.5000000000002 31.500000000000004 1.5000000000000002 51.500000000000007 6006.5000000000009 29.500000000000004 1172.0000000000002 1.0000000180025095e-35 6.5000000000000009 59.500000000000007 1.5000000000000002 38.500000000000007 805.50000000000011 2.5000000000000004 790.50000000000011
decision_type=2 2 2 2 2 2 2 2 2 2 2 2 2 2 2 2 2 2 2 2 2 2
left_child=1 12 3 5 -3 -2 8 -8 9 -4 11 -10 -1 14 -11 17 -17 19 -14 -13 -21 -22
right_child=2 4 6 -5 -6 -7 7 -9 10 13 -12 15 18 -15 -16 16 -18 -19 -20 20 21 -23
leaf_value=0.13983294386324058 0.016021482337163735 -0.053439191357023588 0.075770591637163945 -0.062615845168893916 0.071436649657485238 0.11733610796929655 -0.043315260971816129 0.084124396864719897 0.0016050693034923005 0.056603635197938797 0.018084724985557687 -0.089561597929740583 0.046199366913161129 -0.075046189039835565 -0.050086644365305188 -0.11492421328749272 -0.0097184251886120124 -0.057774902274683716 0.07384818897616037 -0.11864743470490272 -0.11151777743671094 -0.10984001094237678
leaf_weight=6.5201348587870624 8.4145748838782328 7.6140879504382593 4.773267928510907 6.1174647510051718 5.62518310546875 7.3559920042753211 3.8944610655307752 4.7728756181895733 4.8644501939415923 3.9981870912015456 3.8051594123244277 3.1981170475482967 4.3868061676621419 7.3751191422343245 5.2298802547156811 4.0421285778284091 6.1320860907435417 3.6008812040090552 4.1847988292574883 4.5724297314882261 3.3332692943513393 3.8561112396419048
leaf_count=29 57 55 35 50 32 49 37 41 45 27 43 35 32 57 42 39 51 42 28 45 39 50
internal_value=0 0.050065 -0.0185757 0.0280924 -0.000381174 0.0632785 -0.0337201 0.0268624 -0.0426531 -0.0106396 -0.0609486 -0.0698992 0.094319 -0.0354817 -0.00386161 -0.0820039 -0.0515158 -0.0987161 0.059698 -0.108571 -0.113739 -0.110618
internal_weight=0 28.331 89.3365 21.888 13.2393 15.7706 67.4484 8.66734 58.7811 21.3765 37.4046 33.5995 15.0917 16.6032 9.22807 28.735 10.1742 18.5608 8.5716 14.9599 11.7618 7.18938
internal_count=960 176 784 156 87 106 628 78 550 161 389 346 89 126 69 301 90 211 60 169 134 89
is_linear=0
shrinkage=0.1


Tree=13
num_leaves=24
num_cat=0
split_feature=19 4 25 23 28 28 7 27 7 22 13 7 22 4 22 4 29 25 29 4 7 24 24
split_gain=12.7689 3.98892 3.96702 4.03103 5.68016 3.61839 3.60736 3.52476 3.20729 3.18094 2.82151 2.62205 2.36319 3.69138 3.08563 2.98737 1.26867 1.1779 1.00031 1.03458 0.965991 0.24495 0.00821585
threshold=1.0000000180025095e-35 12.500000000000002 4.5000000000000009 1.0000000180025095e-35 3.5000000000000004 2.5000000000000004 1702.5000000000002 1.5000000000000002 895.50000000000011 3.5000000000000004 5.5000000000000009 1559.0000000000002 1.5000000000000002 8.5000000000000018 3.5000000000000004 3.5000000000000004 1.5000000000000002 2.5000000000000004 1.0000000180025095e-35 8.5000000000000018 1191.0000000000002 13.500000000000002 7.5000000000000009
decision_type=2 2 2 2 2 2 2 2 2 2 2 2 2 2 2 2 2 2 2 2 2 2 2
left_child=2 6 3 4 9 -3 7 -2 -9 11 -6 17 13 -5 18 -16 -10 -1 19 -14 -4 22 -20
right_child=1 5 20 12 10 -7 -8 8 16 -11 -12 -13 14 -15 15 -17 -18 -19 21 -21 -22 -23 -24
leaf_value=0.13015956040772955 0.10740329401391491 0.12585354893333342 -0.055284862846925409 -0.061477136348208665 -0.11041430054789994 0.022311382856952531 -0.052613431775592127 -0.030621219949413015 0.02346968031954836 -0.020885879941817287 0.0026912163321323491 0.0019546501748941634 -0.091550833303528062 0.083895929986355672 0.071914341472306811 -0.0529517932294628 0.094455184884684684 0.059159701498810328 -0.11730928043009539 -0.024293047642319335 -0.11540526009573399 -0.079162066925949862 -0.10985349652954438
leaf_weight=4.8307702243328148 5.4491217285394731 8.4570268616080266 5.61837290227413 3.549629319459199 4.6782637238502485 5.6164994761347762 5.5738812312483779 8.2383686266839522 6.0590293966233713 6.089065693318843 4.1727467849850655 4.3644499704241744 4.185217849910261 3.438960462808609 3.1679033711552638 4.8485169559717178 4.3077481985092163 4.5257406756281853 2.9473338797688466 5.0427466742694378 5.0972611792385578 3.1827819608151913 2.9646009765565395
leaf_count=31 27 43 49 35 59 38 40 57 42 46 40 34 43 32 31 50 28 32 25 45 53 40 40
internal_value=0 0.0406958 -0.0277009 -0.017989 0.00950944 0.0845317 0.0198735 0.0366703 0.0159539 0.0392664 -0.0570915 0.0659606 -0.0416371 0.0100584 -0.0553535 -0.00360759 0.0529666 0.095817 -0.077993 -0.0547969 -0.0838832 -0.101529 -0.113571
internal_weight=0 43.7017 72.7044 61.9887 28.661 14.0735 29.6281 24.0543 18.6051 19.81 8.85101 13.721 33.3277 6.98859 26.3391 8.01642 10.3668 9.35651 18.3227 9.22796 10.7156 9.09472 5.91193
internal_count=960 275 685 583 242 81 194 154 127 143 99 97 341 67 274 81 70 63 193 88 102 105 65
is_linear=0
shrinkage=0.1


Tree=14
num_leaves=27
num_cat=0
split_feature=8 0 16 30 3 14 25 16 30 8 27 16 16 0 0 30 0 30 0 10 10 10 16 27 10 10
split_gain=7.85305 5.88472 4.22456 4.16589 3.23017 4.61623 3.53052 3.35739 2.87968 2.55055 2.60274 2.29522 2.62627 3.85915 2.01565 2.04539 1.96515 1.94876 0.530922 0.414273 0.995089 0.367169 0.234478 0.0122088 0.000322545 0.000281286
threshold=1.5000000000000002 31.500000000000004 4447.5000000000009 1.0000000180025095e-35 1.5000000000000002 1.5000000000000002 2.5000000000000004 3161.5000000000005 7.5000000000000009 3.5000000000000004 3.5000000000000004 3421.5000000000005 7921.5000000000009 35.500000000000007 45.500000000000007 1.0000000180025095e-35 40.500000000000007 6.5000000000000009 35.500000000000007 77.500000000000014 86.500000000000014 58.500000000000007 2560.0000000000005 3.5000000000000004 61.500000000000007 41.500000000000007
decision_type=2 2 2 2 2 2 2 2 2 2 2 2 2 2 2 2 2 2 2 2 2 2 2 2 2 2
left_child=3 2 9 -1 5 6 -3 16 14 10 22 -5 13 -13 15 -6 -7 -4 -17 23 -21 -11 -2 -9 25 -25
right_child=1 4 17 11 8 7 -8 19 -10 21 -12 12 -14 -15 -16 18 -18 -19 -20 20 -22 -23 -24 24 -26 -27
leaf_value=0.1236572348229744 0.094139452335145951 0.096675470002474381 -0.094312804242405276 0.074120774797460501 0.050886286340039444 -0.066792882374035675 -0.052067413828381752 -0.116423745572878 -0.086422183109054945 0.012891352656957913 -0.0032566551885844087 0.029183356008581709 0.061194720974101308 -0.096534092054361004 0.068905427138079969 -0.012279000423433488 0.027323150773391338 0.0082272179912799889 -0.065745593935505706 -0.02989542512657813 -0.11075181644134524 -0.025868319578069867 0.066781837467708341 -0.10953291118717222 -0.10993738294947293 -0.10807180013708889
leaf_weight=5.3883915245533016 6.3395289182662982 3.0881378389894953 4.3824940696358672 6.7194114103913334 3.7075696140527743 4.9737051986157912 3.3020424209535122 3.0892751850187805 3.5585531070828429 4.611248157918455 5.2489617578685275 5.5228322893381101 5.2319413907825938 4.3768121376633644 4.5965057760477057 3.5780369341373444 4.0049953833222389 3.2116507701575756 3.8616995848715305 2.4896030314266673 3.9164714477956295 5.2002052366733551 6.1937461271882057 2.1387093588709813 2.8721484914422035 3.4318541474640369
leaf_count=32 29 26 42 39 26 43 38 32 37 28 40 38 42 37 35 31 26 34 38 32 50 33 31 29 39 53
internal_value=0 -0.0165555 0.0151006 0.0449053 -0.0377288 -0.0565922 0.0198145 -0.0747315 -0.00517935 0.0332779 0.0558611 0.0254853 0.00388792 -0.0263986 0.0131839 -0.0097925 -0.0248119 -0.0509475 -0.0400316 -0.0997182 -0.0793285 -0.00765181 0.0806198 -0.111045 -0.109077 -0.108633
internal_weight=0 87.7971 35.1878 27.2394 52.6093 33.3069 6.39018 26.9168 19.3024 27.5937 17.7822 21.851 15.1316 9.89964 15.7438 11.1473 8.9787 7.59414 7.43974 17.9381 6.40607 9.81145 12.5333 11.532 8.44271 5.57056
internal_count=960 772 237 188 535 368 64 304 167 161 100 156 117 75 130 95 69 76 69 235 82 61 60 153 121 82
is_linear=0
shrinkage=0.1


Tree=15
num_leaves=27
num_cat=0
split_feature=8 14 28 4 14 17 28 24 17 18 12 27 14 17 17 4 2 29 2 17 13 14 12 9 29 17
split_gain=6.33723 4.74285 4.46469 4.98826 3.69413 4.17014 3.55167 3.28694 2.97368 2.76354 2.80803 2.74043 4.33907 2.71945 2.57305 2.47048 2.43424 2.23378 2.1692 1.3803 0.975564 0.67753 0.0184869 0.00248059 0.00145368 0.00020394
threshold=1.5000000000000002 3.5000000000000004 5.5000000000000009 16.500000000000004 1.5000000000000002 23482.000000000004 6.5000000000000009 3.5000000000000004 17800.500000000004 4.5000000000000009 1.5000000000000002 4.5000000000000009 2.5000000000000004 16375.500000000002 7628.5000000000009 6.5000000000000009 691.50000000000011 1.5000000000000002 722.50000000000011 16556.500000000004 2.5000000000000004 1.5000000000000002 1.5000000000000002 1.0000000180025095e-35 5.5000000000000009 14379.500000000002
decision_type=2 2 2 2 2 2 2 2 2 2 2 2 2 2 2 2 2 2 2 2 2 2 2 2 2 2
left_child=11 2 3 4 18 8 7 -3 14 10 -4 12 -1 17 -6 -16 -8 -13 -2 -5 -9 -12 -22 -24 25 -23
right_child=1 6 9 19 5 -7 16 20 -10 -11 21 13 -14 -15 15 -17 -18 -19 -20 -21 22 24 23 -25 -26 -27
leaf_value=0.13770297274236529 0.0072263229194153948 -0.0087625545079476341 0.019151015811460823 0.042783903501603431 -0.07468019748127093 0.068472071644541679 0.075100584523791036 -0.05208261418505844 -0.10463988764015593 0.037689484097589765 -0.054484920980397734 -0.013391556574444879 0.026111372334545142 -0.057089967881524019 0.046216396295569305 -0.054548917349595563 -0.042445963526633608 0.089235660935835015 0.10467915105310882 0.11872811622076876 -0.12321705551117977 -0.10920448873463857 -0.11617001587665028 -0.1122966776289724 -0.11165209136617726 -0.10784642420028555
leaf_weight=5.6769224032759693 4.8487770669162256 5.3193933814764085 3.0099180862307575 4.8544175811111909 5.2965688668191495 4.3353086970746508 3.0852242186665526 2.9984173700213423 5.2264105044305316 3.239408563822507 3.3677632957696897 4.1278636455535871 9.0221644043922407 4.4616365209221831 6.8855408728122693 3.7626943998038769 4.1068794131278992 4.3621048554778099 4.3182285726070404 4.7203399501740932 3.3267682231962663 2.1669272221624851 3.0741443186998367 3.5776583179831505 2.2098413743078709 2.2580051757395267
leaf_count=31 36 28 22 32 41 29 32 33 44 36 37 33 57 37 57 35 53 30 31 31 30 30 29 42 28 36
internal_value=0 -0.0153772 -0.000133388 0.0163301 -0.00131371 -0.0208816 -0.0515602 -0.0749642 -0.0391789 -0.0449577 -0.0655325 0.039658 0.0692091 0.00611987 -0.0177221 0.0106096 0.00797843 0.0393378 0.0531327 0.0802243 -0.102101 -0.0910151 -0.117131 -0.114087 -0.109558 -0.108511
internal_weight=0 85.9886 60.5002 44.2483 34.6735 25.5065 25.4885 18.2964 21.1712 16.2519 13.0125 27.6507 14.6991 12.9516 15.9448 10.6482 7.1921 8.48997 9.16701 9.57476 12.977 10.0025 9.97857 6.6518 6.63477 4.42493
internal_count=960 772 525 336 273 206 247 162 177 189 153 188 88 100 133 92 85 63 67 63 134 131 101 71 94 66
is_linear=0
shrinkage=0.1


Tree=16
num_leaves=26
num_cat=0
split_feature=19 16 1 1 14 0 20 0 13 20 22 0 14 30 0 16 30 10 10 10 0 20 13 0 30
split_gain=10.4056 5.11155 4.67301 7.53353 5.96443 4.77626 4.51521 3.22944 3.06117 2.67322 4.85707 2.65123 2.69664 2.34658 1.52366 1.78245 1.9369 1.4323 2.23587 1.2393 1.15404 0.629426 0.535914 0.024063 0.00160523
threshold=1.0000000180025095e-35 3814.0000000000005 1.0000000180025095e-35 1.5000000000000002 3.5000000000000004 35.500000000000007 17.500000000000004 33.500000000000007 6.5000000000000009 14.500000000000002 1.5000000000000002 34.500000000000007 2.5000000000000004 2.5000000000000004 44.500000000000007 7921.5000000000009 2.5000000000000004 79.500000000000014 50.500000000000007 64.500000000000014 27.500000000000004 13.500000000000002 6.5000000000000009 33.500000000000007 6.5000000000000009
decision_type=2 2 2 2 2 2 2 2 2 2 2 2 2 2 2 2 2 2 2 2 2 2 2 2 2
left_child=2 7 21 4 5 -4 9 -2 11 10 22 -3 -13 -10 15 16 20 18 -11 -8 -12 -1 -5 -21 -18
right_child=1 8 3 6 -6 -7 19 -9 13 17 14 12 -14 -15 -16 -17 24 -19 -20 23 -22 -23 -24 -25 -26
leaf_value=-0.064127379507395832 0.10282445375059626 0.038266311604743183 0.14774730765246974 0.064124075739773675 -0.062217427423866559 0.0061408737648786169 -0.049527246065500387 0.021684528520138757 0.093694852235001666 -0.0040573155731470278 0.0080799067872154191 0.0057848777924137344 -0.11263468068354675 -0.0025342775909966606 -0.11502437873609793 0.027228435096879101 -0.11240065114508045 -0.029319775652473352 0.1114841404011683 -0.12358455969389713 -0.065328899183712555 -0.12191408374950063 0.0093607869392424228 -0.11163619174893047 -0.10878531948156221
leaf_weight=3.1627696566283694 13.022182628512384 3.6775919198989868 5.820161756128071 3.5872344970703152 3.4974052384495726 4.0319608710706234 4.5388157367706281 7.8695098534226409 4.8243864998221397 3.4021539166569692 3.9166454598307663 3.2451556026935577 4.7198179624974728 5.3379353061318398 3.9195531569421282 2.7873870953917494 2.553098637610673 3.1070714890956879 3.298763170838356 3.0377933755517006 4.7251441739499569 4.6652071215212345 3.5607291907072067 3.7863806113600731 2.3664611913263798
leaf_count=28 58 29 42 34 38 41 51 40 26 35 24 31 52 39 45 34 31 30 30 25 41 46 27 47 36
internal_value=0 0.0369122 -0.0257666 -0.0165657 0.0499698 0.0897952 -0.0348465 0.0722606 0.00304417 -0.0180038 -0.0340323 -0.0319616 -0.0643872 0.0431488 -0.059028 -0.0456031 -0.0605728 0.0268003 0.052822 -0.0900218 -0.0320584 -0.0985663 0.036844 -0.116955 -0.110662
internal_weight=0 42.6966 69.7647 61.9368 13.3495 9.85212 48.5872 20.8917 21.8049 37.2242 27.4163 11.6426 7.96497 10.1623 20.2683 16.3487 13.5613 9.80799 6.70092 11.363 8.64179 7.82798 7.14796 6.82417 4.91956
internal_count=960 275 685 611 121 83 490 98 177 367 272 112 83 65 211 166 132 95 65 123 65 74 61 72 67
is_linear=0
shrinkage=0.1


Tree=17
num_leaves=25
num_cat=0
split_feature=8 0 13 14 0 12 17 23 13 14 12 26 23 29 17 29 29 2 13 2 22 17 2 29
split_gain=5.17588 4.1919 3.71175 3.36799 3.21097 2.79364 2.63795 2.60388 3.43005 2.69431 1.92801 1.95071 1.88443 1.80885 1.6156 1.55217 1.97206 1.40172 1.31805 1.08096 0.369356 0.80762 0.000938534 0.000295849
threshold=1.5000000000000002 31.500000000000004 6.5000000000000009 1.5000000000000002 45.500000000000007 1.5000000000000002 14465.000000000002 1.0000000180025095e-35 3.5000000000000004 2.5000000000000004 1.5000000000000002 2.5000000000000004 1.0000000180025095e-35 1.0000000180025095e-35 15327.000000000002 1.0000000180025095e-35 3.5000000000000004 806.50000000000011 5.5000000000000009 577.50000000000011 2.5000000000000004 14624.000000000002 623.50000000000011 1.0000000180025095e-35
decision_type=2 2 2 2 2 2 2 2 2 2 2 2 2 2 2 2 2 2 2 2 2 2 2 2
left_child=7 5 3 6 15 12 -3 9 -9 -1 11 -5 19 -7 -10 -4 -17 -13 -14 -2 21 -12 -22 -24
right_child=1 2 4 10 -6 13 -8 8 14 -11 20 17 18 -15 -16 16 -18 -19 -20 -21 22 -23 23 -25
leaf_value=0.11990612542562079 0.082313558948139368 0.069776793091579789 -0.067869780701905219 0.022482650510810293 0.072105163765620831 -0.089435665477112111 -0.054626321381110211 0.065504434160494215 -0.077976485806679013 0.02905800343406292 -0.035403273682751674 -0.11639489017712 0.033958921481874668 0.0030504212583316107 0.0098430348685807443 0.047156683979301707 -0.05556372761497555 -0.026132633848161519 -0.03401744794113426 0.027143018759611628 -0.10991817006094957 -0.10826970393177936 -0.10859659169329641 -0.10705505337724662
leaf_weight=5.6275563836097735 6.7353968061506766 3.466869160532954 4.7826769351959246 3.5250770635902899 4.9424395635724059 3.7176075279712659 3.3531475067138672 5.6960542276501647 4.2866328880190832 7.7742888927459717 2.723513923585414 3.2735384441912174 5.5005846507847291 4.9046423099935055 4.0970369726419449 4.5170902162790298 3.1880965456366539 3.6264180652797222 5.9249020516872406 7.5124716870486736 3.0406025983393175 3.4452487453818321 2.140163317322731 2.9764350578188896
leaf_count=30 34 29 44 25 37 36 39 40 36 52 40 34 34 52 30 38 33 32 40 41 42 56 33 53
internal_value=0 -0.0143922 -0.0331597 -0.0536097 0.00388086 0.0124227 0.00861243 0.0356556 0.00562422 0.067206 -0.0707547 -0.0380371 0.0289627 -0.0368263 -0.0350597 -0.0231209 0.00465511 -0.0689557 -0.00129151 0.0532238 -0.0945634 -0.0760991 -0.108527 -0.1077
internal_weight=0 83.2969 49.0013 31.571 17.4303 34.2956 6.82002 27.4816 14.0797 13.4018 24.751 10.425 25.6734 8.62225 8.38367 12.4879 7.70519 6.89996 11.4255 14.2479 14.326 6.16876 8.1572 5.1166
internal_count=960 772 535 383 152 237 68 188 106 82 315 91 149 88 66 115 71 66 74 75 224 96 128 86
is_linear=0
shrinkage=0.1


Tree=18
num_leaves=24
num_cat=0
split_feature=19 10 30 18 29 24 11 23 17 17 17 22 28 17 10 10 13 4 17 24 24 3 17
split_gain=8.53194 4.44924 4.30524 6.00046 3.18901 3.79725 3.06329 2.2577 4.79808 3.18547 3.40996 3.1655 3.09922 2.84504 2.84203 2.44022 2.14626 1.58117 0.512151 0.0192592 0.0153813 0.00190031 0.000711348
threshold=1.0000000180025095e-35 92.500000000000014 1.0000000180025095e-35 4.5000000000000009 2.5000000000000004 8.5000000000000018 1.5000000000000002 1.0000000180025095e-35 19378.000000000004 13524.500000000002 15780.000000000002 1.5000000000000002 3.5000000000000004 22115.000000000004 90.500000000000014 52.500000000000007 5.5000000000000009 7.5000000000000009 6760.5000000000009 7.5000000000000009 7.5000000000000009 1.5000000000000002 17074.500000000004
decision_type=2 2 2 2 2 2 2 2 2 2 2 2 2 2 2 2 2 2 2 2 2 2 2
left_child=6 2 -2 4 5 -4 -1 12 9 11 -11 -9 13 15 18 -8 22 -17 -13 -10 -20 -21 -14
right_child=1 -3 3 -5 -6 -7 7 8 19 10 -12 14 16 -15 -16 17 -18 -19 20 21 -22 -23 -24
leaf_value=0.060187611165962676 0.079907991948194063 0.12665172568802507 -0.012182423632916148 0.086678397778528371 0.037634859505809345 -0.11771218527456347 0.040951716119819258 0.041173614163077354 -0.12047319329467286 0.11093963649341854 -0.023358702886469223 -0.070218227665672456 -0.11052383370245929 0.078918939894245976 0.013997739621262471 -0.076271234750277167 -0.012144438747143228 0.002298601628781578 -0.12020777076529261 -0.10852142505573202 -0.1100892881449534 -0.11223658705775613 -0.10795417889880195
leaf_weight=4.0677558295428744 9.5820106863975507 4.5670862719416609 10.097413219511514 6.4552050568163386 6.1204273663461199 5.1481824815273276 6.2119177766144373 3.0737662725150647 2.642348535358904 2.9828132987022382 5.1634568572044373 4.5109688676893693 2.3529378250241262 4.8080612048506728 3.0406493060290805 5.3227463215589506 4.7661694958806038 4.9370860047638416 2.779057402163744 3.1988878082484007 3.2700913809239864 2.4171208441257477 1.9870659932494161
leaf_count=37 52 28 59 40 45 51 45 31 24 29 55 50 32 32 33 40 49 42 26 52 45 29 34
internal_value=0 0.0334751 0.0220979 0.0021873 -0.0233395 -0.0478181 -0.0239376 -0.0293296 -0.0474065 -0.0254382 0.0258156 -0.0504781 -0.00965045 0.0112413 -0.0711913 -0.00851369 -0.0584713 -0.038463 -0.0957204 -0.113433 -0.114738 -0.11012 -0.109347
internal_weight=0 41.9703 37.4032 27.8212 21.366 15.2456 67.5329 63.4651 33.0792 24.8208 8.14627 16.6745 30.386 21.2798 13.6008 16.4718 9.10617 10.2598 10.5601 8.25836 6.04915 5.61601 4.34
internal_count=960 275 247 195 155 110 685 648 374 269 84 185 274 159 154 127 115 82 121 105 71 81 66
is_linear=0
shrinkage=0.1


Tree=19
num_leaves=23
num_cat=0
split_feature=19 14 0 26 24 18 24 4 15 4 2 0 28 12 2 0 2 28 2 4 14 28
split_gain=6.99805 4.18917 5.4183 3.84889 2.79704 4.12182 2.78401 2.53516 3.22557 2.73818 2.15205 1.93502 3.59671 4.04503 1.8861 1.75336 1.55882 1.49132 2.46699 1.42437 0.00175301 0.00123564
threshold=1.0000000180025095e-35 3.5000000000000004 36.500000000000007 1.5000000000000002 6.5000000000000009 4.5000000000000009 2.5000000000000004 16.500000000000004 1.5000000000000002 7.5000000000000009 450.00000000000006 43.500000000000007 2.5000000000000004 3.5000000000000004 1080.5000000000002 35.500000000000007 1157.5000000000002 4.5000000000000009 735.50000000000011 4.5000000000000009 2.5000000000000004 5.5000000000000009
decision_type=2 2 2 2 2 2 2 2 2 2 2 2 2 2 2 2 2 2 2 2 2 2
left_child=3 7 -3 -1 5 6 -5 8 9 -2 -8 14 -13 -14 15 17 -12 -6 -19 -17 -16 -21
right_child=1 2 -4 4 11 -7 10 -9 -10 -11 16 12 13 -15 20 19 -18 18 -20 21 -22 -23
leaf_value=0.062863435193111189 0.040325293583966831 0.035717900454393915 -0.092459461161579465 0.01699374005107666 0.032773971652579718 0.084343832361801749 0.010939865818422727 0.10163633340899797 0.085110498444888535 -0.053774535471221289 -0.11459456998386447 -0.088910215532164771 0.089478366944835033 -0.070649363471382162 -0.11221986334514707 -0.028759697913804162 -0.026776999025303224 -0.10940837723216412 0.034382361703807617 -0.11201729923601399 -0.10886902871326704 -0.10897057665958504
leaf_weight=4.9215084724128237 7.8999170958995872 8.293934550136326 5.474916409701108 10.004937872290617 3.7480933535844141 4.3531282320618621 3.5791823081672183 7.5473140999674788 7.7223229482769957 5.0813598893582821 5.3393820710480195 3.9142937809228879 4.3452588003128767 2.4767817780375481 2.7745216712355605 3.5367610827088338 3.2526551000773907 2.9306991547346115 2.0125519428402185 2.8180382512509823 3.5703798960894346 2.5228528585284948
leaf_count=36 52 52 46 52 38 26 29 41 45 39 55 49 49 37 35 47 32 41 29 37 55 38
internal_value=0 0.0299784 -0.0152493 -0.0222146 -0.0290586 -0.00462221 -0.022086 0.0520214 0.0339347 0.00349108 -0.0542102 -0.0477678 -0.0124993 0.0313431 -0.0636019 -0.0467249 -0.0813498 -0.0147971 -0.0508667 -0.0779825 -0.110334 -0.110578
internal_weight=0 42.0198 13.7689 66.101 61.1795 26.5293 22.1762 28.2509 20.7036 12.9813 12.1712 34.6502 10.7363 6.82204 23.9139 17.569 8.59204 8.69134 4.94325 8.87765 6.3449 5.34089
internal_count=960 275 98 685 649 194 168 177 136 91 116 455 135 86 320 230 87 108 70 122 90 75
is_linear=0
shrinkage=0.1


Tree=20
num_leaves=24
num_cat=0
split_feature=8 14 0 7 7 0 28 29 14 10 10 3 7 10 0 8 0 7 18 29 7 10 6
split_gain=4.607 3.35052 3.81078 3.27203 3.00905 4.63228 3.00081 3.92797 2.72135 2.77401 3.95836 2.17882 2.14136 2.11972 2.02007 1.49879 1.49267 1.16753 0.97879 0.808923 0.152519 0.0481864 0.00315421
threshold=1.5000000000000002 1.5000000000000002 39.500000000000007 1496.5000000000002 965.00000000000011 34.500000000000007 7.5000000000000009 4.5000000000000009 3.5000000000000004 92.500000000000014 82.500000000000014 1.5000000000000002 912.50000000000011 65.500000000000014 31.500000000000004 3.5000000000000004 31.500000000000004 900.50000000000011 2.5000000000000004 1.0000000180025095e-35 1836.5000000000002 55.500000000000007 2.5000000000000004
decision_type=2 2 2 2 2 2 2 2 2 2 2 2 2 2 2 2 2 2 2 2 2 2 2
left_child=3 2 13 4 5 -1 7 8 9 10 11 14 21 -2 -3 16 -14 -8 -16 -13 -5 -10 -19
right_child=1 6 -4 20 -6 -7 17 -9 12 -11 -12 19 15 -15 18 -17 -18 22 -20 -21 -22 -23 -24
leaf_value=0.079773558741560779 0.11005716157105037 0.010208669407067536 -0.045452383009967318 -0.035943450390197501 0.09665217412993371 -0.056470032479430214 -0.022404443989815691 0.05946145081940462 -0.12051436456466902 0.072304435571074896 -0.099804802044721419 0.0063324493508728225 0.037328970750364524 0.023141639186181277 -0.11345880055863743 -0.083983582249445271 -0.048999587381832591 -0.10790965223706216 -0.035661915497661144 0.065510780288440248 -0.0070447595760654257 -0.10142150355622546 -0.11285244254771659
leaf_weight=5.4795589968562179 4.5836443006992358 7.1735432483255934 5.2624764218926421 3.9932718239724627 9.2899349331855756 4.5825269520282745 2.1389975175261489 6.0411226935684672 2.6113985888659981 3.7396612018346778 5.0266067013144484 4.6464563012123108 3.6802862584590894 7.2350725941359997 2.6413458436727524 4.0851212888956061 4.3944121114909649 2.8745210003107786 4.1709075570106506 4.5932028889656067 3.3654278367757797 2.6768161747604609 2.3437094707041979
leaf_count=31 33 48 53 33 58 38 33 55 28 30 44 33 25 59 36 43 54 47 55 32 28 32 32
internal_value=0 -0.0139399 0.0253321 0.0340313 0.0556139 0.0177248 -0.0246151 -0.0166573 -0.0259584 -0.00863198 -0.0193453 -0.00193178 -0.0577271 0.05685 -0.0268268 -0.0346244 -0.00965275 -0.0846249 -0.0658265 0.0357511 -0.0227269 -0.11085 -0.11013
internal_weight=0 79.9193 17.0812 26.7107 19.352 10.0621 62.8381 55.4809 49.4398 31.9917 28.2521 23.2255 17.448 11.8187 13.9858 12.1598 8.0747 7.35723 6.81225 9.23966 7.3587 5.28821 5.21823
internal_count=960 772 145 188 127 69 627 515 460 278 248 204 182 92 139 122 79 112 91 65 61 60 79
is_linear=0
shrinkage=0.1


Tree=21
num_leaves=25
num_cat=0
split_feature=25 26 16 18 22 27 25 16 16 29 1 20 14 17 14 3 20 10 20 10 10 20 16 22
split_gain=3.91855 3.40007 3.68035 3.52706 2.64059 4.50538 4.36635 2.17388 2.3053 2.11815 2.11669 3.39504 2.27932 2.26678 1.964 3.00023 1.76144 1.70142 1.54712 0.855226 2.45059 0.355243 0.333306 0.0176635
threshold=4.5000000000000009 1.5000000000000002 3421.5000000000005 3.5000000000000004 1.5000000000000002 9.5000000000000018 3.5000000000000004 4373.0000000000009 5346.5000000000009 4.5000000000000009 1.5000000000000002 13.500000000000002 2.5000000000000004 18260.000000000004 1.5000000000000002 1.5000000000000002 14.500000000000002 58.500000000000007 13.500000000000002 74.500000000000014 53.500000000000007 17.500000000000004 11003.500000000002 3.5000000000000004
decision_type=2 2 2 2 2 2 2 2 2 2 2 2 2 2 2 2 2 2 2 2 2 2 2 2
left_child=1 -1 10 4 5 -4 9 -5 -9 19 12 17 -3 -13 -10 22 -11 -12 -2 20 -6 -20 -16 -21
right_child=18 2 3 7 6 -7 -8 8 14 16 11 13 -14 -15 15 -17 -18 -19 21 23 -22 -23 -24 -25
leaf_value=0.076676688980705857 -0.020316643218352137 0.10938838336097401 0.079557561134705343 -0.06493945169711654 -0.11658828162466739 -0.080154728488177895 0.064858180539132879 0.086501376039726574 0.065571759563846352 -0.076441180838192291 0.084346668669433841 -0.068796701564394422 0.023006647729924321 0.020939562410112737 -0.10886272590909514 0.031148438843721711 0.035332195860532239 0.0078152221454827944 -0.11879109710998997 -0.11169384564467909 -0.010858617005367978 -0.069018337547572237 -0.049819355345543312 -0.12210793196606465
leaf_weight=6.158080141991376 5.7272392585873586 5.0384563207626325 4.3102179020643261 2.9387383982539204 4.8402185123413854 2.9925701282918453 2.7114013321697703 4.8735508713871267 3.8528166040778151 2.6763025056570759 5.5876549333333987 6.8369569927453977 7.7581375204026699 4.7851587980985641 2.3550228048115955 5.0870126448571682 2.9796026386320591 6.0503544248640537 2.8549355715513229 3.7769714370369902 4.0070020947605371 2.8810851145535707 1.6095349155366419 2.8634246550500393
leaf_count=41 52 30 38 27 56 40 35 41 32 37 34 52 49 32 38 39 30 35 33 51 48 35 27 28
internal_value=0 0.00484391 -0.000186756 -0.0172432 -0.0385054 0.0141099 -0.0546127 0.0147348 0.0279052 -0.0699334 0.0243522 0.00638105 0.0570181 -0.0318497 0.00577542 -0.019677 -0.0175575 0.0445596 -0.0570821 -0.0890605 -0.0687022 -0.0937913 -0.0848922 -0.116185
internal_weight=0 94.0892 87.9311 51.8744 31.1577 7.30279 23.8549 20.7167 17.7779 21.1435 36.0567 23.2601 12.7966 11.6221 12.9044 9.05157 5.65591 11.638 11.4633 15.4876 8.84722 5.73602 3.96456 6.6404
internal_count=960 840 799 567 363 78 285 204 177 250 232 153 79 84 136 104 67 69 120 183 104 68 65 79
is_linear=0
shrinkage=0.1


Tree=22
num_leaves=26
num_cat=0
split_feature=19 1 1 16 23 29 30 0 25 4 30 4 8 4 25 8 16 3 25 24 6 0 24 4 24
split_gain=6.01225 4.20208 5.7849 3.4604 3.02001 2.6079 4.7359 2.82475 2.49695 2.7053 3.30161 2.74155 2.61567 2.52386 2.22231 1.85943 1.84041 1.3172 0.989145 0.904584 0.569846 0.556677 0.432344 0.32717 0.00737023
threshold=1.0000000180025095e-35 1.0000000180025095e-35 1.5000000000000002 2474.0000000000005 1.0000000180025095e-35 1.5000000000000002 1.0000000180025095e-35 36.500000000000007 4.5000000000000009 8.5000000000000018 1.0000000180025095e-35 3.5000000000000004 3.5000000000000004 15.500000000000002 2.5000000000000004 2.5000000000000004 4373.0000000000009 1.5000000000000002 2.5000000000000004 6.5000000000000009 2.5000000000000004 29.500000000000004 6.5000000000000009 6.5000000000000009 9.5000000000000018
decision_type=2 2 2 2 2 2 2 2 2 2 2 2 2 2 2 2 2 2 2 2 2 2 2 2 2
left_child=1 20 4 -2 -3 6 -5 -7 9 11 -11 12 16 17 -6 -8 -4 -12 -18 -15 -1 -13 -10 -17 -23
right_child=3 2 8 5 14 7 15 -9 22 10 13 21 -14 19 -16 23 18 -19 -20 -21 -22 24 -24 -25 -26
leaf_value=-0.12006758585501398 0.079063841207002605 0.10148934830286233 -0.039019086735344481 0.063620824193099473 -0.060629697958876773 0.09473032925614093 -0.003758327535162983 -0.0032541617670468295 -0.05581520702995621 0.086964075564479604 -0.0085682338087312866 -0.053883771666519732 -0.089237951603330035 -0.016353623307207878 0.052321397766162327 -0.097967245429677205 0.0049305713818437666 0.083632011444153484 0.092942072093393016 -0.087038272257562235 -0.06154115035615966 -0.11650804857536096 -0.11081017175024672 -0.054827463926577925 -0.10877368587041397
leaf_weight=3.9304195437580338 10.038345657289026 5.6684836912900192 4.0204754211008567 5.8243515752255979 3.0626837220042944 6.2192989811301214 6.029282517731188 5.5835441388189793 2.3462734557688227 4.1227546334266689 3.5998822189867479 2.4396032057702532 3.5767654571682206 3.2973140142858028 4.0391802228987217 4.0318119190633297 2.4202444739639759 2.7204436659812927 2.7032745946198702 4.0151532460004091 2.8845540843904018 2.164222739636898 3.6584672164171934 3.1171853579580784 2.8604995477944613
leaf_count=43 49 42 32 34 34 35 43 47 23 27 46 19 50 25 45 36 33 24 29 57 31 25 53 31 47
internal_value=0 -0.0211027 -0.0121878 0.0280741 0.0470572 0.0114585 -0.0114722 0.048377 -0.0294041 -0.0199211 0.00854989 -0.0449653 -0.0167346 -0.0151637 0.00361116 -0.0446608 0.0116258 0.0311173 0.0513673 -0.0551654 -0.0952953 -0.0930763 -0.0893216 -0.079157 -0.112105
internal_weight=0 63.5307 56.7157 40.8438 12.7703 30.8055 19.0026 11.8028 43.9454 37.9406 17.7555 20.1851 12.7208 13.6328 7.10186 13.1783 9.14399 6.32033 5.12352 7.31247 6.81497 7.46433 6.00474 7.149 5.02472
internal_count=960 685 611 275 121 226 144 82 490 414 179 235 144 152 79 110 94 70 62 82 74 91 76 67 72
is_linear=0
shrinkage=0.1


Tree=23
num_leaves=26
num_cat=0
split_feature=19 10 2 30 14 18 30 2 25 20 30 18 20 10 20 4 30 7 4 2 2 10 30 12 7
split_gain=4.96644 2.93032 3.55165 3.04554 2.67725 2.64471 2.78458 2.54375 2.11172 2.52481 3.12511 3.5197 2.97875 2.6841 2.46091 2.2218 2.10768 1.98312 0.909039 0.828264 0.659667 0.322052 0.0167336 0.0091685 0.00024489
threshold=1.0000000180025095e-35 92.500000000000014 1168.5000000000002 1.0000000180025095e-35 1.5000000000000002 4.5000000000000009 6.5000000000000009 461.50000000000006 4.5000000000000009 16.500000000000004 1.0000000180025095e-35 3.5000000000000004 12.500000000000002 64.500000000000014 14.500000000000002 8.5000000000000018 6.5000000000000009 1172.0000000000002 8.5000000000000018 623.50000000000011 880.00000000000011 67.500000000000014 2.5000000000000004 1.5000000000000002 1435.5000000000002
decision_type=2 2 2 2 2 2 2 2 2 2 2 2 2 2 2 2 2 2 2 2 2 2 2 2 2
left_child=4 2 3 -2 7 6 18 -1 9 10 21 14 -13 15 19 -11 -9 -4 -5 -12 -10 -6 -21 -15 -24
right_child=1 -3 17 5 8 -7 -8 16 20 13 11 12 -14 23 -16 -17 -18 -19 -20 22 -22 -23 24 -25 -26
leaf_value=0.082426727584269846 0.089090713888441059 0.10057755870753127 0.0045561362355305904 -0.074227748643624039 0.05948777821962125 0.071785131062872765 0.048270772040051979 0.021103228713185287 -0.052241655757511968 -0.068161100756634313 -0.052897306234621022 0.089376238953156176 -0.033125880269020601 -0.11656032835333217 0.01959439833060788 0.052292979547968993 -0.078730003646846097 -0.090453354366053756 -0.010730252190276429 -0.1181433027214492 -0.1169486603084121 0.022185209719491634 -0.10610523669814545 -0.10838243456412272 -0.10787494388824484
leaf_weight=4.3256945237517348 7.2665143460035351 4.5936061739921561 4.7603963129222375 4.6002267636358756 4.663564473390581 5.5891355201601973 5.2903692536056033 6.9200330153107625 3.1246386859565964 3.618208369240163 4.2621349580585974 3.6571964118629685 4.3410318959504366 2.9794568307697773 2.8597020003944627 2.6549343429505825 3.0453873351216316 4.0797214806079865 4.4217037968337536 2.3267879895865917 3.1778639387339354 4.5947642438113689 1.6393537130206826 2.5393621660768986 1.4950156062841413
leaf_count=32 41 28 32 37 31 34 42 59 40 47 50 38 49 32 34 25 40 34 27 26 44 32 35 44 27
internal_value=0 0.0253619 0.0157665 0.0336814 -0.0195976 0.0134501 -0.00933045 0.0183908 -0.0309235 -0.0227569 -0.00727583 -0.0289812 0.0228883 -0.0619316 -0.0619514 -0.0171822 -0.00940536 -0.0392908 -0.0431072 -0.0859347 -0.0848684 0.0409751 -0.111719 -0.112797 -0.106949
internal_weight=0 40.6017 36.0081 27.1679 62.2251 19.9014 14.3123 14.2911 47.934 41.6315 29.8396 20.5812 7.99823 11.792 12.583 6.27314 9.96542 8.84012 9.02193 9.72329 6.3025 9.25833 5.46116 5.51882 3.13437
internal_count=960 275 247 181 685 140 106 131 554 470 322 259 87 148 172 72 99 66 64 138 84 63 88 76 62
is_linear=0
shrinkage=0.1


Tree=24
num_leaves=24
num_cat=0
split_feature=19 1 1 20 8 7 15 9 16 16 16 16 28 14 16 7 20 10 20 3 28 24 24
split_gain=4.09152 3.77283 4.75379 3.33346 3.18455 3.40749 2.79234 2.63168 2.57944 2.09845 5.72808 3.57603 3.78576 2.84207 1.74465 1.46457 3.00869 1.21276 0.713002 0.572082 0.346699 0.293932 0.0177903
threshold=1.0000000180025095e-35 1.0000000180025095e-35 1.5000000000000002 17.500000000000004 1.5000000000000002 1822.5000000000002 1.5000000000000002 1.0000000180025095e-35 2474.0000000000005 10685.500000000002 7921.5000000000009 5329.0000000000009 3.5000000000000004 1.5000000000000002 2763.0000000000005 748.00000000000011 13.500000000000002 64.500000000000014 13.500000000000002 1.5000000000000002 6.5000000000000009 24.500000000000004 6.5000000000000009
decision_type=2 2 2 2 2 2 2 2 2 2 2 2 2 2 2 2 2 2 2 2 2 2 2
left_child=1 18 6 9 -2 8 7 -3 -6 10 11 12 13 -4 -15 -10 -17 -5 -1 -18 -13 -11 -19
right_child=4 2 3 17 5 -7 -8 -9 15 21 -12 20 -14 14 -16 16 19 22 -20 -21 -22 -23 -24
leaf_value=-0.05234845741296984 0.078972817145936666 -0.058015390825664474 0.088695322400587626 -0.03794003919388278 0.077206849662516314 -0.072193411200652854 0.10638252469362784 0.057080741987773437 -0.040103908843997067 -0.11022760357657591 0.12503858085979225 -0.11276170607563037 -0.086826633953127216 0.030263794139733069 -0.044381244852117002 0.067747237660161039 -0.040686364993871578 -0.11984393348493981 -0.1207139803531415 0.010899881862155826 -0.059298997708247564 -0.053560179071190032 -0.10779183430272553
leaf_weight=2.6441008131951085 8.0829891078174096 3.4265635404735786 4.538272958248867 3.7898949403315765 6.4580898731946972 4.4756219238042823 4.5665767826139918 4.7273589242249727 5.3686013519763973 1.8937925994396203 3.1410664375871411 3.203503130003809 4.0348670929670325 6.9093796461820585 5.7261267527937889 7.2898235805332687 5.1271619722247106 2.1121471263468266 3.6059945430606604 3.7019478678703308 1.9521207716315983 1.7716133017092941 2.9152695816010237
leaf_count=28 44 41 28 51 32 35 31 49 44 32 37 45 55 47 58 47 47 19 46 26 36 29 53
internal_value=0 -0.0181882 -0.00977944 -0.0260043 0.022816 0.00881543 0.0437759 0.00871332 0.0217894 -0.0114773 -0.00261226 -0.0178207 0.000337648 0.0208163 -0.00356366 0.00513361 0.0202005 -0.0806549 -0.091792 -0.0190568 -0.0925186 -0.0828383 -0.112855
internal_weight=0 60.9586 54.7086 41.9881 40.5042 32.4212 12.7205 8.15392 27.9456 33.1707 29.5053 26.3643 21.2086 17.1738 12.6355 21.4875 16.1189 8.81731 6.2501 8.82911 5.15562 3.66541 5.02742
internal_count=960 685 611 490 275 231 121 90 196 367 306 269 188 133 105 164 120 123 74 73 81 61 72
is_linear=0
shrinkage=0.1


Tree=25
num_leaves=26
num_cat=0
split_feature=8 16 13 26 0 0 4 17 10 13 18 0 16 27 17 10 16 0 16 0 17 0 17 16 29
split_gain=3.65615 2.91202 2.48436 2.30639 2.82844 2.6596 2.89847 2.77003 2.84217 2.00799 3.04247 4.23738 2.07747 1.90707 2.80284 1.93971 1.8299 2.54881 1.69837 1.57181 1.06672 0.891914 0.452854 0.278573 0.0003594
threshold=1.5000000000000002 13200.000000000002 1.0000000180025095e-35 1.5000000000000002 49.500000000000007 23.500000000000004 10.500000000000002 17800.500000000004 41.500000000000007 3.5000000000000004 1.5000000000000002 35.500000000000007 4327.5000000000009 5.5000000000000009 7628.5000000000009 62.500000000000007 2658.0000000000005 30.500000000000004 5810.5000000000009 31.500000000000004 20778.500000000004 32.500000000000007 18846.500000000004 6726.5000000000009 3.5000000000000004
decision_type=2 2 2 2 2 2 2 2 2 2 2 2 2 2 2 2 2 2 2 2 2 2 2 2 2
left_child=9 2 23 -4 5 -5 7 8 -7 12 -11 -12 -1 14 -10 -15 -8 -18 -19 -16 -9 -22 24 -2 -3
right_child=1 22 3 4 -6 6 16 20 13 10 11 -13 -14 15 19 -17 17 18 -20 -21 21 -23 -24 -25 -26
leaf_value=0.10820082593250056 -0.10885583925830958 -0.10733206304862089 0.069167970573717916 0.048210017483119996 0.077555054654144598 0.070929354595548957 0.063122943885738234 -0.11616592406011661 -0.13039305748640748 -0.046153250771873267 0.11559250410035721 -0.021824663807275855 0.017294623039241661 -0.056165304717394449 0.012586965591750472 0.044079257036055836 -0.095334091190187431 -0.023326675362475371 0.063701049477470115 -0.072857731047135374 -0.020305183172107714 -0.091147082565195159 -0.042069541234558132 -0.05450933357899216 -0.10940479390753961
leaf_weight=5.3702725321054459 2.2161565739661451 1.6484742369502776 4.131731439381837 6.2646410912275305 3.6370360981672993 3.1505621373653439 5.1404994204640415 4.3775236308574659 3.5870202463120249 6.145986184477807 4.3779704719781858 4.6035307124257088 4.7263919785618782 3.1009558308869583 4.845407120883463 5.1128808427602053 2.6202863957732907 4.8761678449809533 4.1516401302069426 3.8744121622294188 3.796679412946105 3.3412816282361746 1.4874183144420383 1.6420105285942552 1.6984768398106096
leaf_count=31 39 34 28 35 33 27 33 53 29 54 23 38 42 40 30 57 29 58 38 44 34 46 27 29 29
internal_value=0 -0.0129222 -0.00772862 -0.00316971 -0.00799993 -0.0133428 -0.0207618 -0.0370737 -0.017504 0.0311107 0.00806035 0.0451584 0.0656463 -0.0310813 -0.0559863 0.0062341 0.0134258 -0.00850642 0.016695 -0.025378 -0.0773011 -0.0534663 -0.0879806 -0.0857263 -0.108384
internal_weight=0 74.7013 69.8669 66.0087 61.877 58.24 51.9753 35.1867 23.6712 25.2242 15.1275 8.9815 10.0967 20.5207 12.3068 8.21384 16.7886 11.6481 9.02781 8.71982 11.5155 7.13796 4.83437 3.85817 3.34695
internal_count=960 772 682 614 586 553 518 360 227 188 115 61 73 200 103 97 158 125 96 74 133 80 90 68 63
is_linear=0
shrinkage=0.1


Tree=26
num_leaves=27
num_cat=0
split_feature=30 10 23 26 2 17 6 17 30 15 28 22 17 17 2 2 17 0 23 2 2 0 30 10 17 10
split_gain=2.92454 2.2947 2.53545 2.10014 1.99523 2.07002 4.37588 2.51049 2.90891 2.91189 2.33313 2.82232 1.63843 3.49216 1.55884 1.4545 1.35315 1.28239 1.08736 1.05281 0.882481 0.655728 0.652429 0.209174 0.148276 0.000395481
threshold=1.0000000180025095e-35 58.500000000000007 1.0000000180025095e-35 1.5000000000000002 1403.0000000000002 15431.000000000002 1.5000000000000002 13990.500000000002 3.5000000000000004 1.0000000180025095e-35 2.5000000000000004 1.5000000000000002 11534.000000000002 9110.5000000000018 924.50000000000011 867.50000000000011 14867.500000000002 40.500000000000007 1.0000000180025095e-35 526.00000000000011 661.50000000000011 29.500000000000004 6.5000000000000009 65.500000000000014 21705.500000000004 65.500000000000014
decision_type=2 2 2 2 2 2 2 2 2 2 2 2 2 2 2 2 2 2 2 2 2 2 2 2 2 2
left_child=1 21 -3 -2 5 7 22 8 12 -10 20 -12 13 15 19 -5 -4 25 -16 -11 -8 -1 24 -24 -7 -13
right_child=3 2 16 4 -6 6 10 -9 9 14 11 17 -14 -15 18 -17 -18 -19 -20 -21 -22 -23 23 -25 -26 -27
leaf_value=0.093968133165889631 0.053868863138775647 0.042174078036383435 0.0024459297791678642 -0.10428522156453775 0.047760761593119136 -0.12208688590531765 -0.0019365426324090243 0.066738323548165501 -0.075992881229120596 0.019746950051676287 0.03911153914719423 -0.11818954031974843 -0.10748123090469258 0.046326867467219 -0.05556549569163588 -0.024513859120690935 -0.083296086758713694 -0.021190273371188173 0.040506949600157265 0.09503524195056913 0.063071689929016003 0.041925916556643669 -0.033792234925344999 -0.080268888624379975 -0.091999637769698495 -0.11618792711337388
leaf_weight=4.4280863776803034 4.5540281683206549 8.1202647909522039 3.823600608855485 4.4211740456521564 4.54672130011022 4.0922561753541249 4.5949209220707434 4.2987723089754573 2.7608748618513337 3.0846225544810277 2.7054931931197626 1.8082391023635866 3.2300089169293633 4.28650153055787 2.3718772679567337 4.7322066947817802 3.5490028895437717 2.1453171130269766 2.3406668845564127 4.6682872474193573 3.827696181833744 5.3417442236095667 1.8034653067588808 2.0912564881145954 2.7311230953782797 2.1737513393163681
leaf_count=22 35 54 33 44 39 46 36 33 44 34 28 29 34 37 26 49 29 29 34 46 33 38 29 33 35 31
internal_value=0 0.0275606 0.0036274 -0.0118957 -0.0162542 -0.02079 -0.0412204 -0.00500026 -0.0146687 0.0169296 -0.0100491 -0.0459563 -0.0435308 -0.0281615 0.0375103 -0.0630442 -0.0388283 -0.0835177 -0.00784741 0.0650806 0.0276067 0.0655136 -0.0914042 -0.0587477 -0.110044 -0.117097
internal_weight=0 25.2627 15.4929 73.2693 68.7152 64.1685 27.9735 36.195 31.8962 15.2263 17.2554 8.8328 16.6699 13.4399 12.4655 9.15338 7.3726 6.12731 4.71254 7.75291 8.42262 9.76983 10.7181 3.89472 6.82338 3.98199
internal_count=960 176 116 784 749 710 329 381 348 184 186 117 164 130 140 93 62 89 60 80 69 60 143 62 81 60
is_linear=0
shrinkage=0.1


end of trees

feature_importances:
Column_16=70
Column_0=47
Column_17=39
Column_2=38
Column_4=36
Column_10=36
Column_24=31
Column_13=29
Column_20=27
Column_14=26
Column_7=25
Column_30=25
Column_29=24
Column_8=21
Column_18=19
Column_27=19
Column_28=16
Column_3=15
Column_23=15
Column_19=14
Column_22=14
Column_25=13
Column_1=10
Column_15=9
Column_12=8
Column_26=7
Column_6=6
Column_5=4
Column_11=3
Column_9=2

parameters:
[boosting: gbdt]
[objective: binary]
[metric: custom]
[tree_learner: serial]
[device_type: cpu]
[data_sample_strategy: bagging]
[data: ]
[valid: ]
[num_iterations: 10000]
[learning_rate: 0.1]
[num_leaves: 95]
[num_threads: 0]
[seed: 1239]
[deterministic: 0]
[force_col_wise: 0]
[force_row_wise: 0]
[histogram_pool_size: -1]
[max_depth: -1]
[min_data_in_leaf: 30]
[min_sum_hessian_in_leaf: 0.001]
[bagging_fraction: 1]
[pos_bagging_fraction: 1]
[neg_bagging_fraction: 1]
[bagging_freq: 0]
[bagging_seed: 21187]
[feature_fraction: 0.5]
[feature_fraction_bynode: 1]
[feature_fraction_seed: 30770]
[extra_trees: 0]
[extra_seed: 27351]
[early_stopping_round: 0]
[early_stopping_min_delta: 0]
[first_metric_only: 0]
[max_delta_step: 0]
[lambda_l1: 0]
[lambda_l2: 0]
[linear_lambda: 0]
[min_gain_to_split: 0]
[drop_rate: 0.1]
[max_drop: 50]
[skip_drop: 0.5]
[xgboost_dart_mode: 0]
[uniform_drop: 0]
[drop_seed: 3778]
[top_rate: 0.2]
[other_rate: 0.1]
[min_data_per_group: 100]
[max_cat_threshold: 32]
[cat_l2: 10]
[cat_smooth: 10]
[max_cat_to_onehot: 4]
[top_k: 20]
[monotone_constraints: ]
[monotone_constraints_method: basic]
[monotone_penalty: 0]
[feature_contri: ]
[forcedsplits_filename: ]
[refit_decay_rate: 0.9]
[cegb_tradeoff: 1]
[cegb_penalty_split: 0]
[cegb_penalty_feature_lazy: ]
[cegb_penalty_feature_coupled: ]
[path_smooth: 0]
[interaction_constraints: ]
[verbosity: -1]
[saved_feature_importance_type: 0]
[use_quantized_grad: 0]
[num_grad_quant_bins: 4]
[quant_train_renew_leaf: 0]
[stochastic_rounding: 1]
[linear_tree: 0]
[max_bin: 255]
[max_bin_by_feature: ]
[min_data_in_bin: 3]
[bin_construct_sample_cnt: 200000]
[data_random_seed: 4084]
[is_enable_sparse: 1]
[enable_bundle: 1]
[use_missing: 1]
[zero_as_missing: 0]
[feature_pre_filter: 1]
[pre_partition: 0]
[two_round: 0]
[header: 0]
[label_column: ]
[weight_column: ]
[group_column: ]
[ignore_column: ]
[categorical_feature: ]
[forcedbins_filename: ]
[precise_float_parser: 0]
[parser_config_file: ]
[objective_seed: 9093]
[num_class: 1]
[is_unbalance: 0]
[scale_pos_weight: 1]
[sigmoid: 1]
[boost_from_average: 1]
[reg_sqrt: 0]
[alpha: 0.9]
[fair_c: 1]
[poisson_max_delta_step: 0.7]
[tweedie_variance_power: 1.5]
[lambdarank_truncation_level: 30]
[lambdarank_norm: 1]
[label_gain: ]
[lambdarank_position_bias_regularization: 0]
[eval_at: ]
[multi_error_top_k: 1]
[auc_mu_weights: ]
[num_machines: 1]
[local_listen_port: 12400]
[time_out: 120]
[machine_list_filename: ]
[machines: ]
[gpu_platform_id: -1]
[gpu_device_id: -1]
[gpu_use_dp: 0]
[num_gpu: 1]

end of parameters

pandas_categorical:null
