tree
version=v4
num_class=1
num_tree_per_iteration=1
label_index=0
max_feature_idx=30
objective=binary sigmoid:1
feature_names=Column_0 Column_1 Column_2 Column_3 Column_4 Column_5 Column_6 Column_7 Column_8 Column_9 Column_10 Column_11 Column_12 Column_13 Column_14 Column_15 Column_16 Column_17 Column_18 Column_19 Column_20 Column_21 Column_22 Column_23 Column_24 Column_25 Column_26 Column_27 Column_28 Column_29 Column_30
feature_infos=[18:60] [0:2] [102:1499] [0:2] [1:29] [1:5] [0:5] [374:2068] [1:4] [0:1] [30:100] [1:4] [1:5] [0:8] [1:4] [0:2] [1009:19973] [2097:26999] [0:9] [0:1] [11:25] [3:4] [1:4] [0:3] [0:37] [0:6] [1:4] [0:36] [0:17] [0:15] [0:17]
tree_sizes=2351 2861 2754 2745 2867 2653 2645 2855 2747 2650 2953 2751 2639 2753 2744 2963 2652 2752 2655 2656 2649 2840 2543 2750 2858 2858 2846 2762 2759 2968 2865 2852 2855

Tree=0
num_leaves=22
num_cat=0
split_feature=19 16 24 0 4 8 18 14 17 4 17 18 0 0 0 0 24 4 10 0 2
split_gain=65.137 84.0159 28.7351 23.5923 11.2967 7.95024 6.4706 3.91748 5.99892 3.53137 3.213 2.55244 3.46473 1.94515 1.24824 1.22367 0.840262 1.59784 0.123102 7.10543e-15 3.55271e-15
threshold=1.0000000180025095e-35 3505.5000000000005 2.5000000000000004 33.500000000000007 12.500000000000002 1.5000000000000002 2.5000000000000004 1.5000000000000002 11534.000000000002 5.5000000000000009 17074.500000000004 4.5000000000000009 34.500000000000007 38.500000000000007 48.500000000000007 44.500000000000007 7.5000000000000009 6.5000000000000009 70.500000000000014 33.500000000000007 479.50000000000006
decision_type=2 2 2 2 2 2 2 2 2 2 2 2 2 2 2 2 2 2 2 2 2
left_child=2 3 -1 -2 9 6 13 8 -7 10 -3 14 -13 -4 16 -14 17 -9 -10 -18 -21
right_child=1 4 5 -5 -6 7 -8 11 18 -11 -12 12 15 -15 -16 -17 19 -19 -20 20 -22
leaf_value=-1.577463870690283 -1.4266464284566056 -1.6718726071175016 -1.6913293930144753 -1.5698741487422125 -1.594375239561759 -1.6195775717436012 -1.613039640531128 -1.6710147563321753 -1.6947343305464457 -1.6931084605202944 -1.6147182985451414 -1.6355661480740171 -1.7070444893158772 -1.6474792049476605 -1.6734713290356096 -1.6701140130075829 -1.7070444893158772 -1.7070444893158772 -1.6824241717770143 -1.7070444893158769 -1.7070444893158772
leaf_weight=7.717203587293624 7.3110349774360639 5.6863605380058342 6.3633082211017626 4.738633781671524 7.9879826605319968 5.1448023915290824 7.4464245140552512 5.5509710013866407 4.0616860985755903 7.1756454408168784 4.3324651718139648 4.1970756351947776 5.0094128549098951 4.1970756351947784 4.4678547084331504 4.061686098575592 6.9048663675785091 6.9048663675785065 4.061686098575592 5.0094128549098995 11.643500149250029
leaf_count=57 54 42 47 35 59 38 55 41 30 53 32 31 37 31 33 30 51 51 30 37 86
internal_value=-1.64742 -1.59155 -1.66984 -1.48297 -1.64351 -1.67823 -1.64873 -1.68615 -1.66182 -1.66633 -1.64716 -1.69216 -1.67313 -1.6739 -1.6984 -1.69051 -1.70149 -1.69099 -1.68858 -1.70704 -1.70704
internal_weight=0 37.2321 92.7418 12.0497 25.1825 85.0246 18.0068 67.0178 13.2682 17.1945 10.0188 53.7496 13.2682 10.5604 40.4815 9.0711 36.0136 12.4558 8.12337 23.5578 16.6529
internal_count=960 275 685 89 186 628 133 495 98 127 74 397 98 78 299 67 266 92 60 174 123
is_linear=0
shrinkage=1


Tree=1
num_leaves=26
num_cat=0
split_feature=24 12 13 18 23 23 1 8 2 4 0 8 25 14 18 7 28 0 4 7 4 10 27 0 29
split_gain=52.5476 20.5189 13.765 13.2535 17.6786 11.0661 10.6223 10.4119 9.96014 8.28719 6.86402 4.01604 2.83246 2.14438 2.18275 1.69583 1.62223 1.57876 0.37222 0.504301 0.000300298 4.20115e-05 2.86647e-05 2.84529e-05 1.17302e-05
threshold=2.5000000000000004 1.5000000000000002 6.5000000000000009 3.5000000000000004 1.0000000180025095e-35 1.0000000180025095e-35 1.5000000000000002 1.5000000000000002 967.50000000000011 10.500000000000002 29.500000000000004 1.5000000000000002 3.5000000000000004 1.5000000000000002 2.5000000000000004 1357.0000000000002 6.5000000000000009 31.500000000000004 2.5000000000000004 1290.0000000000002 12.500000000000002 63.500000000000007 7.5000000000000009 44.500000000000007 1.5000000000000002
decision_type=2 2 2 2 2 2 2 2 2 2 2 2 2 2 2 2 2 2 2 2 2 2 2 2 2
left_child=5 6 11 9 -5 -1 8 -8 -2 12 -9 16 22 14 -13 -12 -3 -15 19 -19 23 -22 -4 24 -20
right_child=1 2 3 4 -6 -7 7 10 -10 -11 15 13 -14 17 -16 -17 -18 18 20 -21 21 -23 -24 -25 -26
leaf_value=0.14595597619263592 0.095624884444542271 -0.028955858138273463 -0.059398739647664733 0.11925776662524497 -0.0097225785653030517 0.048765050097256464 0.065868758188749307 0.0219370686115411 -0.00063879847748138125 0.024292000860679144 -0.021223280020849625 -0.048200578497478101 -0.0089103685721250523 -0.022946058229887892 0.0029533343106893893 -0.059493360588109112 0.01374616355760252 -0.059315879300923538 -0.059221010600373686 -0.034109943004356193 -0.059486574397324403 -0.059712601595619211 -0.059222673512485814 -0.059326652792196045 -0.059108070528075762
leaf_weight=6.2855487763881666 7.3824480623006803 4.8839071691036207 4.126075237989431 4.7503287792205793 6.0278473347425461 5.4840361922979355 5.1578015834093121 7.9428137838840511 4.2248508334159851 6.5638721436262122 6.498883441090582 4.3493704050779325 3.9682149291038504 4.1175281107425681 4.0062456578016281 5.2195771783590317 4.0838883519172668 3.9694374948740032 5.1233207732439059 3.9680694341659546 4.0142736434936506 4.2138773500919342 5.2571449130773544 4.2382488399744025 4.1705982983112335
leaf_count=43 53 36 31 35 45 38 37 58 31 49 48 32 30 31 30 39 30 30 39 30 30 31 40 32 32
internal_value=0 -0.0101118 -0.0240074 0.00246218 0.0471237 0.10067 0.0211047 0.00263999 0.0605866 -0.0217087 -0.013947 -0.0398945 -0.0443236 -0.0463559 -0.0236739 -0.0382693 -0.00950958 -0.0519606 -0.0559833 -0.0467151 -0.0593641 -0.0596023 -0.0593001 -0.0592193 -0.0591703
internal_weight=0 118.259 81.8322 30.6935 10.7782 11.7696 36.4264 24.8191 11.6073 19.9153 19.6613 51.1388 13.3514 42.171 8.35562 11.7185 8.9678 33.8154 29.6978 7.93751 21.7603 8.22815 9.38322 13.5322 9.29392
internal_count=960 879 613 230 80 81 266 182 84 150 145 383 101 317 62 87 66 255 224 60 164 61 71 103 71
is_linear=0
shrinkage=0.05


Tree=2
num_leaves=25
num_cat=0
split_feature=19 16 24 0 3 4 26 0 8 27 18 0 16 14 18 16 27 17 17 10 24 13 16 13
split_gain=56.8941 58.6689 22.1218 13.1565 10.415 11.1896 7.70112 6.13651 5.80534 4.3751 3.18198 6.0902 2.69527 2.24863 2.13093 2.31987 1.59591 1.23167 1.82702 0.212014 0.000275328 5.14391e-05 3.66479e-05 1.8566e-05
threshold=1.0000000180025095e-35 3505.5000000000005 2.5000000000000004 33.500000000000007 1.5000000000000002 9.5000000000000018 1.5000000000000002 34.500000000000007 1.5000000000000002 4.5000000000000009 4.5000000000000009 33.500000000000007 7643.0000000000009 2.5000000000000004 1.0000000180025095e-35 4437.0000000000009 5.5000000000000009 7703.0000000000009 5255.0000000000009 39.500000000000007 9.5000000000000018 5.5000000000000009 3903.0000000000005 2.5000000000000004
decision_type=2 2 2 2 2 2 2 2 2 2 2 2 2 2 2 2 2 2 2 2 2 2 2 2
left_child=2 3 -1 -2 7 -6 -4 -3 9 -8 14 -12 -11 -9 15 -10 -13 18 -16 -19 22 23 -21 -22
right_child=1 4 6 -5 5 -7 8 13 10 12 11 16 -14 -15 17 -17 -18 19 -20 20 21 -23 -24 -25
leaf_value=0.054518673185439841 0.17011351861479063 0.028126302304083441 0.036686651911602468 0.068718388842652342 -0.0023688194231770892 0.10714850002657193 0.021744580998483976 -0.012735226288895797 0.0033598982196730363 -0.051046301222230708 0.027766251723144106 -0.059177803969358879 0.0020699297141273882 -0.05928099371875481 -0.059108101778097333 -0.048386095217571895 -0.02101386648545675 -0.046670078792527159 -0.012628936417254755 -0.059266602509266346 -0.058836697511031627 -0.058948945592763861 -0.059075452441670721 -0.058692148638096554
leaf_weight=8.6237545162439329 8.7969052046537382 4.5629156529903421 4.1566535085439673 5.0276909172534934 5.269635945558548 4.1843018084764481 7.3398963809013393 4.2786559760570508 3.9834959730505926 5.8152521848678571 4.559596672654151 5.7442022711038572 4.0527347922325134 6.5931161940097809 4.1591607928276044 4.7471144273877144 5.2365012466907501 4.0931991562247303 4.3003891631960869 4.7414368987083453 3.8255861550569517 5.2720936462283126 5.3220557644963264 5.297531895339489
leaf_count=57 54 34 31 35 40 30 53 32 30 43 33 44 30 50 32 37 40 32 33 36 30 41 41 42
internal_value=0 0.0506501 -0.0216857 0.133238 0.0047757 0.0461034 -0.0296372 -0.020538 -0.0331495 -0.00748815 -0.0403552 -0.0208082 -0.0292317 -0.0409626 -0.046996 -0.0247761 -0.0409781 -0.0522374 -0.0354805 -0.0572023 -0.0589649 -0.0588246 -0.0591655 -0.0587528
internal_weight=0 38.7132 91.2707 13.8246 24.8886 9.45394 82.6469 15.4347 78.4902 17.2079 61.2824 15.5403 9.86799 10.8718 45.7421 8.73061 10.9807 37.0115 8.45955 28.5519 24.4587 14.3952 10.0635 9.12312
internal_count=960 275 685 89 186 70 628 116 597 126 471 117 73 82 354 67 84 287 65 222 190 113 77 72
is_linear=0
shrinkage=0.05


Tree=3
num_leaves=25
num_cat=0
split_feature=19 12 24 3 0 4 8 22 7 14 17 2 7 18 0 0 2 24 4 18 12 13 24 17
split_gain=50.3759 46.6176 19.9595 12.4346 10.9238 9.11971 6.7755 5.6453 4.69121 3.79377 5.49854 2.87049 2.58623 2.40609 2.86231 1.34216 1.32304 0.817748 1.59254 0.145778 0.000265711 9.55691e-05 2.62664e-05 3.35917e-05
threshold=1.0000000180025095e-35 1.5000000000000002 2.5000000000000004 1.5000000000000002 33.500000000000007 9.5000000000000018 1.5000000000000002 1.5000000000000002 1140.5000000000002 1.5000000000000002 11534.000000000002 832.50000000000011 1464.5000000000002 4.5000000000000009 34.500000000000007 48.500000000000007 827.50000000000011 7.5000000000000009 6.5000000000000009 2.5000000000000004 1.5000000000000002 6.5000000000000009 15.500000000000002 17347.000000000004
decision_type=2 2 2 2 2 2 2 2 2 2 2 2 2 2 2 2 2 2 2 2 2 2 2 2
left_child=2 4 -1 12 8 -5 7 -4 -2 10 -8 -9 -3 15 -15 17 -16 18 -11 -12 -19 22 23 -22
right_child=1 3 6 5 -6 -7 9 11 -10 13 19 -13 -14 14 16 -17 -18 20 -20 -21 21 -23 -24 -25
leaf_value=0.050027782846213557 0.16831232143796981 -0.013762215104069287 0.049709546623774761 -0.002254140033275297 0.054800815275253503 0.094787160012761981 0.027688242310531637 0.0063389790977727654 0.10302356642231292 -0.021810831515176248 -0.032184602973956304 -0.038933030968230531 -0.059087003594658793 0.0089550713273334592 -0.05876678097835273 -0.022306667340452016 -0.018977237706162539 -0.058749625232545392 -0.058721011446055196 -0.046004880261932127 -0.058356552435369115 -0.058462043977832272 -0.058099132731478854 -0.058156408841096935
leaf_weight=8.9199360609054548 5.9996655732393283 7.7078230008482933 4.1067099794745472 5.2610682249069214 6.042331025004386 4.4850163012742996 5.149774417281149 6.8063963875174505 5.0818087607622147 5.3528219759464246 3.7745140716433525 7.2107208594679832 5.3192432448267937 4.3407850861549369 4.6775607615709287 4.1311924159526816 3.7754333093762398 3.789654009044173 6.4363013580441475 3.8587508723139763 4.2912286967039126 5.4396385103464118 3.7186602130532256 4.0990516245365143
leaf_count=57 34 59 30 40 41 30 38 50 30 41 30 53 41 31 37 33 30 30 51 30 35 44 31 34
internal_value=0 0.0465543 -0.0209575 -0.000312302 0.108883 0.042403 -0.0287785 -0.00184547 0.138372 -0.0365469 -0.0122361 -0.01695 -0.0322693 -0.0427557 -0.0240477 -0.0491796 -0.0409952 -0.0525308 -0.041962 -0.039171 -0.0583699 -0.058288 -0.0582097 -0.0582588
internal_weight=0 39.897 89.8791 22.7732 17.1238 9.74608 80.9592 18.1238 11.0815 62.8354 12.783 14.0171 13.0271 50.0523 12.7938 37.2585 8.45299 33.1274 11.7891 7.63326 21.3382 17.5486 12.1089 8.39028
internal_count=960 275 685 170 105 70 628 133 64 495 98 103 100 397 98 299 67 266 92 60 174 144 100 69
is_linear=0
shrinkage=0.05


Tree=4
num_leaves=26
num_cat=0
split_feature=19 16 30 0 30 3 26 16 29 2 8 2 30 20 23 25 0 16 16 17 10 17 12 17 18
split_gain=44.8108 39.6818 12.8991 22.0629 10.3217 9.94682 6.1016 5.87053 5.3252 4.04688 2.83548 3.2528 3.6043 4.88625 5.22689 2.43129 2.15183 1.35408 1.2786 0.778142 0.719576 0.169314 0.00160551 0.000496692 0.000239661
threshold=1.0000000180025095e-35 3814.0000000000005 1.0000000180025095e-35 31.500000000000004 1.0000000180025095e-35 1.5000000000000002 1.5000000000000002 2474.0000000000005 1.0000000180025095e-35 1363.5000000000002 3.5000000000000004 936.00000000000011 5.5000000000000009 13.500000000000002 1.0000000180025095e-35 3.5000000000000004 35.500000000000007 9994.5000000000018 4797.0000000000009 6760.5000000000009 64.500000000000014 18846.500000000004 1.5000000000000002 12234.000000000002 3.5000000000000004
decision_type=2 2 2 2 2 2 2 2 2 2 2 2 2 2 2 2 2 2 2 2 2 2 2 2 2
left_child=2 4 3 -1 -2 16 -4 -6 -7 10 11 12 13 -8 -15 21 -3 -18 -5 -12 -13 -14 -21 -22 -24
right_child=1 5 6 18 7 8 9 -9 -10 -11 19 20 15 14 -16 -17 17 -19 -20 22 23 -23 24 -25 -26
leaf_value=0.086491312633367443 0.15667703263948929 -0.00048513916342922267 0.032009938050909667 -0.012048930000298644 0.1124128245550728 -0.0026057305642350594 0.027657948448859489 0.040836141416095553 0.071009691669601097 0.0098743256816319347 -0.03338146007553227 -0.036629272337311454 -0.058725156087010379 0.016293591303653227 -0.058854179118181443 -0.0057348368463944078 -0.058725897696687859 -0.018904255845193112 -0.047991555777385189 -0.059345846653062806 -0.059084199985693808 -0.044960333878946775 -0.057996005149022437 -0.058303447859987922 -0.05850122437364879
leaf_weight=7.0594149231910732 5.6081949919462231 5.0798076689243326 3.8108902275562277 5.1999527886509878 5.3335073292255384 4.3296383768320084 6.8795240074396196 6.1886153072118759 5.678682953119278 5.0873563513159743 3.9225041791796711 6.7301889434456816 5.6531092151999456 3.9581252038478834 5.5704265683889389 3.7734922841191283 4.9202510267496091 3.7707825154066086 4.720458947122097 4.1828490123152724 4.2666547223925573 3.6938001066446304 6.4059665426611883 3.8981592282652855 3.704966738820076
leaf_count=45 31 38 28 38 30 31 52 37 39 40 31 53 45 30 44 30 39 30 38 32 33 30 54 32 30
internal_value=0 0.0430271 -0.0202501 0.0189273 0.101046 0.00123071 -0.0295491 0.0739685 0.0391634 -0.0330129 -0.036496 -0.0296839 -0.0200746 -0.00445374 -0.0276381 -0.0396097 -0.0263379 -0.0414485 -0.0291516 -0.0531085 -0.0487338 -0.0532854 -0.058522 -0.0587114 -0.0581811
internal_weight=0 40.9095 88.5178 16.9798 17.1303 23.7792 71.538 11.5221 10.0083 67.7271 62.6398 44.4235 29.5285 16.4081 9.52855 13.1204 13.7708 8.69103 9.92041 18.2163 14.895 9.34691 14.2938 8.16481 10.1109
internal_count=960 275 685 121 98 177 564 67 70 536 496 349 231 126 74 105 107 69 76 147 118 75 116 65 84
is_linear=0
shrinkage=0.05


Tree=5
num_leaves=24
num_cat=0
split_feature=19 16 24 4 0 8 18 14 17 15 18 16 0 14 0 0 24 4 18 16 13 24 25
split_gain=39.9949 33.1731 16.3863 10.9158 8.48101 6.37828 5.17728 3.72485 4.99578 2.55162 2.39922 3.30706 1.96346 1.95735 1.37155 1.30297 0.83072 1.58641 0.146608 0.000247054 7.06909e-05 3.67143e-05 2.3056e-05
threshold=1.0000000180025095e-35 3814.0000000000005 2.5000000000000004 12.500000000000002 33.500000000000007 1.5000000000000002 2.5000000000000004 1.5000000000000002 11534.000000000002 1.0000000180025095e-35 4.5000000000000009 4720.0000000000009 38.500000000000007 3.5000000000000004 48.500000000000007 41.500000000000007 7.5000000000000009 6.5000000000000009 2.5000000000000004 3952.0000000000005 6.5000000000000009 15.500000000000002 2.5000000000000004
decision_type=2 2 2 2 2 2 2 2 2 2 2 2 2 2 2 2 2 2 2 2 2 2 2
left_child=2 4 -1 9 -2 6 12 8 -7 -3 14 -12 -4 -11 16 -13 17 -9 -10 -18 21 22 -21
right_child=1 3 5 -5 -6 7 -8 10 18 13 11 15 -14 -15 -16 -17 19 -19 -20 20 -22 -23 -24
leaf_value=0.042657723255660182 0.1167419162336914 -0.059311029411612995 -0.042506316913065612 0.047383440176804043 0.045248593101970269 0.026876417120003632 0.029812290439079282 -0.02038018649840713 -0.030261432899697946 0.0043578801266909778 0.01466342158688818 -0.058689486474406527 0.0024457177153436723 -0.037546797833973938 -0.020253961210745644 -0.018885820418832595 -0.057990950870193771 -0.058024727469279891 -0.044503712496491481 -0.057443957186863626 -0.05769931043456919 -0.057333807719434776 -0.057615515333204852
leaf_weight=9.4353155493736249 11.553654581308367 3.7929291650652912 6.0572715178132075 8.3036338537931424 6.4717589765787116 5.1886441558599454 7.7612769678235045 5.2008580863475817 3.5910935625433922 7.0908373743295652 4.0532947778701773 4.4879119023680669 4.0556890070438385 4.5908288061618805 3.9597352892160407 3.7942579761147499 3.785789147019389 6.0592719316482544 3.6368570998311043 3.8302889466285723 4.9579951688647261 3.3449647501111031 4.0073099657893181
leaf_count=57 58 29 47 58 40 38 55 41 30 55 31 36 31 35 33 31 32 51 30 34 43 30 35
internal_value=0 0.0399165 -0.0195677 0.00113643 0.0910733 -0.0271169 -0.000904754 -0.0349388 -0.0105563 -0.0236796 -0.0413149 -0.0223434 -0.0244788 -0.0121104 -0.0479735 -0.0404545 -0.051493 -0.0406374 -0.0374277 -0.0576274 -0.0575422 -0.0574725 -0.0575317
internal_weight=0 41.8036 87.2078 23.7782 18.0254 77.7725 17.8742 59.8983 12.4166 15.4746 47.4817 12.3355 10.113 11.6817 35.1462 8.28217 31.1865 11.2601 7.22795 19.9263 16.1406 11.1826 7.8376
internal_count=960 275 685 177 98 628 133 495 98 119 397 98 78 90 299 67 266 92 60 174 142 99 69
is_linear=0
shrinkage=0.05


Tree=6
num_leaves=24
num_cat=0
split_feature=19 16 24 4 18 30 8 7 2 16 22 14 9 18 0 2 0 28 28 4 12 25 0
split_gain=35.8131 28.2718 14.8744 8.86671 7.6027 6.88176 6.03263 5.492 7.63343 3.96974 3.68447 3.58423 4.63884 2.35645 3.19835 1.38302 1.35575 1.3284 0.845783 1.49024 0.000653927 0.00016663 3.24611e-05
threshold=1.0000000180025095e-35 3505.5000000000005 2.5000000000000004 21.500000000000004 4.5000000000000009 1.0000000180025095e-35 1.5000000000000002 1496.5000000000002 696.50000000000011 2474.0000000000005 2.5000000000000004 1.5000000000000002 1.0000000180025095e-35 4.5000000000000009 33.500000000000007 832.50000000000011 48.500000000000007 2.5000000000000004 2.5000000000000004 6.5000000000000009 1.5000000000000002 3.5000000000000004 34.500000000000007
decision_type=2 2 2 2 2 2 2 2 2 2 2 2 2 2 2 2 2 2 2 2 2 2 2
left_child=2 5 -1 4 10 -2 7 8 -4 -7 -3 12 -8 16 -15 -16 18 -12 19 -13 -20 22 -22
right_child=1 3 6 -5 -6 9 11 -9 -10 -11 17 13 -14 14 15 -17 -18 -19 20 -21 21 -23 -24
leaf_value=0.039521594997449033 0.12982522697971771 0.0040585237932068375 0.05912908562200573 0.069925187572508679 0.046311503152947159 0.092076751846599386 -0.048309274007772671 -0.041640948009605744 -0.020010999876666047 0.032991185652662243 -0.022415090134756659 -0.021006379409389448 0.014530332724268465 0.015030076731956747 -0.057869765437621158 -0.016366678017734358 -0.019532454251566519 -0.059531855092960863 -0.057859971534576907 -0.057465785476944177 -0.057170844476384347 -0.057443359140672626 -0.056988474396610693
leaf_weight=9.6685338467359525 5.9636115878820446 6.2998382523655989 5.8609043061733264 4.1770537346601477 4.6871837526559821 5.8820913732051832 4.8337166905403119 5.648809812963008 6.3462318703532219 5.5016405135393143 4.0127736032009107 5.3786539733409899 7.4838921725749969 3.9987818375229827 4.5531883016228658 3.5898793712258339 3.902196876704692 6.0377139747142792 4.6719955727458027 5.852092906832695 4.2690897062420827 4.1601939573884001 5.6951279863715172
leaf_count=57 29 48 42 28 34 30 39 43 48 30 30 45 59 29 39 30 33 46 40 52 39 37 53
internal_value=0 0.0371852 -0.0189015 0.00338443 -0.00982742 0.086315 -0.02631 -0.000877373 0.0179858 0.0635213 -0.0259209 -0.0340876 -0.0101294 -0.0404931 -0.0215901 -0.0395731 -0.0472577 -0.0447126 -0.0508607 -0.0400046 -0.0573472 -0.0571776 -0.0570666
internal_weight=0 42.5619 85.9133 25.2146 21.0375 17.3473 76.2448 17.8559 12.2071 11.3837 16.3503 58.3888 12.3176 46.0712 12.1418 8.14307 33.9294 10.0505 30.0272 11.2307 18.7964 14.1244 9.96422
internal_count=960 275 685 186 158 89 628 133 90 60 124 495 98 397 98 69 299 76 266 97 169 129 92
is_linear=0
shrinkage=0.05


Tree=7
num_leaves=26
num_cat=0
split_feature=19 12 24 3 26 0 4 27 0 18 10 0 8 16 2 16 14 13 17 8 20 8 18 24 24
split_gain=32.1285 24.7616 13.5214 10.3031 6.60798 6.41904 6.2767 4.93996 8.97518 8.94832 2.86217 2.34103 3.34301 2.266 1.81281 1.67181 1.65738 1.56097 1.19911 0.830667 0.203791 0.00196162 0.0018476 0.000394199 3.93334e-05
threshold=1.0000000180025095e-35 1.5000000000000002 2.5000000000000004 1.5000000000000002 1.5000000000000002 33.500000000000007 9.5000000000000018 4.5000000000000009 34.500000000000007 4.5000000000000009 84.500000000000014 43.500000000000007 3.5000000000000004 2474.0000000000005 1000.0000000000001 7474.0000000000009 1.5000000000000002 3.5000000000000004 15680.000000000002 1.5000000000000002 11.500000000000002 2.5000000000000004 4.5000000000000009 9.5000000000000018 12.500000000000002
decision_type=2 2 2 2 2 2 2 2 2 2 2 2 2 2 2 2 2 2 2 2 2 2 2 2 2
left_child=2 5 -1 14 -4 13 -5 8 9 18 21 16 17 -2 15 -3 -9 -13 -6 -18 -21 -10 23 -22 -25
right_child=1 3 4 6 7 -7 -8 11 10 -11 -12 12 -14 -15 -16 -17 19 -19 -20 20 22 -23 -24 24 -26
leaf_value=0.036704339320143171 0.11439257782541429 -0.037926360441998104 0.035445330542577709 -0.0019408389957685287 -0.032633370748826933 0.035932119345699433 0.076432710333739717 -0.023454653678996771 -0.059064808511448103 0.077220113633173576 -0.0054655809430342117 -0.021431403581077188 -0.057195276832888442 0.073170215623853924 -0.058590637975744021 0.0065358416546065466 -0.033953305688434507 0.023656898173029416 0.0070361574926840883 -0.044526569342320056 -0.05724139545670115 -0.057501476078169106 -0.05818516559540568 -0.056793388092163555 -0.05658631831145168
leaf_weight=9.8843037039041501 7.1170817166566867 4.7408059760928136 4.1952017024159423 5.2318224832415581 3.7918570712208766 6.9764584153890601 4.9924096912145615 7.1291867494583121 3.6951295584440214 4.3433580175042152 3.7705984115600577 4.0453038513660413 3.8310107290744781 6.271370068192482 4.0829101353883752 3.8159393891692162 6.0024076998233822 3.6530112028121948 3.8281186670064926 3.8818644210696247 5.3929649442434338 4.3910038694739342 3.4558191299438468 5.3610050007700902 4.0078029707074165
leaf_count=57 32 37 31 40 30 41 30 58 29 30 31 33 35 32 33 30 47 30 32 35 49 39 29 51 39
internal_value=0 0.0347233 -0.018256 -0.00099074 -0.025521 0.0748198 0.0363283 -0.0291448 -0.0106113 0.0199433 -0.0414406 -0.0385858 -0.0190292 0.0950833 -0.0311782 -0.0180981 -0.0449857 -3.60631e-05 -0.0127042 -0.050448 -0.0549281 -0.0582159 -0.0571445 -0.0569008 -0.0567048
internal_weight=0 43.2288 84.6599 22.8639 74.7756 20.3649 10.2242 70.5804 23.8201 11.9633 11.8567 46.7604 11.5293 13.3885 12.6397 8.55675 35.2311 7.69832 7.61998 28.1019 22.0995 8.08613 18.2176 14.7618 9.36881
internal_count=960 275 685 170 628 105 70 597 191 92 99 406 98 64 100 67 308 63 62 250 203 68 168 139 90
is_linear=0
shrinkage=0.05


Tree=8
num_leaves=25
num_cat=0
split_feature=19 12 24 3 26 14 16 4 27 0 7 10 7 0 14 14 10 7 8 20 8 27 0 16
split_gain=28.9094 21.4086 12.3072 9.29584 6.05884 5.86696 5.81282 5.31225 4.71919 8.29407 9.42489 2.79368 2.60658 2.2817 3.31398 1.64169 1.22343 1.15144 0.840855 0.208189 0.00165145 0.000522889 0.000453782 3.48918e-05
threshold=1.0000000180025095e-35 1.5000000000000002 2.5000000000000004 1.5000000000000002 1.5000000000000002 3.5000000000000004 2474.0000000000005 9.5000000000000018 4.5000000000000009 34.500000000000007 851.00000000000011 84.500000000000014 1464.5000000000002 43.500000000000007 3.5000000000000004 1.5000000000000002 63.500000000000007 1435.5000000000002 1.5000000000000002 11.500000000000002 2.5000000000000004 9.5000000000000018 33.500000000000007 6434.5000000000009
decision_type=2 2 2 2 2 2 2 2 2 2 2 2 2 2 2 2 2 2 2 2 2 2 2 2
left_child=2 5 -1 12 -4 6 -2 -5 9 10 -6 20 -3 15 16 -10 -15 -12 -17 -20 -11 22 -21 -23
right_child=1 3 4 7 8 -7 -8 -9 13 11 17 -13 -14 14 -16 18 -18 -19 19 21 -22 23 -24 -25
leaf_value=0.034160023295674073 0.11625771742107545 -0.011516883648682578 0.032866951011138644 -0.0018463238549990711 0.077608895852607704 0.031307639479501846 0.051491103425506994 0.069505919476456665 -0.022667194624134471 -0.058548192982741311 -0.033591150271326566 -0.0052130496207003895 -0.05835358710847291 -0.057801490560705437 0.018971019816323254 -0.033053391488815545 -0.017311535454788484 0.0049148315121829173 -0.043769531532954063 -0.057288968793653042 -0.057083257771682716 -0.056508165768640532 -0.056641472176354658 -0.056278413333044036
leaf_weight=10.084113016724585 7.8279733061790484 7.4049915373325348 4.2953980267047873 5.2248439192771912 4.3482067584991473 6.9064655601978293 6.2148242443799973 5.2094724625349045 7.0110719278454772 3.5451432913541776 3.881447859108448 3.7559755071997643 4.9604812413454056 3.7924544960260373 3.9034352153539658 5.8611721694469479 3.6720096096396446 3.8843045458197594 3.7547974213957813 5.3640733212232607 4.2066775485873222 3.4553315639495841 5.4604047536849976 3.1672282740473747
leaf_count=57 36 59 31 40 32 36 33 30 58 29 30 31 41 33 34 47 31 30 35 49 39 34 53 32
internal_value=0 0.0325491 -0.017632 -0.000978162 -0.0247514 0.069038 0.0875944 0.0337772 -0.028335 -0.0102069 0.01867 -0.0406049 -0.0303057 -0.0377583 -0.018361 -0.0442297 -0.0378832 -0.0143311 -0.0498158 -0.0544497 -0.0577532 -0.0567482 -0.0569623 -0.0563983
internal_weight=0 43.7491 83.4432 22.7998 73.3591 20.9493 14.0428 10.4343 69.0637 23.6218 12.114 11.5078 12.3655 45.442 11.3679 34.0741 7.46446 7.76575 27.063 21.2018 7.75182 17.447 10.8245 6.62256
internal_count=960 275 685 170 628 105 69 70 597 191 92 99 100 406 98 308 64 60 250 203 68 168 102 66
is_linear=0
shrinkage=0.05


Tree=9
num_leaves=24
num_cat=0
split_feature=30 14 8 4 7 10 0 23 22 18 13 14 10 27 13 30 17 20 10 20 16 10 27
split_gain=24.3419 13.0065 10.8727 9.93996 8.14138 7.8267 6.01789 5.61514 5.54336 3.80309 4.62756 4.54186 3.43461 3.36212 2.17274 3.32084 1.82394 0.580179 1.24999 0.560523 0.00615549 0.00100505 0.000488834
threshold=1.0000000180025095e-35 2.5000000000000004 1.5000000000000002 9.5000000000000018 1496.5000000000002 70.500000000000014 31.500000000000004 1.0000000180025095e-35 1.5000000000000002 3.5000000000000004 6.5000000000000009 1.5000000000000002 92.500000000000014 2.5000000000000004 6.5000000000000009 3.5000000000000004 6679.5000000000009 15.500000000000002 64.500000000000014 13.500000000000002 4029.5000000000005 74.500000000000014 8.5000000000000018
decision_type=2 2 2 2 2 2 2 2 2 2 2 2 2 2 2 2 2 2 2 2 2 2 2
left_child=1 3 4 -1 7 -3 8 -2 -4 12 11 -11 16 -10 15 -15 -8 20 -19 -13 -18 22 -22
right_child=2 5 6 -5 -6 -7 9 -9 13 10 -12 19 -14 14 -16 -17 17 18 -20 -21 21 -23 -24
leaf_value=0.035545413015668804 0.069954255495947859 0.045182884113078255 0.045905760239546657 0.13150660549358464 -0.028671164232366365 -0.023420630198498937 -0.018563908985681808 0.010074288390275007 0.026390721803947793 0.016870284270544416 0.028009720017635409 -0.032565626305220821 0.0026240240452237926 -0.063237225071355013 0.0057289144924281953 -0.0085682083643697435 -0.05950937580228987 -0.05824598721618033 -0.019813214922697563 -0.057555593962708741 -0.057303005646757998 -0.057829159099822273 -0.056514314729818764
leaf_weight=5.3462020233273524 7.4044035896658924 9.0278259441256541 5.0778982415795353 5.4490551725029945 6.3827999681234351 7.7062950283288947 4.857308708131316 8.307740852236746 4.3327222019434002 3.9566871076822308 5.1310353800654402 3.8434995561838132 4.0370944589376441 5.4330712854862195 4.5507714226841918 5.6839151456952095 3.8018938750028637 4.8998900577425939 3.7232492566108704 5.3915689438581467 3.5970799401402456 4.1968307122588158 4.3291771560907364
leaf_count=33 47 58 38 30 50 55 39 59 26 32 40 33 34 39 36 45 31 43 30 49 33 37 43
internal_value=0 0.0411937 -0.0119628 0.0839832 0.0189483 0.01359 -0.0208507 0.0382929 -0.000747811 -0.0305898 -0.0122804 -0.0279516 -0.0406213 -0.0125926 -0.023373 -0.0352859 -0.0465584 -0.0520977 -0.0416517 -0.0471551 -0.057754 -0.0572035 -0.0568722
internal_weight=0 27.5294 98.9386 10.7953 22.0949 16.7341 76.8437 15.7121 25.0784 51.7653 18.3228 13.1918 33.4425 20.0005 15.6678 11.117 29.4054 24.5481 8.62314 9.23507 15.925 12.1231 7.92626
internal_count=960 176 784 63 156 113 628 106 184 444 154 114 290 146 120 84 256 217 73 82 144 113 76
is_linear=0
shrinkage=0.05


Tree=10
num_leaves=27
num_cat=0
split_feature=19 16 24 4 18 26 2 16 27 0 18 8 23 0 8 2 10 17 13 30 10 0 24 1 8 10
split_gain=25.7315 17.7304 10.286 8.48303 6.49733 5.41227 5.08659 6.51062 4.34531 7.62663 7.19241 2.72035 2.6067 2.26885 3.20344 1.51934 2.01673 2.91432 1.3361 1.26478 1.18823 0.972087 0.0007266 0.000565968 0.000680758 0.00033305
threshold=1.0000000180025095e-35 3814.0000000000005 2.5000000000000004 21.500000000000004 4.5000000000000009 1.5000000000000002 1101.0000000000002 2545.0000000000005 4.5000000000000009 34.500000000000007 4.5000000000000009 1.5000000000000002 1.0000000180025095e-35 43.500000000000007 3.5000000000000004 904.50000000000011 53.500000000000007 9677.5000000000018 3.5000000000000004 5.5000000000000009 65.500000000000014 36.500000000000007 9.5000000000000018 1.5000000000000002 2.5000000000000004 72.500000000000014
decision_type=2 2 2 2 2 2 2 2 2 2 2 2 2 2 2 2 2 2 2 2 2 2 2 2 2 2
left_child=2 6 -1 4 12 -4 7 -2 9 10 20 -11 -3 15 18 16 22 -18 -15 -19 -7 -14 -10 -17 -25 -13
right_child=1 3 5 -5 -6 8 -8 -9 13 11 -12 25 21 14 -16 23 17 19 -20 -21 -22 -23 -24 24 -26 -27
leaf_value=0.029302549226934396 0.11279596622664041 0.00019796450457675865 0.029904565132311725 0.064662509070070984 0.039731704510386288 -0.032280115528851391 0.026092285213841805 0.045464161770167259 -0.05756914561361573 -0.0040849507043070133 0.066122747197938189 -0.056549866255184614 -0.027307847839309812 -0.019210391666448546 -0.056440453876632914 -0.05735360937477612 0.0095305914050991588 -0.018867582136668296 0.022895092564270865 -0.057067761287965119 0.0072401473717207 -0.058775932018315685 -0.056526220606890269 -0.057150064907125445 -0.056263478816005956 -0.057213756196074439
leaf_weight=10.471346616744993 7.5210437774658221 5.0413475930690828 4.4087691977620116 4.2711535990238181 4.4628056287765494 3.840433597564699 6.0746467262506476 6.8693808615207672 3.1957306042313602 3.6026530787348729 4.6691980734467506 3.7560821548104286 4.6248879507184011 3.8608894646167737 3.5184697136282921 3.5233817696571341 4.4661159068346015 3.9013326764106733 3.6798060685396194 4.8737501800060272 3.7680903002619743 5.2288058400154114 3.4981290176510811 3.5377017483115178 5.5806979909539223 3.8006282448768616
leaf_count=57 33 40 31 27 32 32 30 35 29 27 30 37 35 33 35 32 40 36 30 46 30 43 35 33 57 35
internal_value=0 0.0303902 -0.016979 0.000883352 -0.013189 -0.0237587 0.0644589 0.0806546 -0.0272861 -0.00992097 0.0172713 -0.0398384 -0.0290449 -0.0366129 -0.017045 -0.0432558 -0.034657 -0.0233497 0.00133679 -0.0400843 -0.0127079 -0.0440062 -0.0570241 -0.0568154 -0.0566075 -0.0568838
internal_weight=0 44.0941 81.9532 23.629 19.3578 71.4819 20.4651 14.3904 67.0731 23.4371 12.2777 11.1594 14.895 43.636 11.0592 32.5768 19.9351 13.2412 7.5407 8.77508 7.60852 9.85369 6.69386 12.6418 9.1184 7.55671
internal_count=960 275 685 177 150 628 98 68 597 191 92 99 118 406 98 308 186 122 63 82 62 78 64 122 90 72
is_linear=0
shrinkage=0.05


Tree=11
num_leaves=25
num_cat=0
split_feature=19 12 24 3 23 8 17 17 0 14 17 7 7 18 24 0 2 20 17 18 30 0 0 2
split_gain=23.2253 15.7053 9.39738 8.10224 10.8672 5.04513 4.91677 5.21689 4.86803 3.32245 4.54113 2.62849 2.53379 2.23706 3.5154 3.0716 0.827366 1.19132 0.280114 0.182362 0.0015434 0.00134393 0.00049131 0.000136061
threshold=1.0000000180025095e-35 1.5000000000000002 2.5000000000000004 1.5000000000000002 1.0000000180025095e-35 1.5000000000000002 9366.5000000000018 19015.000000000004 33.500000000000007 1.5000000000000002 11534.000000000002 1140.5000000000002 1464.5000000000002 3.5000000000000004 7.5000000000000009 45.500000000000007 618.50000000000011 15.500000000000002 6853.5000000000009 2.5000000000000004 4.5000000000000009 35.500000000000007 34.500000000000007 1043.0000000000002
decision_type=2 2 2 2 2 2 2 2 2 2 2 2 2 2 2 2 2 2 2 2 2 2 2 2
left_child=2 8 -1 12 -5 6 -4 -8 11 10 -7 -2 -3 16 -15 21 17 -11 -18 -12 22 -16 -20 -22
right_child=1 3 5 4 -6 9 7 -9 -10 13 19 -13 -14 14 15 -17 18 -19 20 -21 23 -23 -24 -25
leaf_value=0.027416781869199713 0.095196729706321911 -0.010512923211914155 -0.035311397529096393 0.08969613215324479 -0.012583464214873708 0.028114890222979583 0.053524639762134153 -0.014626455529594309 0.026113857969828815 -0.047908783758554549 -0.026167258731768801 0.052284360197996996 -0.057734669139074581 0.013197335271365882 -0.057395222464427388 0.00071264547310861308 -0.039360104408174203 -0.0099169968399583138 -0.05733594576986744 -0.042784518634099822 -0.055641930029683484 -0.056023771111258683 -0.056484031270167115 -0.05609831601130108
leaf_weight=10.627816885709761 7.878951698541643 7.2669147104024887 6.2505284026265171 4.5313716605305672 6.0839050710201263 5.109365835785864 5.7103080004453641 5.5249737128615379 7.5132586061954489 5.8294899985194224 3.2319464087486267 6.5226259976625443 4.6638604626059532 4.7701880708336821 3.0648346021771413 3.4295664280653 2.9487774297595051 3.1939746141433716 3.3825668618082982 3.3752872496843338 3.8038940206170082 4.2820236757397652 3.3870429992675781 2.8616650998592377
leaf_count=57 34 59 49 28 42 38 42 42 41 59 30 30 41 36 28 31 30 31 31 30 42 45 34 30
internal_value=0 0.0285984 -0.0163981 -0.000699592 0.0310769 -0.0230355 0.00023542 0.0200112 0.0587402 -0.0307611 -0.007283 0.0757613 -0.0289724 -0.037478 -0.0225389 -0.0383576 -0.0466191 -0.0344611 -0.0533151 -0.0346561 -0.0563779 -0.0565959 -0.0569097 -0.0558379
internal_weight=0 44.4609 80.7843 22.5461 10.6153 70.1564 17.4858 11.2353 21.9148 52.6706 11.7166 14.4016 11.9308 40.954 15.5466 10.7764 25.4074 9.02346 16.3839 6.60723 13.4352 7.34686 6.76961 6.66556
internal_count=960 275 685 170 70 628 133 84 105 495 98 64 100 397 140 104 257 90 167 60 137 73 65 72
is_linear=0
shrinkage=0.05


Tree=12
num_leaves=24
num_cat=0
split_feature=19 12 24 4 13 14 18 0 27 16 17 4 14 22 28 6 14 13 22 17 27 27 7
split_gain=20.9869 13.8327 8.58566 8.00447 4.98669 4.33134 4.2489 5.51657 5.04647 4.03009 3.21927 2.64031 2.80303 2.31811 9.66248 1.89312 1.64989 2.76087 1.68997 1.88101 0.276594 0.00316138 0.000687067
threshold=1.0000000180025095e-35 1.5000000000000002 2.5000000000000004 12.500000000000002 6.5000000000000009 3.5000000000000004 1.5000000000000002 33.500000000000007 5.5000000000000009 2474.0000000000005 16900.500000000004 7.5000000000000009 3.5000000000000004 1.5000000000000002 3.5000000000000004 4.5000000000000009 1.5000000000000002 2.5000000000000004 3.5000000000000004 10244.500000000002 11.500000000000002 4.5000000000000009 1119.0000000000002
decision_type=2 2 2 2 2 2 2 2 2 2 2 2 2 2 2 2 2 2 2 2 2 2 2
left_child=2 5 -1 11 13 9 10 -8 -9 -2 -6 12 -3 14 -4 16 17 -15 20 -20 21 -18 -23
right_child=1 3 4 -5 6 -7 7 8 -10 -11 -12 -13 -14 15 -16 -17 18 -19 19 -21 -22 22 -24
leaf_value=0.025685158495071178 0.093151376077834788 0.011486503260759324 0.046249928731199638 0.035698686338954476 0.00060981380929263156 0.023163963531985791 0.066854241965872835 -0.045349981396305514 0.03577640450248179 0.040955725701935314 -0.056782654222070052 -0.05883971390263714 -0.044434230309582885 0.013273807927349311 -0.057263755221214623 -0.002105874408032571 -0.057759979469580086 -0.04694418320183763 -0.057054097957280753 -0.0081384704717889413 -0.040432460343528737 -0.05678153824137331 -0.055932111872354917
leaf_weight=10.773214578628538 8.4200626909732836 5.678436644375326 4.2577329725027067 9.0323894172906858 5.180213466286661 7.2493311911821356 3.8828170970082265 3.9800226241350174 3.6980036050081253 6.5945349335670462 4.6247056275606155 4.0616575181484214 3.7017167285084724 3.4671459123492232 4.7913800850510597 3.5893715247511855 6.3060308322310474 4.220300979912281 3.2157329246401805 5.0543968230485916 3.0410495847463599 4.3709908202290517 5.2279331162571907
leaf_count=57 36 46 35 59 49 36 27 35 31 33 45 33 32 29 45 33 57 35 31 47 30 43 56
internal_value=0 0.0269691 -0.0158237 -0.000703023 -0.0223133 0.0549026 -0.00224911 0.018285 -0.0062767 0.0702266 -0.0264606 -0.0251636 -0.0105817 -0.0313303 -0.00855913 -0.0366835 -0.0402393 -0.019785 -0.0460168 -0.0271587 -0.0542486 -0.0568903 -0.0563189
internal_weight=0 44.7381 79.681 22.4742 68.9078 22.2639 21.3658 11.5608 7.67803 15.0146 9.80492 13.4418 9.38015 47.5421 9.04911 38.493 34.9036 7.68745 27.2161 8.27013 18.946 15.905 9.59892
internal_count=960 275 685 170 628 105 187 93 66 69 94 111 78 441 80 361 328 64 264 78 186 156 99
is_linear=0
shrinkage=0.05


Tree=13
num_leaves=25
num_cat=0
split_feature=30 14 8 0 7 0 22 29 23 17 18 22 13 10 25 27 13 30 17 20 10 16 10 4
split_gain=18.5912 9.78487 9.01554 8.13012 6.5891 4.8666 4.87808 4.43651 4.90812 4.204 3.67199 4.35152 4.05029 3.27506 2.81268 2.50705 2.17631 3.30942 1.79839 0.592452 1.52847 0.00914671 0.00118567 0.00105435
threshold=1.0000000180025095e-35 1.5000000000000002 1.5000000000000002 31.500000000000004 1496.5000000000002 31.500000000000004 1.5000000000000002 1.0000000180025095e-35 1.0000000180025095e-35 18404.000000000004 3.5000000000000004 2.5000000000000004 6.5000000000000009 92.500000000000014 2.5000000000000004 2.5000000000000004 6.5000000000000009 3.5000000000000004 6679.5000000000009 15.500000000000002 65.500000000000014 4029.5000000000005 57.500000000000007 9.5000000000000018
decision_type=2 2 2 2 2 2 2 2 2 2 2 2 2 2 2 2 2 2 2 2 2 2 2 2
left_child=1 -1 4 -3 7 6 -4 -2 -9 -5 13 -12 14 18 -13 -8 17 -17 -7 21 -21 -20 -23 -24
right_child=2 3 5 9 -6 10 15 8 -10 -11 11 12 -14 -15 -16 16 -18 -19 19 20 -22 22 23 -25
leaf_value=0.096862246281888956 -0.0022806373903230966 0.053500636831746343 0.041919467746522374 0.017744284656694701 -0.02735281143823285 -0.016897863464323742 0.019810375954815895 0.088103013727041768 0.019660758327215505 -0.041415482485044987 -0.042755778426433792 0.017718213401557398 0.053184210676764966 0.0037032247731508625 -0.043392618113706843 -0.063908553270355203 0.006757190236316689 -0.0079345170359393421 -0.059360274175238641 -0.057690989217567039 -0.012977579752652985 -0.05583623168607918 -0.05622770472567841 -0.05754662492514015
leaf_weight=5.2386117577552822 5.580738849937922 10.526234187185766 5.1484134420752552 7.4276575148105604 6.0865014791488639 4.6512069851160112 4.5313989445567158 5.0930042713880521 5.3933001011610031 5.0410185679793358 6.5244086012244251 3.8861161321401578 3.5017434731125832 3.9214704334735861 3.6526492014527321 5.1053448393940908 4.4394584372639647 5.4700078070163727 3.4983781799674061 4.8793207257986051 3.1420220583677292 4.822288513183592 3.0321184098720551 3.0289447233080864
leaf_count=28 38 53 38 56 50 39 26 30 38 39 59 33 26 34 36 39 36 45 31 47 26 53 32 28
internal_value=0 0.0351924 -0.0109969 0.021143 0.0169515 -0.0194512 -0.00138052 0.0337348 0.0529019 -0.00617369 -0.0286445 -0.0103822 0.0087491 -0.0390002 -0.0118909 -0.0127856 -0.0226229 -0.0349565 -0.04519 -0.0510638 -0.0401764 -0.0571362 -0.0564213 -0.0568868
internal_weight=0 28.2335 95.3888 22.9949 22.1535 73.2353 24.6946 16.067 10.4863 12.4687 48.5407 17.5649 11.0405 30.9758 7.53877 19.5462 15.0148 10.5754 27.0543 22.4031 8.02134 14.3817 10.8834 6.06106
internal_count=960 176 784 148 156 628 184 106 68 95 444 154 95 290 69 146 120 84 256 217 73 144 113 60
is_linear=0
shrinkage=0.05


Tree=14
num_leaves=25
num_cat=0
split_feature=19 16 27 23 8 4 14 26 2 16 4 16 16 16 6 4 7 2 6 15 2 16 27 16
split_gain=18.9408 11.6409 7.48877 8.28862 7.30399 6.89465 6.61039 5.82643 4.14577 4.83274 3.6673 2.14668 3.67769 3.04498 2.12458 2.03098 1.43382 0.924492 1.39976 1.57195 0.842941 0.218794 0.000555808 0.00022474
threshold=1.0000000180025095e-35 3814.0000000000005 4.5000000000000009 1.0000000180025095e-35 3.5000000000000004 12.500000000000002 2.5000000000000004 1.5000000000000002 1101.0000000000002 2545.0000000000005 11.500000000000002 6726.5000000000009 10602.500000000002 9222.5000000000018 1.5000000000000002 3.5000000000000004 1314.5000000000002 904.50000000000011 2.5000000000000004 1.5000000000000002 618.50000000000011 5245.5000000000009 8.5000000000000018 3760.5000000000005
decision_type=2 2 2 2 2 2 2 2 2 2 2 2 2 2 2 2 2 2 2 2 2 2 2 2
left_child=2 8 3 4 6 15 -1 -4 9 -2 14 17 13 -13 -5 -3 -17 18 21 -20 -14 -9 23 -19
right_child=1 5 7 10 -6 -7 -8 11 -10 -11 -12 12 20 -15 -16 16 -18 22 19 -21 -22 -23 -24 -25
leaf_value=0.097180226020297966 0.093395521936036494 -0.00073824757575384481 0.037776875150385192 -0.060582700592171024 -0.023301605770965229 0.035381002898660543 0.020145130170295952 -0.057166543326165366 0.018141598618097228 0.03672273972080152 0.012338770485351388 -0.019408154613274685 -0.023074231056530871 0.043949635613797451 -0.018932605871093147 -0.058416101434046491 -0.014534807971963186 -0.055938544908596136 -0.041935001372613606 0.0069491145291145934 -0.056555961305811336 -0.039893123878298867 -0.05540653299960923 -0.056521043751454482
leaf_weight=4.3449235334992427 7.8908041864633578 6.8356553837656993 3.0165066868066779 5.383980721235277 5.1475608497858039 8.997947081923483 7.7554297670722008 4.653754837810995 6.3217890411615363 7.1886998265981674 5.4260941222310057 5.3450043424963969 2.9644021019339544 2.9391782507300377 7.0989170596003532 4.0836643353104591 3.4210577309131622 3.1693785563111287 3.4998546168208122 3.1022406294941902 5.1381236165761948 3.0247736126184464 2.8351003900170326 3.4675581231713295
leaf_count=29 33 55 21 42 39 58 53 45 30 35 41 53 30 27 54 34 30 34 37 29 52 31 33 35
internal_value=0 0.0254959 -0.0152846 0.00184608 0.0265846 0.00107265 0.0478064 -0.02924 0.0521296 0.0663785 -0.0219792 -0.0342764 -0.0203551 0.00307081 -0.0368966 -0.0204543 -0.0384126 -0.0438805 -0.0358468 -0.018965 -0.0443063 -0.0503621 -0.0559926 -0.0562429
internal_weight=0 44.7396 78.3128 35.1569 17.2479 23.3383 12.1004 43.1559 21.4013 15.0795 17.909 40.1394 16.3867 8.28418 12.4829 14.3404 7.50472 23.7527 14.2806 6.6021 8.10253 7.67853 9.47204 6.63694
internal_count=960 275 685 258 121 177 82 427 98 68 137 406 162 80 96 119 64 244 142 66 82 76 102 69
is_linear=0
shrinkage=0.05


Tree=15
num_leaves=27
num_cat=0
split_feature=19 12 0 30 3 4 8 14 27 0 13 13 3 2 2 13 20 14 2 4 4 22 24 30 4 17
split_gain=17.152 10.4429 7.27707 10.6118 7.11456 8.50584 5.01052 4.10321 4.33386 3.90746 3.58062 3.1598 3.00142 1.83999 1.65976 1.5306 3.147 1.83236 1.71698 0.999336 0.947903 1.68512 0.0124042 0.000624734 0.000279277 0.000187411
threshold=1.0000000180025095e-35 1.5000000000000002 31.500000000000004 1.0000000180025095e-35 1.5000000000000002 11.500000000000002 1.5000000000000002 3.5000000000000004 3.5000000000000004 33.500000000000007 5.5000000000000009 2.5000000000000004 1.5000000000000002 1000.0000000000001 556.00000000000011 6.5000000000000009 15.500000000000002 1.5000000000000002 867.50000000000011 6.5000000000000009 2.5000000000000004 2.5000000000000004 6.5000000000000009 4.5000000000000009 8.5000000000000018 15327.000000000002
decision_type=2 2 2 2 2 2 2 2 2 2 2 2 2 2 2 2 2 2 2 2 2 2 2 2 2 2
left_child=2 9 3 -1 13 -6 11 8 -5 19 -10 -4 -13 14 -3 17 18 -8 -17 -2 21 -19 -22 24 -24 -25
right_child=1 4 6 7 5 -7 15 -9 10 -11 -12 12 -14 -15 -16 16 -18 20 -20 -21 22 -23 23 25 -26 -27
leaf_value=0.05110874490090303 0.049526313471755755 -0.035021976995120566 0.036629037828521824 0.033626890822304842 -0.0099723953715592003 0.079966091301599776 -0.014359358447934728 -0.049480570653460725 -0.057560398371539478 0.019444660420966469 0.0075249183233421189 -0.046846538172059096 0.013552779423917031 -0.057302301710176723 0.01100671898562139 -0.057290118635595612 0.021812985909614547 -0.0049688937809881789 -0.0086488846590849228 0.075481598698914354 -0.059235962188721493 -0.056705563893855428 -0.056189104210827914 -0.055415467630594253 -0.055501053909117221 -0.054842577408757712
leaf_weight=8.744970954954626 7.1337476670742053 4.3145166784524918 4.1212130561470977 5.6847795248031643 6.0600283667445183 4.6429863125085831 4.657220475375655 6.0031540468335143 3.9543085992336255 7.8699562847614279 4.5385064706206322 4.1633171737194044 4.0652619749307632 3.5885459035634995 3.5866300165653229 4.5002342239022237 3.1519863307476044 2.9088149517774609 3.0396802797913551 7.723740428686142 2.688516028225421 3.4295047372579575 2.8298610299825651 2.5858816057443619 3.0799496322870255 3.1868967115879059
leaf_count=45 32 37 31 38 47 23 44 56 36 41 40 34 31 33 30 44 30 31 29 32 24 37 30 30 35 40
internal_value=0 0.0241078 -0.0147388 0.00510296 -0.000288804 0.0290431 -0.026595 -0.0148328 -0.000162103 0.0479305 -0.0227792 0.000891891 -0.0170068 -0.0276124 -0.0141278 -0.0360091 -0.0201418 -0.042697 -0.0376806 0.0630193 -0.0490697 -0.0329623 -0.0561738 -0.0554691 -0.0558305 -0.0550992
internal_weight=0 44.9202 77.3341 28.9257 22.1927 10.703 48.4083 20.1807 14.1776 22.7274 8.49282 12.3498 8.22858 11.4897 7.90115 36.0585 10.6919 25.3666 7.53991 14.8575 20.7094 6.33832 14.3711 11.6826 5.90981 5.77278
internal_count=960 275 685 215 170 70 470 170 114 105 76 96 65 100 67 374 103 271 73 64 227 68 159 135 65 70
is_linear=0
shrinkage=0.05


Tree=16
num_leaves=24
num_cat=0
split_feature=19 30 8 0 30 29 24 8 7 7 14 27 13 7 7 4 27 6 13 10 2 24 18
split_gain=15.5588 9.39686 9.8225 6.74583 9.41193 5.79157 7.02805 4.74545 4.67177 5.11543 3.88487 3.89478 3.41791 2.67077 1.99297 2.89164 3.19152 1.20307 1.35926 1.43103 0.251604 0.00711134 0.00145885
threshold=1.0000000180025095e-35 1.0000000180025095e-35 1.5000000000000002 31.500000000000004 1.0000000180025095e-35 1.5000000000000002 10.500000000000002 1.5000000000000002 1477.0000000000002 939.00000000000011 3.5000000000000004 3.5000000000000004 5.5000000000000009 1230.5000000000002 1566.0000000000002 10.500000000000002 5.5000000000000009 1.5000000000000002 5.5000000000000009 60.500000000000007 970.50000000000011 7.5000000000000009 4.5000000000000009
decision_type=2 2 2 2 2 2 2 2 2 2 2 2 2 2 2 2 2 2 2 2 2 2 2
left_child=3 -2 -3 4 -1 13 -7 8 9 -5 11 -6 -13 -4 17 16 -16 21 20 -20 -19 -9 -23
right_child=1 2 5 7 10 6 -8 14 -10 -11 -12 12 -14 -15 15 -17 -18 18 19 -21 -22 22 -24
leaf_value=0.04743545487229775 0.063411464546563587 0.061951957169129705 -0.0040334139544413103 -0.015413700175081538 0.031304303732092184 0.059261307465756745 -0.020393636613554346 -0.058594983011681305 -0.045146243938630377 0.062111540063450557 -0.048805053781283469 -0.057141961660622687 0.0071094979354664111 -0.045261089031784385 -0.032991378318741382 -0.055879696202548949 0.029592553656147293 -0.055965024993384904 0.0073788145619623526 -0.040845460441088999 -0.036296201901604021 -0.055152142978370781 -0.056626965814339292
leaf_weight=8.9456278905272502 10.837921649217604 7.1789002865552893 8.3698202669620532 4.481488384306429 5.7981830611825016 6.1912830397486669 5.0099780485033989 3.0051485598087329 3.8179669156670561 4.0514799430966377 5.7874203845858565 3.7883004844188672 4.562869556248188 7.4025211408734313 4.1065442338585836 3.5757034197449675 4.0423610731959343 4.427562974393366 3.1033454239368439 3.0505433976650238 2.5695248991250992 4.5252463668584824 2.6637824848294258
leaf_count=45 55 39 55 34 38 35 40 28 33 29 56 36 40 51 41 40 42 50 32 30 29 55 27
internal_value=0 0.0228476 0.00997507 -0.0142244 0.00482513 -0.00385834 0.0236341 -0.0258268 0.000825887 0.0213955 -0.0142941 -0.000178321 -0.0220366 -0.023383 -0.0352134 -0.0183943 -0.00194588 -0.0436605 -0.033667 -0.0165264 -0.0487421 -0.0565524 -0.0556986
internal_weight=0 44.9904 34.1525 76.3031 28.8824 26.9736 11.2013 47.4207 12.3509 8.53297 19.9368 14.1494 8.35117 15.7723 35.0698 11.7246 8.14891 23.3452 13.151 6.15389 6.99709 10.1942 7.18903
internal_count=960 275 220 685 215 181 75 470 96 63 170 114 76 106 374 123 83 251 141 62 79 110 82
is_linear=0
shrinkage=0.05


Tree=17
num_leaves=25
num_cat=0
split_feature=30 4 10 15 18 9 8 16 10 0 2 29 9 7 20 16 17 22 17 7 4 8 5 17
split_gain=13.5299 8.21815 9.00731 9.02957 7.4133 8.85145 9.71902 5.46587 4.51331 6.77859 4.38091 5.28113 3.5165 6.40559 3.14653 2.91789 2.88884 2.09641 1.88975 0.941094 0.0211463 0.00323543 0.00121064 0.000299639
threshold=1.0000000180025095e-35 10.500000000000002 58.500000000000007 1.5000000000000002 4.5000000000000009 1.0000000180025095e-35 3.5000000000000004 4643.0000000000009 91.500000000000014 34.500000000000007 743.00000000000011 5.5000000000000009 1.0000000180025095e-35 1172.0000000000002 13.500000000000002 3505.5000000000005 16037.500000000002 1.5000000000000002 9750.0000000000018 1321.5000000000002 18.500000000000004 1.5000000000000002 2.5000000000000004 16556.500000000004
decision_type=2 2 2 2 2 2 2 2 2 2 2 2 2 2 2 2 2 2 2 2 2 2 2 2
left_child=1 2 -1 -4 7 14 -7 8 9 12 11 16 -2 -14 -6 -3 18 -12 -9 -11 21 -19 -23 -24
right_child=4 15 3 -5 5 6 -8 10 -10 19 17 -13 13 -15 -16 -17 -18 20 -20 -21 -22 22 23 -25
leaf_value=0.058922343212500221 0.029476771877292425 0.090817632928366712 -0.053102425883434369 0.03293024636950722 -0.058890455518020524 0.075301065036405379 -0.015983903543519723 -0.031593939326340102 0.04215153954872345 -0.059791977174569112 -0.013931696953996434 0.034283753859624518 0.019464986646404524 -0.053014748447389959 0.0029364915389551447 0.037372394635262582 -0.056912671101692042 -0.057807976621890779 0.020513760763062643 -0.029147323402786515 -0.061034683906657054 -0.056600833973250921 -0.055756031264552877 -0.054998745257491079
leaf_weight=6.1680335178971353 8.7816966399550473 5.3663660883903486 6.8956099525094015 5.4685456678271294 3.6106695681810379 8.1252387017011625 4.5479163080453882 3.9511077478528041 4.6281524971127501 5.067330636084078 3.4458471909165409 4.3103750869631758 7.0530496314167976 5.3687574416399002 4.785036712884903 4.8727332204580307 5.5271646529436111 2.8345958068966857 3.1091698259115219 4.9552075788378716 3.0422080159187308 3.3551433607935888 2.6574376448988914 2.5689589008688927
leaf_count=37 56 26 46 33 32 55 38 39 35 46 33 41 46 46 42 34 56 25 27 45 25 35 30 32
internal_value=0 0.0294324 0.0095694 -0.015051 -0.00986645 0.0161643 0.0425423 -0.0176285 -0.00392737 -0.0107569 -0.0317439 -0.0134834 0.00525952 -0.0118611 -0.0236529 0.0653833 -0.0298405 -0.0489779 -0.00864701 -0.0446411 -0.0573305 -0.0563434 -0.0558596 -0.0553838
internal_weight=0 28.7713 18.5322 12.3642 91.7251 21.0689 12.6732 70.6562 35.8542 31.226 34.802 16.8978 21.2035 12.4218 8.39571 10.2391 12.5874 17.9042 7.06028 10.0225 14.4583 11.4161 8.58154 5.2264
internal_count=960 176 116 79 784 167 93 617 274 239 343 163 148 92 74 60 122 180 66 91 147 122 97 62
is_linear=0
shrinkage=0.05


Tree=18
num_leaves=24
num_cat=0
split_feature=19 16 24 23 15 29 8 2 4 7 30 8 17 13 16 17 6 16 24 14 30 9 10
split_gain=13.8283 8.13085 5.94768 5.96002 5.31942 4.19716 3.67909 3.67974 3.55388 3.54641 3.0646 2.89111 3.65643 3.1516 3.25932 2.51255 2.45013 1.7616 0.323831 0.00186692 0.000494357 0.00026282 0.000135151
threshold=1.0000000180025095e-35 3505.5000000000005 7.5000000000000009 1.0000000180025095e-35 1.5000000000000002 1.5000000000000002 3.5000000000000004 782.50000000000011 11.500000000000002 1002.5000000000001 1.0000000180025095e-35 1.5000000000000002 13524.500000000002 6.5000000000000009 6726.5000000000009 6226.0000000000009 1.5000000000000002 2474.0000000000005 25.500000000000004 1.5000000000000002 4.5000000000000009 1.0000000180025095e-35 67.500000000000014
decision_type=2 2 2 2 2 2 2 2 2 2 2 2 2 2 2 2 2 2 2 2 2 2 2
left_child=2 10 3 6 5 9 7 -1 16 -3 -2 12 -4 15 -15 -13 -5 -12 19 -17 21 -21 -22
right_child=1 4 11 8 -6 -7 -8 -9 -10 -11 17 13 -14 14 -16 18 -18 -19 -20 20 22 -23 -24
leaf_value=0.062083593627471713 0.071775548689049035 0.0018648612728904873 -0.033030924725897866 -0.05938614368164237 0.036474812195091806 0.016118909747792964 -0.012367273957605748 0.0039340506465508499 0.0195638829100684 -0.058949747843935613 0.048273438545243158 -0.0088881371684030666 0.022726888959240271 -0.037076752045336323 0.021879576158760961 -0.056132298148679149 -0.012712605495939083 0.011705341350599127 -0.035500066869443563 -0.054722200080849596 -0.054277830435029789 -0.055403681862617175 -0.054751131267656274
leaf_weight=6.9602693989872986 6.9825914353132275 4.0260241478681618 5.7797182425856573 5.180615194141863 7.7782236859202376 7.0311021953821173 4.9180560857057563 4.4664048701524734 4.2496591582894316 5.9255348592996597 6.898982569575308 4.0940129160881069 5.9848934933543205 5.0265208631753939 4.3931064084172249 3.220047794282439 6.149512492120266 6.3015987724065781 2.4559711292386046 2.4821577593684179 3.7306530959904194 3.2900583520531654 2.5319542661309242
leaf_count=43 29 32 48 44 51 53 37 34 33 50 30 41 45 52 42 34 49 30 27 32 52 39 33
internal_value=0 0.0214316 -0.0136493 0.00269929 0.00223102 -0.013453 0.0237916 0.0393544 -0.0194286 -0.0343465 0.0449869 -0.0257901 -0.00466581 -0.0337492 -0.00958082 -0.0441899 -0.0340537 0.0308168 -0.0523502 -0.055063 -0.0547768 -0.0551106 -0.0544692
internal_weight=0 44.9441 74.9136 31.9245 24.7609 16.9827 16.3447 11.4267 15.5798 9.95156 20.1832 42.9891 11.7646 31.2245 9.41963 21.8049 11.3301 13.2006 17.7108 15.2549 12.0348 5.77222 6.26261
internal_count=960 275 685 240 186 135 114 77 126 82 89 445 93 352 94 258 93 60 217 190 156 71 85
is_linear=0
shrinkage=0.05


Tree=19
num_leaves=24
num_cat=0
split_feature=19 16 0 27 23 4 27 14 14 22 16 24 17 17 10 16 23 17 7 28 17 27 9
split_gain=12.5408 7.29676 5.68741 7.58809 5.20235 4.64388 5.69327 3.42123 2.83559 2.38323 2.29802 3.62204 3.01108 3.36605 2.65188 2.18837 2.15986 3.99929 1.85445 1.51483 0.249223 0.00302006 0.000715907
threshold=1.0000000180025095e-35 3505.5000000000005 31.500000000000004 2.5000000000000004 1.0000000180025095e-35 21.500000000000004 2.5000000000000004 2.5000000000000004 2.5000000000000004 2.5000000000000004 13118.000000000002 19.500000000000004 15060.500000000002 13217.500000000002 58.500000000000007 8404.0000000000018 1.0000000180025095e-35 21476.000000000004 1483.5000000000002 2.5000000000000004 17271.500000000004 4.5000000000000009 1.0000000180025095e-35
decision_type=2 2 2 2 2 2 2 2 2 2 2 2 2 2 2 2 2 2 2 2 2 2 2
left_child=2 8 3 4 -1 6 -3 -5 -2 -8 11 12 13 14 -4 -11 17 -14 -9 -16 -12 -18 -23
right_child=1 5 10 7 -6 -7 9 18 -10 15 20 -13 16 -15 19 -17 21 -19 -20 -21 -22 22 -24
leaf_value=0.06119414409779772 0.065444971268815197 0.04375677631044067 0.0087319805451584066 0.0074923282586497903 -0.0016782633248070722 0.046513609383296781 0.0049889236859579529 -0.056808498215454584 0.027274446448059937 -0.05236284406694032 -0.056254298184769604 0.030488020690382384 -0.056346174467904186 0.037973883904649702 -0.015603031926993664 -0.004130179956492762 -0.057614470810646336 0.014636034457237983 -0.0087826684656625888 -0.055846386472883425 -0.037184548022872015 -0.055059395493314844 -0.056151345387926203
leaf_weight=7.1000251770019549 8.116838142275812 4.1388423815369668 5.2757893130183247 6.6833849474787703 6.1315807029604912 4.75463593751192 5.3700205311179152 5.7214722856879217 12.14652907848358 6.9205892086029035 4.8352588117122641 3.3457407578825942 3.9068038538098362 3.0700022950768462 4.7057250514626485 3.562110610306263 2.7929346933960897 4.0326941981911659 3.0986423343420029 4.6481299288570881 2.653586357831955 2.8994610235095024 3.1122108697891235
leaf_count=34 35 27 55 56 35 28 44 58 54 57 53 30 44 28 44 30 27 36 32 52 30 36 35
internal_value=0 0.0203168 -0.0131521 0.00424641 0.0320588 0.00209949 -0.00846361 -0.0194903 0.0425643 -0.0220974 -0.0241937 -0.0191792 -0.0240037 -0.00962487 -0.0196134 -0.035973 -0.0392032 -0.0202923 -0.0399363 -0.0356008 -0.0494972 -0.0562559 -0.0556247
internal_weight=0 45.0096 74.0134 28.7351 13.2316 24.7462 19.9916 15.5035 20.2634 15.8527 45.2783 37.7895 34.4438 17.6996 14.6296 10.4827 16.7441 7.9395 8.82011 9.35385 7.48885 8.80461 6.01167
internal_count=960 275 685 215 69 186 158 146 89 131 470 387 357 179 151 87 178 80 90 96 83 98 71
is_linear=0
shrinkage=0.05


Tree=20
num_leaves=24
num_cat=0
split_feature=30 4 10 15 18 9 8 7 11 22 16 20 29 20 23 10 10 16 20 16 18 8 24
split_gain=10.8107 7.03405 7.62456 7.78203 6.85189 7.59117 7.82135 5.01029 5.42091 5.39859 5.13081 5.21922 7.67128 4.75148 3.96086 3.11894 2.50599 2.25623 1.74224 1.13818 0.148047 0.00744716 0.00341553
threshold=1.0000000180025095e-35 10.500000000000002 58.500000000000007 1.5000000000000002 4.5000000000000009 1.0000000180025095e-35 3.5000000000000004 1822.5000000000002 3.5000000000000004 1.5000000000000002 3292.5000000000005 14.500000000000002 2.5000000000000004 13.500000000000002 1.0000000180025095e-35 71.500000000000014 70.500000000000014 3505.5000000000005 17.500000000000004 7921.5000000000009 1.5000000000000002 2.5000000000000004 8.5000000000000018
decision_type=2 2 2 2 2 2 2 2 2 2 2 2 2 2 2 2 2 2 2 2 2 2 2
left_child=1 2 -1 -4 7 15 -7 8 9 13 14 19 18 -2 -11 -6 -16 -3 -13 21 -9 -12 -23
right_child=4 17 3 -5 5 6 -8 20 -10 10 11 12 -14 -15 16 -17 -18 -19 -20 -21 -22 22 -24
leaf_value=0.051866954521083954 0.062947755260243973 0.081165146474008187 -0.052494417415415523 0.027931015032703833 0.0047699192969622058 0.06798669442217728 -0.014304614389027248 -0.057419696236839124 -0.054188759095398643 0.034891787971241886 -0.059115279312182183 -0.0087690914103438558 0.055033963042765893 -0.0028917654852043807 -0.043621216848054908 -0.05812476215710452 0.012737224178352919 0.034535144125495222 -0.056532044868909573 -0.028718852676869334 -0.043814949289160438 -0.057591615288706266 -0.05514308725422961
leaf_weight=6.3704726248979631 4.6777469366788846 5.4525661095976812 6.5741101987659913 5.5444949865341187 4.6173193603754044 8.4430736452341062 4.3881511688232431 5.4484138712286931 6.6480339094996443 7.3664000295102579 3.9853080585598963 4.0166619271039945 3.8523783609271049 6.6160675808787346 4.0369938127696514 3.4394572302699089 3.8568355739116669 4.9483957588672638 3.6390137672424316 5.3436590768396846 3.1591481417417526 2.6985789388418198 3.0160755775868893
leaf_count=37 38 26 46 33 41 55 38 57 59 43 36 37 34 59 30 33 30 34 39 57 33 27 38
internal_value=0 0.0260861 0.00758157 -0.0156982 -0.00910376 0.015959 0.0398439 -0.0167618 -0.0116243 -0.00629582 -0.0145811 -0.0278596 -0.00251404 0.0243781 0.00852239 -0.02208 -0.0160851 0.0589803 -0.0314725 -0.0472484 -0.0524265 -0.0574563 -0.0562993
internal_weight=0 28.89 18.4891 12.1186 89.2493 20.888 12.8312 68.3613 59.7538 53.1057 41.8119 26.5517 11.5081 11.2938 15.2602 8.05678 7.89383 10.401 7.65568 15.0436 8.60756 9.69996 5.71465
internal_count=960 176 116 79 784 167 93 617 527 468 371 268 110 97 103 74 60 60 76 158 90 101 65
is_linear=0
shrinkage=0.05


Tree=21
num_leaves=26
num_cat=0
split_feature=19 8 30 0 27 13 29 24 8 7 7 16 14 7 7 4 27 20 14 6 13 24 2 24 0
split_gain=11.2912 7.99116 6.66055 5.1941 6.56247 5.47701 4.56015 5.32994 4.17829 4.28969 5.44368 2.84222 2.54577 4.34916 2.09728 3.00665 3.10188 1.74737 1.51584 1.22746 1.29145 1.50689 0.27635 0.0064855 0.00147189
threshold=1.0000000180025095e-35 1.5000000000000002 1.0000000180025095e-35 31.500000000000004 3.5000000000000004 3.5000000000000004 1.5000000000000002 10.500000000000002 1.5000000000000002 1477.0000000000002 965.00000000000011 2658.0000000000005 3.5000000000000004 1230.5000000000002 1566.0000000000002 10.500000000000002 5.5000000000000009 12.500000000000002 2.5000000000000004 1.5000000000000002 5.5000000000000009 9.5000000000000018 970.50000000000011 8.5000000000000018 45.500000000000007
decision_type=2 2 2 2 2 2 2 2 2 2 2 2 2 2 2 2 2 2 2 2 2 2 2 2 2
left_child=3 -2 -3 4 5 -1 12 -8 9 10 -5 -7 13 -4 19 16 -16 -6 -19 23 22 -22 -21 -10 -25
right_child=1 2 6 8 17 11 7 -9 14 -11 -12 -13 -14 -15 15 -17 -18 18 -20 20 21 -23 -24 24 -26
leaf_value=0.062353095954553996 0.063183043372916747 0.044086495716737464 0.025146242479592119 -0.016102427356629093 0.0021737349946908254 -0.023022313811732406 0.049539610082589738 -0.019521136190777 -0.057631611079856607 -0.04414352860419056 0.064127308692109572 0.028844978889512707 -0.049294580185236803 -0.042444770970658213 -0.030105748437383308 -0.055368017773186798 0.033781455191296279 -0.010716876383088008 -0.055750182824965258 -0.055363446740670133 0.010882655662570247 -0.039642307289648716 -0.03360371100653984 -0.054174798887221501 -0.055786425031201306
leaf_weight=6.0250194519758287 8.4087819755077344 9.8933236077427846 5.0788953006267565 4.5723511353135091 4.0947861298918706 5.3432746678590757 6.496576823294161 4.9018508642911911 3.2754168584942835 3.5959867611527434 3.9328373596072197 5.2231229022145271 5.4715219587087622 4.4786044284701347 3.7521671280264837 3.2257182933390141 3.8487703911960125 3.0706606432795525 4.7735939063131809 3.9699023030698282 2.9042962715029716 3.000227902084589 2.3070863857865334 3.380617655813694 2.4387495145201683
leaf_count=34 44 50 33 36 38 29 35 40 33 33 27 33 39 34 41 40 42 26 55 50 29 33 29 49 28
internal_value=0 0.0192604 0.00909164 -0.0126642 0.00396731 0.0243093 -0.00400895 0.0198403 -0.0233986 0.00163924 0.0209962 0.00261644 -0.0220969 -0.00652662 -0.0328366 -0.0149212 0.00224384 -0.0243014 -0.0381217 -0.041953 -0.031576 -0.0147903 -0.0473657 -0.0558519 -0.0548502
internal_weight=0 44.7296 36.3208 72.7346 28.5305 16.5914 26.4274 11.3984 44.2041 12.1012 8.50519 10.5664 15.029 9.5575 32.103 10.8267 7.60094 11.939 7.84425 21.2763 12.1815 5.90452 6.27699 9.09478 5.81937
internal_count=960 275 231 685 215 96 181 75 470 96 63 62 106 67 374 123 83 119 81 251 141 62 79 110 77
is_linear=0
shrinkage=0.05


Tree=22
num_leaves=23
num_cat=0
split_feature=30 14 18 8 24 17 4 7 11 22 13 10 20 17 2 5 24 2 17 18 12 28
split_gain=9.19245 6.76165 6.25618 6.3684 5.13688 5.06971 4.83244 4.74553 5.07735 4.86316 5.20329 4.54422 4.03992 3.81659 3.43684 2.85243 3.07431 1.07886 0.614362 0.143821 0.0795171 0.000701615
threshold=1.0000000180025095e-35 2.5000000000000004 4.5000000000000009 3.5000000000000004 7.5000000000000009 15680.000000000002 9.5000000000000018 1822.5000000000002 3.5000000000000004 1.5000000000000002 7.5000000000000009 70.500000000000014 13.500000000000002 14810.500000000002 450.00000000000006 3.5000000000000004 10.500000000000002 942.50000000000011 23248.000000000004 1.5000000000000002 1.5000000000000002 6.5000000000000009
decision_type=2 2 2 2 2 2 2 2 2 2 2 2 2 2 2 2 2 2 2 2 2 2
left_child=1 6 7 4 -4 -6 -1 8 9 12 13 -3 -2 15 -15 16 17 -11 20 -9 -16 -22
right_child=2 11 3 -5 5 -7 -8 19 -10 10 -12 -13 -14 14 18 -17 -18 -19 -20 -21 21 -23
leaf_value=0.01944248123680057 0.057702228959716211 0.026369428553602772 0.076642855056757969 -0.027094337318632984 0.041233034441961032 -0.032170075445398488 0.083661467913872939 -0.056872153013542474 -0.053291715998812619 0.0076428190583828527 0.046572380638208642 -0.025423151948253161 -0.0025971923854125898 -0.0013416563383646114 -0.065470140461252768 0.021518900825515355 -0.057343587426701738 -0.025993983747951761 -0.035068961265240291 -0.043140615924853909 -0.055889684749554851 -0.054687456219590452
leaf_weight=5.5812090039253253 4.8234613537788373 9.7918761670589465 4.6672337874770191 6.2042791470885268 6.1289233900606614 3.8174748346209526 6.1654845178127289 5.1253260746598226 6.3503821119666091 6.8367101810872573 3.2647128999233237 7.4629154503345481 6.5492545366287231 4.7998169399797943 3.1851571239531022 6.8261626809835425 3.6526043117046347 3.6600199230015278 3.8623880147933951 3.0366784632205963 2.4944337271153927 2.3633844256401062
leaf_count=33 38 58 26 58 47 36 30 57 59 54 20 55 59 43 25 57 38 34 37 33 30 33
internal_value=0 0.0238885 -0.00858626 0.0153481 0.0333672 0.0130606 0.0531491 -0.0160419 -0.0110723 -0.00594768 -0.0139817 0.00396848 0.0229773 -0.0192282 -0.0370593 -0.00502723 -0.0178341 -0.00408573 -0.0514594 -0.0517633 -0.0593304 -0.0553048
internal_weight=0 29.0015 87.6484 20.8179 14.6136 9.9464 11.7467 66.8305 58.6685 52.3181 40.9454 17.2548 11.3727 37.6807 16.7052 20.9755 14.1493 10.4967 11.9054 8.162 8.04298 4.85782
internal_count=960 176 784 167 109 83 63 617 527 468 371 113 97 351 168 183 126 88 125 90 88 63
is_linear=0
shrinkage=0.05


Tree=23
num_leaves=25
num_cat=0
split_feature=19 8 0 2 16 13 0 30 8 7 7 14 17 13 7 4 7 7 17 17 7 24 18 17
split_gain=10.1783 6.86403 6.11254 8.7313 4.96219 4.82614 4.59507 5.86786 3.85898 3.8591 4.74483 3.35476 3.23553 4.12824 2.07505 2.92799 1.88982 1.88388 0.921954 0.937545 0.280957 0.00803171 0.00214203 0.000409109
threshold=1.0000000180025095e-35 1.5000000000000002 26.500000000000004 1168.5000000000002 3505.5000000000005 6.5000000000000009 31.500000000000004 1.0000000180025095e-35 1.5000000000000002 1477.0000000000002 965.00000000000011 3.5000000000000004 16900.500000000004 5.5000000000000009 1566.0000000000002 10.500000000000002 1512.0000000000002 1811.0000000000002 21476.000000000004 6152.5000000000009 601.50000000000011 6.5000000000000009 4.5000000000000009 15591.500000000002
decision_type=2 2 2 2 2 2 2 2 2 2 2 2 2 2 2 2 2 2 2 2 2 2 2 2
left_child=6 -2 -3 4 -4 16 7 -1 9 10 -8 12 13 -9 18 17 -6 -16 19 -10 -21 -22 23 -23
right_child=1 2 3 -5 5 -7 8 11 14 -11 -12 -13 -14 -15 15 -17 -18 -19 -20 20 21 22 -24 -25
leaf_value=0.035458333566772603 0.058694497722220622 0.054335166922202131 0.046420031510791521 -0.047267891274297119 -0.0086500242076773988 0.03440468773418813 -0.015801290216893037 -0.020993688223060511 -0.019500942088089005 -0.043210196027067521 0.058540458593391603 -0.047103500615800292 -0.03147802198734926 0.048548189819899029 0.024861808603735408 -0.055176086692454746 -0.057224869975311933 -0.025676425548469429 -0.020121979344851382 -0.038027289944681908 -0.05805334496822484 -0.054601185141085223 -0.055881635576875734 -0.053702301523301625
leaf_weight=9.5018282905221003 8.4931221827864629 6.100503295660018 8.0677428245544487 7.5023656599223605 5.8223363831639272 5.4553434476256362 4.5337731167674047 3.740446403622629 2.6818613372743227 3.4474154114723197 4.0758746415376663 5.1544672176241866 5.0956058576703063 4.9692766070365906 4.2497317865490896 3.0479583330452442 3.0519103929400444 3.2573422081768513 4.1524068415164939 2.8933704495429984 2.5265142656862727 2.8762864805757982 3.0311988741159439 2.2607459686696529
leaf_count=45 44 28 36 53 47 37 36 32 29 33 27 56 44 38 45 40 30 38 51 37 25 39 34 36
internal_value=0 0.018262 0.00872319 -0.000583125 0.0150547 -0.00260434 -0.0121979 0.00338876 -0.0225064 0.00149295 0.0193927 -0.0126831 0.000168343 0.018683 -0.0318475 -0.013847 -0.0253552 0.00293312 -0.0411508 -0.0465177 -0.05185 -0.0555896 -0.0548276 -0.0542056
internal_weight=0 44.4933 36.0002 29.8997 22.3973 14.3296 71.4961 28.4616 43.0345 12.0571 8.60965 18.9598 13.8053 8.70972 30.9774 10.555 8.87425 7.50707 20.4224 16.27 13.5881 10.6947 8.16823 5.13703
internal_count=960 275 231 203 150 114 685 215 470 96 63 170 114 70 374 123 77 83 251 200 171 134 109 75
is_linear=0
shrinkage=0.05


Tree=24
num_leaves=26
num_cat=0
split_feature=19 8 28 14 1 1 14 24 20 4 24 14 8 13 0 2 2 20 7 25 24 0 8 18 17
split_gain=9.24845 6.06144 5.67291 6.56535 4.47758 8.42052 6.4349 7.70415 5.31509 4.38538 3.53176 4.03481 3.69171 3.38116 3.08603 2.15531 1.91188 1.87084 1.08543 0.730903 0.0364287 0.00854877 0.00179678 0.000869974 0.000225146
threshold=1.0000000180025095e-35 1.5000000000000002 7.5000000000000009 3.5000000000000004 1.0000000180025095e-35 1.5000000000000002 3.5000000000000004 7.5000000000000009 17.500000000000004 16.500000000000004 1.5000000000000002 1.5000000000000002 1.5000000000000002 6.5000000000000009 36.500000000000007 607.50000000000011 1181.5000000000002 15.500000000000002 1566.0000000000002 2.5000000000000004 6.5000000000000009 30.500000000000004 2.5000000000000004 3.5000000000000004 15591.500000000002
decision_type=2 2 2 2 2 2 2 2 2 2 2 2 2 2 2 2 2 2 2 2 2 2 2 2 2
left_child=4 -2 3 9 19 6 7 -6 10 15 -7 13 -13 -12 -5 -3 20 18 21 -1 -10 -14 -22 24 -23
right_child=1 2 -4 14 5 8 -8 -9 16 -11 11 12 17 -15 -16 -17 -18 -19 -20 -21 22 23 -24 -25 -26
leaf_value=-0.028973248944202192 0.055055353662540579 -0.0057254295304432551 -0.04027760484450138 0.0088453035391609629 0.1009726431652752 0.036855646407016586 -0.029774819832576828 0.011163747364539768 -0.062356974714377636 0.071597064194591095 -0.0081433430382361512 0.0065530700908588623 -0.057910599061938274 0.054745125081837986 -0.044210056947128762 0.034596127794972613 -0.013522630467476647 -0.0045681452079790559 -0.025453523567882653 -0.060101773754623222 -0.056619052859507149 -0.054112225754201916 -0.054772228623736 -0.054913531561977362 -0.053337229293842561
leaf_weight=3.1773143708705893 8.598934203386305 5.3981554210186031 5.1450143903493872 6.3298476859927195 4.1085952967405301 3.9931663274765006 3.5510586202144614 5.7020312026143074 3.3604209981858713 5.539169341325759 5.6820554472506029 7.2094246745109585 2.109342325478794 3.4259601756930351 4.8339063189923763 8.5846970528364164 3.2961109913885585 3.7000967375934115 4.7504807114601126 4.6390100605785847 2.6306286156177521 2.0540872663259511 2.6373538449406624 2.8693128973245621 1.7234200127422807
leaf_count=30 44 35 45 37 25 19 38 58 27 28 52 55 22 27 36 50 33 39 56 44 28 30 35 37 30
internal_value=0 0.0173566 0.00830939 0.0164559 -0.0117604 -0.00731881 0.0278991 0.0487748 -0.0168365 0.0339452 -0.00759414 -0.0128887 -0.0234831 0.015512 -0.0141277 0.0190298 -0.0459151 -0.0360679 -0.0446971 -0.0474481 -0.0582892 -0.0551373 -0.0556945 -0.0542572 -0.0537586
internal_weight=0 44.4297 35.8308 30.6858 70.6199 62.8035 13.3617 9.81063 49.4419 19.522 37.5173 33.5242 24.4162 9.10802 11.1638 13.9829 11.9245 17.2067 13.5066 7.81632 8.6284 8.75616 5.26798 6.64682 3.77751
internal_count=960 275 231 186 685 611 121 83 490 113 367 348 269 79 73 85 123 214 175 74 90 119 63 97 60
is_linear=0
shrinkage=0.05


Tree=25
num_leaves=26
num_cat=0
split_feature=19 14 0 30 23 0 1 27 8 17 12 17 8 29 10 13 7 17 0 13 27 13 27 27 8
split_gain=8.39689 5.43155 6.05488 4.55954 4.35698 6.29522 5.15089 4.33741 4.26938 4.18809 3.98073 2.57355 5.23851 2.37352 2.66133 2.21287 1.93803 1.53832 1.4529 1.43143 0.294579 0.291058 0.0612002 0.009315 0.00519506
threshold=1.0000000180025095e-35 3.5000000000000004 36.500000000000007 1.0000000180025095e-35 1.0000000180025095e-35 33.500000000000007 1.5000000000000002 2.5000000000000004 2.5000000000000004 19378.000000000004 1.5000000000000002 13524.500000000002 2.5000000000000004 5.5000000000000009 87.500000000000014 2.5000000000000004 1357.0000000000002 7234.5000000000009 37.500000000000007 6.5000000000000009 9.5000000000000018 4.5000000000000009 5.5000000000000009 3.5000000000000004 2.5000000000000004
decision_type=2 2 2 2 2 2 2 2 2 2 2 2 2 2 2 2 2 2 2 2 2 2 2 2 2
left_child=4 3 -3 -2 5 6 -1 -8 -5 11 -10 15 -13 14 18 17 -12 -6 -7 21 23 -17 -14 -11 -20
right_child=1 2 -4 8 9 13 7 -9 10 20 16 12 22 -15 -16 19 -18 -19 24 -21 -22 -23 -24 -25 -26
leaf_value=0.065281197730515578 0.061969596408026552 0.018044950732759961 -0.047090646281672775 0.043713628235710081 0.023146061737090284 -0.016182390143613456 0.037699195695737528 -0.024910491734842687 0.030516981765711732 -0.058794407277226214 -0.047200324590817154 0.060003523650120121 -0.025447589524240068 0.017977527851857522 0.013937534139743074 -0.036640785380709216 0.0049207177582687028 -0.026313746814312512 -0.057892142987631338 -0.016643569694136075 -0.037102334270651988 -0.057411388892962018 -0.014756085235639524 -0.055112604209700246 -0.055025752451834921
leaf_weight=5.169370125979186 7.688004024326804 8.8420351818203908 5.9814528934657565 8.9799735471606255 3.5220060758292737 3.4857226498424989 5.2722300291061401 5.8196896314620972 5.6183207035064697 3.0694020986556989 4.267572745680809 3.2292508669197542 2.9107391387224197 3.2268164977431288 2.6942541003227225 2.6718715280294401 3.0640233680605888 2.8396241255104542 2.9035968296229839 5.9413346126675606 2.6325469985604286 4.5740124434232712 2.4779793918132782 3.9016120284795761 3.4696205779910088
leaf_count=33 37 52 46 50 31 38 25 57 26 29 37 27 27 34 25 33 27 30 29 58 32 49 33 50 45
internal_value=0 0.0164701 -0.00823803 0.0288363 -0.0113338 0.00222807 0.0240602 0.00484925 0.0172207 -0.0228386 -0.00115054 -0.0131167 0.00964611 -0.0202699 -0.0301015 -0.0231515 -0.0254179 0.00106882 -0.0421365 -0.0348356 -0.0513523 -0.0497524 -0.0205311 -0.0567337 -0.0563317
internal_weight=0 44.4414 14.8235 29.6179 69.8117 32.0413 16.2613 11.0919 21.9299 37.7704 12.9499 28.1668 8.61797 15.78 12.5532 19.5488 7.3316 6.36163 9.85894 13.1872 9.60356 7.24588 5.38872 6.97101 6.37322
internal_count=960 275 98 177 685 286 115 82 140 399 90 288 87 171 137 201 64 61 112 140 111 82 60 79 74
is_linear=0
shrinkage=0.05


Tree=26
num_leaves=26
num_cat=0
split_feature=23 0 4 2 28 19 29 17 16 16 16 26 0 7 7 28 10 13 8 2 4 10 17 24 3
split_gain=7.81 6.70909 5.80572 4.79874 4.36139 4.63671 5.76557 5.57842 5.27247 4.97409 10.3487 3.81462 3.66487 3.25399 2.96758 2.46367 2.18895 2.11881 2.00381 2.15534 1.57799 1.21936 0.268189 0.008547 0.00164948
threshold=1.0000000180025095e-35 33.500000000000007 22.500000000000004 450.00000000000006 8.5000000000000018 1.0000000180025095e-35 1.5000000000000002 19378.000000000004 2920.5000000000005 6726.5000000000009 10602.500000000002 2.5000000000000004 30.500000000000004 1155.0000000000002 1191.0000000000002 3.5000000000000004 51.500000000000007 5.5000000000000009 1.5000000000000002 735.50000000000011 8.5000000000000018 73.500000000000014 19015.000000000004 7.5000000000000009 1.5000000000000002
decision_type=2 2 2 2 2 2 2 2 2 2 2 2 2 2 2 2 2 2 2 2 2 2 2 2 2
left_child=1 3 11 -1 5 7 8 9 -7 15 -11 -3 14 -10 -5 17 -13 20 -18 -20 -2 -19 -6 -9 -25
right_child=4 2 -4 12 22 6 -8 23 13 10 -12 16 -14 -15 -16 -17 18 21 19 -21 -22 -23 -24 24 -26
leaf_value=0.061939395865678128 -0.015468141511454992 0.016497873526358731 0.05458529746599089 0.023633792972263881 -0.057139713160023767 0.027744026346665809 0.048735485633991708 -0.058460440677740692 0.0010113771275800946 0.091470774002317248 -0.038451416838785626 -0.05814114320617763 0.054774874953056787 -0.060994121704118276 -0.023719925359990738 -0.054956222423653424 0.017951187965626333 -0.047312059761095482 -0.056813381077703798 -0.0023349041671723346 0.032040476184074747 -0.0078703479132889876 -0.036620013144536508 -0.054157157832088104 -0.055923605996243866
leaf_weight=8.6009288914501685 3.4212227836251312 6.7694733217358651 3.5322290584444991 7.7527925893664378 4.4868343472480765 6.2419458031654385 6.7031275406479827 2.610631361603736 3.888471841812132 3.2936617098748675 2.866752352565527 4.450105942785739 4.6762324497103682 4.6416396759450436 5.7715500183403492 4.1109441742300978 3.0341398119926435 4.2222543954849243 3.7480657175183296 3.5211796201765537 3.5734264068305492 3.6566096730530262 2.4683632105588913 2.8802631907165051 2.4420464113354683
leaf_count=44 34 56 26 47 50 27 39 25 31 30 36 49 35 39 39 54 21 41 43 39 28 29 27 43 28
internal_value=0 0.0137738 -0.00482695 0.0311626 -0.0125692 -0.00781522 0.0102759 -0.0195606 -0.00717593 -0.00802736 0.0310114 -0.0145774 0.0166186 -0.0327288 0.00342546 -0.0206953 -0.0288359 -0.0112259 -0.0161787 -0.0304243 0.00880306 -0.029007 -0.0498574 -0.0561171 -0.0549677
internal_weight=0 51.8567 25.0552 26.8015 61.5082 54.553 21.4752 33.0778 14.7721 25.1449 6.16041 21.523 18.2006 8.53011 13.5243 18.9845 14.7535 14.8735 10.3034 7.26925 6.99465 7.87886 6.9552 7.93294 5.32231
internal_count=960 399 234 165 561 484 136 348 97 252 66 208 121 70 86 186 152 132 103 82 62 70 77 96 71
is_linear=0
shrinkage=0.05


Tree=27
num_leaves=25
num_cat=0
split_feature=19 16 1 1 15 20 8 27 16 24 9 30 18 29 27 11 22 6 2 14 20 27 2 18
split_gain=7.25508 4.90858 4.28052 7.23652 6.40145 5.03636 3.91108 3.44958 4.91231 3.51182 3.25537 3.16007 3.83081 5.12735 2.57977 4.4852 2.40505 2.05164 1.89981 0.942654 0.765144 0.0435707 0.00156623 0.000237738
threshold=1.0000000180025095e-35 2474.0000000000005 1.0000000180025095e-35 1.5000000000000002 1.5000000000000002 17.500000000000004 1.5000000000000002 4.5000000000000009 5346.5000000000009 4.5000000000000009 1.0000000180025095e-35 1.0000000180025095e-35 4.5000000000000009 2.5000000000000004 8.5000000000000018 2.5000000000000004 1.5000000000000002 2.5000000000000004 1181.5000000000002 3.5000000000000004 13.500000000000002 2.5000000000000004 691.50000000000011 1.5000000000000002
decision_type=2 2 2 2 2 2 2 2 2 2 2 2 2 2 2 2 2 2 2 2 2 2 2 2
left_child=2 -2 20 4 10 7 -3 8 9 -5 -4 -8 13 19 16 -16 -9 -17 21 -13 -1 -7 -18 -23
right_child=1 6 3 5 -6 18 11 14 -10 -11 -12 12 -14 -15 15 17 22 -19 -20 -21 -22 23 -24 -25
leaf_value=-0.026624459143926457 0.044002255906345461 0.041630492450388717 -0.032680301174622471 0.0026426328993680685 0.074783741149824362 -0.062667204117169861 0.028983003003077375 0.0023254344132391477 -0.043082352300396289 0.053624256398088849 0.028211408946962405 -0.031632535332773319 0.027306037785528009 0.014909526443242596 0.042610149050452129 -0.05524343966954829 -0.055859702213581136 0.0053016790009424225 -0.012199715091545216 -0.062148371043152711 -0.059479186038694967 -0.054678327397586796 -0.05435306350948918 -0.055362114736737633
leaf_weight=2.9203638844192019 11.124469272792338 6.1324687227606764 3.9014819078147394 8.7011685669422167 4.4890667200088492 2.9228466078639013 6.1116110682487514 2.4793495386838931 3.581499855965375 5.5213121548295012 5.0180882960557938 6.0196108296513575 4.7892266213893881 5.5957256332039824 3.425458647310732 3.3159131854772568 3.2370663769543171 2.420642577111721 3.1943161375820628 4.3663772642612457 4.5069305896759033 2.6363108642399311 3.6927114203572273 2.4547690264880657
leaf_count=28 49 33 41 53 31 23 34 26 39 43 49 47 33 42 38 46 39 30 33 37 46 36 53 31
internal_value=0 0.0152779 -0.0107224 -0.00635816 0.0260858 -0.0155006 0.00559915 -0.00647104 0.00925472 0.0224342 0.00157695 -0.00262034 -0.0119193 -0.0236739 -0.0215472 -0.00266204 -0.0399363 -0.0296953 -0.0448051 -0.0444617 -0.0465609 -0.0578015 -0.0550569 -0.055008
internal_weight=0 44.1395 68.4193 60.992 13.4086 47.5834 33.015 36.3751 17.804 14.2225 8.91957 26.8826 20.7709 15.9817 18.5711 9.16201 9.40913 5.73656 11.2082 10.386 7.42729 8.01393 6.92978 5.09108
internal_count=960 275 685 611 121 490 226 367 135 96 90 193 159 126 232 114 118 76 123 84 74 90 92 67
is_linear=0
shrinkage=0.05


Tree=28
num_leaves=25
num_cat=0
split_feature=23 25 30 14 16 18 28 11 19 17 16 16 29 16 4 17 7 28 13 2 17 16 27 18
split_gain=6.80856 6.06839 7.98764 5.5272 6.22288 5.94867 4.17774 3.94147 4.26402 5.77688 4.54622 9.91263 4.54565 4.80413 3.90721 3.81563 2.65006 2.27638 2.37894 1.83287 1.40848 0.264922 0.00615306 0.000266692
threshold=1.0000000180025095e-35 4.5000000000000009 1.0000000180025095e-35 3.5000000000000004 4720.0000000000009 3.5000000000000004 8.5000000000000018 3.5000000000000004 1.0000000180025095e-35 19378.000000000004 6726.5000000000009 10499.000000000002 1.5000000000000002 2920.5000000000005 8.5000000000000018 15967.500000000002 1314.5000000000002 3.5000000000000004 5.5000000000000009 564.50000000000011 12234.000000000002 13200.000000000002 3.5000000000000004 2.5000000000000004
decision_type=2 2 2 2 2 2 2 2 2 2 2 2 2 2 2 2 2 2 2 2 2 2 2 2
left_child=1 2 15 4 14 -6 7 8 9 10 17 -12 13 -10 -4 -1 -15 18 -2 -5 -20 -8 -11 -24
right_child=6 -3 3 19 5 -7 21 -9 12 22 11 -13 -14 16 -16 -17 -18 -19 20 -21 -22 -23 23 -25
leaf_value=0.023272256678916248 0.015017057500775716 -0.035492583834848317 0.016997481428409213 0.0035963764457095817 -0.048364926799145315 0.027218442796000261 -0.056713896086424936 -0.051274403949362474 0.033696849756387301 -0.05759590484973242 0.094025830669836011 -0.036852541009272398 0.049072791767551062 -0.00098868388625581501 0.070517626721694412 0.080059999688649366 -0.061297482937164728 -0.054466271118708859 -0.046925883514781691 -0.041301385367474214 -0.0030758207041285744 -0.035938538485001378 -0.054847039984304735 -0.05405215457443148
leaf_weight=5.4533336684107763 6.3720009326934903 5.7841426469385615 7.4573547355830687 3.5604975931346399 5.0978674218058568 5.3196471035480499 4.2838007248938075 4.6547958739101878 5.371879383921625 2.5208706632256499 3.2088276222348204 2.6345988847315311 6.5365078002214423 3.9891749694943428 6.2834944911301136 6.4644155576825142 3.3521714061498642 3.15246608108282 3.9704061597585678 6.2867376580834389 3.3989615775644779 2.3909205086529255 2.2646760977804661 1.9758538119494913
leaf_count=33 56 50 52 32 55 43 50 48 23 27 27 34 36 31 41 34 29 45 38 59 29 27 31 30
internal_value=0 0.0127718 0.0188509 0.00650604 0.0193758 -0.00976869 -0.0119771 -0.00731567 -0.00311822 -0.0150639 -0.00299784 0.0350173 0.0151876 -0.00223455 0.0414715 0.054075 -0.0285266 -0.0161469 -0.00735594 -0.0250676 -0.026701 -0.0492721 -0.0556396 -0.0544767
internal_weight=0 51.7075 45.9233 34.0056 24.1584 10.4175 60.0779 53.4032 48.7484 29.4987 22.7373 5.84343 19.2497 12.7132 13.7408 11.9177 7.34135 16.8938 13.7414 9.84724 7.36937 6.67472 6.7614 4.24053
internal_count=960 399 349 282 191 98 561 484 436 317 229 61 119 83 93 67 60 168 123 91 67 77 88 61
is_linear=0
shrinkage=0.05


Tree=29
num_leaves=27
num_cat=0
split_feature=19 0 4 1 1 14 24 20 18 28 17 17 30 22 2 17 14 13 2 20 17 20 2 27 30 20
split_gain=6.33044 4.48932 6.96455 3.99093 6.58812 5.33366 5.80117 4.62851 3.95555 3.68016 3.33362 4.91472 7.14316 3.22637 3.17681 2.60107 2.79484 3.59895 1.87592 1.69541 1.97393 0.770366 0.369982 0.0360202 0.00191836 0.000204609
threshold=1.0000000180025095e-35 24.500000000000004 12.500000000000002 1.0000000180025095e-35 1.5000000000000002 3.5000000000000004 7.5000000000000009 17.500000000000004 4.5000000000000009 2.5000000000000004 13990.500000000002 16375.500000000002 1.0000000180025095e-35 1.5000000000000002 446.50000000000006 11621.500000000002 2.5000000000000004 2.5000000000000004 1181.5000000000002 15.500000000000002 17742.000000000004 13.500000000000002 1111.5000000000002 2.5000000000000004 4.5000000000000009 20.500000000000004
decision_type=2 2 2 2 2 2 2 2 2 2 2 2 2 2 2 2 2 2 2 2 2 2 2 2 2 2
left_child=3 -2 8 21 5 6 -5 10 13 -4 15 -12 -13 -3 -14 16 -6 -18 23 20 -15 -1 24 -9 -16 -25
right_child=1 2 9 4 7 -7 -8 18 -10 -11 11 12 14 19 22 -17 17 -19 -20 -21 -22 -23 -24 25 -26 -27
leaf_value=-0.025408845751989234 0.05960598566420764 0.019662343636472481 0.060100424944535803 0.086736538570302932 0.011377355877503619 -0.029084334261186964 0.0099931877888327948 -0.061859465797648255 0.028566704125851508 0.0067064855502613875 0.053894971671409823 0.056409699322637764 0.011239180390785001 -0.0012114244851350578 -0.056068319909633936 -0.059574224648123564 0.013171644776153896 -0.058904098639876626 -0.011299348772355423 -0.054954435318560257 -0.04545510270873207 -0.059014407285227069 -0.028734820207773171 -0.054999630128145752 -0.054062396556730855 -0.054343879977778647
leaf_weight=2.8381651602685443 4.8520155847072592 4.4819608479738298 7.7851862609386426 4.3431578353047353 6.7336008325219172 3.4197711385786524 5.6867812275886536 2.7663856074213964 6.0891622602939597 5.5120954364538193 4.5353899076581028 3.4027985706925383 3.4935399629175645 6.6580307409167272 2.3734267018735409 3.6021872460842124 2.7052745521068573 4.8138608895242214 3.1356425806879997 4.3572670221328726 4.0571766644716263 4.2726304866373539 1.8533842861652372 2.5027012713253498 2.3942714780569077 2.2671810127794743
leaf_count=28 22 29 40 25 59 38 58 23 37 37 35 21 36 46 29 39 30 54 33 34 30 46 26 34 38 33
internal_value=0 0.0142536 0.0086027 -0.0101821 -0.0059865 0.024839 0.0432245 -0.0148873 -0.006624 0.0379671 -0.00629477 0.0088562 -0.00625529 -0.0175822 -0.0273373 -0.0216137 -0.0120196 -0.0329723 -0.0437984 -0.0286573 -0.0179637 -0.0456013 -0.0476917 -0.0573204 -0.055061 -0.0546879
internal_weight=0 43.7929 38.9409 67.1402 60.0294 13.4497 10.0299 46.5796 25.6436 13.2973 35.9077 18.0528 13.5174 19.5544 10.1146 17.8549 14.2527 7.51914 10.6719 15.0725 10.7152 7.1108 6.62108 7.53627 4.7677 4.76988
internal_count=960 275 253 685 611 121 83 490 176 77 367 185 150 139 129 182 143 84 123 110 76 74 93 90 67 67
is_linear=0
shrinkage=0.05


Tree=30
num_leaves=26
num_cat=0
split_feature=23 25 30 16 19 4 28 11 19 17 16 28 29 16 7 17 7 2 28 13 17 29 17 24 8
split_gain=6.06214 5.35193 6.76785 4.30615 4.59636 4.46408 3.90904 3.64335 3.6022 5.50934 4.0634 3.95029 3.83058 4.38393 3.11487 3.06648 2.62565 2.33724 2.18843 2.13461 1.30703 0.961565 0.266013 0.00378498 0.00216302
threshold=1.0000000180025095e-35 4.5000000000000009 1.0000000180025095e-35 5329.0000000000009 1.0000000180025095e-35 7.5000000000000009 8.5000000000000018 3.5000000000000004 1.0000000180025095e-35 19378.000000000004 6726.5000000000009 6.5000000000000009 1.5000000000000002 2920.5000000000005 1061.5000000000002 15967.500000000002 1255.5000000000002 761.50000000000011 3.5000000000000004 5.5000000000000009 12234.000000000002 3.5000000000000004 17993.000000000004 8.5000000000000018 2.5000000000000004
decision_type=2 2 2 2 2 2 2 2 2 2 2 2 2 2 2 2 2 2 2 2 2 2 2 2 2
left_child=1 2 15 5 21 14 7 8 9 10 18 -12 13 -10 -4 -1 -15 -7 19 -2 -21 24 -8 -11 -5
right_child=6 -3 3 4 -6 17 22 -9 12 23 11 -13 -14 16 -16 -17 -18 -19 -20 20 -22 -23 -24 -25 -26
leaf_value=0.022101637560652344 0.014168787055808136 -0.034116899303393997 0.023042972980009339 -0.056891604479061719 0.01871642848096922 0.021599428948702076 -0.056478586738957587 -0.050508759094443689 0.03184104099736855 -0.056822434829849069 -0.0077708045828986869 0.073913306674025833 0.044376483268628003 -0.00013817901413529723 -0.031155121064037533 0.072834142465897173 -0.060661211828891441 0.068617504427442286 -0.054177354354336217 -0.045817852794562935 -0.0030037249490573476 -0.017027209414655971 -0.035335811281392987 -0.05433152202047771 -0.054776585598680511
leaf_weight=5.4405912198126298 6.4067230783403009 5.6000406071543685 5.4829224869608897 2.4535836204886419 5.170743890106678 5.91515129432082 3.9694040417671195 4.4095716476440421 5.3357388377189654 2.5463519208133212 2.9678183272480956 2.9526613019406796 6.6662174686789504 3.9021224975585938 5.1326709426939487 6.5820358991622925 3.3138099424540997 4.7781646326184273 2.9704246111214152 3.7693217284977436 3.3820057958364487 2.379803191870451 2.3795512430369854 3.8023680932819843 2.3828367218375206
leaf_count=33 56 50 36 27 37 43 49 48 23 30 32 29 36 30 39 34 30 36 45 38 29 30 28 58 34
internal_value=0 0.0120189 0.0176701 0.00617903 -0.0172646 0.0198069 -0.0115008 -0.00701337 -0.00301892 -0.0142065 -0.00257635 0.0329667 0.0137455 -0.00252265 -0.00316197 0.0498762 -0.0279325 0.0426088 -0.0153078 -0.00679193 -0.0255702 -0.0430465 -0.0485544 -0.0553306 -0.0558496
internal_weight=0 51.3185 45.7185 33.6959 12.387 21.3089 58.7741 52.4251 48.0156 28.7977 22.449 5.92048 19.2179 12.5517 10.6156 12.0226 7.21593 10.6933 16.5285 13.5581 7.15133 7.21622 6.34896 6.34872 4.83642
internal_count=960 399 349 282 128 154 561 484 436 317 229 61 119 83 75 67 60 79 168 123 67 91 77 88 61
is_linear=0
shrinkage=0.05


Tree=31
num_leaves=26
num_cat=0
split_feature=30 18 9 4 10 15 7 11 29 2 16 14 20 2 20 2 2 17 0 23 19 16 25 19 2
split_gain=5.57384 5.34437 5.62437 4.98037 5.2059 5.5442 4.10589 4.23507 3.65801 6.7099 3.95135 5.19499 3.28001 3.19845 2.90478 2.62549 2.50335 2.31233 2.24643 0.993143 0.932634 0.384726 0.144192 0.0217396 0.000680197
threshold=1.0000000180025095e-35 4.5000000000000009 1.0000000180025095e-35 10.500000000000002 58.500000000000007 1.5000000000000002 1822.5000000000002 3.5000000000000004 5.5000000000000009 858.00000000000011 4864.0000000000009 3.5000000000000004 13.500000000000002 823.50000000000011 13.500000000000002 623.50000000000011 430.50000000000006 15327.000000000002 33.500000000000007 1.0000000180025095e-35 1.0000000180025095e-35 11976.500000000002 2.5000000000000004 1.0000000180025095e-35 1092.5000000000002
decision_type=2 2 2 2 2 2 2 2 2 2 2 2 2 2 2 2 2 2 2 2 2 2 2 2 2
left_child=3 6 12 4 -1 -6 7 8 10 -10 11 13 -3 16 -4 17 -2 -12 -5 -15 -13 23 -8 24 -17
right_child=1 2 14 18 5 -7 22 -9 9 -11 15 20 -14 19 -16 21 -18 -19 -20 -21 -22 -23 -24 -25 -26
leaf_value=0.038159725899822389 0.0195895570512583 -0.058965968105676086 0.059309536633806115 0.070049746313387937 -0.051452949053690994 0.018331146334759789 -0.041333828038407322 -0.051791293686291984 0.055149374676334073 -0.034169573099629855 0.02355353121429769 -0.055296272539331483 0.0088870368476385731 0.053174140850625995 0.011299350683475441 -0.053464232130789748 -0.029896506226371251 -0.039964529908631974 0.022918602698253299 0.018570677978961524 -0.018422338779077552 -0.03165289814529211 -0.056171627544661921 -0.06003529010557962 -0.054789566268776138
leaf_weight=6.6141868010163369 5.1558123826980644 3.0673561096191415 6.3663666360080242 5.1076234430074674 5.8682175278663617 5.5268218070268631 2.6222953349351874 5.4203849099576464 5.8913504444062692 3.2695981562137604 3.0053391419351092 3.4812729954719535 4.2471699304878712 4.3857813067734224 6.2371746189892292 1.9829053394496425 5.0674227550625801 2.7383963949978352 5.0063223540782928 3.9330277144908905 3.379420667886734 2.0581228546798229 4.3592786900699139 2.5798692926764488 1.8916740231215952
leaf_count=37 38 32 39 24 46 33 34 59 48 38 29 45 42 29 54 35 42 32 36 36 19 28 56 23 26
internal_value=0 -0.00718772 0.0153096 0.0186429 0.00287472 -0.0176063 -0.014507 -0.00986151 -0.00520613 0.0232709 -0.0117841 3.90799e-05 -0.0195672 0.013793 0.0355505 -0.0328514 -0.00493955 -0.00672948 0.0467202 0.0368141 -0.037133 -0.0504768 -0.0505985 -0.0564791 -0.0541113
internal_weight=0 81.14 19.9181 28.1232 18.0092 11.395 61.222 54.2404 48.82 9.16095 39.659 25.4027 7.31453 18.542 12.6035 14.2563 10.2232 5.74374 10.1139 8.31881 6.86069 8.51257 6.98157 6.45445 3.87458
internal_count=960 784 167 176 116 79 617 527 468 86 382 209 74 145 93 173 80 61 60 65 64 112 90 84 61
is_linear=0
shrinkage=0.05


Tree=32
num_leaves=26
num_cat=0
split_feature=8 16 13 14 0 7 0 17 4 20 7 7 7 7 4 11 18 25 4 18 17 16 16 16 8
split_gain=5.50055 4.76464 3.90582 3.91694 3.96709 3.82455 3.71241 3.55066 3.37173 5.10201 4.31211 3.00343 3.03991 3.95521 2.75362 2.13617 1.92531 1.63407 1.34703 0.750972 0.348121 0.254804 0.0913864 0.00179581 0.00106679
threshold=1.5000000000000002 13200.000000000002 1.0000000180025095e-35 1.5000000000000002 47.500000000000007 1879.0000000000002 26.500000000000004 17347.000000000004 16.500000000000004 13.500000000000002 922.00000000000011 1496.5000000000002 1002.5000000000001 729.50000000000011 3.5000000000000004 2.5000000000000004 3.5000000000000004 2.5000000000000004 8.5000000000000018 1.0000000180025095e-35 19015.000000000004 6790.5000000000009 2972.5000000000005 5745.0000000000009 3.5000000000000004
decision_type=2 2 2 2 2 2 2 2 2 2 2 2 2 2 2 2 2 2 2 2 2 2 2 2 2
left_child=11 2 21 7 5 6 -5 15 9 10 -8 12 13 -1 -12 -4 19 -10 -13 -11 24 -2 -21 -24 -3
right_child=1 20 3 4 -6 -7 8 -9 17 16 14 18 -14 -15 -16 -17 -18 -19 -20 22 -22 -23 23 -25 -26
leaf_value=0.034970163058214203 -0.055173199022936173 -0.05455873865256422 0.062048412986721306 0.021727491383322663 0.042998370396333481 -0.051230462543068359 -0.036633401520336201 -0.017617467091899212 0.041211764773133923 -0.030930508719157875 0.054674870041597684 -0.028291718822566033 0.050987482980538873 -0.028632939065606218 -0.0012603635921644048 0.017158679921064523 -0.01448374096054714 -0.0059970330558411561 0.015277313259296274 -0.066624649740715622 -0.030188520344777127 -0.032389151080976127 -0.056379868861519258 -0.05434958556555286 -0.056083109715848081
leaf_weight=6.5439820364117676 2.97817388921976 2.422150842845439 4.8853996545076352 9.8681056015193445 3.7909955605864516 5.0712119191884986 4.7454603016376522 3.9834976680576792 3.6598718836903563 3.0956153273582441 3.793600242584942 3.8892738595604888 8.8945517279207689 3.9016169309616089 5.2386062741279602 5.7925193086266518 5.1423899121582499 3.6722033992409706 3.2619052268564701 3.1678233928978443 1.9753481671214101 2.087058287113905 2.5617255233228207 1.8947122208774088 2.1813359297811985
leaf_count=44 40 35 27 57 38 57 46 41 28 28 30 33 54 29 48 45 49 38 28 22 26 28 31 29 29
internal_value=0 -0.00693821 -0.00337892 -0.000326235 -0.00637854 -0.00998445 -0.00551889 0.0226679 -0.0127912 -0.0203011 0.00195749 0.0192682 0.0295055 0.0112133 0.0222329 0.0376968 -0.0396344 0.0175677 -0.00841835 -0.0516994 -0.0477468 -0.0457853 -0.060132 -0.0555167 -0.0552811
internal_weight=0 82.0078 75.429 70.3637 55.7023 51.9113 46.8401 14.6614 36.972 29.6399 13.7777 26.4913 19.3402 10.4456 9.03221 10.6779 15.8623 7.33208 7.15118 10.7199 6.57883 5.06523 7.62426 4.45644 4.60349
internal_count=960 772 682 614 501 463 406 113 349 283 124 188 127 73 78 72 159 66 61 110 90 68 82 60 64
is_linear=0
shrinkage=0.05


end of trees

feature_importances:
Column_16=62
Column_0=61
Column_17=58
Column_7=47
Column_4=46
Column_8=45
Column_2=42
Column_24=41
Column_14=39
Column_18=39
Column_13=33
Column_27=32
Column_10=30
Column_19=28
Column_30=28
Column_20=25
Column_23=17
Column_28=15
Column_29=15
Column_22=14
Column_12=12
Column_25=10
Column_1=9
Column_3=9
Column_9=8
Column_6=7
Column_11=7
Column_15=7
Column_26=7
Column_5=2

parameters:
[boosting: gbdt]
[objective: binary]
[metric: custom]
[tree_learner: serial]
[device_type: cpu]
[data_sample_strategy: bagging]
[data: ]
[valid: ]
[num_iterations: 10000]
[learning_rate: 0.05]
[num_leaves: 63]
[num_threads: 0]
[seed: 1241]
[deterministic: 0]
[force_col_wise: 0]
[force_row_wise: 0]
[histogram_pool_size: -1]
[max_depth: -1]
[min_data_in_leaf: 30]
[min_sum_hessian_in_leaf: 0.001]
[bagging_fraction: 0.8]
[pos_bagging_fraction: 1]
[neg_bagging_fraction: 1]
[bagging_freq: 0]
[bagging_seed: 9915]
[feature_fraction: 0.9]
[feature_fraction_bynode: 1]
[feature_fraction_seed: 13361]
[extra_trees: 0]
[extra_seed: 2437]
[early_stopping_round: 0]
[early_stopping_min_delta: 0]
[first_metric_only: 0]
[max_delta_step: 0]
[lambda_l1: 0]
[lambda_l2: 0]
[linear_lambda: 0]
[min_gain_to_split: 0]
[drop_rate: 0.1]
[max_drop: 50]
[skip_drop: 0.5]
[xgboost_dart_mode: 0]
[uniform_drop: 0]
[drop_seed: 6739]
[top_rate: 0.2]
[other_rate: 0.1]
[min_data_per_group: 100]
[max_cat_threshold: 32]
[cat_l2: 10]
[cat_smooth: 10]
[max_cat_to_onehot: 4]
[top_k: 20]
[monotone_constraints: ]
[monotone_constraints_method: basic]
[monotone_penalty: 0]
[feature_contri: ]
[forcedsplits_filename: ]
[refit_decay_rate: 0.9]
[cegb_tradeoff: 1]
[cegb_penalty_split: 0]
[cegb_penalty_feature_lazy: ]
[cegb_penalty_feature_coupled: ]
[path_smooth: 0]
[interaction_constraints: ]
[verbosity: -1]
[saved_feature_importance_type: 0]
[use_quantized_grad: 0]
[num_grad_quant_bins: 4]
[quant_train_renew_leaf: 0]
[stochastic_rounding: 1]
[linear_tree: 0]
[max_bin: 255]
[max_bin_by_feature: ]
[min_data_in_bin: 3]
[bin_construct_sample_cnt: 200000]
[data_random_seed: 4091]
[is_enable_sparse: 1]
[enable_bundle: 1]
[use_missing: 1]
[zero_as_missing: 0]
[feature_pre_filter: 1]
[pre_partition: 0]
[two_round: 0]
[header: 0]
[label_column: ]
[weight_column: ]
[group_column: ]
[ignore_column: ]
[categorical_feature: ]
[forcedbins_filename: ]
[precise_float_parser: 0]
[parser_config_file: ]
[objective_seed: 29722]
[num_class: 1]
[is_unbalance: 0]
[scale_pos_weight: 1]
[sigmoid: 1]
[boost_from_average: 1]
[reg_sqrt: 0]
[alpha: 0.9]
[fair_c: 1]
[poisson_max_delta_step: 0.7]
[tweedie_variance_power: 1.5]
[lambdarank_truncation_level: 30]
[lambdarank_norm: 1]
[label_gain: ]
[lambdarank_position_bias_regularization: 0]
[eval_at: ]
[multi_error_top_k: 1]
[auc_mu_weights: ]
[num_machines: 1]
[local_listen_port: 12400]
[time_out: 120]
[machine_list_filename: ]
[machines: ]
[gpu_platform_id: -1]
[gpu_device_id: -1]
[gpu_use_dp: 0]
[num_gpu: 1]

end of parameters

pandas_categorical:null
