tree
version=v4
num_class=1
num_tree_per_iteration=1
label_index=0
max_feature_idx=30
objective=binary sigmoid:1
feature_names=Column_0 Column_1 Column_2 Column_3 Column_4 Column_5 Column_6 Column_7 Column_8 Column_9 Column_10 Column_11 Column_12 Column_13 Column_14 Column_15 Column_16 Column_17 Column_18 Column_19 Column_20 Column_21 Column_22 Column_23 Column_24 Column_25 Column_26 Column_27 Column_28 Column_29 Column_30
feature_infos=[18:60] [0:2] [102:1499] [0:2] [1:29] [1:5] [0:5] [376:2068] [1:4] [0:1] [30:100] [1:4] [1:5] [0:8] [1:4] [0:2] [1009:19973] [2097:26999] [0:9] [0:1] [11:25] [3:4] [1:4] [0:3] [0:40] [0:6] [1:4] [0:36] [0:17] [0:15] [0:17]
tree_sizes=5487 6734 6731 6708 6723 6720 6715 6708 6700 6721 6734 6710 6711 6746 6701 6720 6728 6690 6742 6723 6730 6742 6733 6689 6732 6735 6757

Tree=0
num_leaves=53
num_cat=0
split_feature=24 19 19 8 29 26 2 12 1 25 23 0 2 4 27 0 11 18 7 0 15 9 13 8 0 4 23 6 22 14 15 22 20 4 2 4 5 8 2 0 13 0 0 27 25 30 0 0 0 2 0 3
split_gain=78.711 26.0973 17.6806 17.0663 13.9305 11.6387 10.974 13.8564 27.8675 10.4117 14.9848 9.60122 9.2264 8.29878 7.52499 10.0795 16.9858 16.596 5.43288 5.38524 5.0067 13.856 4.34347 4.00492 3.20586 2.52618 2.42699 4.68924 2.37393 2.26004 2.92924 3.09436 5.34391 3.75765 3.30654 2.49382 2.03625 1.81035 1.66126 1.66101 8.69019 0.635492 0.57845 0.561963 2.07469 0.384822 0.367394 3.55271e-15 1.77636e-15 1.77636e-15 8.88178e-16 8.88178e-16
threshold=1.5000000000000002 1.0000000180025095e-35 1.0000000180025095e-35 1.5000000000000002 1.5000000000000002 1.5000000000000002 1062.5000000000002 1.5000000000000002 1.5000000000000002 3.5000000000000004 1.0000000180025095e-35 34.500000000000007 416.50000000000006 21.500000000000004 4.5000000000000009 34.500000000000007 2.5000000000000004 4.5000000000000009 668.00000000000011 30.500000000000004 1.5000000000000002 1.0000000180025095e-35 5.5000000000000009 1.5000000000000002 49.500000000000007 14.500000000000002 1.0000000180025095e-35 1.5000000000000002 1.5000000000000002 2.5000000000000004 1.0000000180025095e-35 1.5000000000000002 15.500000000000002 8.5000000000000018 612.00000000000011 1.5000000000000002 3.5000000000000004 1.5000000000000002 867.50000000000011 43.500000000000007 6.5000000000000009 51.500000000000007 45.500000000000007 12.500000000000002 3.5000000000000004 1.5000000000000002 25.500000000000004 33.500000000000007 40.500000000000007 523.50000000000011 42.500000000000007 1.5000000000000002
decision_type=2 2 2 2 2 2 2 2 2 2 2 2 2 2 2 2 2 2 2 2 2 2 2 2 2 2 2 2 2 2 2 2 2 2 2 2 2 2 2 2 2 2 2 2 2 2 2 2 2 2 2 2
left_child=2 5 9 4 11 12 7 8 -5 10 -1 -3 -2 20 15 16 17 -7 -18 -10 24 -22 -14 25 28 38 27 -8 -9 30 50 34 35 -34 -32 -33 37 -20 -17 43 42 -25 -41 45 -45 -31 -4 49 51 -47 -16 -30
right_child=1 3 46 6 -6 14 26 13 19 -11 -12 -13 22 -15 29 23 18 -19 36 -21 21 -23 -24 41 -26 -27 -28 -29 48 39 31 32 33 -35 -36 -37 -38 -39 -40 40 -42 -43 -44 44 -46 47 -48 -49 -50 -51 -52 -53
leaf_value=-1.405529721878338 -1.4790084794126115 -1.4790084794126115 -1.3687903431112016 -1.4136940282710353 -1.398849834829768 -1.6178016880884614 -1.6994447520154319 -1.6259659944811584 -1.5524872369468854 -1.662705373248295 -1.5913877556415004 -1.6504589136592496 -1.6764826402859714 -1.5481649570919278 -1.6994447520154317 -1.6994447520154319 -1.5658470110440255 -1.4168341461143803 -1.6382124540702039 -1.6778333527406455 -1.6994447520154319 -1.4790084794126117 -1.5658470110440257 -1.6994447520154319 -1.6075963050975901 -1.5944750983950413 -1.6994447520154319 -1.5864005096550111 -1.6994447520154319 -1.6778333527406453 -1.662705373248295 -1.6259659944811584 -1.6607717217342353 -1.5682326849899435 -1.552487236946885 -1.6994447520154319 -1.6259659944811584 -1.6994447520154319 -1.6259659944811584 -1.662705373248295 -1.552487236946885 -1.662705373248295 -1.6994447520154319 -1.6994447520154319 -1.6259659944811584 -1.6994447520154317 -1.4055297218783382 -1.6994447520154319 -1.6994447520154319 -1.6994447520154319 -1.6994447520154317 -1.6994447520154317
leaf_weight=2.0414062589406949 1.3609375059604634 1.3609375059604638 1.3609375059604647 2.4496875107288361 1.4970312565565107 2.4496875107288387 1.9053125083446487 1.3609375059604625 1.3609375059604709 1.3609375059604643 2.3135937601327896 2.0414062589406967 2.1775000095367436 2.3135937601327887 3.8106250166893032 1.7692187577486032 1.4970312565565098 1.7692187577486036 1.6331250071525554 2.3135937601327896 1.49703125655651 1.3609375059604645 1.4970312565565107 8.7100000381469709 1.6331250071525572 1.90531250834465 4.6271875202655792 1.7692187577486036 2.0414062589406967 2.3135937601327958 1.3609375059604674 1.3609375059604625 2.5857812613248816 1.90531250834465 1.3609375059604643 7.6212500333786011 2.0414062589406967 4.6271875202655792 1.3609375059604643 1.3609375059604634 1.3609375059604643 1.3609375059604634 5.0354687720537186 3.2662500143051139 1.3609375059604643 2.0414062589406985 1.3609375059604643 8.9821875393390638 2.1775000095367432 7.7573437839746475 1.3609375059604643 1.4970312565565111
leaf_count=15 10 10 10 18 11 18 14 10 10 10 17 15 16 17 28 13 11 13 12 17 11 10 11 64 12 14 34 13 15 17 10 10 19 14 10 56 15 34 10 10 10 10 37 24 10 15 10 66 16 57 10 11
internal_value=-1.63974 -1.64994 -1.49205 -1.61211 -1.52595 -1.66405 -1.62703 -1.60697 -1.54432 -1.54199 -1.50427 -1.58188 -1.59022 -1.63461 -1.66848 -1.64794 -1.61741 -1.53352 -1.65352 -1.63141 -1.6519 -1.59448 -1.63141 -1.67628 -1.67074 -1.63987 -1.67535 -1.64502 -1.68531 -1.67939 -1.66668 -1.65622 -1.66605 -1.62151 -1.6076 -1.68831 -1.66933 -1.68347 -1.6675 -1.6875 -1.66722 -1.69448 -1.69163 -1.69361 -1.67783 -1.69707 -1.38716 -1.69944 -1.69944 -1.69944 -1.69944 -1.69944
internal_weight=0 122.212 8.43781 33.2069 4.89938 89.0053 28.3075 20.0058 6.12422 5.71594 4.355 3.40234 5.03547 13.8816 83.9698 29.1241 14.0177 4.21891 9.79875 3.67453 11.568 2.85797 3.67453 15.1064 8.71 5.03547 8.30172 3.67453 7.07688 54.8458 21.3667 16.1952 13.4733 4.49109 2.72188 8.98219 8.30172 6.26031 3.13016 33.4791 7.75734 10.0709 6.39641 25.7217 4.62719 21.0945 2.72188 18.7809 5.71594 9.79875 5.17156 3.53844
internal_count=960 898 62 244 36 654 208 147 45 42 32 25 37 102 617 214 103 31 72 27 85 21 27 111 64 37 61 27 52 403 157 119 99 33 20 66 61 46 23 246 57 74 47 189 34 155 20 138 42 72 38 26
is_linear=0
shrinkage=1


Tree=1
num_leaves=63
num_cat=0
split_feature=24 19 16 4 3 23 4 2 0 26 20 22 2 27 0 11 18 22 4 18 17 16 8 10 14 13 17 8 16 14 15 10 22 10 16 6 0 13 17 6 29 20 17 23 4 30 0 8 20 16 22 2 16 30 25 0 0 18 0 0 0 0
split_gain=64.4929 23.5482 20.2322 14.821 13.6223 11.7162 11.7003 11.1531 10.9059 10.5095 7.34868 7.32742 7.17162 7.13809 9.20698 14.124 11.7996 5.97382 13.7248 7.9937 9.34264 4.11228 3.84966 8.21182 3.69126 4.41235 4.18505 3.7078 2.43892 2.20548 2.83736 3.18106 5.38329 4.7732 7.71993 1.66623 1.63638 7.80859 1.45585 0.660838 0.620256 0.603026 0.568252 0.627156 0.558315 0.393299 0.00034797 0.000197138 0.000166341 8.0188e-05 7.70289e-05 5.58783e-05 5.11684e-05 4.12141e-05 3.92478e-05 3.82671e-05 3.23869e-05 1.73422e-05 5.78887e-06 3.55271e-15 1.77636e-15 1.77636e-15
threshold=1.5000000000000002 1.0000000180025095e-35 2477.0000000000005 11.500000000000002 1.5000000000000002 1.0000000180025095e-35 17.500000000000004 888.50000000000011 23.500000000000004 1.5000000000000002 13.500000000000002 3.5000000000000004 416.50000000000006 4.5000000000000009 34.500000000000007 2.5000000000000004 4.5000000000000009 1.5000000000000002 2.5000000000000004 4.5000000000000009 21078.000000000004 4285.5000000000009 1.5000000000000002 80.500000000000014 3.5000000000000004 3.5000000000000004 15673.500000000002 3.5000000000000004 3754.0000000000005 2.5000000000000004 1.0000000180025095e-35 54.500000000000007 1.5000000000000002 73.500000000000014 6403.5000000000009 2.5000000000000004 43.500000000000007 6.5000000000000009 6717.0000000000009 3.5000000000000004 5.5000000000000009 12.500000000000002 3721.5000000000005 2.5000000000000004 13.500000000000002 1.5000000000000002 32.500000000000007 2.5000000000000004 15.500000000000002 5090.0000000000009 2.5000000000000004 881.00000000000011 5224.0000000000009 8.5000000000000018 2.5000000000000004 50.500000000000007 46.500000000000007 2.5000000000000004 39.500000000000007 33.500000000000007 31.500000000000004 28.500000000000004
decision_type=2 2 2 2 2 2 2 2 2 2 2 2 2 2 2 2 2 2 2 2 2 2 2 2 2 2 2 2 2 2 2 2 2 2 2 2 2 2 2 2 2 2 2 2 2 2 2 2 2 2 2 2 2 2 2 2 2 2 2 2 2 2
left_child=6 9 7 17 11 -6 8 -3 -1 12 -10 35 -2 14 15 16 -11 18 -4 28 -21 -14 23 49 25 -17 -27 -28 -19 30 -15 44 -33 34 -34 -5 42 41 -35 55 46 -38 -31 45 50 -44 47 -30 58 -16 -32 -26 -48 59 -55 -24 -43 -54 -40 60 61 -47
right_child=1 2 3 4 5 -7 -8 -9 10 13 -12 -13 21 29 22 24 -18 19 -20 20 -22 -23 39 -25 51 26 27 -29 40 36 31 32 33 38 -36 -37 37 -39 48 -41 -42 56 43 -45 -46 53 52 -49 -50 -51 -52 -53 57 54 -56 -57 -58 -59 -60 -61 -62 -63
leaf_value=0.17589754168753943 0.13710049798274054 0.20344421179723249 -0.059461317943984807 0.011768620942264184 0.22513580008506523 0.039139193415079078 0.23272922535023036 0.040875190084378843 0.099452861862013603 0.020531381160418888 -0.031682803781981239 0.09166631257470427 0.070518855317675239 -0.059139247689967547 -0.05931886138342405 0.087852463321787783 0.18274229596691297 0.0003296295885337241 0.13053471200190642 -0.036633435631830136 0.11288651143377473 -0.036541752552210829 -0.059139247689967589 0.068425134554915307 -0.059435372990016493 -0.059523395935736634 0.088800246985319839 -0.025816465680962426 -0.06044797328207259 -0.021139072196639491 -0.059744974904937333 0.077771650441014181 -0.033189300285064886 -0.006368780741476239 0.12267491980640405 -0.059990441170298503 -0.02100320193873666 0.078112445221595245 -0.059284277339677519 -0.02100320193873666 -0.023493209967406892 -0.059420349429414612 -0.037129463253374448 -0.021480544440602472 -0.021489664523519095 -0.059139247689967422 -0.059615105143825099 -0.059640526324920673 -0.05988178085014733 -0.059864168027024801 -0.059276189223901134 -0.059870014742965175 -0.059188330415315384 -0.059139247689967568 -0.059473126984149 -0.059420349429414612 -0.059139247689967568 -0.059386178098049962 -0.059139247689967547 -0.059139247689967589 -0.059139247689967561 -0.059139247689967568
leaf_weight=2.7361079752445203 1.5113832056522358 2.2647744864225379 1.7381744831800525 1.3910224288701996 1.9215435832738879 1.5136086642742155 2.0349358022212982 1.9751050621271131 2.8027400076389313 2.4860751628875759 1.7263935804367063 1.9733299762010572 1.5315677821636202 4.9649230539798763 1.3228855729103082 1.3557081520557384 2.0419304817914963 2.485788747668269 2.0975372940301895 2.1684931218624106 2.0160525292158127 2.1646177172660828 6.9247611016035062 2.3383530825376511 1.6002783328294756 2.5505952537059784 1.347869023680687 1.480791449546814 1.419343084096907 1.3132645487785364 1.4980632364749937 1.8133302778005589 1.8911804258823379 1.8807753026485441 1.3699014186859129 1.9332102984189985 1.3098939061164845 1.441976875066757 1.3199703991413119 1.3098939061164845 1.3719876557588566 1.467231437563896 2.2524686902761522 1.3219278305768956 1.3219611346721647 2.6131173968315187 1.4828851222991941 1.6172886043787 1.3758980631828306 1.3747813701629636 2.1112467348575592 1.3747043460607526 2.4908651113510132 1.5678704380989068 2.0067790001630783 1.467231437563896 3.3970526158809662 1.994465038180351 1.4372145682573316 8.3619756698608381 2.09049391746521 3.2663967460393906
leaf_count=18 10 15 13 10 13 11 13 14 19 18 12 14 11 38 10 10 13 18 15 16 14 16 53 17 12 19 10 11 10 10 11 13 14 14 10 14 10 10 10 10 10 11 17 10 10 20 11 12 10 10 16 10 19 12 15 11 26 15 11 64 16 25
internal_value=0 -0.00985517 0.0255579 0.0109329 0.0656307 0.143181 0.126762 0.127713 0.0970812 -0.0235449 0.0494672 0.0153437 0.0453411 -0.0279 -0.00791946 0.0207556 0.0936813 -0.0119403 0.0444369 -0.0246255 0.0354031 0.00782035 -0.0356218 -0.000152915 -0.0132516 0.00723753 -0.0130795 0.0287989 -0.0441544 -0.0387428 -0.0261139 -0.0158784 -0.00101977 -0.0164242 0.0322855 -0.0299629 -0.0469195 -0.0266484 -0.0428375 -0.0540328 -0.0548106 -0.0511152 -0.0531462 -0.0549363 -0.0492889 -0.0569322 -0.0595822 -0.0600179 -0.0594328 -0.0595968 -0.0594708 -0.0596362 -0.0593605 -0.0591729 -0.0593267 -0.0591884 -0.059224 -0.0592763 -0.0592087 -0.0591392 -0.0591392 -0.0591392
internal_weight=0 121.434 33.8555 29.6156 8.73271 3.43515 9.30018 4.23988 7.26524 87.5783 4.52913 5.29756 5.20757 82.3708 28.9759 14.238 4.52801 20.8829 3.83571 17.0472 4.18455 3.69619 14.7379 5.03602 9.70995 6.73496 5.37926 2.82866 12.8626 53.3949 20.9845 16.0195 11.0883 9.27494 3.26108 3.32423 32.4104 7.61615 6.01386 9.70189 10.3768 6.17418 24.7943 23.481 4.93127 22.1591 9.00485 3.03663 4.13308 2.69767 3.60931 2.97498 5.96822 19.9066 3.57465 8.39199 4.86428 4.48533 2.75718 16.332 7.97001 5.87951
internal_count=960 898 244 215 62 24 62 29 49 654 31 38 37 617 214 103 31 153 28 125 30 27 111 37 72 50 40 21 95 403 157 119 82 69 24 24 246 57 45 74 77 47 189 179 37 169 67 22 31 20 27 22 45 152 27 64 37 34 21 125 61 45
is_linear=0
shrinkage=0.05


Tree=2
num_leaves=63
num_cat=0
split_feature=24 19 16 13 15 29 27 17 19 10 23 14 0 27 25 17 15 10 17 12 18 4 16 20 18 18 17 20 2 28 25 13 0 18 13 2 17 29 10 16 0 18 0 10 4 30 2 2 27 4 24 10 4 22 13 27 17 28 2 14 22 2
split_gain=54.0609 21.315 16.433 12.9329 15.9417 14.4268 10.0192 9.93929 9.21177 10.0826 7.86667 9.57325 12.0516 12.0157 9.75011 9.44142 5.54471 5.28189 7.89055 9.40114 5.25431 5.09204 7.53244 4.50554 4.1563 3.22403 3.20074 4.57432 5.94023 3.30235 3.02283 2.48647 5.73102 3.47245 4.64943 4.99519 2.59176 2.39391 2.31638 2.14266 2.01397 1.45229 0.651563 0.61859 0.447219 0.28103 0.443564 0.000551708 0.000537028 0.000411147 0.000400127 0.000327314 0.000191736 0.000188884 0.000156701 0.000150462 0.000140528 0.000122913 0.000119353 9.14298e-05 8.45157e-05 6.99078e-05
threshold=1.5000000000000002 1.0000000180025095e-35 2477.0000000000005 6.5000000000000009 1.5000000000000002 1.5000000000000002 4.5000000000000009 18084.000000000004 1.0000000180025095e-35 58.500000000000007 1.0000000180025095e-35 3.5000000000000004 32.500000000000007 2.5000000000000004 2.5000000000000004 17176.000000000004 1.5000000000000002 58.500000000000007 9995.0000000000018 1.5000000000000002 3.5000000000000004 8.5000000000000018 4595.0000000000009 12.500000000000002 4.5000000000000009 2.5000000000000004 16360.000000000002 11.500000000000002 929.50000000000011 6.5000000000000009 3.5000000000000004 6.5000000000000009 43.500000000000007 3.5000000000000004 2.5000000000000004 850.50000000000011 11155.000000000002 5.5000000000000009 62.500000000000007 2407.0000000000005 51.500000000000007 4.5000000000000009 49.500000000000007 89.500000000000014 9.5000000000000018 1.5000000000000002 834.00000000000011 240.50000000000003 4.5000000000000009 16.500000000000004 5.5000000000000009 63.500000000000007 7.5000000000000009 1.5000000000000002 5.5000000000000009 4.5000000000000009 9114.0000000000018 4.5000000000000009 740.50000000000011 2.5000000000000004 2.5000000000000004 727.50000000000011
decision_type=2 2 2 2 2 2 2 2 2 2 2 2 2 2 2 2 2 2 2 2 2 2 2 2 2 2 2 2 2 2 2 2 2 2 2 2 2 2 2 2 2 2 2 2 2 2 2 2 2 2 2 2 2 2 2 2 2 2 2 2 2 2
left_child=8 10 7 17 6 -6 -5 -3 9 -1 11 12 13 25 15 -15 -11 18 -4 -20 -21 30 -23 -8 59 -2 27 28 29 -12 42 33 36 50 35 -35 52 41 -10 -28 43 49 60 48 -16 46 -41 -47 -13 54 56 -25 -33 -52 61 58 -29 -36 -49 -24 -14 -19
right_child=1 2 3 4 5 -7 23 -9 38 16 26 40 21 14 44 -17 -18 37 19 20 -22 22 24 51 -26 -27 39 31 -30 -31 -32 32 -34 34 57 -37 -38 -39 -40 45 -42 -43 -44 -45 -46 47 -48 55 -50 -51 53 -53 -54 -55 -56 -57 -58 -59 -60 -61 -62 -63
leaf_value=0.14601853256734992 0.084044078521109428 0.16293861206967986 -0.059408255712513791 0.13091559078406365 0.047374048621426301 0.23503687453874497 0.033202555186488014 0.0057344217838567069 0.13552962053798775 -0.035355263016821972 0.013087250879397608 -0.059658962597682309 -0.059150436870770873 0.15154659330353132 -0.060397100520436543 -0.022168104234135025 0.088669511211150145 -0.058763237477700771 0.14871303145635351 -0.038678855796398959 0.083408345204336098 0.092050730480874018 -0.059320343012395929 -0.060051462225541752 0.048344889696825245 0.18830066458590547 0.0056611100013705005 -0.059923298612254927 -0.038941931791226042 0.12300929508428449 0.01735665782838218 -0.058911936419514449 0.081608060705488886 0.086861564792845319 -0.058710068131122978 -0.032162207734502006 0.011605049687363299 0.010727709518019319 0.21661876531650229 -0.059026281085946125 0.0099618250329386263 -0.011183967402987688 -0.01900773859774799 -0.022138550211474716 -0.022324093996963053 -0.059877469240627715 -0.019997177532017785 -0.058825474658104553 -0.058759516618790857 -0.060149532693016629 -0.059406329390026338 -0.059062405846375815 -0.059682853036070106 -0.058788828346276294 -0.059632530399204069 -0.058772948569619787 -0.059199616855870385 -0.059347549391194035 -0.0594463889450546 -0.058725469236340838 -0.058766353541158604 -0.059209753010846217
leaf_weight=2.8741186112165433 1.3871661573648473 3.0952777266502371 2.3838630616664913 1.3036349266767517 2.3076606094837189 1.841283246874809 2.1506188958883286 1.4892218858003614 1.7478188723325732 1.993024080991745 1.3668090254068403 2.4121967107057554 2.2132450640201551 1.8828391432762148 1.8192053735256197 1.338020011782646 1.6449220776557922 1.3949424028396591 1.6640349328517912 2.3995638638734822 1.3928228765726087 2.3050435632467261 1.3201552033424382 1.662620857357979 1.3837038874626157 1.593220382928848 1.5185878127813364 1.3779011815786426 2.4705791622400284 1.3662758022546766 1.9594896435737608 1.4112074673175805 1.4085356146097181 1.6961815655231469 1.7682485431432726 1.8353197425603864 2.1121275126934052 2.1072650849819174 1.7751583755016325 1.6806114315986662 1.4439325481653202 2.0153702050447464 1.2230466753244398 1.3312308192253111 1.339023560285568 1.4923810213804234 1.2842861264944074 1.4014284759759896 5.3186315447092056 1.5326952934265134 1.4568407088518132 1.6834874600172041 1.8823844790458677 8.2590920031070691 1.6173991858959196 10.394943937659262 1.3072464168071745 1.3210492283105848 1.7285486310720442 1.2647103518247604 4.059027686715126 2.358935683965683
leaf_count=18 10 19 18 9 16 11 16 10 10 14 10 18 17 13 13 10 10 11 11 18 10 17 10 12 10 10 11 10 19 10 15 11 10 12 14 14 16 15 10 13 11 14 9 10 10 11 10 11 42 11 11 13 14 65 12 82 10 10 13 10 32 18
internal_value=0 -0.00952812 0.0237425 0.0101917 0.0534181 0.130658 0.00629357 0.111873 0.111258 0.0760228 -0.0228158 -0.00481017 0.0119701 0.0568939 0.0181702 0.0793815 0.0207234 -0.0148946 0.0164794 0.0496341 0.00615989 -0.0147626 0.0201627 -0.0232625 -0.0215916 0.139776 -0.0354966 -0.0255232 0.0172462 0.0680376 -0.0379369 -0.0341374 -0.00822156 -0.0434213 -0.0141841 0.025005 -0.0316279 -0.0372025 0.176389 -0.0513714 -0.0448807 -0.0485264 -0.0523922 -0.0536193 -0.0442549 -0.0561878 -0.0421203 -0.0589651 -0.0590402 -0.0594272 -0.0590307 -0.0595539 -0.0593525 -0.0588814 -0.0592211 -0.0588645 -0.059571 -0.0589827 -0.0591684 -0.0590293 -0.0589019 -0.0590438
internal_weight=0 120.535 34.4007 29.8162 10.9493 4.14894 6.80036 4.5845 10.035 6.51206 86.1345 35.5939 25.0879 9.35947 6.37909 3.22086 3.63795 18.8669 7.84028 5.45642 3.79239 15.7284 6.27361 5.49673 3.96857 2.98039 50.5406 31.0398 5.20366 2.73308 9.45481 25.8361 6.81426 19.0219 6.6208 3.5315 5.40572 11.0266 3.52298 19.5008 10.506 8.91934 7.49532 9.06206 3.15823 17.9822 2.9649 15.0173 7.73083 6.90397 12.4011 3.34611 3.29359 9.71593 5.37128 13.5249 2.68515 3.0893 3.12998 2.58487 6.27227 3.75388
internal_count=960 898 244 215 77 27 50 29 62 42 654 267 186 66 46 23 24 138 57 39 28 120 47 41 30 20 387 236 39 20 73 197 51 146 50 26 41 81 20 151 81 66 58 70 23 140 23 117 60 52 96 25 25 76 41 106 20 24 24 20 49 29
is_linear=0
shrinkage=0.05


Tree=3
num_leaves=63
num_cat=0
split_feature=30 16 19 16 13 18 8 19 10 10 2 14 2 27 26 30 5 15 3 2 2 28 30 7 30 23 6 10 17 18 17 2 16 18 7 13 13 8 7 7 17 10 20 4 27 20 12 10 10 15 16 27 27 16 25 10 10 7 13 30 5 16
split_gain=40.2208 17.768 17.1751 14.8189 12.8196 10.7658 12.947 10.4999 9.25092 10.3934 6.97203 6.92898 6.71559 9.01371 6.42645 9.33902 5.62456 5.58132 9.1151 4.48723 5.31973 5.44568 5.47482 5.04515 3.8859 3.80344 3.31462 3.14345 2.98771 2.80293 3.28554 3.80956 4.39502 5.21142 3.06771 2.05475 1.97628 1.8539 1.6631 1.49466 2.55614 2.36329 2.05073 0.937082 1.3131 2.4877 6.05832 0.608543 0.573015 0.559533 0.388291 0.000883232 0.000454762 0.000388128 0.000422014 0.000381763 0.000337125 0.000254582 0.000254529 0.000241934 0.000239005 0.000164698
threshold=1.0000000180025095e-35 3664.5000000000005 1.0000000180025095e-35 2376.5000000000005 6.5000000000000009 5.5000000000000009 2.5000000000000004 1.0000000180025095e-35 58.500000000000007 83.500000000000014 888.50000000000011 2.5000000000000004 1363.5000000000002 4.5000000000000009 1.5000000000000002 6.5000000000000009 3.5000000000000004 1.5000000000000002 1.5000000000000002 825.50000000000011 329.50000000000006 7.5000000000000009 6.5000000000000009 1141.5000000000002 3.5000000000000004 1.0000000180025095e-35 2.5000000000000004 71.500000000000014 17226.500000000004 3.5000000000000004 21814.500000000004 947.50000000000011 5422.0000000000009 6.5000000000000009 1448.5000000000002 6.5000000000000009 7.5000000000000009 1.5000000000000002 956.50000000000011 1576.5000000000002 6717.0000000000009 74.500000000000014 14.500000000000002 3.5000000000000004 7.5000000000000009 14.500000000000002 2.5000000000000004 85.500000000000014 68.500000000000014 1.0000000180025095e-35 2383.5000000000005 4.5000000000000009 4.5000000000000009 6662.5000000000009 2.5000000000000004 54.500000000000007 58.500000000000007 1974.5000000000002 3.5000000000000004 6.5000000000000009 2.5000000000000004 6156.5000000000009
decision_type=2 2 2 2 2 2 2 2 2 2 2 2 2 2 2 2 2 2 2 2 2 2 2 2 2 2 2 2 2 2 2 2 2 2 2 2 2 2 2 2 2 2 2 2 2 2 2 2 2 2 2 2 2 2 2 2 2 2 2 2 2 2
left_child=1 7 12 10 37 17 -7 8 28 50 -4 -11 14 -14 15 -2 -6 19 38 20 56 22 23 -22 -20 -8 -9 55 -1 36 31 32 33 -31 49 51 39 -3 -19 40 41 42 -16 53 47 48 -47 60 -46 -34 -10 -33 -32 54 -42 -15 -5 -41 -21 -51 -45 -60
right_child=2 4 3 5 16 6 25 26 9 11 -12 -13 13 27 29 -17 -18 18 24 58 21 -23 -24 -25 -26 -27 -28 -29 -30 30 52 35 34 -35 -36 -37 -38 -39 -40 57 43 -43 -44 44 45 46 -48 -49 -50 59 -52 -53 -54 -55 -56 -57 -58 -59 61 -61 -62 -63
leaf_value=0.08506313230573298 -0.037218296289056534 0.0054613772158499689 0.18092128861859463 -0.060119691495031102 0.13136287221423443 0.16074229594098557 0.051198368801739905 0.18396373547325243 -0.060835420708276425 0.16185097474699719 0.043702613490221018 0.0191584246460293 0.094069253133360009 -0.058465354590777452 -0.02445433356053673 0.12161065791377033 0.0049855862416195423 0.010843312465113176 0.03035483880869206 -0.058659023346725195 0.072468207215247715 -0.058977871950455764 0.12342395626433089 -0.058988183789788255 0.13801998847052749 -0.059869608291287783 0.098390625526155781 0.028403830794911069 0.17211565657309227 0.091008409633162146 -0.059387156593788487 -0.059982557899245427 -0.018425899877147819 -0.013888001409373636 0.037741180194552852 0.010557031262573418 0.00048459018451587883 -0.058608154440886254 -0.060653902334470801 -0.058399582967390888 -0.059596959641894279 -0.058673336548024729 0.056462584807573359 -0.059193582898269925 -0.058490323495471536 0.09215144888105227 -0.058414510305266322 -0.02123362349887108 -0.01759201015925976 -0.059657817061909757 -0.024556424569317153 -0.058508028998722289 -0.05827149764007894 -0.058375212598815354 -0.05864905956143486 -0.059683719556519466 -0.059040448993009809 -0.05891555710327976 -0.059664975601918524 -0.058692782509341047 -0.058541179817054013 -0.059014358115594079
leaf_weight=2.3624352291226405 2.130889885127544 1.521913968026636 1.8218702077865629 1.6579136848449763 2.071271270513535 2.2185162007808676 1.7731743007898333 2.9893249422311774 1.5709501355886462 1.5604487508535387 1.8819270581007002 1.8706278577446935 2.5795729532837859 1.2335093170404436 1.4349254146218329 1.6361361294984815 1.5313334614038465 1.3918921574950212 1.6311661005020144 2.508522927761077 1.5091435611248019 1.5412882715463636 1.6227043047547338 1.4135018289089201 1.7236766666173933 1.3635086640715597 1.820939853787422 1.7058639228343961 1.6912350207567213 2.6262590587139147 1.3051400929689396 1.6168546453118313 1.2445495054125788 2.1561941578984261 1.5284497886896131 1.4017883241176603 2.5053092390298835 4.3742009252309799 1.956824257969856 10.937168784439562 2.1235662773251551 1.3830593824386594 1.7234946265816686 2.2074992358684522 2.8451302796602249 1.3193531483411791 1.3534640222787855 1.3129540383815763 1.2252639159560201 1.3437737673521044 1.3902443200349806 2.7308423742651939 3.0431367605924606 3.4360431060194969 2.6264766678214073 1.3429537266492841 1.283981032669544 3.0593260601162902 1.7500850930809977 1.2569597363471983 3.8560247719287872 2.1897592768073082
leaf_count=15 15 11 10 12 14 13 12 16 11 10 12 13 18 10 11 11 11 10 11 20 11 12 11 11 10 10 10 13 10 18 10 12 10 16 11 10 19 35 14 89 16 11 13 17 23 10 11 10 10 10 10 22 25 28 21 10 10 24 13 10 31 17
internal_value=0 0.0570188 -0.0137997 0.0173028 0.0033342 0.00467284 0.0683 0.0904435 0.0622954 0.0248252 0.111199 0.0840548 -0.0268888 0.0202337 -0.0316884 0.031766 0.0776446 -0.0106892 0.0274212 -0.027196 -0.00444329 0.0222395 0.0497796 0.00889093 0.0856719 0.00291738 0.15157 -0.0242431 0.121382 -0.0354466 -0.0200908 -0.00956147 0.00884967 0.0437153 -0.0221797 -0.0420839 -0.0426213 -0.0420704 -0.0309361 -0.0452653 -0.0383592 -0.00416734 0.0197006 -0.0453206 -0.0375174 -0.0215697 0.0159077 -0.052096 -0.0461792 -0.0459974 -0.0438029 -0.0590564 -0.0586064 -0.05878 -0.0590728 -0.0591004 -0.0596487 -0.0585124 -0.0590527 -0.0591914 -0.0587787 -0.0593034
internal_weight=0 24.7549 105.471 31.2395 9.49872 27.5357 5.3552 15.2562 10.4459 6.39227 3.7038 3.43108 74.2319 6.8619 67.37 3.76703 3.6026 22.1805 6.70356 15.4769 9.02853 6.08664 4.54535 2.92265 3.35484 3.13668 4.81026 4.28233 4.05367 63.603 20.2539 15.9057 10.1562 4.78245 5.37373 5.74949 43.3491 5.89611 3.34872 40.8437 26.8473 4.54148 3.15842 22.3058 14.1197 6.74321 2.67282 7.37648 4.07039 3.84528 2.96119 4.3477 4.34828 8.18609 4.75004 2.57646 2.94189 13.9965 6.44837 2.60073 6.06352 3.93984
internal_count=960 166 794 219 71 197 35 95 69 44 22 23 575 51 524 26 25 162 45 117 67 45 33 22 21 22 26 33 25 498 154 119 75 34 41 44 344 46 24 325 212 35 24 177 112 54 21 58 33 30 21 34 35 65 37 20 22 113 50 20 48 30
is_linear=0
shrinkage=0.05


Tree=4
num_leaves=63
num_cat=0
split_feature=24 19 16 4 26 17 4 17 27 0 11 18 7 15 7 22 22 4 18 17 9 7 7 24 4 14 16 14 15 16 16 28 25 17 5 8 0 24 6 8 20 7 27 25 0 30 17 0 16 7 22 7 2 27 2 2 8 2 25 25 2 17
split_gain=40.275 17.5565 11.1812 11.1229 8.58126 6.84455 6.27377 7.10611 6.17324 7.95464 10.7363 7.33582 6.16997 5.8368 7.48941 5.66232 5.1833 10.4264 6.44359 6.35708 5.14093 4.76109 4.74799 4.03253 3.64982 2.67768 2.27717 2.18792 2.73434 2.95352 10.6367 3.91432 2.26069 2.42079 1.9373 1.63931 1.62558 3.3055 1.05908 0.800419 1.48542 0.61966 0.616862 2.11999 0.59092 0.380157 0.000997505 0.000771743 0.000702483 0.000427632 0.000292403 0.000222516 0.000168585 0.000166553 0.000148417 0.000128781 9.38384e-05 9.61219e-05 8.12007e-05 7.38897e-05 6.40149e-05 4.81935e-05
threshold=1.5000000000000002 1.0000000180025095e-35 2477.0000000000005 11.500000000000002 1.5000000000000002 18084.000000000004 17.500000000000004 22253.500000000004 4.5000000000000009 34.500000000000007 2.5000000000000004 4.5000000000000009 1162.5000000000002 1.5000000000000002 663.50000000000011 2.5000000000000004 1.5000000000000002 2.5000000000000004 4.5000000000000009 21078.000000000004 1.0000000180025095e-35 668.00000000000011 1559.0000000000002 14.500000000000002 22.500000000000004 2.5000000000000004 3754.0000000000005 2.5000000000000004 1.0000000180025095e-35 10622.000000000002 8624.0000000000018 2.5000000000000004 2.5000000000000004 9171.0000000000018 3.5000000000000004 1.5000000000000002 43.500000000000007 12.500000000000002 3.5000000000000004 1.5000000000000002 13.500000000000002 525.50000000000011 12.500000000000002 3.5000000000000004 47.500000000000007 1.5000000000000002 17953.500000000004 32.500000000000007 10732.000000000002 873.00000000000011 2.5000000000000004 1253.5000000000002 588.50000000000011 14.500000000000002 240.50000000000003 771.50000000000011 1.5000000000000002 921.50000000000011 2.5000000000000004 2.5000000000000004 1182.5000000000002 18929.000000000004
decision_type=2 2 2 2 2 2 2 2 2 2 2 2 2 2 2 2 2 2 2 2 2 2 2 2 2 2 2 2 2 2 2 2 2 2 2 2 2 2 2 2 2 2 2 2 2 2 2 2 2 2 2 2 2 2 2 2 2 2 2 2 2 2
left_child=6 4 5 16 12 -3 7 15 9 10 11 -6 -2 14 -5 -1 17 -4 26 -20 -16 -12 -14 -22 38 -17 -18 28 61 30 31 -30 33 -33 35 -23 42 -38 39 40 -11 -28 45 59 -39 -29 -37 -43 -46 -34 -31 52 -41 55 -47 -49 57 -56 -57 -44 -54 -10
right_child=1 2 3 13 8 -7 -8 -9 27 24 21 -13 22 -15 20 25 18 -19 19 -21 23 34 -24 -25 -26 -27 41 36 29 50 -32 32 49 -35 -36 46 37 44 -40 51 -42 47 43 -45 48 54 -48 53 -50 -51 -52 -53 60 -55 56 58 -58 -59 -60 -61 -62 -63
leaf_value=0.10569683692637255 -0.033608348885705096 0.12654445060627939 -0.058524767024422636 0.12273924752705215 0.019248279581772939 0.0012818933529110351 0.15797140540242005 0.15046360247771812 -0.058026212435042426 0.008968758153617841 0.067820313225040063 0.14138280397117128 0.13661734484866084 0.11554202041085943 -0.058955815894455858 0.058978419316274226 -6.499177640480857e-05 0.10654442597907295 -0.035618154390986 0.083866538365379675 0.097123294768586999 -0.00016845025527730735 0.021134338363869253 -0.021646229723786117 0.039660597239804529 -0.023982938955584409 -0.02179325210788316 -0.035643732436913066 0.042328883503254089 -0.058900653050209861 0.11228037967986584 0.044473574317007186 -0.05928708847742778 -0.037871740731391101 0.014523061501416443 -0.058127282362186873 0.02380203812651174 -0.018407391380812908 -0.009336584161395791 -0.058834399926603088 -0.059601393383596019 -0.059468676152276259 -0.058276712266561351 0.019671379127062624 -0.059434109199993035 -0.058418690684804001 -0.059706970143308884 -0.058861916772900341 -0.057975805066325818 -0.058258534324594914 -0.057902529190524722 -0.057866432769672932 -0.057924409104776454 -0.057926922054623201 -0.058420510745559276 -0.058015861621167369 -0.057862900292989732 -0.057849549400996916 -0.058569793272487625 -0.057761412804958237 -0.05842781055171891 -0.057696792592309837
leaf_weight=2.346425533294676 1.9000434651970852 3.6019762158393851 1.6070092618465488 1.6100989431142787 2.5166013836860683 1.5640900880098341 2.6322131752967826 2.0599572062492371 2.38062905520201 1.4592146649956688 1.5571496188640574 2.4037946909666061 1.7526018992066386 2.7351714670658112 2.1819355264306068 1.5913418084383009 2.490241780877116 2.3636943697929382 2.1068927943706504 2.3602830916643143 1.5624297782778742 1.6632572188973425 1.8084666132926939 1.3171557709574697 1.5044167265295971 2.501606822013855 1.3162818178534497 2.1565528586506941 1.963739402592181 1.5276760011911386 1.7307613790035237 1.42574220150709 1.4382966533303259 2.3864644318819046 2.0151490718126297 2.6387318447232246 2.393750734627246 1.2386869862675665 1.9920207113027562 1.5294032618403433 1.721646577119827 2.3580086678266508 1.2151233330368987 1.2723722308874128 1.3050667047500613 1.717933945357802 1.608513072133064 1.9036027565598486 2.2487641423940659 3.3979331105947495 1.4119177088141439 3.2844560593366623 1.2979274168610575 1.4152567759156225 1.7222942486405366 1.1888896673917773 11.610120326280592 1.2886994853615759 1.4916596487164495 1.6273479089140892 1.2300049960613249 2.0806310847401619
leaf_count=14 14 19 13 10 18 10 13 11 20 11 11 13 11 15 17 9 18 15 16 14 10 12 12 10 11 15 10 17 15 12 12 10 11 19 15 22 18 10 15 12 13 18 10 10 10 14 12 15 19 28 12 28 11 12 14 10 99 11 12 14 10 18
internal_value=0 -0.00894932 0.0206771 0.00898059 -0.0214409 0.0886197 0.0905204 0.069631 -0.0256852 -0.00710996 0.0189865 0.0789155 0.0391494 0.05403 0.0288118 0.0437727 -0.011589 0.0397382 -0.0238434 0.0275129 -0.00106705 -0.0121092 0.07797 0.0427967 -0.0339214 0.00827251 -0.0427039 -0.0363421 -0.0234336 -0.0133802 -0.00265328 -0.021398 -0.0358681 -0.00707509 -0.027813 -0.0422472 -0.0448954 -0.02418 -0.0427669 -0.0490955 -0.028145 -0.0536801 -0.0514794 -0.0339702 -0.048146 -0.0553748 -0.0587255 -0.0587023 -0.0585113 -0.0585644 -0.0584212 -0.0581724 -0.05842 -0.0584011 -0.0579791 -0.0585474 -0.0579274 -0.0581761 -0.0583241 -0.0579817 -0.0581693 -0.0578726
internal_weight=0 118.599 35.1747 30.0086 83.4239 5.16607 11.1315 8.49933 77.9628 28.4223 14.4032 4.9204 5.46111 9.40679 6.67162 6.43937 20.6018 3.9707 16.6311 4.46718 5.06152 9.4828 3.56107 2.87959 14.0191 4.09295 12.1639 49.5405 19.7438 15.2825 12.3429 10.6122 8.64844 3.81221 7.92565 5.9105 29.7967 7.18627 12.5147 10.5227 3.18086 9.6737 22.6104 4.11484 4.79252 18.4956 4.24724 8.35742 3.55383 4.83623 2.93959 7.34179 4.05734 5.99941 16.339 4.58415 14.6211 3.01099 2.68055 2.84247 2.52793 4.46126
internal_count=960 898 244 215 654 29 62 49 617 214 103 31 37 62 47 38 153 28 125 30 37 72 23 20 111 24 95 403 157 119 95 83 68 29 61 46 246 57 100 85 24 77 189 34 39 155 34 67 29 39 24 61 33 49 138 37 124 25 22 24 21 38
is_linear=0
shrinkage=0.05


Tree=5
num_leaves=63
num_cat=0
split_feature=24 19 16 13 15 29 27 18 0 11 5 14 16 4 23 10 13 15 2 10 17 12 14 15 25 0 18 13 22 16 27 6 23 16 9 26 13 29 18 16 20 4 2 25 10 10 13 30 26 0 30 14 2 26 0 4 24 13 10 10 0 18
split_gain=35.0445 17.3667 10.1479 9.68465 9.95707 8.08747 7.04637 6.98335 14.098 7.14285 6.86171 6.2403 7.6174 8.91821 6.24898 5.57462 6.6883 5.93755 5.47135 4.81196 6.68598 7.09242 4.8023 4.78323 4.70523 4.21856 4.10701 3.42485 3.29143 3.30098 4.49687 2.58815 2.59734 3.67077 2.4394 2.33012 2.19921 2.1491 1.24678 1.18844 0.846285 1.86435 0.684833 0.591318 0.568877 0.54627 0.307317 0.532572 0.00149205 0.00121295 0.000983989 0.000612334 0.00059115 0.000587383 0.000501999 0.000459266 0.000459048 0.000451642 0.000411305 0.000324655 0.000307763 0.000508572
threshold=2.5000000000000004 1.0000000180025095e-35 2477.0000000000005 6.5000000000000009 1.5000000000000002 1.5000000000000002 4.5000000000000009 4.5000000000000009 29.500000000000004 2.5000000000000004 3.5000000000000004 1.5000000000000002 4445.5000000000009 1.5000000000000002 1.0000000180025095e-35 53.500000000000007 5.5000000000000009 1.5000000000000002 888.50000000000011 58.500000000000007 9995.0000000000018 1.5000000000000002 2.5000000000000004 1.5000000000000002 3.5000000000000004 54.500000000000007 3.5000000000000004 5.5000000000000009 1.5000000000000002 4837.5000000000009 10.500000000000002 3.5000000000000004 1.5000000000000002 5486.5000000000009 1.0000000180025095e-35 2.5000000000000004 7.5000000000000009 5.5000000000000009 4.5000000000000009 2208.5000000000005 21.500000000000004 9.5000000000000018 152.50000000000003 3.5000000000000004 80.500000000000014 44.500000000000007 1.0000000180025095e-35 4.5000000000000009 1.5000000000000002 31.500000000000004 2.5000000000000004 3.5000000000000004 543.50000000000011 2.5000000000000004 43.500000000000007 9.5000000000000018 19.500000000000004 5.5000000000000009 83.500000000000014 52.500000000000007 36.500000000000007 2.5000000000000004
decision_type=2 2 2 2 2 2 2 2 2 2 2 2 2 2 2 2 2 2 2 2 2 2 2 2 2 2 2 2 2 2 2 2 2 2 2 2 2 2 2 2 2 2 2 2 2 2 2 2 2 2 2 2 2 2 2 2 2 2 2 2 2 2
left_child=15 7 18 19 6 -6 -5 11 23 10 27 12 13 -2 -15 22 39 -18 -3 20 -4 -22 -1 -9 44 28 -23 -10 29 45 34 32 52 -34 -31 -14 40 38 55 -17 42 -42 -30 49 59 -13 47 -44 -48 -37 60 -47 53 -11 -52 57 -56 -21 -54 -8 61 -50
right_child=1 2 3 4 5 -7 24 8 9 31 -12 25 35 14 -16 16 17 -19 -20 37 21 26 -24 -25 -26 -27 -28 -29 36 30 -32 -33 33 -35 -36 43 -38 -39 -40 -41 41 -43 46 -45 -46 51 48 -49 50 -51 54 -53 58 -55 56 -57 -58 -59 -60 -61 -62 -63
leaf_value=0.16626724603491094 -0.058418934371357839 0.13472719055395332 -0.058318139183673179 0.10078573984031046 0.037382208216696231 0.16739177443438313 -0.059266341515774812 0.031380044499263481 0.028031787853667885 -0.059935166344341498 -0.058181188864969237 -0.019712704271458773 0.013112752750869964 0.14047061000211811 0.0081753292975047173 0.068127050386338664 -0.060631247655017123 0.050750110809336148 0.02784529171652373 -0.057725089510734143 0.12608654960194085 -0.036822355759987983 0.07229337383378652 0.14968968513088607 0.06736393918884287 0.04340725569198331 0.069501545192762929 0.13161168480605143 -0.018453183433273006 0.0010797332281545205 -0.058199588035329042 0.018505973682606359 -0.058453651520187645 0.060326944617792089 0.086268814408449315 -0.05957477189561633 0.011245791540548751 0.0088330525931243735 -0.013674026270533235 0.12332615351275839 -0.058133638258754311 0.019219283816109267 -0.05856420505857364 -0.019331073307319927 -0.01818648012989171 -0.059196402803560311 -0.059888516774821016 -0.014663370771625762 -0.058321281864753598 -0.057791160902906959 -0.057599346493171479 -0.057800717906339893 -0.057917105232058674 -0.058478671585047992 -0.058796084660526715 -0.058996615409091679 -0.057524144609829922 -0.058816419657354346 -0.058847876685754877 -0.058202657090131095 -0.058009774261999096 -0.059327501144259324
leaf_weight=2.3306583762168875 1.460644967854021 2.6721666306257239 2.1789448186755207 1.5126310735940949 2.4930587857961655 2.2995383441448212 1.5659352019429209 1.5936570093035725 1.6727900803089171 1.2272849455475792 1.3162558823823927 1.2597088515758494 2.0393705442547798 2.22529198974371 1.490460008382797 1.8364991396665558 1.8617850244045255 3.3485789895057678 2.1694774925708771 3.0018847212195379 1.8173574209213255 2.2611457780003552 3.2625549510121346 1.8415065556764603 1.1594431474804876 1.4677964970469464 1.5179833471775053 1.5261386260390279 1.2395216301083589 1.6533231437206268 1.5660329386591909 1.9018074870109547 1.3502414748072618 1.2549965009093282 1.7089551687240601 1.4478419348597524 1.4195962473750103 2.1409190520644179 2.0750356167554855 2.0789438039064407 2.0090440139174457 1.2722340822219846 1.7122255265712767 1.255351237952709 1.2306917831301687 1.8045319095253944 1.0865369662642503 1.1580867692828176 4.8483613505959529 2.7900554239749908 12.219070762395857 1.3921638205647469 3.6456320062279701 1.5877504348754881 1.8900866582989686 1.9219318032264707 1.135522164404392 1.3856265470385549 1.7598749473690984 1.323788948357105 3.6684443652629852 1.6947043016552923
leaf_count=12 12 13 18 9 16 11 12 11 12 9 11 10 15 15 12 10 13 18 13 26 10 18 19 10 8 12 10 9 10 13 13 14 11 10 13 11 11 15 14 11 17 10 14 10 10 14 8 10 40 24 107 12 31 13 15 15 10 11 14 11 31 13
internal_value=0 -0.00981999 0.019683 0.00880416 0.0445779 0.0997622 0.00564139 -0.0226926 0.00230648 -0.016121 0.0379093 -0.0314668 -0.000438832 0.0462568 0.0874044 0.0721471 0.0480573 0.0109509 0.0868348 -0.0138419 0.015988 0.0449185 0.111452 0.0948029 -0.0216166 -0.040001 0.00588534 0.0774475 -0.0427375 -0.016415 0.0117834 -0.0352885 -0.0447388 -0.00123461 0.044379 -0.032528 -0.049725 -0.0358782 -0.0472949 0.0974356 -0.0522756 -0.028142 -0.0548591 -0.0494721 -0.0466548 -0.0475994 -0.0563933 -0.0408515 -0.058074 -0.0584005 -0.0579965 -0.0585886 -0.0585261 -0.0591137 -0.0577421 -0.0583521 -0.0583187 -0.0580697 -0.0582201 -0.0587791 -0.0583764 -0.0585819
internal_weight=0 114.32 34.7276 29.8859 11.5851 4.7926 6.79249 79.5929 20.6779 17.2428 4.51518 58.915 12.709 5.1764 3.71575 14.719 9.12581 5.21036 4.84164 18.3008 7.77543 5.59649 5.59321 3.43516 5.27986 46.2059 3.77913 3.19893 44.7382 9.38472 4.92831 12.7276 10.8258 2.60524 3.36228 7.53262 35.3534 10.5254 8.38448 3.91544 33.9338 3.28128 30.6526 5.49325 4.12042 4.4564 29.413 2.87031 26.5427 4.2379 25.4562 3.1967 8.22054 2.81504 15.2447 6.30944 3.02561 4.38751 5.40551 2.88972 10.2115 6.54307
internal_count=960 877 240 214 77 27 50 637 155 134 32 482 99 39 27 83 52 31 26 137 56 38 31 21 41 383 28 21 371 75 39 102 88 21 26 60 296 81 66 21 285 27 258 45 33 36 248 24 224 35 216 26 67 22 132 52 25 37 45 23 84 53
is_linear=0
shrinkage=0.05


Tree=6
num_leaves=63
num_cat=0
split_feature=24 13 23 16 26 16 18 4 18 26 0 14 22 4 4 17 14 4 0 22 27 14 24 25 22 0 28 25 11 5 22 0 7 20 29 20 10 0 10 26 16 20 27 20 14 16 28 15 17 12 2 16 27 15 4 10 6 27 17 20 22 6
split_gain=31.0198 11.5028 12.1487 11.9932 10.5309 7.71391 6.47065 5.52281 5.91493 5.44965 5.05356 4.9902 13.5698 4.85387 4.52895 5.33069 4.62928 3.73162 3.46541 6.11458 8.59619 4.25006 4.0696 3.55938 5.13813 7.4307 5.85431 3.43767 3.32415 4.26967 2.75757 2.52098 3.65935 2.46816 2.41478 2.31053 4.74526 2.23066 2.09306 2.07575 3.36905 1.73863 1.18602 0.812886 1.9595 0.736165 0.446718 0.0026519 0.00264953 0.00246201 0.00160729 0.00131885 0.00128728 0.000997656 0.000899504 0.000866935 0.000522861 0.000350251 0.000330736 0.000358103 0.000330477 0.000311604
threshold=1.5000000000000002 6.5000000000000009 1.0000000180025095e-35 2767.0000000000005 1.5000000000000002 3066.0000000000005 3.5000000000000004 15.500000000000002 6.5000000000000009 2.5000000000000004 44.500000000000007 2.5000000000000004 3.5000000000000004 8.5000000000000018 17.500000000000004 22253.500000000004 2.5000000000000004 19.500000000000004 33.500000000000007 1.5000000000000002 2.5000000000000004 2.5000000000000004 6.5000000000000009 2.5000000000000004 3.5000000000000004 43.500000000000007 3.5000000000000004 2.5000000000000004 2.5000000000000004 2.5000000000000004 1.5000000000000002 35.500000000000007 1663.0000000000002 21.500000000000004 5.5000000000000009 12.500000000000002 65.500000000000014 26.500000000000004 58.500000000000007 2.5000000000000004 6252.0000000000009 13.500000000000002 1.5000000000000002 11.500000000000002 3.5000000000000004 2603.0000000000005 6.5000000000000009 1.5000000000000002 7836.5000000000009 2.5000000000000004 577.50000000000011 2343.5000000000005 3.5000000000000004 1.5000000000000002 10.500000000000002 83.500000000000014 4.5000000000000009 4.5000000000000009 19232.000000000004 15.500000000000002 1.5000000000000002 2.5000000000000004
decision_type=2 2 2 2 2 2 2 2 2 2 2 2 2 2 2 2 2 2 2 2 2 2 2 2 2 2 2 2 2 2 2 2 2 2 2 2 2 2 2 2 2 2 2 2 2 2 2 2 2 2 2 2 2 2 2 2 2 2 2 2 2 2
left_child=14 3 6 4 -2 -4 11 8 30 -8 28 12 -3 -12 15 16 -1 -9 19 22 -21 23 -5 24 26 -26 -20 -24 29 -7 -6 32 37 34 47 36 -32 -13 -18 40 -25 -11 -23 44 -44 48 -31 57 -37 -28 -49 -50 -30 -41 56 61 60 -22 59 -54 -45 -56
right_child=1 2 5 18 7 10 9 17 -10 41 13 31 -14 -15 -16 -17 38 -19 21 20 33 42 27 39 25 -27 49 -29 52 46 35 -33 -34 -35 -36 45 -38 -39 -40 53 -42 -43 43 54 -46 -47 -48 50 51 -51 -52 -53 58 -55 55 -57 -58 -59 -60 -61 -62 -63
leaf_value=0.083406402348955508 0.14933445191512357 0.1225567072858974 0.077211616914151293 -0.026334933506086147 0.040924245099948547 0.060286932273759676 0.15147111205886354 0.1143710271976771 0.075669545604635235 0.0086629152857157863 -0.019183909141664252 0.025074817875914559 -0.059597466511583874 0.09205804018839403 0.13051428890110137 0.12495425155165236 0.037214584358296957 0.017390257690876834 0.037823061012572413 0.060024175426725404 -0.058416689749979246 -0.015562217860654795 0.12401696269267631 0.051456032935357054 -0.025542611196955875 0.13429166334128526 -0.06026313263217125 0.015429085063595804 -0.059322915253244318 -0.058675588794535938 -0.060475355414362476 -0.058785494217667392 0.085151043379323096 0.026509701946513142 0.011847300328066591 -0.06135379640488358 0.0630456896846842 -0.058013720454207274 -0.036909346407126516 -0.057575648373194802 -0.059237407282077804 0.083943111147202751 -0.057807779564250955 -0.058065158446930248 0.016377849174567482 -0.015650767679573012 -0.018765847150765125 -0.060708387570484405 -0.059722191552183904 -0.057783453023753185 -0.058541509952377481 -0.057796448486851261 -0.057639734285221844 -0.059155792070088857 -0.057689846056793781 -0.059515074091320834 -0.058614314181033057 -0.057513302759431152 -0.057331032143904483 -0.058623709970453478 -0.057406768088177698 -0.058561598394519201
leaf_weight=2.959440663456915 1.3922808095812822 3.1794013530015963 2.1582294851541546 1.5260835587978387 1.4174938350915933 1.6254239901900298 2.2552541792392722 1.657928094267844 1.7235521599650372 1.4236254170536997 2.4696980267763129 1.7155618146061899 1.5070774555206297 1.6263404190540312 2.9043882340192786 2.2755170613527298 1.8993899673223498 2.4690826088190079 2.5426736101508158 2.4073903411626807 1.3454093039035777 2.2577016204595592 1.5925521329045298 1.3360054865479454 1.3918045461177828 1.5227128341794012 1.7683902010321615 1.3439224660396574 1.6497538313269613 1.6065972819924357 1.5537952035665497 1.587817847728729 1.3034379258751867 1.1626321896910656 1.394172616302966 1.5055567100644109 1.5563342943787573 1.5265636518597601 1.9101203382015226 4.7627725601196289 1.4158730655908582 1.6628556549549101 2.6689497530460384 2.364057421684266 1.3355203866958616 1.1723306030035017 1.2441209927201269 1.3962730839848521 1.9744567275047304 2.3067762777209282 2.2108227759599686 1.6173517405986784 2.1738727018237118 1.2640210464596746 2.5276495069265357 1.3086496815085409 1.2341132611036307 5.2977873682975769 2.6646513715386391 1.609069801867008 9.8359588235616666 1.7244010269641874
leaf_count=16 8 19 15 12 9 11 12 10 10 10 19 12 12 11 13 11 10 17 19 15 11 18 10 10 10 10 13 11 13 13 12 13 8 9 11 11 10 13 12 42 11 10 23 20 11 10 10 10 15 20 18 14 19 10 22 10 10 47 24 13 88 14
internal_value=0 -0.00840646 0.0155635 -0.0187244 0.017236 -0.0117332 0.0473633 0.0061885 -0.0103452 0.0923902 -0.023249 0.0251337 0.0639796 0.0249849 0.076193 0.0587492 0.0364931 0.05635 -0.0289818 -0.0115662 -0.0266613 -0.0368474 0.0398986 -0.0185066 0.00264854 0.0579641 -0.0217126 0.0743201 -0.0389621 -0.00438395 -0.0240756 -0.00454819 0.0143975 -0.0429559 -0.0498916 -0.0338985 0.00133559 -0.0140476 4.82253e-05 -0.0414779 -0.00549701 0.0492205 -0.0501442 -0.0535389 -0.0330663 -0.0513766 -0.041258 -0.0582889 -0.0595931 -0.0588595 -0.0593803 -0.0588551 -0.0580766 -0.0579071 -0.0578549 -0.0583897 -0.0576336 -0.0576963 -0.0577577 -0.0580583 -0.0575343 -0.0580434
internal_weight=0 116.275 34.9894 81.2852 18.0402 18.8278 16.1616 16.6479 12.5209 5.34174 16.6695 10.8199 4.68648 4.09604 11.9489 9.04447 6.76895 4.12701 63.2451 19.677 15.2145 43.568 4.46256 18.311 9.53236 2.91452 6.61784 2.93647 12.5735 4.47614 10.7973 6.13338 4.54556 12.8071 11.6445 9.37983 3.11013 3.24213 3.80951 8.77867 2.75188 3.08648 25.257 22.9993 4.00447 6.2697 2.85072 10.2503 5.09737 4.07517 3.6071 3.59181 8.09735 6.02679 18.9948 5.5607 13.4341 6.6432 6.44759 3.78294 12.2 4.25205
internal_count=960 898 257 641 126 148 109 118 91 32 133 77 31 30 62 49 38 27 515 154 121 361 33 145 72 20 52 21 103 34 81 46 33 106 97 72 22 25 22 73 21 20 216 198 34 50 23 86 40 33 28 29 69 52 164 46 118 58 56 32 108 36
is_linear=0
shrinkage=0.05


Tree=7
num_leaves=63
num_cat=0
split_feature=24 19 8 2 2 10 26 22 12 4 27 0 11 13 18 9 2 18 7 1 19 10 7 10 4 7 4 20 20 14 10 22 20 2 10 17 23 6 0 13 10 18 22 7 4 29 30 18 25 10 30 13 0 10 17 2 10 8 11 17 2 24
split_gain=27.3628 14.0392 8.56782 7.50899 8.49428 7.41115 6.9696 5.50955 5.42464 6.95185 5.32114 6.56091 7.94247 8.94422 10.1588 4.71444 6.3872 4.67892 4.62942 4.51601 4.25232 4.78704 3.89467 3.70638 3.4289 2.98637 2.58619 2.05447 3.05275 2.03221 2.5299 2.22534 3.95899 3.85993 2.76936 2.13735 1.99958 3.34515 1.59704 6.23185 1.19621 1.00158 1.47452 3.15474 0.716899 0.726086 0.701811 0.642345 0.614456 0.505998 0.408516 0.00363247 0.00175955 0.00160346 0.00116695 0.00103263 0.000886917 0.000393969 0.000361611 0.000272498 0.000265736 0.000257924
threshold=1.5000000000000002 1.0000000180025095e-35 1.5000000000000002 1062.5000000000002 281.00000000000006 58.500000000000007 1.5000000000000002 2.5000000000000004 1.5000000000000002 12.500000000000002 4.5000000000000009 34.500000000000007 2.5000000000000004 6.5000000000000009 4.5000000000000009 1.0000000180025095e-35 588.50000000000011 1.5000000000000002 1162.5000000000002 1.5000000000000002 1.0000000180025095e-35 58.500000000000007 758.50000000000011 83.500000000000014 22.500000000000004 1559.0000000000002 3.5000000000000004 14.500000000000002 17.500000000000004 2.5000000000000004 54.500000000000007 1.5000000000000002 16.500000000000004 834.00000000000011 80.500000000000014 5614.0000000000009 1.0000000180025095e-35 1.5000000000000002 43.500000000000007 6.5000000000000009 62.500000000000007 3.5000000000000004 2.5000000000000004 1211.5000000000002 27.500000000000004 10.500000000000002 9.5000000000000018 1.5000000000000002 3.5000000000000004 82.500000000000014 1.5000000000000002 5.5000000000000009 41.500000000000007 63.500000000000007 16025.000000000002 201.00000000000003 80.500000000000014 1.5000000000000002 2.5000000000000004 14269.500000000002 970.50000000000011 13.500000000000002
decision_type=2 2 2 2 2 2 2 2 2 2 2 2 2 2 2 2 2 2 2 2 2 2 2 2 2 2 2 2 2 2 2 2 2 2 2 2 2 2 2 2 2 2 2 2 2 2 2 2 2 2 2 2 2 2 2 2 2 2 2 2 2 2
left_child=20 6 8 4 49 7 18 -6 -3 -10 11 12 13 14 -8 19 -17 -9 -2 -7 21 -1 -14 -23 41 -20 -19 54 -29 30 46 34 35 -34 -32 -33 37 -5 44 47 -22 57 43 -43 45 50 58 -40 56 55 -31 -21 53 -38 -24 -4 -44 -13 -12 -52 -49 -37
right_child=1 2 3 36 5 15 10 17 9 -11 29 24 22 -15 -16 16 -18 26 25 51 40 23 27 -25 -26 -27 -28 28 -30 38 31 32 33 -35 -36 61 52 -39 39 -41 -42 42 48 -45 -46 -47 -48 60 -50 -51 59 -53 -54 -55 -56 -57 -58 -59 -60 -61 -62 -63
leaf_value=0.088625519933183905 -0.032077689499745723 0.13469346358042905 -0.059612003400655159 -0.058853200931274087 0.12377089968224655 0.048524810379214009 -0.059772265964826432 -0.030396762707501152 -0.033364012169902167 0.10113582496800533 -0.058074196251679824 -0.058270339212157185 0.044287550269483562 0.15773036774770177 0.11024424742903766 0.099321217628416295 -0.017466255577857807 0.025554424583371926 0.1072272754724975 -0.058128297902953978 0.082373933141657016 -0.038020196756722781 -0.057459982889779715 0.058262050172397099 0.038931303167180048 0.018873078148766147 0.11047080624221804 0.034983960371900255 -0.058759056390468245 -0.03312246979448933 -0.021786179794346244 0.011458175092959464 0.072299006342383773 -0.030887391361054773 0.079069260245037146 -0.057750683622734549 -0.060649053373199424 0.036147535180883476 -0.015348883985782758 0.065878137658817337 0.13367878377446171 0.056199765503717615 -0.057541475149553267 -0.057796682209500405 -0.0091761413645335393 -0.012904785993104568 -0.012852068578633944 -0.05767517569978068 -0.015108562093325732 -0.018978389383416297 -0.057212461901309221 -0.061404448410334656 -0.057398812306811868 -0.058199681492249189 -0.059331964757803779 -0.057593873706960209 -0.059270892193353103 -0.057298577396465128 -0.057167692644813806 -0.056804951886480409 -0.056863602429650772 -0.057015587908224079
leaf_weight=3.7221973091363889 1.8117640465497959 2.2073812037706366 1.4411202520132134 1.7419306561350816 3.0982177555561083 1.3438867181539604 1.8812125846743613 1.6381768733263014 1.8530581593513491 1.995065242052078 1.7569509223103548 1.4459358602762202 2.3533190339803678 1.7557146102190015 1.6485933661460874 2.3745731189846992 2.3092680126428604 1.6576796695590021 1.9971447363495829 1.6538790389895353 2.2086921036243439 2.0111305937170987 1.789953909814358 1.9871514737606046 1.508040465414523 1.8352022171020506 1.9530395194888113 2.0972244888544087 1.4822826161980627 2.0079524219036236 1.3066054806113236 1.4281638637185077 1.8609700351953509 1.7667036727070806 1.4207523837685583 3.448683425784111 1.5095372945070269 1.9797498807311056 1.1729341000318516 1.5574772059917448 2.33962382376194 1.2922784164547922 1.5867654010653498 1.144329637289047 1.0268105566501606 1.1175535172224034 1.0825759321451185 2.291943721473217 1.1345335394144056 1.1626404449343679 8.4326090291142481 1.7322797477245329 1.4339611306786535 1.1988055035471914 1.5563749596476553 1.1315365508198736 1.391445457935333 3.742759957909584 2.9427430704236031 7.9885542169213286 1.8013983964920042 1.8246262893080709
leaf_count=18 14 12 11 14 17 9 14 12 14 10 15 12 16 9 8 13 18 11 11 14 10 13 16 11 11 12 11 16 12 17 10 12 13 14 10 30 11 13 10 10 10 10 14 10 9 10 9 20 9 9 77 12 13 10 12 10 11 34 27 76 17 17
internal_value=0 -0.00813557 0.0180582 0.00688949 0.0221835 0.0365973 -0.0197765 0.0708974 0.0722098 0.0363676 -0.0238588 -0.00657648 0.0165836 0.065506 0.0196338 0.00618408 0.0417416 0.0396883 0.0337816 -0.0290261 0.0704136 0.04782 -0.0112833 0.00983221 -0.032042 0.064917 0.0714857 -0.0301656 -0.00383525 -0.0342541 -0.0216128 -0.00941925 -0.0200263 0.0220465 0.0307521 -0.0428013 -0.0349168 -0.00831751 -0.0429464 -0.0219852 0.108765 -0.0411602 -0.0281602 0.00266243 -0.0498988 -0.052038 -0.0491462 -0.0479704 -0.0464211 -0.0463531 -0.0544111 -0.0598043 -0.058815 -0.0595649 -0.0583306 -0.0587244 -0.0583495 -0.0575694 -0.0575066 -0.0570142 -0.057318 -0.0574963
internal_weight=0 115.107 35.4158 29.3603 21.4963 17.761 79.6909 8.34711 6.0555 3.84812 74.0468 27.8108 14.5647 5.28552 3.52981 9.41389 4.68384 5.2489 5.64411 4.73005 12.2688 7.72048 9.27916 3.99828 13.2461 3.83235 3.61072 6.92584 3.57951 46.236 18.8388 13.0565 10.3291 3.62767 2.72736 6.70147 7.86398 3.72168 27.3972 6.82375 4.54832 11.738 6.54935 2.43661 20.5735 19.5467 5.78227 5.26628 4.11274 3.7353 18.4291 3.38616 4.1423 2.70834 3.34633 2.57266 2.97821 5.1887 4.69969 16.4212 4.09334 5.27331
internal_count=960 898 244 208 147 117 654 51 36 24 617 214 103 31 22 66 31 34 37 35 62 42 72 24 111 23 22 56 28 403 157 106 86 27 20 59 61 27 246 57 20 100 54 20 189 180 51 47 34 30 170 26 34 21 28 21 25 46 42 153 37 47
is_linear=0
shrinkage=0.05


Tree=8
num_leaves=63
num_cat=0
split_feature=30 0 19 16 29 18 13 4 15 2 0 7 27 8 0 16 17 15 13 19 13 2 18 0 20 7 24 8 0 14 2 2 12 27 29 27 7 17 16 8 17 6 9 5 9 27 30 20 30 17 2 15 19 2 17 13 24 7 17 17 22 14
split_gain=24.5505 13.012 11.7053 8.29246 8.21788 6.75934 6.64019 6.41128 6.35405 5.75051 6.88054 4.87941 6.5065 8.89134 4.43218 4.42362 10.0267 3.89164 3.11555 3.83631 2.94874 5.1725 2.75898 3.56954 4.0091 9.09421 3.55085 2.68834 2.46926 2.16074 2.56696 2.98678 3.00075 2.4884 2.18774 4.5136 2.14292 3.49343 2.42587 2.11738 2.01116 1.84353 1.64762 1.04862 1.75844 0.821789 1.84961 0.729356 0.665936 0.597548 0.229714 0.0106947 0.00209814 0.00198846 0.00234353 0.00172985 0.00168795 0.00113586 0.000818436 0.000686485 0.000531679 0.000517877
threshold=1.0000000180025095e-35 33.500000000000007 1.0000000180025095e-35 2376.5000000000005 1.5000000000000002 5.5000000000000009 6.5000000000000009 21.500000000000004 1.5000000000000002 1363.5000000000002 33.500000000000007 1217.5000000000002 5.5000000000000009 2.5000000000000004 32.500000000000007 2549.0000000000005 12190.500000000002 1.0000000180025095e-35 2.5000000000000004 1.0000000180025095e-35 6.5000000000000009 811.00000000000011 3.5000000000000004 28.500000000000004 11.500000000000002 1122.5000000000002 2.5000000000000004 2.5000000000000004 39.500000000000007 1.5000000000000002 978.00000000000011 357.00000000000006 1.5000000000000002 9.5000000000000018 6.5000000000000009 9.5000000000000018 1804.5000000000002 14378.500000000002 2742.5000000000005 2.5000000000000004 20336.500000000004 2.5000000000000004 1.0000000180025095e-35 2.5000000000000004 1.0000000180025095e-35 9.5000000000000018 5.5000000000000009 20.500000000000004 7.5000000000000009 21027.500000000004 804.50000000000011 1.5000000000000002 1.0000000180025095e-35 496.50000000000006 17488.000000000004 4.5000000000000009 4.5000000000000009 843.50000000000011 9950.0000000000018 3890.5000000000005 1.5000000000000002 1.5000000000000002
decision_type=2 2 2 2 2 2 2 2 2 2 2 2 2 2 2 2 2 2 2 2 2 2 2 2 2 2 2 2 2 2 2 2 2 2 2 2 2 2 2 2 2 2 2 2 2 2 2 2 2 2 2 2 2 2 2 2 2 2 2 2 2 2
left_child=1 17 9 14 11 6 27 15 -8 22 -11 12 13 -5 -4 16 -3 -1 50 20 -20 -22 26 -24 25 -25 -2 -6 41 30 31 -28 -33 -34 45 -36 38 -38 -26 -12 -7 -17 -15 44 -40 56 -47 -48 51 58 -19 -13 -30 54 -45 -14 57 -31 -29 -58 -61 -55
right_child=2 7 3 4 5 40 8 -9 -10 10 39 48 55 42 -16 28 -18 18 19 -21 21 -23 23 24 36 -27 29 49 52 34 -32 32 33 -35 35 -37 37 -39 43 -41 -42 -43 -44 53 -46 46 47 -49 -50 -51 -52 -53 -54 61 -56 -57 59 -59 -60 60 -62 -63
leaf_value=0.0095111147657924739 0.02432596635068186 -0.061967813658832797 0.11922530110114943 0.11317417844124356 0.030378847213137147 0.048134454905438599 -0.0021744697177986999 0.087699781897108628 0.13543772090537723 0.080846935749621623 0.014908840633849436 -0.057844412018802242 -0.057782974582932849 -0.058566206377540488 0.016449832011754064 -0.032308485641230532 0.1128142252354947 0.13065796316450901 -0.010051749844484842 0.11739145384486001 0.12069497851999865 -0.00035551365827003013 0.058330806221160041 -0.058098273833657524 0.011718869603803819 0.1090465379297976 -0.058020630148209434 -0.057649952017085559 -0.05749423585390448 -0.059389965632661169 -0.05746985946096278 0.085131826932804244 -0.057030322514688474 0.037923854463823986 0.045223773129047247 -0.056905262380271229 0.052389828325258292 -0.05844644070935532 -0.058984141777980698 -0.057730478973412436 0.12190152440211209 0.043887374168788629 0.019768119622332485 -0.060301039177058681 0.024433290587689206 0.01475145876833231 -0.056990580030574611 -0.012249619092003722 -0.01819128620796983 -0.015597817494483314 0.1076604404419283 -0.062215606794104553 -0.060011449388042939 -0.05807428798875594 -0.057333487971044553 -0.060376203505497321 -0.058020443079528319 -0.057569990110753116 -0.059334755939736153 -0.057690910821808251 -0.056765057054737472 -0.056981123929127533
leaf_weight=1.9750346839427972 2.2964917197823516 1.4463200047612175 2.569427207112315 2.2175654321908969 1.5923155397176723 1.6776552647352212 1.7366441935300827 1.9718668609857548 1.6225740164518356 2.7538073137402526 1.9861971214413641 3.5745688006281853 1.2507418468594553 1.4371969401836395 1.7727635055780409 1.8553963676095011 1.8965077400207517 2.1721214205026609 1.7794732227921484 2.5168012380599976 2.0516462773084645 1.5485882163047788 1.5930179134011293 1.5324220657348662 1.9568053483963002 1.735394738614559 1.5159507617354373 1.471974812448025 2.9064961895346642 1.3133006766438584 2.673139676451683 1.3519557788968084 1.2761768922209742 1.5020777434110639 1.8849766924977291 2.5391237512230873 1.7726757898926728 1.1869649887084959 1.3874677419662458 2.0270969420671463 2.05672787129879 1.3874522596597669 1.2595583125948906 1.4826695919036867 1.1599107086658478 1.3768512681126583 5.2266601547598839 1.1031527593731878 1.1662013605237005 1.1312427744269369 2.1712301522493362 2.2993993312120438 1.1574851572513578 1.526009678840637 1.2068024948239324 1.3236559927463529 1.5164042860269535 2.4690949767827988 1.4125244244933126 1.8047413229942311 11.01223601400852 3.7355040460824966
leaf_count=12 15 10 12 13 11 10 14 13 7 18 15 31 11 12 10 15 10 10 11 11 10 10 10 13 13 12 13 13 26 10 24 9 12 11 15 24 14 10 12 18 10 9 10 11 9 12 49 10 9 9 10 16 9 13 11 10 13 22 11 16 106 35
internal_value=0 0.041832 -0.0120571 0.0130961 0.00286361 0.0322406 0.00870255 0.00488352 0.0642952 -0.0237522 0.0199825 -0.0228188 0.00527596 0.0390083 0.0772657 -0.0104506 0.0371924 0.0746388 0.0851478 0.0664391 0.042602 0.0686269 -0.028593 -0.0135144 -0.0196404 0.030665 -0.036075 -0.0245973 -0.0322469 -0.0396717 -0.0171052 0.00200523 0.0240371 -0.00569286 -0.0458786 -0.0133911 -0.0303048 0.0079389 -0.0393924 -0.021781 0.088762 0.000291901 -0.021979 -0.0489191 -0.0210013 -0.0514446 -0.037769 -0.0491932 -0.0527036 -0.0463964 0.119162 -0.0595555 -0.0582112 -0.0578635 -0.0589695 -0.0591163 -0.0572624 -0.0582019 -0.058475 -0.0570144 -0.0568954 -0.0572982
internal_weight=0 26.8364 99.4778 31.5727 27.2305 12.7017 8.96728 12.6215 3.35922 67.9051 6.7671 14.5289 7.48872 4.91432 4.34219 10.6497 3.34283 14.2149 12.2399 7.89651 5.37971 3.60023 61.138 20.2756 18.6826 3.26782 40.8623 5.60806 7.30683 38.5658 8.3193 5.64616 4.13021 2.77825 30.2465 4.4241 15.4148 2.95964 12.4552 4.01329 3.73438 3.24285 2.69676 10.4984 2.54738 25.8224 7.70666 6.32981 7.04017 4.01574 4.34335 5.87397 4.06398 7.95099 2.68947 2.5744 18.1158 3.7824 2.8845 14.3334 12.817 5.26151
internal_count=960 166 794 219 197 85 65 92 21 575 51 112 56 35 22 79 20 74 62 42 31 20 524 163 153 25 361 44 59 346 69 45 32 23 277 39 128 24 104 33 20 24 22 91 21 238 71 59 56 33 20 47 35 70 22 21 167 32 24 135 122 48
is_linear=0
shrinkage=0.05


Tree=9
num_leaves=63
num_cat=0
split_feature=30 0 19 16 29 18 13 4 15 2 2 0 7 27 7 2 26 30 16 17 2 25 28 23 24 30 0 18 0 2 17 20 4 24 17 7 29 17 7 10 20 20 4 7 0 30 20 2 4 15 16 7 19 13 24 10 14 4 14 24 2 10
split_gain=22.0635 11.3096 10.7638 7.24365 7.44451 5.76821 5.9434 5.52665 5.4784 5.3233 5.99481 5.04234 4.60791 5.96116 7.11688 4.90144 4.53028 6.17133 4.03204 8.75884 3.78232 3.44758 3.6319 3.46451 2.70881 6.31078 2.37938 2.31289 4.2141 2.25649 3.43233 3.53384 2.57721 2.02219 1.65908 1.61229 1.83708 4.18047 2.15881 3.57737 2.54306 1.59986 0.899722 0.780216 0.725486 0.65992 0.638341 0.542835 0.508856 0.00908801 0.00426863 0.00284419 0.0017818 0.00146598 0.000821464 0.000655242 0.000595111 0.000573169 0.000419634 0.00029702 0.000281826 0.000262399
threshold=1.0000000180025095e-35 33.500000000000007 1.0000000180025095e-35 2376.5000000000005 1.5000000000000002 5.5000000000000009 6.5000000000000009 21.500000000000004 1.5000000000000002 1363.5000000000002 1376.5000000000002 33.500000000000007 1217.5000000000002 5.5000000000000009 551.50000000000011 908.50000000000011 1.5000000000000002 6.5000000000000009 2549.0000000000005 12190.500000000002 888.50000000000011 3.5000000000000004 1.0000000180025095e-35 1.0000000180025095e-35 10.500000000000002 4.5000000000000009 39.500000000000007 3.5000000000000004 28.500000000000004 947.50000000000011 18342.500000000004 12.500000000000002 8.5000000000000018 2.5000000000000004 20336.500000000004 1576.5000000000002 5.5000000000000009 11155.000000000002 1291.5000000000002 67.500000000000014 21.500000000000004 16.500000000000004 9.5000000000000018 1752.5000000000002 48.500000000000007 7.5000000000000009 14.500000000000002 1469.5000000000002 9.5000000000000018 1.5000000000000002 3407.5000000000005 1429.0000000000002 1.0000000180025095e-35 4.5000000000000009 4.5000000000000009 71.500000000000014 2.5000000000000004 13.500000000000002 1.5000000000000002 9.5000000000000018 209.00000000000003 70.500000000000014
decision_type=2 2 2 2 2 2 2 2 2 2 2 2 2 2 2 2 2 2 2 2 2 2 2 2 2 2 2 2 2 2 2 2 2 2 2 2 2 2 2 2 2 2 2 2 2 2 2 2 2 2 2 2 2 2 2 2 2 2 2 2 2 2
left_child=1 21 9 20 12 6 24 18 -8 16 -11 -12 13 14 -5 -16 17 -2 19 -3 -4 22 23 48 25 -6 41 33 -29 30 31 -30 -33 -18 -7 36 38 -38 40 -40 54 -20 -23 50 51 49 -39 -13 -1 61 -31 -32 -28 -15 -35 -26 59 -52 -37 -56 -58 -14
right_child=2 7 3 4 5 34 8 -9 -10 10 11 47 45 53 15 -17 27 -19 26 -21 -22 42 -24 -25 55 -27 52 28 29 43 44 32 -34 35 -36 58 37 46 39 -41 -42 -43 -44 -45 -46 -47 -48 -49 -50 -51 57 -53 -54 -55 56 -57 60 -59 -60 -61 -62 -63
leaf_value=0.13417728825381964 -0.036568350551384562 -0.061274000091198336 0.11629296461584487 -0.058385456503329575 -0.05851502869206282 0.044734912085724138 -0.0020688911642135232 0.07925929989594363 0.12478163256641517 0.11071326868713589 0.055359779798438702 -0.058100564919313806 -0.057901517678561991 -0.057349137483954572 0.12355633534318261 0.0049223785710691718 0.0087386047663690278 0.08823574404785807 -0.031582284848675223 0.10239221625408559 0.024100606136619653 0.005165001588158755 0.025767314496857804 0.053178377001821521 -0.057432377924552948 0.095013564875999573 -0.057077266417186558 0.062646029857403362 0.058268036620095866 -0.060429247726411554 -0.056564566762930535 -0.057759845972570362 0.018314479440548891 -0.057904653747108542 0.11068848545765098 -0.057282100745635306 0.056665077543035652 -0.0567822314710019 -0.056920885529794234 0.036864467268391571 0.014827250873826301 0.039073613102078388 0.053048821149053439 -0.010113423819587641 -0.0094208722678431993 -0.01749418303477741 -0.0080847992793385386 -0.015396573626100247 0.10393095902181476 -0.061517517143577817 -0.056615691119229608 -0.059559912882816292 -0.059445455677630925 -0.059786545451951639 -0.057745714862516645 -0.058959502571550894 -0.057271822577603604 -0.057976066174329002 -0.056481508470609537 -0.056889070386895085 -0.056397821971069212 -0.057019485798613739
leaf_weight=3.2543720304965991 2.0481542423367496 1.3909641727805122 2.2896689474582699 1.4193884134292618 1.4578418806195244 1.7139107957482331 1.7340730503201485 2.0700462087988845 1.6716918498277664 1.4071111753582943 2.1073313653469086 2.1858575567603116 1.5002780929207804 1.1985143795609476 2.0813737660646443 1.4967626035213468 2.1165385618805876 1.9181645810604093 1.7779807671904566 1.9826688095927236 2.1639648228883743 1.9438535720109933 2.1260805428028098 2.7849967330694199 1.4292222633957865 1.2375162243843076 2.7844299748539925 1.5200655907392526 2.4882920831441897 1.2856585159897793 1.9353746622800829 2.0279771089553833 2.4683774784207344 2.0780372619628968 2.1492380350828171 1.9623376578092564 1.6986846104264248 2.0833229273557667 1.9874831587076176 2.0818852707743645 1.3614699169993389 1.4582851901650427 1.9805066436529157 1.035766616463661 1.0153533220291135 1.1523972973227499 0.99403732270002354 1.1282905638217924 2.4280321151018143 2.2114457935094833 2.3602664545178418 1.3420715183019636 1.1112509295344355 1.2712032273411749 1.9483329951763133 1.3812520503997801 1.0972777307033537 1.1523138061165807 9.8655160069465619 2.1052146628499031 5.7857977375388145 1.9252784475684164
leaf_count=14 15 10 10 12 12 10 14 13 7 9 14 19 13 11 12 11 14 11 14 10 12 10 13 15 13 8 26 9 18 10 19 18 18 18 10 18 13 20 19 18 12 10 11 9 9 9 9 9 11 16 23 11 9 10 17 11 10 10 98 20 58 18
internal_value=0 0.039297 -0.0116763 0.0124133 0.00267869 0.0303983 0.00827713 0.00458758 0.0601947 -0.0230659 0.0187558 -0.00511114 -0.0221596 0.00494537 0.0363506 0.0739308 -0.0278444 0.0237886 -0.0101259 0.0349119 0.0714979 0.0693629 0.0841929 0.0988629 -0.0238377 0.0119744 -0.0314302 -0.0315147 -0.017137 -0.0242244 -0.0111651 0.01046 -0.0159971 -0.0387223 0.0814278 -0.0415883 -0.0339349 -0.00629731 -0.041091 -0.00894038 -0.0501917 0.000255781 0.0293305 -0.0494688 -0.0463504 -0.0519707 -0.0410522 -0.0435621 0.121253 -0.0590189 -0.0579642 -0.0577911 -0.0577528 -0.0586037 -0.0569934 -0.0581829 -0.0568202 -0.057062 -0.0566143 -0.0573008 -0.0565372 -0.0574058
internal_weight=0 27.0935 98.0774 31.485 27.0314 12.7747 8.9116 12.5756 3.40576 66.5924 6.82859 5.42148 14.2566 7.46724 4.99752 3.57814 59.7638 3.96632 10.5056 3.37363 4.45363 14.5178 10.5935 8.4674 5.50583 2.69536 7.13195 55.7975 18.6315 17.1115 11.2774 6.98465 4.49635 37.1659 3.86315 35.0494 23.2215 4.77604 18.4455 4.06937 14.3761 3.23627 3.92436 5.83401 4.2928 6.7894 3.07736 3.31415 5.6824 5.637 4.79824 3.27745 3.89568 2.46972 13.0147 2.81047 10.9366 3.51258 11.8279 4.05355 6.88308 3.42556
internal_count=960 166 794 219 197 85 65 92 21 575 51 42 112 56 35 23 524 26 79 20 22 74 53 40 44 20 59 498 154 145 93 54 36 344 20 330 214 42 172 37 135 24 21 52 39 56 29 28 25 47 43 30 35 21 123 24 105 33 116 37 68 31
is_linear=0
shrinkage=0.05


Tree=10
num_leaves=63
num_cat=0
split_feature=30 19 0 16 29 18 13 2 27 4 15 7 27 2 26 30 16 17 0 19 23 27 24 30 17 18 0 17 18 30 7 10 0 0 17 29 23 14 17 23 18 6 17 17 7 20 30 13 2 15 27 0 16 19 13 4 10 14 7 17 10 22
split_gain=19.8645 9.89811 9.85188 6.37615 6.76236 4.96223 5.35139 4.9249 5.81645 4.79752 4.79462 4.35014 5.47595 5.71857 4.20161 5.37556 3.68194 7.72 3.5951 3.56317 3.9376 2.71645 2.56712 5.57913 2.29718 2.3812 3.29211 2.91767 2.49221 2.65746 3.02925 4.09992 2.29442 2.16911 2.10847 1.9537 2.86519 4.47128 2.08941 1.7424 1.84898 1.62286 1.49885 1.40093 1.16761 0.655916 0.654442 0.585396 0.0425834 0.00773261 0.00364326 0.00215928 0.00162146 0.00151449 0.00124368 0.000702775 0.000551209 0.00048096 0.000583055 0.000423357 0.000300364 0.000257326
threshold=1.0000000180025095e-35 1.0000000180025095e-35 33.500000000000007 2376.5000000000005 1.5000000000000002 5.5000000000000009 6.5000000000000009 1363.5000000000002 4.5000000000000009 21.500000000000004 1.5000000000000002 1217.5000000000002 5.5000000000000009 727.50000000000011 1.5000000000000002 6.5000000000000009 2549.0000000000005 12190.500000000002 32.500000000000007 1.0000000180025095e-35 1.0000000180025095e-35 9.5000000000000018 10.500000000000002 4.5000000000000009 22956.000000000004 3.5000000000000004 28.500000000000004 22016.500000000004 7.5000000000000009 7.5000000000000009 1448.5000000000002 63.500000000000007 39.500000000000007 26.500000000000004 11867.000000000002 1.5000000000000002 1.0000000180025095e-35 2.5000000000000004 7559.5000000000009 1.0000000180025095e-35 6.5000000000000009 2.5000000000000004 6157.0000000000009 20336.500000000004 1378.0000000000002 21.500000000000004 7.5000000000000009 1.0000000180025095e-35 1217.5000000000002 1.5000000000000002 2.5000000000000004 24.500000000000004 5422.0000000000009 1.0000000180025095e-35 4.5000000000000009 13.500000000000002 71.500000000000014 2.5000000000000004 1009.5000000000001 13715.500000000002 71.500000000000014 1.5000000000000002
decision_type=2 2 2 2 2 2 2 2 2 2 2 2 2 2 2 2 2 2 2 2 2 2 2 2 2 2 2 2 2 2 2 2 2 2 2 2 2 2 2 2 2 2 2 2 2 2 2 2 2 2 2 2 2 2 2 2 2 2 2 2 2 2
left_child=2 7 19 18 11 6 22 14 -9 16 -8 12 13 -5 15 -2 17 -4 -3 20 34 -10 23 -6 25 27 -27 35 29 30 39 -32 41 -22 -1 45 37 -37 -39 -28 52 -18 -38 -7 -36 47 49 -16 -15 -13 -26 -49 -41 -34 -14 -30 -24 58 -53 -40 -60 -44
right_child=1 3 9 4 5 43 10 8 21 -11 -12 46 54 48 24 -17 32 -19 -20 -21 33 -23 56 -25 50 26 28 -29 55 -31 31 -33 53 -35 44 36 42 38 59 40 -42 -43 61 -45 -46 -47 -48 51 -50 -51 -52 57 -54 -55 -56 -57 -58 -59 60 -61 -62 -63
leaf_value=0.026672785582670666 -0.035600979303075729 0.1030726789689743 -0.060626666133139974 0.086275535813747695 -0.058034777536825122 0.041667467473077258 -0.0019682931362471076 0.071411548168287764 -0.058273195482081902 0.072129990000238176 0.11614830648500581 -0.056994339905846098 -0.056942348004392324 -0.025606389924742318 -0.023587174033376821 0.080340274028255831 -0.031286387686220045 0.093727688905025919 0.01233094357648357 0.10164971218165908 0.045141052831956602 0.025053487223644741 -0.057020749061387571 0.085901937161616745 -0.05949839162059728 0.057744335942402539 0.024909786449068317 0.028501133660063672 -0.05722170282595667 -0.056587528266408921 -0.023302770956390828 0.088803012044383081 -0.056686204191675027 -0.033815870347883852 0.064526622824281676 0.062578326250807281 -0.0050235302612508066 0.023678592295860269 -0.057178897769020125 -0.059415757406170111 0.013044461089041257 0.040066676116200003 -0.057066258160100275 0.10149074401773933 0.11360852740416981 -0.012516915314259676 -0.016817282757672924 -0.058688017128528384 -0.012381394840791387 -0.060865519527450097 -0.056355726889917704 -0.057493735065454035 -0.05699582332106809 -0.058915714785249422 -0.059235061553340199 -0.058752195214316294 -0.058451318366927289 -0.056192408787831195 -0.055985871866549387 -0.055871230786942984 -0.057016423878597289 -0.056324013709510283
leaf_weight=1.959508895874025 1.9998594969511025 2.7145097255706814 1.3368944823741897 2.5725942328572291 1.3979264646768554 1.7471849992871278 1.7316283956170082 2.9039569571614257 2.2280786484479909 2.1584846079349509 1.7051986455917358 3.2814167365431786 1.148000128567219 1.4351129904389384 1.4892172813415587 1.9991076588630674 1.8044876009225848 2.0556381940841675 1.82564240694046 4.5089034438133231 1.7143175005912783 1.7433926314115522 1.3690836727619173 1.2986470833420751 1.0825344920158375 1.5654103904962564 1.7168138697743396 1.7172658666968335 1.9462881088256829 2.2383905202150336 1.3989571183919909 1.9557090103626249 2.6664406880736351 1.7658165916800497 2.5205395445227623 1.9998568072915057 1.8529891669750211 1.2081796750426295 1.1726678758859637 1.2300335690379145 1.3548294231295583 1.427112892270088 1.5959294438362119 2.2247165590524673 2.3334807902574539 1.0571292117238034 1.1391863375902174 1.1962458565831173 1.0569839403033254 2.1255535334348679 6.2273588702082634 2.0077829807996732 1.583144426345825 1.0663178190588953 1.220177888870239 1.2203546836972234 1.3250207230448721 6.9841812327504158 1.8016238659620287 1.3107964023947714 1.1637644320726392 4.351733610033989
leaf_count=10 15 12 10 15 12 10 14 18 19 13 7 31 11 11 14 11 15 10 10 19 9 14 13 8 9 9 13 15 18 22 12 13 26 12 13 15 16 10 11 10 11 9 15 10 11 9 9 10 9 16 63 18 15 9 10 10 11 72 19 14 11 44
internal_value=0 -0.0113147 0.0369747 0.0117939 0.00250447 0.028763 0.00787993 -0.0223973 0.0176304 0.00431954 0.0566358 -0.0215382 0.00463748 0.0339837 -0.0271075 0.0223587 -0.00981286 0.0329013 0.0665845 0.0645843 0.0483486 -0.0216945 -0.0232044 0.0112839 -0.0307418 -0.026696 -0.0111749 -0.0348358 -0.0185419 -0.0077078 0.00413397 0.0420529 -0.0306201 0.00507839 0.0704497 -0.0385617 -0.0246085 0.00236634 -0.030252 -0.0174818 -0.0349431 0.000223967 -0.0442898 0.0751753 0.0881218 -0.0505528 -0.0512596 -0.0532988 -0.0199972 -0.0585162 -0.0568211 -0.0566626 -0.0580539 -0.0573231 -0.0581236 -0.0578115 -0.0577243 -0.05646 -0.0568358 -0.0564887 -0.0563903 -0.0565232
internal_weight=0 96.6222 27.3179 31.3186 26.7784 12.7994 8.8275 65.3036 6.87543 12.5154 3.43683 13.979 7.43287 5.06469 58.4282 3.99897 10.3569 3.39253 4.54015 14.8026 10.2937 3.97147 5.39068 2.69657 54.4292 47.1193 16.2099 30.9094 14.6445 11.4779 9.23949 3.35467 6.96436 3.48013 6.81353 29.1921 13.4922 5.6915 3.69164 5.88482 4.16801 3.2316 7.80065 3.9719 4.85402 15.6999 6.54616 14.6428 2.4921 5.40697 7.30989 13.1536 2.81318 3.73276 2.36818 3.16664 2.6941 11.9574 4.97317 2.48346 2.96539 5.94766
internal_count=960 794 166 219 197 85 65 575 51 92 21 112 56 35 524 26 79 20 22 74 55 33 44 20 498 426 133 293 124 96 74 25 59 21 34 278 125 50 35 49 36 24 75 20 24 153 56 144 20 47 72 130 25 35 21 28 24 120 48 25 30 59
is_linear=0
shrinkage=0.05


Tree=11
num_leaves=63
num_cat=0
split_feature=30 19 0 8 2 0 10 4 2 13 26 30 17 17 14 2 10 22 22 2 12 4 10 19 25 23 26 17 8 2 23 20 14 20 28 6 17 20 13 7 4 4 25 0 2 22 10 6 2 27 17 27 0 7 27 25 0 0 17 8 6 22
split_gain=17.9361 9.10941 8.6519 6.43538 4.56191 5.1346 4.45181 4.1887 4.08669 5.12544 3.8998 4.71229 3.69946 3.43265 5.36972 3.41651 4.64778 5.68055 3.64111 3.66082 3.34108 5.29573 3.32366 3.16793 3.42409 3.31476 2.26026 2.257 2.18798 3.28885 3.09117 9.06045 5.41642 4.91829 4.42701 2.73843 1.89911 1.72606 3.40719 1.6117 1.27231 4.72826 1.07203 0.782259 0.529608 0.504474 0.474184 0.472076 0.416724 0.00311498 0.00306087 0.00211016 0.00157206 0.00154914 0.000878123 0.00081173 0.000736664 0.00071559 0.000543182 0.000464158 0.000387563 0.000349671
threshold=1.0000000180025095e-35 1.0000000180025095e-35 33.500000000000007 1.5000000000000002 1363.5000000000002 33.500000000000007 84.500000000000014 21.500000000000004 1062.5000000000002 7.5000000000000009 1.5000000000000002 6.5000000000000009 23322.500000000004 12190.500000000002 1.5000000000000002 281.00000000000006 51.500000000000007 2.5000000000000004 2.5000000000000004 727.50000000000011 1.5000000000000002 12.500000000000002 58.500000000000007 1.0000000180025095e-35 3.5000000000000004 1.0000000180025095e-35 2.5000000000000004 22956.000000000004 3.5000000000000004 936.00000000000011 1.0000000180025095e-35 11.500000000000002 2.5000000000000004 14.500000000000002 2.5000000000000004 2.5000000000000004 16360.000000000002 16.500000000000004 2.5000000000000004 649.50000000000011 8.5000000000000018 11.500000000000002 2.5000000000000004 48.500000000000007 1116.0000000000002 2.5000000000000004 82.500000000000014 3.5000000000000004 825.50000000000011 2.5000000000000004 6057.0000000000009 4.5000000000000009 42.500000000000007 1134.0000000000002 3.5000000000000004 2.5000000000000004 42.500000000000007 40.500000000000007 14810.500000000002 1.5000000000000002 1.5000000000000002 1.5000000000000002
decision_type=2 2 2 2 2 2 2 2 2 2 2 2 2 2 2 2 2 2 2 2 2 2 2 2 2 2 2 2 2 2 2 2 2 2 2 2 2 2 2 2 2 2 2 2 2 2 2 2 2 2 2 2 2 2 2 2 2 2 2 2 2 2
left_child=2 4 23 20 10 -6 60 13 9 15 11 -2 47 45 -15 46 17 -17 48 26 -3 -22 -16 24 25 42 -20 28 29 30 32 -32 33 34 -12 58 -37 54 -39 -33 50 -42 -1 56 53 -4 -5 51 -18 -29 -31 -10 -47 -40 55 -30 59 -24 -34 -41 -7 -56
right_child=1 3 7 8 5 6 -8 -9 12 -11 27 -13 -14 14 22 16 18 -19 19 -21 21 -23 57 -25 -26 -27 -28 49 37 40 31 39 35 -35 -36 36 -38 38 44 43 41 -43 -44 -45 -46 52 -48 -49 -50 -51 -52 -53 -54 -55 61 -57 -58 -59 -60 -61 -62 -63
leaf_value=0.06402457439687452 -0.034648970606536107 0.10238371842682736 -0.021228524802843034 -0.059134234318485225 0.065817851876394412 -0.056468604573621586 0.057404272832107819 0.066016171295340625 -0.059101220343039967 0.10523966295582657 0.073269488442089206 0.073611334003442275 0.043304229583579247 0.098073247601160818 0.025955491031647272 0.12193793351188974 -0.058303135969118604 0.0048229134534033139 0.090859191819932655 -0.026557708115765789 -0.03376838536255479 0.088775596535074511 -0.0585226351136654 0.095165642076363632 -0.006598252814798658 0.018310094693838413 0.012713225207255652 -0.058975857878870955 -0.056359409544875561 -0.058663224905007964 0.064879823752832105 0.0038536439128641943 -0.05720771429613828 0.12848957876486683 -0.057258667153609215 -0.022920386724754035 0.062544094364010566 0.04722062571687774 -0.05625041807092343 -0.057005160356084245 0.060681226450590868 -0.057039333617843184 0.10997084649302497 -0.010313165516467378 -0.014940768351288703 -0.059852952420150589 -0.017920785222762844 -0.021865178433090875 -0.021623010452131483 -0.05600861146619919 -0.056114111861038034 -0.056822794898389234 -0.057354625287777752 -0.058719144236339609 -0.057072914919483277 -0.058313156053319472 -0.0577871014713131 -0.056702442972887603 -0.055744110993607467 -0.056119303726263239 -0.057710779611861274 -0.056078677223762821
leaf_weight=2.7414188981056231 1.9532656297087658 2.4686709567904499 1.3578415364027008 1.8578851222992043 3.000408060848712 1.0018595233559615 1.2367773205041883 2.2382810562849036 1.5703142881393422 1.3784924298524845 1.4591228514909764 2.0707911550998688 1.3030239865183828 1.4451865553855894 2.6265798583626747 1.9456911087036122 2.1935979723930346 2.2130744829773903 1.8064736798405649 2.6015857458114624 1.7912558764219286 1.7360892891883848 1.1564480662345888 4.5734921842813483 2.4391365721821785 2.8925067335367203 1.8969523161649702 1.0386307835578907 0.98531290888786172 1.5832216367125491 2.3533103540539733 1.5419281870126713 1.4983197227120402 1.5052432045340536 1.1708532050251959 1.4331086501479151 1.1895396485924719 1.3822560608386982 1.2714406326413161 2.1022080704569799 1.2362856119871142 2.7510936632752419 2.3645579218864441 1.0293903499841679 1.0271257087588308 1.5327588692307474 1.1178545281291006 1.1642448529601095 1.1967939734458921 5.9594288766384125 4.5967573598027229 2.8799488544464111 1.0686861053109167 1.2703815922141073 1.0600433945655821 1.1546325683593748 1.0742681100964544 1.0129281952977178 1.0988335609436033 4.9855165109038353 1.6824505403637884 5.3352973237633705
leaf_count=13 15 12 12 16 18 10 8 13 13 7 10 11 8 8 17 9 19 16 10 19 14 8 10 19 14 17 13 9 10 14 18 13 14 8 11 13 8 11 13 20 10 26 11 9 9 12 9 9 9 63 48 28 10 11 10 10 10 10 12 52 15 56
internal_value=0 -0.0109644 0.034913 0.0112265 -0.0217488 0.0165871 -0.0210842 0.00407582 0.000119577 0.0125485 -0.0263943 0.0210621 -0.032596 -0.00951576 0.0135864 0.00495645 0.0153971 0.0596155 -0.00357004 0.0188991 0.0577694 0.0265453 -0.0118724 0.0604657 0.0452611 0.0610757 0.0508316 -0.0299911 -0.0259744 -0.0189688 -0.00828072 -0.0239704 0.0136673 0.0564119 0.015159 -0.0201957 0.0158433 -0.0429132 -0.0194276 -0.043451 -0.0425598 -0.0205401 0.0853021 -0.0513868 -0.0452405 -0.0459323 -0.0436522 -0.0502111 -0.0453552 -0.056449 -0.0567672 -0.0576268 -0.0588266 -0.0574843 -0.0565368 -0.0574136 -0.056567 -0.0576727 -0.0565885 -0.056382 -0.0572472 -0.0562435
internal_weight=0 95.1611 27.4498 31.1219 64.0391 6.9215 3.92109 12.4387 25.1259 18.2084 57.1176 4.02406 6.91753 10.2004 6.24114 16.8299 13.8542 4.15877 9.6954 6.30501 5.99602 3.52735 4.79596 15.0111 10.4376 7.99848 3.70343 53.0936 46.0955 32.609 22.4416 13.0866 9.35502 4.13522 2.62998 5.2198 2.62265 13.4865 4.9512 10.7333 10.1674 3.98738 5.10598 9.19138 3.56895 3.95929 2.97574 5.61451 3.39039 6.99806 6.17998 4.45026 2.60144 2.54182 8.53529 2.13995 8.16199 2.16938 2.59715 7.08772 2.68431 6.39534
internal_count=960 794 166 219 575 51 33 92 185 127 524 26 58 79 45 120 95 25 70 42 34 22 37 74 55 41 23 498 426 296 198 122 76 29 21 47 21 130 44 104 98 36 24 91 33 34 25 50 28 72 62 41 22 24 86 20 82 20 26 72 25 66
is_linear=0
shrinkage=0.05


Tree=12
num_leaves=63
num_cat=0
split_feature=16 13 23 19 23 8 29 9 6 0 1 6 30 26 23 0 5 4 16 7 2 2 14 28 7 2 26 8 15 2 10 18 29 30 9 0 10 13 10 4 17 11 2 13 5 7 17 4 17 24 15 30 0 26 18 17 4 2 2 10 2 26
split_gain=16.3186 9.00293 8.93608 7.42665 6.40048 5.57697 4.53353 4.77808 3.96785 3.9195 4.10019 4.02252 3.91734 3.89536 5.42559 3.51145 3.97166 3.57906 3.45281 3.79674 4.92447 5.7859 5.59956 5.93835 3.37085 3.37063 3.3351 2.65661 2.327 2.32119 2.05826 2.40456 4.42897 1.98949 1.92868 1.77435 1.53955 2.76771 3.16569 2.81129 1.47847 1.34629 1.56648 1.17879 1.09843 0.762867 0.724538 0.646367 0.453667 0.012357 0.00721818 0.00519509 0.00366262 0.00356087 0.00220077 0.0017683 0.00136138 0.00125562 0.00108566 0.000791981 0.000749665 0.000508323
threshold=2973.5000000000005 6.5000000000000009 1.0000000180025095e-35 1.0000000180025095e-35 1.0000000180025095e-35 1.5000000000000002 1.0000000180025095e-35 1.0000000180025095e-35 4.5000000000000009 30.500000000000004 1.5000000000000002 2.5000000000000004 1.0000000180025095e-35 2.5000000000000004 1.5000000000000002 44.500000000000007 1.5000000000000002 7.5000000000000009 4968.5000000000009 1583.5000000000002 508.50000000000006 920.50000000000011 3.5000000000000004 2.5000000000000004 1378.0000000000002 782.50000000000011 2.5000000000000004 3.5000000000000004 1.5000000000000002 966.00000000000011 97.500000000000014 6.5000000000000009 2.5000000000000004 1.5000000000000002 1.0000000180025095e-35 28.500000000000004 65.500000000000014 3.5000000000000004 78.500000000000014 14.500000000000002 12922.000000000002 2.5000000000000004 767.50000000000011 5.5000000000000009 3.5000000000000004 1239.5000000000002 21617.000000000004 13.500000000000002 17681.500000000004 2.5000000000000004 1.5000000000000002 1.0000000180025095e-35 34.500000000000007 1.5000000000000002 4.5000000000000009 6157.0000000000009 6.5000000000000009 749.00000000000011 1296.5000000000002 56.500000000000007 1318.5000000000002 2.5000000000000004
decision_type=2 2 2 2 2 2 2 2 2 2 2 2 2 2 2 2 2 2 2 2 2 2 2 2 2 2 2 2 2 2 2 2 2 2 2 2 2 2 2 2 2 2 2 2 2 2 2 2 2 2 2 2 2 2 2 2 2 2 2 2 2 2
left_child=3 18 5 4 8 25 48 -8 12 33 -11 -12 24 14 43 16 -4 -17 19 20 46 22 23 -22 -1 -3 -9 -28 45 34 31 36 47 -5 -14 -15 51 38 39 -38 -40 42 -18 -6 54 58 52 57 -7 -37 -39 -20 -2 -53 59 -43 -51 -33 -23 -21 -55 -57
right_child=1 2 15 9 13 6 7 26 -10 10 11 -13 29 35 -16 17 41 -19 30 44 21 28 -24 -25 -26 -27 27 -29 -30 -31 -32 32 -34 -35 -36 49 37 50 40 -41 -42 55 -44 -45 -46 -47 -48 -49 -50 56 -52 53 -54 60 -56 61 -58 -59 -60 -61 -62 -63
leaf_value=0.0070644058338947893 -0.060472296569539036 0.13821304620570199 0.049526672434019009 0.10404013811182478 0.088027311296467375 -0.057821601324947763 -0.021225380161072383 0.12139473835219745 0.10052463182987044 0.077672463679332213 0.040327651489673627 -0.063405777925401016 0.050281372731063381 -0.0068529848584376486 -0.058547147369254086 -0.031097592749888658 0.010603046330976532 0.062907455119324759 -0.059296278282170725 -0.057519078569212193 0.13629784625539382 -0.056332862106938934 -0.01465803187748093 0.017807924954279585 0.083674632943069691 0.044753355481757136 -0.0087470230541254728 0.076398092437409651 0.031534164697485212 -0.058702470321178729 0.034084261862811334 -0.058646414229058169 0.045516672141114115 0.04939029239414746 -0.026245227713215719 -0.062771600748070949 -0.019937325656509915 -0.056302962352072806 0.0032334842196640474 0.082825128972517204 -0.056815017130320458 -0.058265136325116922 -0.05707905753967462 0.026734880915850523 -0.011284344377974596 -0.004978403625325728 -0.0089218618707584893 -0.010303623787783083 -0.01498406387400862 -0.055850165108322282 -0.060149238595779489 -0.059443638615434863 -0.056851917999934047 -0.055924767314257218 -0.05910485251246074 -0.057070323211323805 -0.057875424339447257 -0.05638183994215179 -0.058438816673484599 -0.055872096310096264 -0.057139159490232877 -0.055914859082347418
leaf_weight=2.5254971012473106 1.3568501845002208 1.8288208544254332 1.3188026770949353 4.2207523584365827 1.5405236035585388 1.455027006566523 2.4021606743335724 1.7045180797576902 1.9461394548416144 2.512928269803524 2.1566969007253651 1.6491653993725774 1.7472391203045845 2.6410414502024651 1.5092030987143514 1.7905190512537945 2.022349692881106 2.3303000330924988 1.7785571962595046 1.1700885742902749 2.4157573953270894 1.4586477354168899 2.1337419152259827 1.8805499896407125 3.3278479427099228 2.0417882576584816 1.7124539837241173 1.9700087010860443 1.5158459842205045 1.6293344795703886 1.0314594134688366 1.3958865627646444 2.2889541015028954 2.7506468445062637 1.5570399090647697 1.2036724761128423 1.3213896155357345 4.341347798705101 1.5419309288263319 1.3409324660897253 3.0579233393073082 1.3226953968405721 1.4809338897466657 1.5983316004276273 1.8922959938645361 0.96816538274288166 0.99464152008295048 1.0150252655148504 1.0744558349251745 1.6676839515566828 1.6964483633637426 0.87107282876968284 1.4399950876832006 8.3830203264951688 1.0873555913567541 1.277910530567169 1.6514788940548895 1.0901349559426305 1.0543177127838133 1.9403467848896978 1.4979129135608662 3.7304642722010612
leaf_count=14 11 8 10 17 8 13 19 8 10 12 13 11 12 19 13 15 16 15 15 11 13 15 18 16 16 12 14 12 11 14 8 12 17 15 14 8 13 45 13 9 30 12 14 12 16 10 9 9 9 18 14 7 14 90 9 12 15 11 9 21 14 40
internal_value=0 -0.0130673 0.00916145 0.0265217 0.0102212 0.0377308 0.0185322 0.0374186 0.0348128 0.0566264 0.0281056 -0.00462237 0.0229574 -0.0162883 0.0193586 -0.0173789 -0.0319513 0.0220617 -0.0252045 -0.009548 0.0038033 0.0201866 0.0515509 0.0844333 0.0506202 0.088912 0.0635691 0.0368031 -0.0201726 -0.00986239 -0.0354219 -0.0376892 -0.00856657 0.0824774 0.0142206 -0.0394166 -0.0442171 -0.0323687 -0.0115712 0.0318211 -0.036686 -0.0428776 -0.018008 0.0568167 -0.0429115 -0.0426881 -0.0455738 -0.0439257 -0.0396254 -0.0584317 -0.0573837 -0.0567931 -0.0586083 -0.056379 -0.0571686 -0.0566391 -0.0568579 -0.0576534 -0.0572164 -0.0564917 -0.0561089 -0.0562097
internal_weight=0 83.4238 29.4632 37.8352 24.545 14.1892 10.3186 7.78914 12.7331 13.2902 6.31879 3.80586 10.787 11.8119 4.64806 15.274 11.1532 4.12082 53.9606 21.3086 15.2185 11.427 6.43005 4.29631 5.85335 3.87061 5.38698 3.68246 4.99698 4.93361 32.652 31.6205 5.79 6.9714 3.30428 7.16388 25.8305 13.3 7.26218 2.66232 4.59985 9.83435 3.50328 3.13886 6.09009 3.48113 3.79149 3.50105 2.52948 4.52284 6.0378 12.5306 2.79685 10.752 4.19779 6.33107 3.31916 2.48602 2.51297 3.11044 9.88093 5.00837
internal_count=960 719 229 241 173 95 75 53 80 68 36 24 70 93 33 134 104 30 490 183 126 92 47 29 30 20 34 26 45 40 307 299 49 32 26 60 250 124 65 22 43 94 30 20 57 34 34 32 22 41 59 126 25 111 41 64 33 23 24 32 104 52
is_linear=0
shrinkage=0.05


Tree=13
num_leaves=63
num_cat=0
split_feature=30 19 0 8 2 27 16 4 2 8 8 2 2 10 22 26 30 17 10 18 7 27 19 10 23 17 18 17 24 16 2 18 7 4 16 29 23 10 4 17 2 8 24 20 0 27 6 16 16 0 16 27 4 14 15 1 28 20 30 22 29 17
split_gain=14.9097 8.00638 7.02114 5.46789 4.12633 4.63158 3.99137 4.93869 3.98338 5.1267 4.37799 3.63353 4.20161 3.65408 3.48601 3.47825 3.97348 3.38114 3.26736 2.89649 2.56965 2.55645 2.53164 2.95258 3.61925 2.1905 2.14275 2.66439 2.50756 3.73907 2.3091 2.1666 2.12811 2.06205 1.99016 1.87248 2.48968 3.85844 3.9337 1.48952 1.16192 1.06939 0.656833 0.639865 0.548965 0.48672 0.474941 0.00533252 0.00473571 0.00278901 0.00246715 0.00228813 0.00111874 0.000510569 0.000537966 0.000398859 0.000324012 0.000252203 0.000227651 0.000210322 0.000157349 0.000133438
threshold=1.0000000180025095e-35 1.0000000180025095e-35 33.500000000000007 1.5000000000000002 1363.5000000000002 4.5000000000000009 3754.0000000000005 8.5000000000000018 1171.5000000000002 3.5000000000000004 1.5000000000000002 1062.5000000000002 281.00000000000006 55.500000000000007 1.5000000000000002 1.5000000000000002 6.5000000000000009 23322.500000000004 87.500000000000014 3.5000000000000004 1232.0000000000002 9.5000000000000018 1.0000000180025095e-35 58.500000000000007 1.0000000180025095e-35 22956.000000000004 3.5000000000000004 22016.500000000004 7.5000000000000009 4021.0000000000005 445.00000000000006 4.5000000000000009 1867.5000000000002 12.500000000000002 3428.5000000000005 1.5000000000000002 1.0000000180025095e-35 51.500000000000007 7.5000000000000009 6157.0000000000009 585.50000000000011 2.5000000000000004 14.500000000000002 21.500000000000004 43.500000000000007 8.5000000000000018 3.5000000000000004 5224.0000000000009 4765.5000000000009 23.500000000000004 3225.0000000000005 2.5000000000000004 13.500000000000002 2.5000000000000004 1.5000000000000002 1.5000000000000002 2.5000000000000004 12.500000000000002 3.5000000000000004 1.5000000000000002 3.5000000000000004 9171.0000000000018
decision_type=2 2 2 2 2 2 2 2 2 2 2 2 2 2 2 2 2 2 2 2 2 2 2 2 2 2 2 2 2 2 2 2 2 2 2 2 2 2 2 2 2 2 2 2 2 2 2 2 2 2 2 2 2 2 2 2 2 2 2 2 2 2
left_child=2 4 22 6 15 -6 -3 -8 9 10 -4 12 45 14 -14 16 -2 46 19 40 -16 -7 23 41 -25 26 27 35 29 -28 31 -30 34 48 -32 43 37 42 -39 -38 -15 -1 -37 44 49 -5 50 -42 -12 -17 -13 -27 55 54 61 -36 -52 60 -57 -41 -53 -51
right_child=1 3 8 11 5 21 7 -9 -10 -11 33 17 13 18 20 25 -18 -19 -20 -21 -22 -23 -24 24 -26 51 28 -29 30 -31 32 -33 -34 -35 52 36 39 38 -40 59 47 -43 -44 -45 -46 -47 -48 -49 -50 53 56 57 -54 -55 -56 58 -58 -59 -60 -61 -62 -63
leaf_value=0.092413720750911504 -0.033439951692265275 0.11012599838882918 0.043013053305248371 -0.058356022168852453 0.061681018471441751 -0.057926431414376922 -0.036760587461250327 0.074728582237513386 -0.058436337584289982 0.069509133900501452 -0.060662393103479852 -0.058999802576815252 0.11229930375755706 -0.0041906050628174553 0.057918319018305776 -0.058528479791387769 0.066204678165825523 0.040082514500155923 0.052887842215086717 0.027917203703884841 -0.025217962365227876 0.023982311873241152 0.085277847923132116 0.045575095797226357 -0.038024893320507541 -0.058161148295854614 -0.017541790563621065 0.027166302184538773 0.053859768881441228 0.084898983006507167 0.0094544100776581888 -0.026950733242009802 0.03020720438070509 0.020909177211646791 -0.056960919100077737 -0.056991275967999633 -0.0028766162696599856 -0.020975395601116085 0.097234824912686688 -0.056213107922362927 -0.060779590584841892 0.045533948948280799 -0.0052318152679093882 -0.011199124456557463 -0.024215836018630508 -0.016036278465725983 -0.020430325386356987 -0.056422159358957683 -0.056773687626502714 -0.055980701611466413 -0.056935629810609623 -0.056426607399308493 -0.057712344724339282 -0.055389740819699433 -0.056883178437000095 -0.056238475531414457 -0.055879241558292304 -0.055278651886373036 -0.055416866640805057 -0.055507116129423856 -0.055507698257289018 -0.055299867088062053
leaf_weight=2.4856650233268756 1.8838838189840306 2.0371827185153988 2.6802655681967718 1.8699377626180713 3.0545044541358939 2.1016177833080296 1.8174244016408918 2.1905689090490341 2.1417485773563376 3.1563467457890511 1.3268224075436594 1.1991610750555981 1.7586771398782719 1.516028106212614 2.5770839899778366 0.93257426470518723 2.1334935277700424 1.3190366029739378 2.4196299463510513 2.5211022049188614 1.4538002982735632 1.7424023300409315 4.6081945449113837 3.7169557362794876 1.986562058329582 0.96041944622993369 2.0754922255873676 1.7312972992658604 1.6995147243142121 1.5604758486151693 1.405345156788824 1.6201315447688101 1.1023587733507154 1.0986789092421529 1.1403150334954233 1.8565909340977653 1.7792190685868261 1.2991574257612231 1.5356595441699026 1.4468830153346059 1.328752934932709 2.3824601545929909 0.91502241790294636 1.0251149833202351 1.5474567636847485 1.0671395435929296 1.1198708191514013 1.4888192936778066 1.9098730459809301 1.793316096067427 1.2371003925800326 0.98395460098981835 1.5310548096895216 6.3262097015976906 1.4410552829504011 1.9407273456454306 1.7564469426870344 3.6913011968135834 1.4906969293951986 3.8942929953336716 0.88476704061031342 1.2020872086286543
leaf_count=11 15 9 17 17 18 19 14 11 19 19 10 10 8 11 14 8 11 8 15 16 12 14 19 19 13 9 14 15 13 9 11 15 9 8 11 18 16 12 11 15 10 12 9 9 16 9 9 15 19 19 12 10 14 73 14 20 19 43 17 44 10 14
internal_value=0 -0.0103486 0.0315932 0.0105284 -0.020724 0.0157211 0.0531391 0.0241738 0.00353906 0.0165882 -0.00722099 7.1163e-05 0.0117269 0.0223934 0.0535613 -0.0253095 0.0194779 -0.0315675 0.00293656 -0.0146957 0.0279339 -0.0207992 0.0543505 0.0408692 0.0164568 -0.0288505 -0.0248673 -0.0329628 -0.00992765 0.0264235 -0.0210064 0.0144207 -0.0346648 -0.0382773 -0.0441895 -0.0368192 -0.0228761 0.00204632 0.0430607 -0.0424995 -0.039486 0.0694708 -0.0399034 -0.0492564 -0.0522024 -0.0429798 -0.0493571 -0.0584771 -0.0583678 -0.0559054 -0.0570835 -0.0559075 -0.0565425 -0.0556781 -0.0560894 -0.0561508 -0.0563158 -0.0555183 -0.0558815 -0.0556984 -0.0559915 -0.0557075
internal_weight=0 92.4062 27.4936 30.6778 61.7284 6.89852 6.04518 4.00799 12.3137 10.172 7.01564 24.6326 18.001 15.0639 5.78956 54.8299 4.01738 6.63162 9.27433 6.8547 4.03088 3.84402 15.1798 10.5716 5.70352 50.8125 44.292 28.7259 15.5661 3.63597 11.9301 3.31965 8.6105 4.33537 7.50814 26.9946 12.7268 5.60643 2.83482 7.1204 4.3336 4.86813 2.77161 14.2678 13.2427 2.93708 5.31258 2.81757 3.2367 11.6952 4.19271 6.52044 6.10279 10.7627 4.43646 4.57174 2.99355 5.56002 3.43142 5.34118 1.86872 2.9954
internal_count=960 794 166 219 575 51 34 25 92 73 54 185 127 101 34 524 26 58 67 52 26 33 74 55 32 498 426 293 133 23 110 28 82 37 73 278 125 50 23 75 36 23 27 153 144 26 50 25 29 128 41 72 62 120 47 48 31 63 37 59 20 33
is_linear=0
shrinkage=0.05


Tree=14
num_leaves=63
num_cat=0
split_feature=16 13 23 19 23 8 29 18 4 25 10 7 16 22 2 2 20 18 18 22 0 0 5 25 6 10 17 16 16 14 2 23 2 20 10 29 10 0 4 2 8 29 11 2 7 10 17 17 0 0 10 24 25 18 17 20 18 0 2 2 27 8
split_gain=13.9572 8.09869 7.59907 6.0751 5.42932 4.35628 3.98511 4.07358 3.96264 3.81197 3.55776 3.29836 4.06914 4.61335 4.44251 4.88514 4.50091 4.25686 4.21474 3.90031 3.2756 3.24776 3.54632 3.23064 3.3051 3.81417 3.30047 3.54707 3.18411 2.78713 2.74593 2.74516 2.8627 2.40868 2.50355 2.10177 2.1291 2.04903 3.77538 1.59776 4.64937 1.5689 1.32031 1.45463 1.06192 0.745479 0.722991 0.701542 0.449346 0.396376 0.132731 0.00804571 0.00493106 0.00387484 0.00435337 0.0031181 0.00307444 0.00265548 0.00257399 0.00183347 0.00173269 0.00190299
threshold=2973.5000000000005 6.5000000000000009 1.0000000180025095e-35 1.0000000180025095e-35 1.0000000180025095e-35 1.5000000000000002 1.0000000180025095e-35 1.5000000000000002 4.5000000000000009 2.5000000000000004 46.500000000000007 1576.5000000000002 5037.5000000000009 3.5000000000000004 508.50000000000006 920.50000000000011 18.500000000000004 4.5000000000000009 6.5000000000000009 1.5000000000000002 30.500000000000004 44.500000000000007 1.5000000000000002 4.5000000000000009 4.5000000000000009 88.500000000000014 21814.500000000004 2560.0000000000005 6726.5000000000009 3.5000000000000004 782.50000000000011 1.0000000180025095e-35 936.00000000000011 11.500000000000002 91.500000000000014 1.0000000180025095e-35 78.500000000000014 34.500000000000007 19.500000000000004 391.50000000000006 3.5000000000000004 1.0000000180025095e-35 2.5000000000000004 767.50000000000011 987.50000000000011 90.500000000000014 26080.500000000004 21617.000000000004 34.500000000000007 30.500000000000004 50.500000000000007 2.5000000000000004 2.5000000000000004 4.5000000000000009 19946.000000000004 18.500000000000004 3.5000000000000004 34.500000000000007 572.50000000000011 1302.5000000000002 3.5000000000000004 2.5000000000000004
decision_type=2 2 2 2 2 2 2 2 2 2 2 2 2 2 2 2 2 2 2 2 2 2 2 2 2 2 2 2 2 2 2 2 2 2 2 2 2 2 2 2 2 2 2 2 2 2 2 2 2 2 2 2 2 2 2 2 2 2 2 2 2 2
left_child=3 11 5 4 23 30 48 9 -9 -8 -6 12 14 37 47 16 17 19 31 -16 41 22 -4 24 25 26 27 49 -23 44 -3 52 -33 -12 51 59 -37 38 45 40 -13 50 43 -24 -22 55 53 57 -7 -1 -5 -35 -15 58 -55 -14 -53 -2 -41 -17 61 -39
right_child=1 2 21 20 10 6 7 8 -10 -11 33 39 13 18 15 35 -18 -19 -20 -21 29 28 42 -25 -26 -27 -28 -29 -30 -31 -32 32 -34 34 -36 36 -38 60 -40 46 -42 -43 -44 -45 -46 -47 -48 -49 -50 -51 -52 56 -54 54 -56 -57 -58 -59 -60 -61 -62 -63
leaf_value=-0.065070981207037873 -0.059586702945177629 0.12261953973828409 0.044699590123160861 0.10174691159685152 0.040979592638749777 -0.057484468542262274 0.052446832541697241 -0.00055083297259358229 0.098540795913509019 -0.056622331945394899 0.029223227917913677 -0.056351024124803917 -0.056077480531351559 -0.060935085473359567 0.049297282276215937 -0.055635221908292488 0.12198406817687701 0.094127043131678204 0.06928104150175643 -0.056722863652428138 0.017105878430315805 -0.030506528725397764 0.0099593702356332251 -0.03326105821799509 0.10242575104392303 0.088344788798129736 0.074847061507332155 0.033634729074070967 0.05882252115408463 -0.023596854737877301 0.039499180923079302 0.054712680935192326 -0.055710188820619802 -0.060716426677282276 0.0051600747721225956 -0.02797576396653775 0.06107745376707361 -0.058697808603327961 0.061700904235666591 -0.058203390563022775 0.070904263668807907 0.041594688533668871 -0.056134239649339182 -0.056561002439268732 0.067848940241913666 -0.0042525902507695472 -0.01075181395875336 -0.0084656126456622294 -0.013963233008441914 -0.027195950031718881 0.084681477634317742 -0.055702732584166317 -0.056346871567277135 -0.056982871104124339 -0.060831057745670214 -0.059743032728847179 -0.058798622072603668 -0.056406123304153358 -0.055842006381526435 -0.058621669122086231 -0.055751820311811029 -0.055933394369619804
leaf_weight=1.4055174216628077 1.2682334184646604 1.905270144343379 1.3559514135122288 1.9772521406412105 2.2485170885920516 1.3626075163483604 1.4496661424636843 1.512361094355583 3.0307260453701019 1.7905985563993452 1.4822729080915431 2.1174715980887404 1.4777063652873073 1.1147542074322694 1.6569357365369781 0.97755535691976581 1.5430739000439642 1.5187392532825468 1.8396388888359068 1.8207168430089948 1.6938502937555311 1.7135104686021794 2.0236136317253099 1.6524043604731549 1.8632194772362716 2.119590625166893 1.6151840463280676 2.7657861486077309 2.3875450938940048 1.9820303842425344 2.0765292271971703 1.6815147995948794 0.9016842022538184 1.9483353942632673 2.1729808077216148 1.5921600684523585 1.1603017002344129 1.1849484071135514 1.1568881347775457 1.4374209046363793 1.0858319029212 2.319008506834507 5.9108715057373047 1.3838379159569738 2.6349453032016754 0.8998969793319701 0.92199540138244707 0.98504231870174397 1.0501934885978697 1.3584159463644025 2.6889204606413841 2.415315762162209 1.2336204797029493 1.9885359033942225 1.1658156961202619 0.95517735928297032 1.2005193978548048 1.3599813580512998 5.853307843208313 1.0836238861083982 8.7352865561842901 1.3116537705063818
leaf_count=9 11 8 10 8 16 13 8 12 15 18 9 22 16 9 11 11 9 9 12 18 11 14 16 12 9 11 9 18 16 12 12 13 10 14 17 16 9 10 8 13 8 12 64 14 13 9 9 9 9 12 12 27 13 19 9 8 10 14 65 9 97 14
internal_value=0 -0.0124244 0.00877173 0.0244572 0.00956367 0.0349212 0.0176014 0.0350054 0.0655539 -0.00782574 -0.0154127 -0.0242196 -0.0163681 -0.0298106 0.00383439 0.0192024 0.0473419 0.0242896 0.00469354 -0.00620932 0.0516187 -0.0163205 -0.0308507 0.0319756 0.0416629 0.0294426 0.0119689 -0.00639731 0.0214989 0.0255091 0.0792718 -0.0193997 0.0161688 -0.0291661 -0.0403523 -0.0190259 0.00956467 -0.0446714 -0.0161208 -0.044405 -0.013215 0.0752077 -0.0418444 -0.017056 0.0479933 -0.0431346 -0.0531946 -0.044453 -0.0385415 -0.0464562 0.0919128 -0.0581263 -0.0585249 -0.056941 -0.0584051 -0.0575166 -0.0567306 -0.0579409 -0.0563076 -0.0572053 -0.0560838 -0.0572455
