tree
version=v4
num_class=1
num_tree_per_iteration=1
label_index=0
max_feature_idx=30
objective=binary sigmoid:1
feature_names=Column_0 Column_1 Column_2 Column_3 Column_4 Column_5 Column_6 Column_7 Column_8 Column_9 Column_10 Column_11 Column_12 Column_13 Column_14 Column_15 Column_16 Column_17 Column_18 Column_19 Column_20 Column_21 Column_22 Column_23 Column_24 Column_25 Column_26 Column_27 Column_28 Column_29 Column_30
feature_infos=[18:60] [0:2] [102:1499] [0:2] [1:29] [1:5] [0:5] [374:2065] [1:4] [0:1] [30:100] [1:4] [1:5] [0:8] [1:4] [0:2] [1009:19973] [2104:26999] [0:9] [0:1] [11:25] [3:4] [1:4] [0:3] [0:40] [0:6] [1:4] [0:36] [0:17] [0:15] [0:17]
tree_sizes=1651 1665 1664 1674 1667 1679 1679 1669 1676 1679 1679 1686 1677 1673 1679 1671 1674 1678 1678 1671 1667 1682 1672 1684 1682 1677 1680 1675 1689 1673 1687 1682 1681 1687 1682 1686 1687 1672 1696 1692 1684 1699 1687 1697 1690 1699 1695 1692 1690 1695 1699 1705 1692 1684 1703 1694

Tree=0
num_leaves=15
num_cat=0
split_feature=23 14 22 17 13 22 13 10 23 18 20 2 2 13
split_gain=38.3636 17.5499 24.8866 15.085 10.0719 7.42397 9.46935 6.05212 4.2356 3.71869 3.36415 2.94141 3.41055 4.56332
threshold=1.0000000180025095e-35 2.5000000000000004 3.5000000000000004 22816.500000000004 5.5000000000000009 1.5000000000000002 5.5000000000000009 46.500000000000007 2.5000000000000004 1.5000000000000002 13.500000000000002 231.50000000000003 908.50000000000011 2.5000000000000004
decision_type=2 2 2 2 2 2 2 2 2 2 2 2 2 2
left_child=1 2 5 4 9 -1 -7 -6 11 -3 -9 -2 -13 -14
right_child=8 3 -4 -5 7 6 -8 10 -10 -11 -12 12 13 -15
leaf_value=-0.99959504436649593 -1.8859264757655585 -1.6551109988387191 -1.687070064874743 -1.2776598071583583 -1.7516338346444882 -1.507152359783053 -1.1283782438005474 -1.3524862624235297 -1.5957584476289604 -1.8859264757655585 -1.582907182979554 -1.6991516530569437 -1.6679761237821822 -1.8451756053564061
leaf_weight=4.0616860985755947 6.0925291478633872 4.3324651718139702 7.040255904197692 4.6032442450523368 4.4678547084331504 5.2801919281482679 5.2801919281482697 4.8740233182907087 7.5818140506744376 7.8525931239128113 5.2801919281482697 35.336669057607651 8.2587617337703723 19.631482809782028
leaf_count=30 45 32 52 34 33 39 39 36 56 58 39 261 61 145
internal_value=-1.64742 -1.51662 -1.37813 -1.61213 -1.66957 -1.22938 -1.31777 -1.55766 -1.73768 -1.80386 -1.47231 -1.75321 -1.74042 -1.7927
internal_weight=0 53.0727 21.6623 31.4104 26.8071 14.6221 10.5604 14.6221 76.9013 12.1851 10.1542 69.3194 63.2269 27.8902
internal_count=960 392 160 232 198 108 78 108 568 90 75 512 467 206
is_linear=0
shrinkage=1


Tree=1
num_leaves=15
num_cat=0
split_feature=16 27 8 18 15 8 3 29 7 2 9 3 16 16
split_gain=53.0209 21.0461 12.6476 15.0377 6.31505 5.90636 5.09541 6.08518 5.97781 4.95308 11.5063 3.9182 3.14909 2.98526
threshold=2973.5000000000005 1.5000000000000002 1.5000000000000002 4.5000000000000009 1.5000000000000002 1.5000000000000002 1.5000000000000002 1.5000000000000002 1035.5000000000002 1097.5000000000002 1.0000000180025095e-35 1.5000000000000002 4246.5000000000009 3657.5000000000005
decision_type=2 2 2 2 2 2 2 2 2 2 2 2 2 2
left_child=1 4 3 11 -1 -3 12 -8 -9 10 -7 -2 13 -4
right_child=2 5 6 -5 -6 9 7 8 -10 -11 -12 -13 -14 -15
leaf_value=0.28027700926194765 -0.10916913929034074 0.27715587468412045 -0.14573305290326671 0.39247390441970398 0.58171383179191316 0.35726568758913418 -0.11846566455789498 -0.099741211535325044 0.21448802030581318 -0.14439879078256132 -0.032750750505905653 0.10934170159050993 -0.17829427950230473 0.065956869034369064
leaf_weight=5.3838182464241964 9.1981141045689601 5.769750244915488 6.3749125227332097 4.3767033442854872 5.7480859458446503 4.6575235798954973 16.441588073968891 4.2323660105466825 5.6602977067232132 4.2383358478546134 8.6362072676420212 5.1038327515125266 39.962655588984489 4.578386202454567
leaf_count=40 69 41 47 30 36 33 122 31 40 32 63 37 305 34
internal_value=0 0.209706 -0.0796044 0.0680806 0.435927 0.101633 -0.115314 -0.0438911 0.0800517 0.0438694 0.103893 -0.0311907 -0.152254 -0.0572485
internal_weight=0 34.4337 95.9289 18.6787 11.1319 23.3018 77.2502 26.3343 9.89266 17.5321 13.2937 14.3019 50.916 10.9533
internal_count=960 245 715 136 76 169 579 193 71 128 96 106 386 81
is_linear=0
shrinkage=0.2


Tree=2
num_leaves=15
num_cat=0
split_feature=16 4 8 23 0 0 2 11 0 2 17 4 0 17
split_gain=30.6849 8.92878 8.73841 6.5987 6.0551 5.76204 5.36972 8.11415 4.81613 3.9877 3.38519 2.84809 4.61132 3.25338
threshold=2973.5000000000005 15.500000000000002 1.5000000000000002 1.0000000180025095e-35 24.500000000000004 26.500000000000004 1141.5000000000002 2.5000000000000004 34.500000000000007 1419.0000000000002 16184.500000000002 8.5000000000000018 49.500000000000007 14036.500000000002
decision_type=2 2 2 2 2 2 2 2 2 2 2 2 2 2
left_child=1 4 3 8 -1 -4 7 -6 -2 11 -9 12 -7 -13
right_child=2 -3 5 -5 6 9 -8 10 -10 -11 -12 13 -14 -15
leaf_value=0.26400695353654652 0.31782671245251198 0.3347825508302264 0.11866982388450298 -0.069956727306118502 0.27684567624914075 -0.19575472022637008 -0.11807768640985948 0.089315692587906309 0.038308171216552216 0.084685246719248056 -0.12880474434516689 -0.00084646998280656571 -0.0041632862713840329 -0.14159293863320341
leaf_weight=6.6719735190272358 4.4529603645205516 7.7718865349888793 4.4511233121156684 9.4809097871184331 6.7395223826170012 30.633357338607311 5.8500590249896041 7.1107048392295837 5.5249382555484772 3.7276408374309531 4.7455288171768188 11.937432840466501 6.0109842494130126 14.608613908290861
leaf_count=37 26 49 33 72 42 252 39 48 38 30 30 98 49 117
internal_value=0 0.143026 -0.0692812 0.0495234 0.0951335 -0.101673 0.049043 0.101618 0.163052 -0.11633 0.00201168 -0.128188 -0.164327 -0.078301
internal_weight=0 38.8897 90.828 19.4588 31.1178 71.3692 24.4458 18.5958 9.9779 66.918 11.8562 63.1904 36.6443 26.546
internal_count=960 245 715 136 196 579 159 120 64 546 78 516 301 215
is_linear=0
shrinkage=0.2


Tree=3
num_leaves=15
num_cat=0
split_feature=19 16 3 24 26 17 24 18 24 14 20 6 10 28
split_gain=52.2132 28.9364 14.2142 12.0488 9.6934 4.28782 3.37377 2.34266 6.53305 1.61024 2.17805 2.29718 2.11973 1.96862
threshold=1.0000000180025095e-35 3976.0000000000005 1.5000000000000002 2.5000000000000004 1.5000000000000002 17466.500000000004 11.500000000000002 4.5000000000000009 7.5000000000000009 1.5000000000000002 14.500000000000002 1.5000000000000002 63.500000000000007 6.5000000000000009
decision_type=2 2 2 2 2 2 2 2 2 2 2 2 2 2
left_child=3 5 6 -1 -5 -2 -3 9 -9 12 -11 -12 -6 -13
right_child=1 2 -4 4 7 -7 -8 8 -10 10 11 13 -14 -15
leaf_value=0.11039016784706852 0.47367129564772353 0.029761597359806727 0.23884986801695113 0.15769378183652361 -0.19800919298516784 0.26256635329966299 -0.1769582989754889 0.13731127150316699 -0.13945833075686478 -0.21310553818384814 -0.19551844149472614 -0.1291452564667239 -0.022357326618599151 0.043803059213968133
leaf_weight=10.663939252495764 9.9814458414912242 5.3479197099804878 8.5977138131856918 4.8597821891307822 4.3975807949900609 6.2636672854423514 7.7119576036930084 4.5071989595890072 14.032483570277689 23.632524244487286 9.686137720942499 6.8042331263422948 7.3266106992959976 4.2940442934632301
leaf_count=56 60 47 62 35 35 36 72 29 114 192 79 50 57 36
internal_value=0 0.190503 0.0391563 -0.0892389 -0.116003 0.392275 -0.0923081 -0.133814 -0.0721726 -0.154169 -0.171572 -0.124346 -0.0882419 -0.0622297
internal_weight=0 37.9027 21.6576 90.2045 79.5406 16.2451 13.0599 74.6808 18.5397 56.1411 44.4169 20.7844 11.7242 11.0983
internal_count=960 277 181 683 627 96 119 592 143 449 357 165 92 86
is_linear=0
shrinkage=0.2


Tree=4
num_leaves=15
num_cat=0
split_feature=30 14 29 16 2 20 16 14 7 1 16 16 27 24
split_gain=16.8876 7.21119 5.92605 5.17511 4.87799 4.39742 5.73992 4.38558 4.44093 6.39393 4.33024 4.49671 3.3362 3.1284
threshold=1.0000000180025095e-35 1.5000000000000002 5.5000000000000009 10485.500000000002 1097.5000000000002 12.500000000000002 9838.0000000000018 3.5000000000000004 1470.0000000000002 1.5000000000000002 2898.0000000000005 2337.0000000000005 4.5000000000000009 10.500000000000002
decision_type=2 2 2 2 2 2 2 2 2 2 2 2 2 2
left_child=1 -1 3 7 5 -4 -7 8 9 12 11 -3 -2 -10
right_child=2 10 4 -5 -6 6 -8 -9 13 -11 -12 -13 -14 -15
leaf_value=0.32828631775938472 0.2841853886856151 0.026749028186913992 0.27762281513205295 -0.20828924120677308 -0.13252793841598287 0.16493297993854242 -0.17104984055452366 -0.12548194847455821 -0.14384096903375934 -0.03229457461114979 -0.027332031636706174 0.26478419946432208 0.047490098089294115 0.04253297113330743
leaf_weight=5.799571909010413 4.7179384902119654 5.9899258539080638 4.5628877133131054 9.4807318300008756 4.0297312438487998 5.2409767135977727 3.3238032087683678 21.940906576812267 13.783890455961229 21.384002640843391 9.1684257537126523 6.7537759020924568 4.8107580691576004 4.877309061586856
leaf_count=34 32 30 36 94 37 39 31 174 107 156 77 34 38 41
internal_value=0 0.129976 -0.0468242 -0.0694423 0.0599499 0.119034 0.0345454 -0.0510354 -0.0180861 0.0284234 0.077488 0.1529 0.164685 -0.0951301
internal_weight=0 27.7117 98.1529 80.9955 17.1574 13.1277 8.56478 71.5148 49.5739 30.9127 21.9121 12.7437 9.5287 18.6612
internal_count=960 175 785 642 143 106 70 548 374 226 141 64 70 148
is_linear=0
shrinkage=0.2


Tree=5
num_leaves=15
num_cat=0
split_feature=19 12 15 30 4 26 4 4 24 14 15 16 16 27
split_gain=31.0514 13.5059 12.9725 7.72197 5.76549 3.41346 2.69422 2.40259 1.64563 1.23576 3.93119 1.00374 2.24805 1.97022
threshold=1.0000000180025095e-35 1.5000000000000002 1.5000000000000002 1.0000000180025095e-35 12.500000000000002 1.5000000000000002 7.5000000000000009 6.5000000000000009 4.5000000000000009 1.5000000000000002 1.5000000000000002 6680.5000000000009 10241.500000000002 4.5000000000000009
decision_type=2 2 2 2 2 2 2 2 2 2 2 2 2 2
left_child=3 7 4 6 -3 -5 8 -2 -1 10 -7 13 -13 -11
right_child=1 2 -4 5 -6 9 -8 -9 -10 11 -12 12 -14 -15
leaf_value=0.038438538930750915 0.18238930968203451 -0.17235110082958888 0.25758484592200098 0.057035132221384302 0.095795943347851728 -0.15505578759757394 0.10253012845040506 0.3217566151891329 -0.12786564591040026 -0.10137507563243625 0.075588453736597436 -0.0056495698433948714 -0.17005003223107418 -0.20050408535125419
leaf_weight=4.7256857082247752 9.6824146211147326 9.5913907438516635 6.5047688223421565 4.4435776248574248 4.8187912404537192 7.9576735943555814 10.224806405603884 10.118625499308108 4.7950102239847183 13.871296912431715 4.702896386384964 6.2114873528480512 7.1646572388708591 19.012273333966732
leaf_count=24 52 87 46 31 43 76 61 49 38 106 30 61 79 177
internal_value=0 0.135224 0.0231444 -0.0779667 -0.0826822 -0.111998 0.0312417 0.253608 -0.045319 -0.124746 -0.0693807 -0.139899 -0.0937073 -0.158688
internal_weight=0 40.716 20.915 83.1094 14.4102 63.3639 19.7455 19.801 9.5207 58.9203 12.6606 46.2597 13.3761 32.8836
internal_count=960 277 176 683 130 560 123 101 62 529 106 423 140 283
is_linear=0
shrinkage=0.2


Tree=6
num_leaves=15
num_cat=0
split_feature=19 12 3 30 29 17 16 18 13 13 24 30 17 16
split_gain=19.7994 7.76689 9.14577 5.63413 4.80356 4.08903 3.75471 2.79351 4.68229 2.90013 2.69737 2.8914 3.85911 2.291
threshold=1.0000000180025095e-35 1.5000000000000002 1.5000000000000002 1.0000000180025095e-35 4.5000000000000009 10124.000000000002 2556.0000000000005 4.5000000000000009 6.5000000000000009 2.5000000000000004 2.5000000000000004 6.5000000000000009 12729.500000000002 7289.0000000000009
decision_type=2 2 2 2 2 2 2 2 2 2 2 2 2 2
left_child=3 -2 4 5 -3 -1 -7 10 9 -9 -5 -12 13 -13
right_child=1 2 -4 7 -6 6 -8 8 -10 -11 11 12 -14 -15
leaf_value=-0.11390977989899878 0.18780198294890571 -0.18241615210442652 0.15849125122034599 0.060234609071625582 0.11673781450445503 0.215105179681159 0.0015614225880873479 0.031442216504589351 0.14760805632107504 -0.19957141271771564 -0.18200253897480392 -0.069280967055591808 -0.16361849138813911 0.13840884794562489
leaf_weight=5.9845269024372127 21.192468769848347 8.4185720980167371 9.7172516658902168 3.0035959035158148 2.8820119500160226 5.3564991652965537 8.5517313331365568 3.7437712810933572 4.4948367774486533 5.1831677481532097 23.709432363510132 4.9010926261544245 9.5598096959292871 3.7500134333968163
leaf_count=39 101 85 62 17 29 26 58 34 35 54 231 47 106 36
internal_value=0 0.102365 0.0162174 -0.067592 -0.106122 0.0243238 0.0838039 -0.0989303 -0.0188668 -0.102689 -0.122851 -0.135969 -0.0760357 0.0207468
internal_weight=0 42.2103 21.0178 78.2385 11.3006 19.8928 13.9082 58.3457 13.4218 8.92694 44.9239 41.9203 18.2109 8.65111
internal_count=960 277 176 683 114 123 84 560 123 88 437 420 189 83
is_linear=0
shrinkage=0.2


Tree=7
num_leaves=15
num_cat=0
split_feature=19 8 11 22 0 0 29 0 1 12 0 6 16 27
split_gain=12.92 8.01196 5.55499 5.48876 6.43171 5.01447 4.64308 5.1134 2.70488 2.80595 2.53284 2.24634 1.55316 2.83868
threshold=1.0000000180025095e-35 1.5000000000000002 1.5000000000000002 1.5000000000000002 32.500000000000007 26.500000000000004 1.5000000000000002 36.500000000000007 1.5000000000000002 1.5000000000000002 40.500000000000007 4.5000000000000009 12623.000000000002 12.500000000000002
decision_type=2 2 2 2 2 2 2 2 2 2 2 2 2 2
left_child=2 -2 -1 4 -4 -3 8 -8 -7 -10 -6 12 13 -5
right_child=1 5 3 11 10 6 7 -9 9 -11 -12 -13 -14 -15
leaf_value=0.14707219351215747 0.25752568222381095 0.19579745428878662 0.17518100588005403 -0.11900394999584413 -0.18932335845709417 0.055301180945892481 0.22195670839272991 -0.046570512958104167 -0.0042044793397694943 -0.2021321060358281 0.037457448695991456 0.013495306645757908 -0.22179462194124003 0.078665371451933419
leaf_weight=4.903751377016305 8.1633690372109395 6.5012373030185691 6.9328713864088041 40.177726313471794 4.4182807318866253 5.1474855244159743 6.2176815643906576 5.2162825800478458 4.9583284258842468 6.7862030975520611 3.5549824237823486 5.9268379658460608 5.0611814558506003 3.1325868256390086
leaf_count=42 42 30 51 364 44 33 37 42 24 69 32 53 66 31
internal_value=0 0.0791903 -0.0586312 -0.0732071 0.0342935 0.0373892 0.00103214 0.0994521 -0.0655869 -0.118571 -0.0882102 -0.102718 -0.116958 -0.104707
internal_weight=0 42.9906 74.1082 69.2045 14.9061 34.8272 28.326 11.434 16.892 11.7445 7.97326 54.2983 48.3715 43.3103
internal_count=960 277 683 641 127 235 205 79 126 93 76 514 461 395
is_linear=0
shrinkage=0.2


Tree=8
num_leaves=15
num_cat=0
split_feature=19 4 23 22 18 0 7 26 0 22 13 7 11 0
split_gain=8.45766 5.40238 6.20735 5.61224 5.679 5.32358 3.58417 6.61185 4.49401 4.55373 3.64616 3.13717 3.09174 2.10305
threshold=1.0000000180025095e-35 11.500000000000002 1.0000000180025095e-35 1.5000000000000002 5.5000000000000009 26.500000000000004 912.50000000000011 1.5000000000000002 32.500000000000007 1.5000000000000002 6.5000000000000009 630.50000000000011 2.5000000000000004 45.500000000000007
decision_type=2 2 2 2 2 2 2 2 2 2 2 2 2 2
left_child=6 3 -3 -2 5 -5 10 -8 9 -9 -1 -12 -11 -10
right_child=1 2 -4 4 -6 -7 7 8 13 12 11 -13 -14 -15
leaf_value=-0.17775576825186928 0.20637784083643687 0.30877463062573784 0.041601411791402025 0.094247926463354781 0.16269861280796941 -0.14200589133798747 0.21523687539080055 0.19970177956346699 -0.13349754027553992 0.10527890888249203 -0.14221886755142421 0.10494232736496352 -0.092954079717421534 -0.0043375591544833666
leaf_weight=14.188800297677519 4.9744979664683369 6.4277162104845029 7.5808256343007088 5.272245414555079 5.002601094543933 13.803797043859957 4.3638528212904921 4.7804665938019779 18.323477555066351 4.7450686953961823 3.8563863523304445 4.3955506309866905 9.3451962433755398 6.9571844488382331
leaf_count=151 33 33 52 24 30 105 26 34 204 37 38 37 78 78
internal_value=0 0.0621738 0.164192 0.0129838 -0.0269702 -0.07671 -0.0501835 -0.0196125 -0.0428246 0.0310295 -0.116276 -0.0105638 -0.0261967 -0.097953
internal_weight=0 43.0617 14.0085 29.0531 24.0786 19.076 70.956 48.5152 44.1514 18.8707 22.4407 8.25194 14.0903 25.2807
internal_count=960 277 85 192 159 129 683 457 431 149 226 75 115 282
is_linear=0
shrinkage=0.2


Tree=9
num_leaves=15
num_cat=0
split_feature=8 18 4 19 14 4 30 29 10 14 8 24 4 25
split_gain=7.31884 5.87452 5.63533 4.26597 5.07056 4.93942 4.39405 4.46925 3.11762 3.39623 2.68743 1.85653 1.30741 1.24568
threshold=1.5000000000000002 4.5000000000000009 15.500000000000002 1.0000000180025095e-35 1.5000000000000002 7.5000000000000009 1.0000000180025095e-35 5.5000000000000009 57.500000000000007 2.5000000000000004 2.5000000000000004 8.5000000000000018 21.500000000000004 4.5000000000000009
decision_type=2 2 2 2 2 2 2 2 2 2 2 2 2 2
left_child=1 2 8 4 5 -2 -5 10 -1 -10 -8 -12 13 -6
right_child=3 -3 -4 6 12 -7 7 -9 9 -11 11 -13 -14 -15
leaf_value=0.083700663059780578 -0.11075192763052553 0.24940986583541039 0.19876019191215455 0.14853562179822674 -0.081699529315854877 0.15185312236594228 0.072054233003421661 0.1347784054643992 0.013295205955534392 -0.23828473798322786 -0.045500692863854462 -0.18306687132035129 -0.22458588720055772 -0.1931223080994322
leaf_weight=5.1911290809512201 4.9267068170011026 6.5417619422078124 5.6348064579069606 7.9728545248508444 30.509273171424866 6.8464719243347645 4.5259549319744172 5.7745624110102645 4.2879682146012765 4.2975374944508076 9.5079728551208991 6.6817428953945628 3.4971388429403296 4.6213893331587306
leaf_count=39 54 38 41 48 328 56 32 36 30 42 53 66 44 53
internal_value=0 0.0855011 0.030263 -0.035865 -0.0729446 0.0419611 0.0183625 -0.0208161 -0.0386544 -0.112635 -0.0641886 -0.102276 -0.107966 -0.096357
internal_weight=0 25.9532 19.4114 84.8641 50.401 11.7732 34.4631 26.4902 13.7766 8.58551 20.7157 16.1897 38.6278 35.1307
internal_count=960 190 152 770 535 110 235 187 111 72 151 119 425 381
is_linear=0
shrinkage=0.2


Tree=10
num_leaves=15
num_cat=0
split_feature=23 4 26 0 11 18 16 29 7 7 16 24 4 0
split_gain=5.923 7.29727 3.51807 3.99967 3.11899 2.69542 2.64678 3.43853 2.40909 2.31338 2.42803 2.72156 2.67355 3.04059
threshold=1.0000000180025095e-35 7.5000000000000009 2.5000000000000004 35.500000000000007 3.5000000000000004 4.5000000000000009 2797.0000000000005 3.5000000000000004 1046.5000000000002 1853.5000000000002 2322.0000000000005 11.500000000000002 10.500000000000002 34.500000000000007
decision_type=2 2 2 2 2 2 2 2 2 2 2 2 2 2
left_child=1 6 -3 -4 5 9 -1 -8 -7 10 -2 12 13 -12
right_child=4 2 3 -5 -6 8 7 -9 -10 -11 11 -13 -14 -15
leaf_value=0.054172849567796146 -0.17969473640362421 0.23157755026268828 0.13742439885674285 -0.053486572836801576 -0.21103209340887427 -0.071729947069987865 -0.13030348291485686 0.078022553988732535 0.11749155481552964 -0.18506547039873344 0.030646412228340747 -0.1083430911983001 0.11405950795928617 -0.18638170616774877
leaf_weight=8.9558925181627291 4.5720452219247809 7.4219209440052536 12.31176643818617 6.8217798247933379 4.5740821287035933 4.3033005110919458 13.078642724081876 4.182703496888279 7.1849630810320377 5.4024690650403491 8.1177089922130161 9.8959053717553598 7.5010172501206389 3.786688905209302
leaf_count=52 33 50 78 59 51 44 119 34 65 54 77 134 64 46
internal_value=0 0.0408001 0.114696 0.0693579 -0.0528522 -0.0385995 -0.0340494 -0.0798227 0.0466125 -0.0635242 -0.0441395 -0.0229881 0.0205392 -0.0383884
internal_weight=0 52.7727 26.5555 19.1335 55.3382 50.7641 26.2172 17.2613 11.4883 39.2758 33.8734 29.3013 19.4054 11.9044
internal_count=960 392 187 137 568 517 205 153 109 408 354 321 187 123
is_linear=0
shrinkage=0.2


Tree=11
num_leaves=15
num_cat=0
split_feature=8 16 28 19 4 19 22 1 14 0 16 0 0 10
split_gain=4.65501 4.35417 4.29361 4.34803 3.09816 2.55657 3.44186 2.96076 2.57571 5.15542 5.68421 2.40843 3.46666 2.05684
threshold=1.5000000000000002 2438.5000000000005 1.5000000000000002 1.0000000180025095e-35 5.5000000000000009 1.0000000180025095e-35 1.5000000000000002 1.5000000000000002 1.5000000000000002 45.500000000000007 10485.500000000002 32.500000000000007 30.500000000000004 57.500000000000007
decision_type=2 2 2 2 2 2 2 2 2 2 2 2 2 2
left_child=2 4 -1 13 -2 8 -7 -8 -3 11 -11 12 -10 -4
right_child=1 5 3 -5 -6 6 7 -9 9 10 -12 -13 -14 -15
leaf_value=0.21098455499496938 -0.047039273905506523 -0.0005410883649470189 0.070113058064353459 0.15469504895457248 0.13277100498896971 0.1546871587679442 0.074736642974571055 -0.086525691536290292 -0.16416111378018894 0.24811344093650015 -0.15669607308112574 -0.22038880047041767 0.096353828016663923 -0.10095625201289629
leaf_weight=6.2914978265762356 6.2887965925037888 10.106138840317724 4.1351239159703281 6.4675808735191813 9.8152646683156473 4.4418746791780022 6.4860807731747636 15.288559276610613 6.9765464738011413 2.8906185589730731 2.6682244781404734 12.354480596259235 2.8893733769655228 8.7819498926401121
leaf_count=36 40 99 38 35 60 32 46 123 73 33 44 190 30 81
internal_value=0 -0.0304176 0.0674262 0.0208328 0.0625533 -0.0537743 -0.00575989 -0.03849 -0.0870001 -0.118454 0.0538063 -0.161548 -0.0878656 -0.0461921
internal_weight=0 80.206 25.6762 19.3847 16.1041 64.1019 26.2165 21.7746 37.8854 27.7792 5.55884 22.2204 9.86592 12.9171
internal_count=960 770 190 154 100 670 201 169 469 370 77 293 103 119
is_linear=0
shrinkage=0.2


Tree=12
num_leaves=15
num_cat=0
split_feature=23 1 10 8 17 26 7 0 1 1 10 27 2 23
split_gain=3.88028 2.94214 4.25189 2.78373 3.51755 2.99844 2.33662 2.18204 2.1542 4.33101 3.96934 3.24312 4.81262 4.28601
threshold=1.0000000180025095e-35 1.5000000000000002 53.500000000000007 1.5000000000000002 21452.000000000004 2.5000000000000004 1678.5000000000002 33.500000000000007 1.0000000180025095e-35 1.5000000000000002 39.500000000000007 8.5000000000000018 548.50000000000011 2.5000000000000004
decision_type=2 2 2 2 2 2 2 2 2 2 2 2 2 2
left_child=1 2 -1 -3 5 -5 -7 -4 -2 -10 -11 13 -13 -12
right_child=8 3 7 4 -6 6 -8 -9 9 10 11 12 -14 -15
leaf_value=-0.041006403943206031 -0.15656952407154193 0.09554304035628769 0.25527571421170836 0.053941726949533211 0.086178693879144813 -0.17285962117648193 0.01926997897113443 0.073917407242247379 0.07291016475004479 0.10501583937506645 -0.17143097506398774 0.24679398730827773 -0.087835412214856315 0.086442441487358787
leaf_weight=5.4503211025148657 6.1038810424506655 9.0417902879416925 6.0519597046077234 5.0141940787434622 7.1489676721394053 10.508335949853061 3.335709748789669 4.7258834950625896 12.049803990870712 4.652778346091508 18.228771658614285 2.4659342989325506 5.6767569947987795 3.0027884244918814
leaf_count=44 63 58 36 40 53 102 26 33 117 46 205 31 81 25
internal_value=0 0.0325486 0.102953 -4.97816e-05 -0.033284 -0.0785712 -0.126566 0.175753 -0.0449201 -0.0301297 -0.0666187 -0.093805 0.0135038 -0.13496
internal_weight=0 51.2772 16.2282 35.049 26.0072 18.8582 13.844 10.7778 52.1807 46.0768 34.027 29.3743 8.14269 21.2316
internal_count=960 392 113 279 221 168 128 69 568 505 388 342 112 230
is_linear=0
shrinkage=0.2


Tree=13
num_leaves=15
num_cat=0
split_feature=19 11 13 7 7 4 13 22 23 24 4 13 22 7
split_gain=3.33017 3.0377 3.36764 6.61511 4.2194 5.88282 2.79677 2.90211 2.9646 2.75141 3.83022 2.35792 2.14308 3.4706
threshold=1.0000000180025095e-35 1.5000000000000002 2.5000000000000004 957.50000000000011 1161.0000000000002 6.5000000000000009 6.5000000000000009 2.5000000000000004 1.0000000180025095e-35 16.500000000000004 11.500000000000002 4.5000000000000009 2.5000000000000004 1125.5000000000002
decision_type=2 2 2 2 2 2 2 2 2 2 2 2 2 2
left_child=1 -1 3 -3 -5 -6 7 8 -4 10 12 -11 -2 -14
right_child=9 2 6 4 5 -7 -8 -9 -10 11 -12 -13 13 -15
leaf_value=0.117179876508027 0.090908163960615962 -0.185894654993768 0.081528018528320076 0.28312730080917636 -0.1885281892533619 0.14272680300264337 -0.024679055861489468 -0.19708536878355307 -0.14963405127141347 -0.18886013948687888 0.16173901725566156 0.044421166057746965 0.064370178217137849 -0.13921956145254111
leaf_weight=4.8104629963636389 9.0931802466511744 4.438650859519842 4.0265807900577801 3.5408119298517695 3.2943588551133853 6.1438111644238234 18.68397119268775 11.69668680988252 4.9439512714743614 3.5770974270999423 10.608875241130589 3.3620585631579161 6.8705661222338659 6.5349965579807758
leaf_count=42 56 60 36 27 44 60 183 153 78 42 64 27 43 45
internal_value=0 -0.0354174 -0.0483481 0.0248705 0.0969496 0.0271035 -0.0807562 -0.131452 -0.0458729 0.0386735 0.0626736 -0.0758341 0.0159611 -0.0348766
internal_weight=0 61.5793 56.7688 17.4176 12.979 9.43817 39.3512 20.6672 8.97053 40.0468 33.1076 6.93916 22.4987 13.4056
internal_count=960 683 641 191 131 104 450 267 114 277 208 69 144 88
is_linear=0
shrinkage=0.2


Tree=14
num_leaves=15
num_cat=0
split_feature=30 1 1 10 30 0 0 10 0 8 0 10 10 3
split_gain=3.89067 2.51855 3.02089 3.58427 3.51406 4.55295 3.38995 3.23148 2.47677 1.88892 1.92123 1.70062 1.88557 1.65419
threshold=1.0000000180025095e-35 1.0000000180025095e-35 1.5000000000000002 53.500000000000007 6.5000000000000009 44.500000000000007 37.500000000000007 39.500000000000007 32.500000000000007 2.5000000000000004 34.500000000000007 80.500000000000014 58.500000000000007 1.5000000000000002
decision_type=2 2 2 2 2 2 2 2 2 2 2 2 2 2
left_child=8 -2 3 -3 7 6 -6 -4 -1 -5 -11 12 -10 -9
right_child=1 2 4 9 5 -7 -8 13 11 10 -12 -13 -14 -15
leaf_value=0.12149495072169636 -0.13824503557536591 -0.073285045041603533 0.083693079599413911 0.229566326818195 0.02322135302810048 0.19887563945480818 -0.22047172211450419 -0.14066050230405588 0.033608823273362898 0.16713864861733055 -0.047895972889239059 0.097819510547972791 -0.16546492935665269 -0.038740585865265374
leaf_weight=13.233608562499287 7.5897179171442977 5.5180688612163094 4.1687659081071606 4.2065172996371967 10.481950506567957 4.702039116062223 2.9192237239330998 18.225628403946757 4.0187499057501537 3.2841523550450802 3.3647103291004896 4.1972702015191317 3.6152028888463974 9.7921535689383763
leaf_count=74 83 54 38 34 107 56 52 208 31 29 35 35 35 89
internal_value=0 -0.0290813 -0.0166528 0.0579619 -0.040946 0.0295483 -0.0298631 -0.0805953 0.0620498 0.124678 0.0583187 -0.00444155 -0.0606663 -0.10504
internal_weight=0 74.2529 66.6632 16.3734 50.2898 18.1032 13.4012 32.1865 25.0648 10.8554 6.64886 11.8312 7.63395 28.0178
internal_count=960 785 702 152 550 215 159 335 175 98 64 101 66 297
is_linear=0
shrinkage=0.2


Tree=15
num_leaves=15
num_cat=0
split_feature=18 8 22 13 17 17 22 17 14 29 4 2 13 24
split_gain=2.74009 4.35127 3.83633 4.27236 4.03598 3.54936 3.27358 3.23954 3.16438 2.98805 2.78739 2.19884 2.44941 1.4529
threshold=4.5000000000000009 2.5000000000000004 1.5000000000000002 7.5000000000000009 10930.500000000002 9426.5000000000018 2.5000000000000004 13524.500000000002 1.5000000000000002 1.5000000000000002 2.5000000000000004 429.50000000000006 4.5000000000000009 6.5000000000000009
decision_type=2 2 2 2 2 2 2 2 2 2 2 2 2 2
left_child=2 7 10 4 5 8 -3 -2 -4 -10 -1 12 -6 -8
right_child=1 6 3 -5 11 -7 13 -9 9 -11 -12 -13 -14 -15
leaf_value=-0.070205007854721946 0.048277702107781359 -0.1791970565528325 0.093074173522524561 0.10470622827386733 0.090018900594519419 0.21009362447211088 0.1617547132448473 0.27214759220408496 -0.1770106506560416 0.035007077339958857 0.10886805772492947 -0.1414817940691584 -0.13618694177568566 -0.01440378586886387
leaf_weight=4.8317859675735262 5.6812690012156981 3.8201481718569985 5.4537974502891364 6.4371792934834948 3.9872962068766382 2.8456605579704037 2.7982696965336782 4.7449866989627481 6.7052604276686889 4.4061100836843252 12.399735001847146 24.214864835143089 3.6837494280189276 5.6624917592853308
leaf_count=44 42 48 44 40 41 28 15 30 88 46 108 280 36 70
internal_value=0 0.0551424 -0.0241601 -0.0488775 -0.0681506 0.00375076 -0.0255264 0.150161 -0.031696 -0.092937 0.0586553 -0.111921 -0.0186085 0.043858
internal_weight=0 22.7072 74.9654 57.7339 51.2967 19.4108 12.2809 10.4263 16.5652 11.1114 17.2315 31.8859 7.67105 8.46076
internal_count=960 205 755 603 563 206 133 72 178 134 152 357 77 85
is_linear=0
shrinkage=0.2


Tree=16
num_leaves=15
num_cat=0
split_feature=19 16 11 14 16 0 13 7 0 16 16 13 0 0
split_gain=2.75153 2.20606 2.02958 2.821 2.52812 3.2438 2.35091 2.67473 2.1445 1.99693 2.26801 1.93978 4.56614 4.24041
threshold=1.0000000180025095e-35 2464.5000000000005 1.5000000000000002 1.5000000000000002 4290.0000000000009 35.500000000000007 2.5000000000000004 1015.5000000000001 48.500000000000007 2751.0000000000005 4783.0000000000009 6.5000000000000009 34.500000000000007 34.500000000000007
decision_type=2 2 2 2 2 2 2 2 2 2 2 2 2 2
left_child=2 -2 -1 4 -4 -6 7 -5 -8 -9 -11 13 -13 -3
right_child=1 11 3 6 5 -7 8 9 -10 10 -12 12 -14 -15
leaf_value=0.089972562876529508 0.1234752586822022 0.079365233307558569 0.11871350854582972 -0.1654187463494789 0.058529059834916131 -0.22558129582034178 -0.12879424111475707 0.13431781404860407 0.036212996112170569 -0.19313912118700796 0.087573513516697898 -0.058872169497867104 0.21127601576458829 -0.11010837950747504
leaf_weight=4.9142063204199067 8.8935040310025197 8.3776600733399409 6.9255296029150468 3.0409942585974923 4.0803771652281284 2.6523506231606007 22.688368254341189 5.1945844888687116 3.6585239693522444 2.2035845397040248 2.4108423385769129 4.8321914225816744 5.1914071142673492 10.83534102141857
leaf_count=42 47 53 51 51 38 42 304 35 52 36 32 31 32 114
internal_value=0 0.0362522 -0.0329696 -0.0444001 0.0338736 -0.0533959 -0.0716748 -0.00153966 -0.105881 0.0492662 -0.0464787 0.00971971 0.0810426 -0.0274901
internal_weight=0 38.1301 57.7694 52.8552 13.6583 6.73273 39.1969 12.85 26.3469 9.80901 4.61443 29.2366 10.0236 19.213
internal_count=960 277 683 641 131 80 510 154 356 103 68 230 63 167
is_linear=0
shrinkage=0.2


Tree=17
num_leaves=15
num_cat=0
split_feature=8 2 2 17 13 17 0 28 23 13 17 13 13 0
split_gain=2.40148 3.89212 3.1166 3.06384 2.56613 2.45211 2.52068 2.22518 1.83981 3.4721 2.46252 1.63723 3.29657 6.12136
threshold=1.5000000000000002 231.50000000000003 429.50000000000006 24896.500000000004 1.0000000180025095e-35 21043.000000000004 37.500000000000007 1.5000000000000002 1.0000000180025095e-35 3.5000000000000004 10465.000000000002 2.5000000000000004 6.5000000000000009 39.500000000000007
decision_type=2 2 2 2 2 2 2 2 2 2 2 2 2 2
left_child=7 -2 5 4 -4 6 -3 -1 10 -10 -9 -6 -13 -14
right_child=1 2 3 -5 11 -7 -8 8 9 -11 -12 12 13 -15
leaf_value=0.15503438715278023 -0.20060858333806411 0.11182260818189445 -0.1843376286705764 -0.20052403932030527 0.062176357204527855 0.2247771959210299 -0.11661877636491513 0.17916044383550744 0.089992085853165732 -0.18833786622541948 -0.020861547484106315 -0.089698376295621288 -0.0288764216161598 0.24804033503140774
leaf_weight=6.0349563350901034 4.6423321664333335 4.9843560848385078 3.4498055400326839 3.9646704364567986 10.924828312359748 3.4350489489734164 3.1551168384030461 4.5003721565008181 3.2654618583619586 3.9753490667790174 5.4355464968830347 17.104675671085715 14.552653381600978 4.0906239822506896
leaf_count=36 60 47 54 42 97 24 42 31 31 51 41 236 130 38
internal_value=0 -0.0236299 -0.0111174 -0.031274 -0.0178864 0.0830737 0.0232715 0.0505641 0.013859 -0.0628166 0.0697364 -0.00558322 -0.026291 0.0318834
internal_weight=0 70.3041 65.6618 54.0873 50.1226 11.5745 8.13947 23.2117 17.1767 7.24081 9.93592 46.6728 35.748 18.6433
internal_count=960 770 710 597 555 113 89 190 154 82 72 501 404 168
is_linear=0
shrinkage=0.2


Tree=18
num_leaves=15
num_cat=0
split_feature=30 18 22 23 29 13 13 17 17 30 17 17 22 10
split_gain=2.10233 2.76438 2.52102 2.34901 2.97242 2.26837 2.86768 2.00764 4.77178 2.87922 2.53473 2.82684 2.34364 3.20704
threshold=1.0000000180025095e-35 4.5000000000000009 2.5000000000000004 1.5000000000000002 3.5000000000000004 6.5000000000000009 2.5000000000000004 11225.500000000002 9980.0000000000018 3.5000000000000004 4367.5000000000009 6701.5000000000009 1.5000000000000002 68.500000000000014
decision_type=2 2 2 2 2 2 2 2 2 2 2 2 2 2
left_child=2 3 -1 7 -5 6 -4 8 9 -2 -11 -12 13 -9
right_child=1 -3 5 4 -6 -7 -8 12 -10 10 11 -13 -14 -15
leaf_value=0.12526594924875886 -0.13049469426358506 0.04953909893646679 0.044583849033658259 -0.2354785250067013 0.038672292581002299 0.10985397258081896 -0.17388331055279008 -0.10710800392866249 0.25199118212044125 -0.097747490659772493 0.26445356621618071 0.00061594638080033444 -0.1003692357352543 0.17258155293119856
leaf_weight=9.6126218922436255 6.0972129702568116 16.101616720668972 4.9107520040124637 5.0687350155785671 2.2996678855270147 4.4884599968790999 4.7069915570318699 3.1553917787969139 3.014054497703909 3.346512967720626 2.8853514650836587 3.7168978024274111 18.955554623156786 3.4143239054828882
leaf_count=74 72 164 33 76 26 28 40 35 23 36 27 39 261 26
internal_value=0 -0.0228664 0.0462789 -0.0453065 -0.149916 -0.00754646 -0.0623355 -0.0280181 0.0210954 -0.0222758 0.0440475 0.11592 -0.0646917 0.0382485
internal_weight=0 68.0553 23.7188 51.9537 7.3684 14.1062 9.61774 44.5853 19.06 16.046 9.94876 6.60225 25.5253 6.56972
internal_count=960 785 175 621 102 101 73 519 197 174 102 66 322 61
is_linear=0
shrinkage=0.2


Tree=19
num_leaves=15
num_cat=0
split_feature=19 2 22 2 12 4 10 15 18 4 5 24 2 2
split_gain=2.11226 1.84343 2.29526 2.41278 1.8344 2.99175 2.00025 2.04809 1.72901 2.2171 1.70441 3.22663 2.21327 4.52175
threshold=1.0000000180025095e-35 370.50000000000006 1.5000000000000002 1007.0000000000001 1.5000000000000002 11.500000000000002 51.500000000000007 1.5000000000000002 1.5000000000000002 6.5000000000000009 2.5000000000000004 2.5000000000000004 593.50000000000011 748.00000000000011
decision_type=2 2 2 2 2 2 2 2 2 2 2 2 2 2
left_child=1 -1 3 -3 8 6 -6 -8 9 -2 -4 -12 -13 -14
right_child=4 2 10 -5 5 -7 7 -9 -10 -11 11 12 13 -15
leaf_value=0.038321466565843627 -0.064280439444060242 -0.05689859839673797 -0.1543787784252513 0.13445496759348574 0.045881428282646769 0.083415055704381569 -0.23516541407062036 -0.015000457411950153 0.1523304778716888 0.11488341318891569 0.1157468967128237 -0.22421289724341437 0.14750805673682374 -0.10935279247237095
leaf_weight=12.301356302574275 5.4216480888426322 5.7624742528423649 8.345399056561293 4.8576205372810364 3.2570705562829989 7.4083767365664235 4.0811469433829188 2.88474415615201 7.3206684067845336 5.6334751918911934 3.9458862729370621 3.5988251268863705 3.5644111428409806 11.872650249861179
leaf_count=135 30 60 125 49 38 60 55 23 40 31 24 62 44 184
internal_value=0 -0.0297593 -0.0497245 0.0306263 0.0327224 -0.013363 -0.0834962 -0.14399 0.0769408 0.027018 -0.0769638 -0.0488521 -0.0829712 -0.0500437
internal_weight=0 54.2486 41.9473 10.6201 36.0071 17.6313 10.223 6.96589 18.3758 11.0551 31.3272 22.9818 19.0359 15.4371
internal_count=960 683 548 109 277 176 116 78 101 61 439 314 290 228
is_linear=0
shrinkage=0.2


Tree=20
num_leaves=15
num_cat=0
split_feature=10 7 6 0 29 27 8 7 26 22 6 28 28 29
split_gain=1.88043 4.87205 2.87253 2.40037 3.994 3.16192 4.05158 2.48655 2.09036 1.95502 1.72875 1.69251 1.65992 1.54627
threshold=92.500000000000014 1195.5000000000002 3.5000000000000004 33.500000000000007 5.5000000000000009 4.5000000000000009 3.5000000000000004 1181.0000000000002 2.5000000000000004 2.5000000000000004 1.5000000000000002 1.5000000000000002 2.5000000000000004 2.5000000000000004
decision_type=2 2 2 2 2 2 2 2 2 2 2 2 2 2
left_child=2 -2 3 5 -5 6 9 -6 -7 -1 -11 -4 -13 -10
right_child=1 -3 11 4 7 8 -8 -9 13 10 -12 12 -14 -15
leaf_value=0.20505319655244808 -0.11709774727688201 0.1738867132723497 0.20026285085552287 -0.11110147997743608 0.15844173880534695 -0.19446071358463934 -0.10317329966033056 -0.066371240274944246 -0.078968571340225086 -0.031422220163107327 0.13657169851141868 -0.076719967835431863 0.090628416378327803 0.10529586232920868
leaf_weight=5.2361318990588215 3.4747160095721465 6.8173586511984468 3.0408396245911709 24.486164453439415 4.1746257776394478 3.9323244784027311 4.8903400562703601 3.7230086456984282 5.4114877907559276 4.8365162685513479 4.9660642240196466 3.7025192026048881 6.591820034198463 2.7460089940577745
leaf_count=36 48 64 23 345 42 49 43 47 70 30 32 37 69 25
internal_value=0 0.0756472 -0.0153245 -0.0328186 -0.071212 0.00601227 0.0549641 0.0524631 -0.0746807 0.106388 0.0536848 0.0691641 0.030439 -0.0169407
internal_weight=0 10.2921 77.7379 64.4027 32.3838 32.0189 19.9291 7.89763 12.0898 15.0387 9.80258 13.3352 10.2943 8.1575
internal_count=960 112 848 719 434 285 141 89 144 98 62 129 106 95
is_linear=0
shrinkage=0.2


Tree=21
num_leaves=15
num_cat=0
split_feature=25 25 22 16 17 14 29 17 18 16 0 18 17 18
split_gain=1.96065 1.8837 2.39668 2.15575 3.20731 2.29296 3.74184 1.79802 1.58637 2.89038 1.89254 3.10854 1.75539 1.50604
threshold=4.5000000000000009 3.5000000000000004 3.5000000000000004 2797.0000000000005 5836.0000000000009 3.5000000000000004 5.5000000000000009 11783.500000000002 1.0000000180025095e-35 4774.5000000000009 34.500000000000007 3.5000000000000004 16893.000000000004 3.5000000000000004
decision_type=2 2 2 2 2 2 2 2 2 2 2 2 2 2
left_child=1 3 -3 -1 -5 8 13 -2 -6 12 -11 -12 -10 -7
right_child=7 2 -4 4 5 6 -8 -9 9 10 11 -13 -14 -15
leaf_value=0.04396022317323306 0.012561981237352327 0.017646539877277947 0.23098548471555819 -0.1475503900937403 0.15566190619238257 -0.23497427201066443 0.12217010041787334 -0.1741751649171619 -0.18028945275341157 0.15075969230609967 -0.13447620312201244 0.089541459757777261 -0.0036628748663769875 -0.039514046515769896
leaf_weight=22.927142519503832 3.5536861289292556 6.2781422194093448 3.1698443097993731 7.8485748954117289 3.1306536868214634 4.5429016742855293 2.4069400001317263 4.915187684353441 4.2052842276170868 5.496630969457331 3.9470121935009939 6.6559673957526684 4.842445882037282 2.4150586789473891
leaf_count=166 39 59 29 101 39 74 26 75 52 57 71 81 49 42
internal_value=0 0.00551268 0.0892228 -0.00604692 -0.0312499 -0.00700115 -0.092776 -0.095817 0.0214051 0.00469117 0.0555216 0.00614976 -0.0857569 -0.167131
internal_weight=0 77.8666 9.44799 68.4186 45.4915 37.6429 9.3649 8.46887 28.278 25.1473 16.0996 10.603 9.04773 6.95796
internal_count=960 846 88 758 592 491 142 114 349 310 209 152 101 116
is_linear=0
shrinkage=0.2


Tree=22
num_leaves=15
num_cat=0
split_feature=19 25 1 1 0 25 6 3 4 0 8 8 8 4
split_gain=1.67303 2.07853 2.39348 2.27812 2.21172 3.33591 1.78648 1.719 3.40416 3.03397 2.43507 1.61609 1.46614 1.57851
threshold=1.0000000180025095e-35 4.5000000000000009 1.0000000180025095e-35 1.5000000000000002 31.500000000000004 2.5000000000000004 4.5000000000000009 1.5000000000000002 6.5000000000000009 30.500000000000004 3.5000000000000004 2.5000000000000004 1.5000000000000002 2.5000000000000004
decision_type=2 2 2 2 2 2 2 2 2 2 2 2 2 2
left_child=1 2 -1 4 -4 -6 7 8 -5 -10 -9 -11 -2 -14
right_child=12 -3 3 6 5 -7 -8 10 9 11 -12 -13 13 -15
leaf_value=-0.13842832720325371 0.11721570265706259 -0.14338985908589572 0.1983898946986675 -0.20656126691093785 -0.1703429628899209 0.1415367296860523 0.1082109439805876 0.082065235153898297 -0.17307040252782127 -0.035831766115522648 -0.13635154039883748 0.15244680937758742 -0.076032029816915037 0.03671675073190863
leaf_weight=5.3813413437455884 6.2891273554414502 5.5007133213803163 4.1502762418240291 5.6923976745456555 2.4319460894912481 3.1470299530774355 3.6290398500859729 7.4975017383694631 3.3302860716357809 3.686086249537766 2.805816906504333 3.6090323515236378 6.4925229391083148 21.137172539718449
leaf_count=68 42 96 32 117 39 39 41 83 36 45 36 51 56 179
internal_value=0 -0.0272866 -0.0132072 0.00364789 0.0878308 0.00558443 -0.0234276 -0.0413728 -0.0817571 -0.0148952 0.0225856 0.0573132 0.030061 0.0102226
internal_weight=0 50.8615 45.3608 39.9794 9.72925 5.57898 30.2502 26.6211 16.3178 10.6254 10.3033 7.29512 33.9188 27.6297
internal_count=960 683 587 519 110 78 409 368 249 132 119 96 277 235
is_linear=0
shrinkage=0.2


Tree=23
num_leaves=15
num_cat=0
split_feature=7 26 7 3 10 30 10 19 25 30 25 2 15 7
split_gain=1.41015 1.57113 2.07168 1.75336 2.44419 2.13223 1.88369 1.59253 1.17999 1.09478 1.08203 2.1094 1.00759 1.40254
threshold=476.50000000000006 1.5000000000000002 590.50000000000011 1.5000000000000002 34.500000000000007 1.0000000180025095e-35 92.500000000000014 1.0000000180025095e-35 1.5000000000000002 3.5000000000000004 3.5000000000000004 880.50000000000011 1.5000000000000002 1555.5000000000002
decision_type=2 2 2 2 2 2 2 2 2 2 2 2 2 2
left_child=9 -2 -3 4 -4 7 8 -6 -7 -1 -10 -12 13 -5
right_child=1 2 3 12 5 6 -8 -9 10 -11 11 -13 -14 -15
leaf_value=-0.18571278905786517 0.10005431679356672 0.11915770447876083 0.14547069940213855 -0.0529923128629941 -0.038555487390852336 0.034182458362189957 0.042452702512669464 0.11872651224037159 -0.1384393139309677 -0.0098050675599021496 0.10346269618316997 -0.18356294982602078 0.074861393597702747 0.079443368584593152
leaf_weight=2.9229476125910869 6.1208651326596728 4.9591954853385678 2.6679044831544152 9.2436326975002867 6.5498622953891736 2.2823400716297391 4.2000863570719948 4.2433348204940557 17.732902067247782 2.7435264363884926 2.2898796466179183 1.8529438511468468 10.395942559465766 4.8911793483421215
leaf_count=34 49 59 30 105 61 33 52 32 262 38 38 35 78 54
internal_value=0 0.00281378 -0.00553292 -0.0148527 -0.0397534 -0.0523752 -0.0811698 0.0232798 -0.102663 -0.100544 -0.11694 -0.0249141 0.0275974 -0.00716456
internal_weight=0 77.4301 71.3092 66.35 41.8193 39.1513 28.3582 10.7932 24.1581 5.66647 21.8757 4.14282 24.5308 14.1348
internal_count=960 888 839 780 543 513 420 93 368 72 335 73 237 159
is_linear=0
shrinkage=0.2


Tree=24
num_leaves=15
num_cat=0
split_feature=24 7 7 10 19 25 1 1 16 16 8 7 28 7
split_gain=1.62373 1.4524 1.91171 2.17084 1.38153 1.46802 1.58889 1.45736 1.88488 2.1862 1.3846 2.33902 1.61466 2.40235
threshold=16.500000000000004 721.50000000000011 1190.5000000000002 77.500000000000014 1.0000000180025095e-35 4.5000000000000009 1.5000000000000002 1.0000000180025095e-35 2065.0000000000005 2337.0000000000005 1.5000000000000002 1751.5000000000002 7.5000000000000009 668.00000000000011
decision_type=2 2 2 2 2 2 2 2 2 2 2 2 2 2
left_child=4 -2 -3 -4 5 7 -7 -1 -9 -10 -11 12 13 -12
right_child=1 2 3 -5 -6 6 -8 8 9 10 11 -13 -14 -15
leaf_value=-0.1092173013309885 -0.21821162342523692 0.067082583854747038 -0.23261220702253632 0.0078781903325412968 0.042364707975020718 0.019961858817310815 -0.21842518535732014 0.17201659073233702 -0.17420022665912074 0.086593423024756075 0.10656606772479869 0.10920799567715496 0.088745507026914347 -0.1260466675808771
leaf_weight=4.4486907804384819 2.199408007785677 4.0660754442214948 2.9569085743278265 3.0500714853405952 27.909111729823053 1.8874368667602528 2.7447536629624665 2.7260026447474948 2.675845671445134 7.7709621563553837 2.1678256364539292 4.7113012834452084 2.6411265740171066 9.8241595155559462
leaf_count=58 50 61 55 42 208 29 57 16 30 70 38 53 37 156
internal_value=0 -0.0709684 -0.0388185 -0.110502 0.00794096 -0.0151547 -0.121292 -0.00185471 0.0128336 -0.00173221 0.0152876 -0.0133571 -0.0528184 -0.0839966
internal_weight=0 12.2725 10.0731 6.00698 69.5072 41.5981 4.63219 36.9659 32.5172 29.7912 27.1154 19.3444 14.6331 11.992
internal_count=960 208 158 97 752 544 86 458 400 384 354 284 231 194
is_linear=0
shrinkage=0.2


Tree=25
num_leaves=15
num_cat=0
split_feature=17 24 27 10 4 17 10 10 10 0 13 13 13 15
split_gain=1.22524 1.7372 4.25154 1.55193 1.5205 2.35492 1.90185 1.90876 3.44964 1.7336 2.17644 1.90695 1.71118 3.81146
threshold=2995.0000000000005 18.500000000000004 22.500000000000004 92.500000000000014 2.5000000000000004 11551.000000000002 44.500000000000007 64.500000000000014 84.500000000000014 33.500000000000007 5.5000000000000009 3.5000000000000004 3.5000000000000004 1.5000000000000002
decision_type=2 2 2 2 2 2 2 2 2 2 2 2 2 2
left_child=-1 4 3 -3 6 12 -2 -8 -9 11 -11 -7 -6 -14
right_child=1 2 -4 -5 5 9 7 8 -10 10 -12 -13 13 -15
leaf_value=-0.13950472946541123 -0.17939150068988574 -0.20154142238766132 0.21333638776716435 0.033284541488507999 0.15247785874987169 0.11220642005851778 0.0838501973062903 -0.18100513987587355 0.084915881479129401 -0.17923696759642382 -0.0035760044087768299 -0.019562108459634173 -0.056365278809421465 0.15662001237878298
leaf_weight=2.5780417313799253 3.2296303417533663 5.43578899418935 1.5554963713511822 1.4197821626439688 7.9116912237368551 7.1246793102473083 5.3726050425320855 4.6816901783458871 3.345878332387656 4.3669133558869344 7.9715488408692181 11.458643364720045 7.779324781149624 5.9173056036233902
leaf_count=33 40 126 19 19 72 61 63 62 43 87 92 111 89 43
internal_value=0 0.000645879 -0.0851778 -0.152909 0.0110835 0.0277689 -0.041622 -0.00841764 -0.0701697 -0.00763019 -0.0657471 0.0309568 0.0784255 0.03565
internal_weight=0 77.571 8.41107 6.85557 69.1599 52.5301 16.6298 13.4002 8.02757 30.9218 12.3385 18.5833 21.6083 13.6966
internal_count=960 927 164 145 763 555 208 168 105 351 179 172 204 132
is_linear=0
shrinkage=0.2


Tree=26
num_leaves=15
num_cat=0
split_feature=1 10 1 25 2 2 30 0 2 0 0 17 10 30
split_gain=1.27959 2.3211 1.78423 1.81023 1.47948 1.37001 3.03805 2.41631 3.11106 2.09514 1.71655 1.70948 1.57939 2.50116
threshold=1.5000000000000002 42.500000000000007 1.0000000180025095e-35 2.5000000000000004 1011.0000000000001 1077.5000000000002 6.5000000000000009 26.500000000000004 1107.5000000000002 40.500000000000007 47.500000000000007 17351.500000000004 52.500000000000007 1.0000000180025095e-35
decision_type=2 2 2 2 2 2 2 2 2 2 2 2 2 2
left_child=1 -1 3 -3 -4 6 9 -7 -9 12 11 -8 -2 -14
right_child=5 2 4 -5 -6 7 10 8 -10 -11 -12 -13 13 -15
leaf_value=-0.11219738445150806 0.030558551239401679 0.056409589615999435 0.1262894948189823 -0.15708905417095842 -0.018696210875601471 0.18874868394279798 0.05976311857545788 0.21191118684738136 -0.0468355527911355 -0.20252263455791542 0.2024048248836095 -0.13590243439400712 0.026673847002627801 -0.16034454658752861
leaf_weight=3.8095864905044463 5.855622995644814 3.8789683673530826 12.225003326311706 2.690329784527421 3.6575432680547246 2.9319127481430796 6.1016859225928766 2.1706494763493529 12.935271314345298 4.8883377555757752 2.1451819920912376 2.5252388105727732 4.3910280382260671 8.2061602049507183
leaf_count=52 62 43 111 42 45 22 74 21 178 87 25 49 37 112
internal_value=0 0.0321487 0.0566411 -0.0310247 0.0929012 -0.0219848 -0.0455566 0.0225941 -0.00965487 -0.0861032 0.0423004 0.00248868 -0.0552625 -0.0951552
internal_weight=0 26.2614 22.4518 6.5693 15.8825 52.1511 34.1133 18.0378 15.1059 23.3411 10.7721 8.62692 18.4528 12.5972
internal_count=960 293 241 85 156 667 446 221 199 298 148 123 211 149
is_linear=0
shrinkage=0.2


Tree=27
num_leaves=15
num_cat=0
split_feature=7 7 15 28 13 17 13 7 24 18 0 2 13 2
split_gain=1.28616 1.41042 1.19035 1.81897 1.72003 2.49286 3.19422 3.1153 2.65655 2.17471 2.14593 2.31311 1.33315 1.26316
threshold=476.50000000000006 1969.5000000000002 1.5000000000000002 8.5000000000000018 2.5000000000000004 5255.0000000000009 6.5000000000000009 852.50000000000011 9.5000000000000018 3.5000000000000004 34.500000000000007 850.50000000000011 4.5000000000000009 1359.5000000000002
decision_type=2 2 2 2 2 2 2 2 2 2 2 2 2 2
left_child=-1 2 3 4 9 -6 12 -8 -9 10 11 -2 -7 -4
right_child=1 -3 13 -5 5 6 7 8 -10 -11 -12 -13 -14 -15
leaf_value=-0.098545145500703077 -0.070747598039590229 -0.11000067087236239 0.026101427625970203 -0.14058088808085686 -0.19892590359015169 0.035168770982548211 0.25483668922984382 -0.11262788028505183 0.12519621915177298 0.16593989781484175 -0.16405840352133341 0.18098934431033098 -0.13208521557259714 0.15534132683773305
leaf_weight=5.3244658706244072 2.7650171583518368 4.1374207087792447 23.873478177934889 3.9461042396724215 3.049108796752992 2.6075748754665273 2.7560327723622304 3.7586119510233402 3.7563406946137547 4.8863523807376614 2.3496669880114496 3.0935348328202963 7.0880234031938016 3.4639210738241664
leaf_count=72 31 57 236 65 49 74 32 48 37 57 48 29 102 23
internal_value=0 0.0033443 0.0103027 -0.0116556 0.00243326 -0.030491 -0.00476919 0.0729524 0.00624823 0.0603026 -0.00258328 0.0621789 -0.0871032 0.0424774
internal_weight=0 71.5312 67.3938 40.0564 36.1103 23.0157 19.9666 10.271 7.51495 13.0946 8.20822 5.85855 9.6956 27.3374
internal_count=960 888 831 572 507 342 293 117 85 165 108 60 176 259
is_linear=0
shrinkage=0.2


Tree=28
num_leaves=15
num_cat=0
split_feature=19 2 2 7 6 11 24 27 2 5 0 27 20 27
split_gain=1.19875 2.01823 1.31652 1.22796 1.18638 1.45257 1.49218 1.3582 1.51136 1.57164 1.15478 1.52432 1.74923 4.26483
threshold=1.0000000180025095e-35 281.00000000000006 427.50000000000006 1211.5000000000002 4.5000000000000009 1.5000000000000002 21.500000000000004 1.0000000180025095e-35 1401.5000000000002 1.5000000000000002 29.500000000000004 1.5000000000000002 14.500000000000002 6.5000000000000009
decision_type=2 2 2 2 2 2 2 2 2 2 2 2 2 2
left_child=4 -2 -3 -4 5 -1 7 -7 9 -9 -11 -12 -13 -14
right_child=1 2 3 -5 -6 6 -8 8 -10 10 11 12 13 -15
leaf_value=0.078931855015231769 -0.14182353135710243 0.16776505735753278 0.065795091877878326 -0.023904119586201738 0.067486946396284345 -0.19880819527950744 -0.21350138024031728 -0.16388837218816488 0.13826505715771095 -0.10318700133282788 0.11290870438647127 -0.091264022870582065 -0.12325427513167386 0.16448804408208173
leaf_weight=3.9670905014500013 2.5937890037894276 3.000575831159952 14.318213204853238 10.642114285146816 4.9938358780927947 1.9903342658653844 2.0685183857567599 3.5957121024839642 2.034694790840148 5.6284077242016819 3.8282738365232971 8.4249640016350913 3.6798201040364784 4.6819346770644188
leaf_count=41 29 28 116 104 63 18 68 49 21 83 34 163 70 73
internal_value=0 0.0269422 0.0425977 0.0275508 -0.0244134 -0.0359156 -0.0485952 -0.0385223 -0.0285133 -0.0398858 -0.0228957 -0.000974143 -0.0269456 0.0378591
internal_weight=0 30.5547 27.9609 24.9603 44.8936 39.8998 35.9327 33.8641 31.8738 29.8391 26.2434 20.615 16.7867 8.36175
internal_count=960 277 248 220 683 620 579 511 493 472 423 340 306 143
is_linear=0
shrinkage=0.2


Tree=29
num_leaves=15
num_cat=0
split_feature=7 22 7 25 3 2 26 27 7 8 7 7 28 7
split_gain=0.945764 1.21276 2.25631 3.03803 1.72326 1.90917 2.13119 1.44854 2.38602 1.89365 1.36527 2.54712 2.31499 2.14057
threshold=481.50000000000006 1.5000000000000002 1313.5000000000002 2.5000000000000004 1.5000000000000002 1364.0000000000002 1.5000000000000002 4.5000000000000009 1555.5000000000002 2.5000000000000004 1222.0000000000002 1382.5000000000002 2.5000000000000004 1035.5000000000002
decision_type=2 2 2 2 2 2 2 2 2 2 2 2 2 2
left_child=-1 2 -2 -4 5 6 -3 -6 9 -9 13 -12 -13 -8
right_child=1 4 3 -5 7 -7 10 8 -10 -11 11 12 -14 -15
leaf_value=-0.085439176275660889 0.11689916169670429 0.12832952727177657 0.095319682665686745 -0.17779129002239596 0.089767125372749723 -0.21016688385890619 -0.048113575059148254 0.023522558578351477 0.1227814917092399 -0.20309646396649708 -0.24120893468151686 0.031665232936551733 -0.15063729942150866 0.12402528225459775
leaf_weight=5.232651353115215 8.9964126078411919 3.2471971940249196 3.3474078793078652 3.1739950687624514 9.9010231364518422 2.4011875386349848 9.8480159782338905 2.81377817224711 3.0390200698748231 3.0997087680734694 3.2512687605340025 6.994352276902644 4.6311323326081038 4.0894650551490477
leaf_count=76 84 26 35 39 90 40 161 36 36 49 49 96 99 44
internal_value=0 0.00276119 0.0519685 -0.0376046 -0.0115607 -0.0381556 -0.0252732 0.0370524 -0.0212474 -0.0952657 -0.0425833 -0.0847213 -0.0409569 0.00239454
internal_weight=0 68.834 15.5178 6.5214 53.3161 34.4626 32.0614 18.8535 8.95251 5.91349 28.8142 14.8768 11.6255 13.9375
internal_count=960 884 158 74 726 515 475 211 121 85 449 244 195 205
is_linear=0
shrinkage=0.2


Tree=30
num_leaves=15
num_cat=0
split_feature=19 2 17 6 30 17 17 17 10 17 17 30 10 7
split_gain=1.01449 1.20923 1.16289 1.97235 1.91011 1.2983 1.71524 1.11601 1.6944 1.62361 1.53275 1.01715 0.971919 1.78228
threshold=1.0000000180025095e-35 281.00000000000006 21452.000000000004 4.5000000000000009 3.5000000000000004 4367.5000000000009 17805.000000000004 13524.500000000002 79.500000000000014 15060.500000000002 6766.0000000000009 1.0000000180025095e-35 91.500000000000014 1116.5000000000002
decision_type=2 2 2 2 2 2 2 2 2 2 2 2 2 2
left_child=2 -2 3 5 -4 -1 7 10 9 -9 -7 -8 13 -3
right_child=1 12 4 -5 -6 6 11 8 -10 -11 -12 -13 -14 -15
leaf_value=-0.17976995680319671 -0.11327014687596493 0.073576112561347995 0.087949875836981786 0.090448650474581199 -0.11074241495246083 0.056898675157214466 -0.027538897747643728 0.12276880965674225 0.20418655660482338 -0.16209516247017289 -0.084640061552283097 -0.22404091881091476 0.13775700014371969 -0.036064608078055414
leaf_weight=3.204725835472348 2.330589008517566 12.773596066981559 7.4402643963694555 3.9799320059828451 2.6157236467115581 4.1690031667240026 1.6248758547008026 1.491185202263295 2.0027398620732129 1.7274576998315749 11.509145257994531 2.9974434315226972 3.3473895248025647 11.070203855866565
leaf_count=58 29 102 81 49 65 63 19 22 25 45 178 78 30 116
internal_value=0 0.0249893 -0.0232135 -0.0415013 0.0362668 -0.0597824 -0.0447158 -0.0203322 0.0597526 -0.0301188 -0.0470033 -0.154965 0.0368397 0.0226721
internal_weight=0 29.5218 42.7625 32.7065 10.056 28.7266 25.5219 20.8995 5.22138 3.21864 15.6781 4.62232 27.1912 23.8438
internal_count=960 277 683 537 146 488 430 333 92 67 241 97 248 218
is_linear=0
shrinkage=0.2


Tree=31
num_leaves=15
num_cat=0
split_feature=27 16 18 23 4 16 28 16 27 16 7 28 16 17
split_gain=1.04217 1.2665 1.09073 1.03788 2.36734 1.23021 1.22944 1.37818 1.53246 1.09387 1.54689 1.09418 0.973103 0.84134
threshold=20.500000000000004 13209.000000000002 8.5000000000000018 1.0000000180025095e-35 7.5000000000000009 5385.0000000000009 8.5000000000000018 6680.5000000000009 7.5000000000000009 2797.0000000000005 612.50000000000011 1.5000000000000002 2734.5000000000005 5629.0000000000009
decision_type=2 2 2 2 2 2 2 2 2 2 2 2 2 2
left_child=1 2 3 4 9 12 7 13 -9 -1 -11 -12 -6 -5
right_child=-2 -3 -4 6 5 -7 -8 8 -10 10 11 -13 -14 -15
leaf_value=0.025511177331081675 0.12810714060624709 -0.15314024425681896 0.12267006694294982 -0.13628597463094932 0.04046027048199842 -0.023782453294525299 -0.18091831119618509 -0.055554485657673153 0.15497369372809833 0.06881498220459141 -0.011258604525814578 -0.17999158747424315 0.15202021429100049 -0.02898237520455569
leaf_weight=6.202406706288456 2.3318425249308339 2.3188395546749225 2.661413076799362 3.4192216815427043 5.8155402485281247 4.2700078669004133 2.1224830257706335 2.407783268718048 3.2495293440297246 2.0777732515707594 2.2367888540029526 4.9155735834501684 6.7664703871123493 20.132724747993052
leaf_count=51 37 90 29 55 46 51 39 48 42 23 18 83 66 282
internal_value=0 -0.00785215 -0.002769 -0.00801679 0.0171492 0.0689761 -0.0339481 -0.0232686 0.0653717 -0.0394447 -0.0830934 -0.127223 0.100456 -0.0445605
internal_weight=0 68.5966 66.2777 63.6163 32.2846 16.852 31.3317 29.2093 5.65731 15.4325 9.23014 7.15236 12.582 23.5519
internal_count=960 923 833 804 338 163 466 427 90 175 124 101 112 337
is_linear=0
shrinkage=0.2


Tree=32
num_leaves=15
num_cat=0
split_feature=14 0 0 18 27 24 10 4 0 2 26 2 10 20
split_gain=0.845989 1.63491 1.50796 2.01929 1.44549 1.2864 1.19229 1.17873 1.84584 1.80602 1.17319 1.50007 2.05563 1.49596
threshold=3.5000000000000004 48.500000000000007 33.500000000000007 4.5000000000000009 6.5000000000000009 18.500000000000004 93.500000000000014 14.500000000000002 49.500000000000007 997.50000000000011 1.5000000000000002 1397.0000000000002 38.500000000000007 14.500000000000002
decision_type=2 2 2 2 2 2 2 2 2 2 2 2 2 2
left_child=5 2 3 -2 -4 7 -7 8 10 -9 -1 12 -12 -14
right_child=1 -3 4 -5 -6 6 -8 9 -10 -11 11 -13 13 -15
leaf_value=0.10291002744259392 -0.064919259706663596 0.12719807774823275 -0.21818797932858583 0.14519996809734989 -0.031847773745153775 -0.14069341764505178 0.082269287254438259 0.11936974608550943 0.16953791141998037 -0.048423510940933237 0.12517518970715219 0.12953516174616422 -0.10054349039841753 0.0035924191786102198
leaf_weight=3.180546052753928 7.0201425878331118 2.0716902182903132 3.6838165356311938 2.4742864174768329 3.0387866538949311 3.8471050104126325 1.2780660763382909 9.1564063546247763 2.4085878217592827 3.5648221508599809 2.7224568254314425 2.2977928761392823 13.711150891147556 9.2342557904776168
leaf_count=25 92 31 78 20 65 105 20 85 24 48 32 22 184 129
internal_value=0 -0.0401069 -0.0614798 -0.0101613 -0.133957 0.00997939 -0.0850931 0.0205089 0.000855091 0.0723497 -0.0121894 -0.0252797 -0.0391388 -0.0586346
internal_weight=0 18.2887 16.217 9.49443 6.7226 51.4012 5.12517 46.276 33.5548 12.7212 31.1462 27.9657 25.6679 22.9454
internal_count=960 286 255 112 143 674 125 549 416 133 392 367 345 313
is_linear=0
shrinkage=0.2


Tree=33
num_leaves=15
num_cat=0
split_feature=13 16 13 26 29 7 25 7 2 17 16 28 29 30
split_gain=1.15407 1.77732 1.16932 1.53793 1.23651 1.45003 1.41696 1.50446 1.62407 1.98226 2.49312 1.40423 1.16534 1.12687
threshold=1.0000000180025095e-35 8624.5000000000018 2.5000000000000004 2.5000000000000004 2.5000000000000004 476.50000000000006 1.5000000000000002 932.50000000000011 429.50000000000006 19135.000000000004 6680.5000000000009 1.0000000180025095e-35 7.5000000000000009 7.5000000000000009
decision_type=2 2 2 2 2 2 2 2 2 2 2 2 2 2
left_child=1 -1 3 -2 5 -4 -7 -8 -9 10 11 -10 13 -6
right_child=2 -3 4 -5 12 6 7 8 9 -11 -12 -13 -14 -15
leaf_value=-0.19215548005230526 0.133466558726336 0.075803774175992572 -0.19233591531288902 0.0052445447384347303 0.12600943727727837 -0.16215177287403243 0.060314163329499043 0.06818359655563716 0.029599807642823092 -0.16386248453021898 0.14590636647242994 -0.13914015213675932 -0.056403689245130909 -0.025888989037977927
leaf_weight=2.9343225355260065 5.7233562967740008 1.4943561814725397 2.1092668343335381 10.806842261459678 6.3151014787144941 2.62500071292743 8.8530804018955696 4.5390545406844494 3.2495442843064684 5.5881913891062132 2.786376192001625 5.0204866724088788 3.5202317619696251 2.8285836623981595
leaf_count=61 57 27 37 136 82 40 123 57 27 75 46 90 55 47
internal_value=0 -0.101739 0.00383242 0.0496397 -0.0121306 -0.0316181 -0.021239 -0.00892424 -0.0378604 -0.066779 -0.0177106 -0.0728371 0.0413758 0.0790199
internal_weight=0 4.42868 63.9651 16.5302 47.4349 34.771 32.6617 30.0367 21.1837 16.6446 11.0564 8.27003 12.6639 9.14369
internal_count=960 88 872 193 679 495 458 418 295 238 163 117 184 129
is_linear=0
shrinkage=0.2


Tree=34
num_leaves=15
num_cat=0
split_feature=8 2 4 7 22 7 0 4 1 2 28 2 24 2
split_gain=0.911061 1.58603 1.48774 0.956685 0.933832 0.9055 0.903685 1.05351 1.01716 2.05675 1.73412 2.21351 3.32165 2.30128
threshold=1.5000000000000002 231.50000000000003 24.500000000000004 1524.0000000000002 2.5000000000000004 489.50000000000006 23.500000000000004 20.500000000000004 1.5000000000000002 1097.5000000000002 2.5000000000000004 1082.5000000000002 9.5000000000000018 1219.5000000000002
decision_type=2 2 2 2 2 2 2 2 2 2 2 2 2 2
left_child=3 -2 5 4 -1 -3 -7 8 9 -8 -10 12 -12 -13
right_child=1 2 -4 -5 -6 6 7 -9 10 -11 11 13 -14 -15
leaf_value=0.13099964020890559 -0.15799229733110431 -0.10662437441727651 -0.14591887300332818 -0.041321384701853772 0.018504827990672407 0.095227099757296735 0.084354089576867575 0.10239709511273465 -0.095945069960466395 -0.11968844075918444 -0.23188840952073664 0.31642419382888853 0.041862842570317693 0.0063693282255867893
leaf_weight=5.2055917526595312 2.9729398537892839 2.8908032774925223 2.9120675632730117 4.4513252654578528 6.8169367068912834 4.3655332624912253 8.6094309329055232 3.5695701148360959 10.459942428627985 2.5647188897710285 2.5778278883080912 1.6736778011545532 5.6785385862458497 2.2377962761092931
leaf_count=56 60 53 52 54 80 31 114 35 163 46 49 16 102 49
internal_value=0 -0.0162758 -0.00741345 0.0378868 0.0672136 0.00162434 0.0091219 -0.000936436 -0.0118487 0.0375217 -0.0362291 0.0151051 -0.0436086 0.139038
internal_weight=0 50.5128 47.5399 16.4739 12.0225 44.6278 41.737 37.3715 33.8019 11.1741 22.6278 12.1678 8.25637 3.91147
internal_count=960 770 710 190 136 658 605 574 539 160 379 216 151 65
is_linear=0
shrinkage=0.2


Tree=35
num_leaves=15
num_cat=0
split_feature=19 23 14 0 10 7 2 16 0 16 16 10 10 0
split_gain=1.13097 0.996861 0.91354 1.43467 1.06358 1.71965 1.3129 1.21681 1.09661 2.03044 1.31253 1.46575 0.971014 0.922806
threshold=1.0000000180025095e-35 1.0000000180025095e-35 1.5000000000000002 51.500000000000007 66.500000000000014 1046.5000000000002 653.50000000000011 4783.0000000000009 34.500000000000007 7289.0000000000009 2770.5000000000005 50.500000000000007 84.500000000000014 30.500000000000004
decision_type=2 2 2 2 2 2 2 2 2 2 2 2 2 2
left_child=2 -2 12 4 8 -6 -7 -8 10 -10 -4 -12 13 -1
right_child=1 -3 3 -5 5 6 7 -9 9 -11 11 -13 -14 -15
leaf_value=0.0543564884343841 0.069145621153497774 -0.0083106024718603826 0.10334421719973648 0.096242478648451146 -0.22003275539214978 -0.16245798546622778 -0.085123389786587095 0.099157419369161545 -0.20255438875223059 0.050203908154811849 -0.14230599529975804 0.091444098803542539 0.12113809322651577 -0.092253921142361056
leaf_weight=3.6777831250801665 12.7943102857098 13.831403819844125 4.2533214301802271 2.692381882807239 3.4440082721412173 2.9074143893085402 3.0153331779874861 2.7316577136516571 2.9198472553398451 2.2515987178776413 2.7613483914174139 1.7550339759327469 3.0679971072822809 3.2215068829245865
leaf_count=36 120 157 43 45 91 52 46 42 81 59 54 32 41 61
internal_value=0 0.028909 -0.0246453 -0.042744 -0.0571146 -0.100504 -0.0529377 0.0024689 -0.0194605 -0.0925058 0.0236139 -0.0514724 0.0275267 -0.0141008
internal_weight=0 26.6257 38.6992 28.7319 26.0396 12.0984 8.65441 5.74699 13.9411 5.17145 8.7697 4.51638 9.96729 6.89929
internal_count=960 277 683 545 500 231 140 88 269 140 129 86 138 97
is_linear=0
shrinkage=0.2


Tree=36
num_leaves=15
num_cat=0
split_feature=13 16 13 3 17 4 26 20 17 12 27 28 6 20
split_gain=0.822784 1.29841 0.877512 1.45857 1.37832 1.36891 0.942092 1.34325 0.819921 1.37925 1.12571 1.07421 0.97017 1.20628
threshold=1.0000000180025095e-35 8624.5000000000018 2.5000000000000004 1.5000000000000002 4367.5000000000009 3.5000000000000004 2.5000000000000004 14.500000000000002 25593.000000000004 3.5000000000000004 4.5000000000000009 2.5000000000000004 3.5000000000000004 12.500000000000002
decision_type=2 2 2 2 2 2 2 2 2 2 2 2 2 2
left_child=1 -1 5 8 -5 -2 -7 -8 9 10 -4 -12 13 -13
right_child=2 -3 3 4 -6 6 7 -9 -10 -11 11 12 -14 -15
leaf_value=-0.17956733495059385 -0.068140213510228989 0.058882387173462572 -0.098114422167209128 -0.12031068438666125 0.039514805727842287 0.15329742220265755 -0.049003230337006022 0.11365210720941871 0.084519114608311782 -0.2247198065596499 0.14435065344042949 0.06146992498201919 0.10871045279323016 -0.13018236461437679
leaf_weight=2.4760159288998689 3.4228982133790842 1.4473960511386392 8.1478400214109659 2.4070398933254209 20.888494344777428 4.0870919078588459 3.9042411115951836 4.2324608061462641 1.6752000516280521 1.8670928024221201 1.7611476790625582 1.9667001685593275 1.6061210050247607 3.956119685433805
leaf_count=61 59 27 117 33 257 39 50 45 25 84 23 39 28 73
internal_value=0 -0.0916002 0.00293909 -0.0114486 0.0230006 0.0436521 0.0749561 0.035605 -0.0496995 -0.0613463 -0.0438538 0.00373526 -0.0291571 -0.0665433
internal_weight=0 3.92341 59.9224 44.2758 23.2955 15.6467 12.2238 8.1367 20.9802 19.305 17.4379 9.29009 7.52894 5.92282
internal_count=960 88 872 679 290 193 134 95 389 364 280 163 140 112
is_linear=0
shrinkage=0.2


Tree=37
num_leaves=15
num_cat=0
split_feature=11 1 1 25 11 0 17 25 4 30 4 17 0 0
split_gain=0.788642 0.96353 1.44047 1.59205 1.39945 1.2664 0.996934 1.3236 1.28286 1.08599 2.02795 1.41549 0.987118 0.967437
threshold=1.5000000000000002 1.5000000000000002 1.0000000180025095e-35 2.5000000000000004 3.5000000000000004 35.500000000000007 21452.000000000004 3.5000000000000004 7.5000000000000009 6.5000000000000009 12.500000000000002 4628.5000000000009 30.500000000000004 41.500000000000007
decision_type=2 2 2 2 2 2 2 2 2 2 2 2 2 2
left_child=-1 2 3 -2 6 -4 9 8 -8 10 11 -3 -13 -7
right_child=1 4 5 -5 -6 13 7 -9 -10 -11 -12 12 -14 -15
leaf_value=0.070317344929386155 0.023795675595038451 0.041004424275303618 0.10857525183856652 -0.20279862616143937 -0.151552371477369 -0.12650141541388343 0.19938169504927017 -0.094802140091590381 0.01469855957571378 0.025342038854288946 0.042771810518654509 -0.071471299079266346 -0.19294997576744854 0.047972579655038462
leaf_weight=5.4057081700302652 3.2555962353944787 2.2050813271198484 8.518375678919254 2.0035758151207119 3.3492616881849235 1.976236886810512 2.5484595068264735 2.0542705239495263 3.67254349286668 8.1729446579702181 5.219010407337918 5.1211673486977798 5.6030831333482638 3.5633810618892312
leaf_count=60 46 33 92 46 65 35 34 34 52 142 69 65 135 52
internal_value=0 -0.00959833 0.0267627 -0.0625295 -0.0281087 0.0601674 -0.0161582 0.044391 0.0903548 -0.0351946 -0.0624568 -0.104933 -0.13494 -0.0142703
internal_weight=0 57.263 19.3172 5.25917 37.9458 14.058 34.5966 8.27527 6.221 26.3213 18.1483 12.9293 10.7243 5.53962
internal_count=960 900 271 92 629 179 564 120 86 444 302 233 200 87
is_linear=0
shrinkage=0.2


Tree=38
num_leaves=15
num_cat=0
split_feature=25 11 25 7 24 2 2 2 7 30 2 2 20 24
split_gain=0.716959 0.596072 0.873784 0.804367 0.725717 0.673423 0.988387 0.781484 0.843197 1.54289 1.30727 1.10265 1.24433 0.932662
threshold=1.0000000180025095e-35 1.5000000000000002 1.5000000000000002 476.50000000000006 16.500000000000004 146.50000000000003 220.50000000000003 465.50000000000006 1116.5000000000002 1.5000000000000002 581.50000000000011 738.50000000000011 13.500000000000002 9.5000000000000018
decision_type=2 2 2 2 2 2 2 2 2 2 2 2 2 2
left_child=-1 -2 -3 -4 5 -5 -7 -8 10 -10 -9 -11 -13 -14
right_child=1 2 3 4 -6 6 7 8 9 11 -12 12 13 -15
leaf_value=0.10060863455017287 0.055837889853553924 -0.13885639180884699 -0.10726937233266487 0.13842114932925409 -0.067524299949861699 -0.16170410041321498 0.068598680371013604 0.19103995705746599 0.046747074350912264 -0.17724006976857204 0.0085359289554574926 0.031766103380464879 -0.19134608546281284 -0.00064965449771763582
leaf_weight=2.5751594328321508 5.4415234290063372 2.1401265065651378 3.0930283145280546 1.508121890015899 5.9332052327226839 1.418239768478087 7.0406409036368123 1.812181720510124 6.4028142169117954 3.1125536262989035 11.744201685069127 4.718408477609044 2.6271983748301864 1.6831232385011388
leaf_count=34 60 42 62 18 161 33 90 19 67 63 164 60 50 37
internal_value=0 -0.00721209 -0.013657 -0.00841287 -0.00204284 0.00719267 0.0023132 0.0082562 -0.0049788 -0.0326933 0.0329326 -0.074587 -0.0391984 -0.116882
internal_weight=0 58.6754 53.2338 51.0937 48.0007 42.0675 40.5594 39.1411 32.1005 18.5441 13.5564 12.1413 9.02873 4.31032
internal_count=960 926 866 824 762 601 583 550 460 277 183 210 147 87
is_linear=0
shrinkage=0.2


Tree=39
num_leaves=15
num_cat=0
split_feature=19 27 8 28 29 30 14 2 27 2 22 10 10 10
split_gain=1.00091 1.01106 1.00602 0.97593 1.16126 1.00371 0.941464 1.12817 0.883279 0.843319 0.849053 2.20223 1.3556 1.25845
threshold=1.0000000180025095e-35 16.500000000000004 1.5000000000000002 7.5000000000000009 2.5000000000000004 2.5000000000000004 3.5000000000000004 583.50000000000011 4.5000000000000009 307.50000000000006 2.5000000000000004 75.500000000000014 78.500000000000014 54.500000000000007
decision_type=2 2 2 2 2 2 2 2 2 2 2 2 2 2
left_child=1 6 -2 4 5 -4 9 -8 -9 -1 12 13 -11 -12
right_child=2 -3 3 -5 -6 -7 7 8 -10 10 11 -13 -14 -15
leaf_value=0.063084404870928826 0.11208372801165507 0.11403981865451268 0.031245095927146423 -0.097613812156257931 0.12780843201186798 -0.094917470672651494 -0.21859340475468408 0.024026272072455359 -0.15388284777554728 -0.046952919952061571 -0.075521331041924336 -0.17734523208387559 0.10131743920446497 0.097516234980454169
leaf_weight=4.5410491267684874 4.6489749536849585 1.9956456637009967 10.289034001529222 2.9403057463932774 3.6158398957923046 3.3415288862306616 2.1485617947764686 2.9265596111072227 1.8045366754522545 6.4879181184805947 3.726683014072476 4.5443677920848131 3.9793276451528072 3.0629179456736892
leaf_count=63 42 52 108 50 29 48 58 47 74 118 72 91 55 53
internal_value=0 -0.0242241 0.0282057 0.00888866 0.0270461 0.000316376 -0.0325297 -0.098411 -0.0438319 -0.0153238 -0.0316557 -0.0695857 0.00941495 0.0025392
internal_weight=0 35.2176 24.8357 20.1867 17.2464 13.6306 33.2219 6.87966 4.7311 26.3423 21.8012 11.334 10.4672 6.7896
internal_count=960 683 277 235 185 156 631 179 121 452 389 216 173 125
is_linear=0
shrinkage=0.2


Tree=40
num_leaves=15
num_cat=0
split_feature=23 0 11 14 16 28 17 16 28 17 16 28 16 16
split_gain=0.93314 1.39422 1.44586 1.10131 1.21305 1.11438 1.05464 1.19047 1.30419 1.74066 0.854173 1.10701 1.90906 1.97822
threshold=1.0000000180025095e-35 23.500000000000004 3.5000000000000004 3.5000000000000004 2869.0000000000005 6.5000000000000009 4367.5000000000009 2306.0000000000005 8.5000000000000018 23545.000000000004 2649.0000000000005 2.5000000000000004 3456.0000000000005 6328.5000000000009
decision_type=2 2 2 2 2 2 2 2 2 2 2 2 2 2
left_child=3 -2 6 -1 -5 -6 -3 -8 9 10 -9 -12 -13 -14
right_child=1 2 -4 4 5 -7 7 8 -10 -11 11 12 13 -15
leaf_value=0.044470229300905627 0.1631670266558998 -0.17327300099700813 -0.22019796803558897 0.060243934244779022 -0.18800363045862523 0.022834380722152478 -0.13893347900969885 0.14528173114267581 -0.14768915654034645 -0.16397241148781003 -0.045109065282758598 0.27829607983849941 -0.12277473913658139 0.096688706544042408
leaf_weight=22.27986825956032 1.4549534833058739 1.8180923699401379 1.6339782965369511 2.6438047969713798 2.7674449615878984 1.5725642682518808 2.7672844636254039 2.4729768831748613 2.145133063197135 1.9256120815407474 6.3551035423297426 1.4032917679287473 2.45828473335132 4.9530993633088656
leaf_count=280 12 51 48 28 50 34 37 26 55 49 122 20 61 87
internal_value=0 -0.0277062 -0.0376483 0.0227477 -0.0465516 -0.111608 -0.0263063 -0.0153916 0.000353215 0.016582 0.0362885 0.0185205 0.0643953 0.0238948
internal_weight=0 29.3878 27.9329 29.2637 6.98381 4.34001 26.2989 24.4808 21.7135 19.5684 17.6428 15.1698 8.81468 7.41138
internal_count=960 568 556 392 112 84 508 457 420 365 316 290 168 148
is_linear=0
shrinkage=0.2


Tree=41
num_leaves=15
num_cat=0
split_feature=27 24 25 22 17 11 29 17 24 24 26 7 24 7
split_gain=0.739829 1.61847 0.590012 0.873088 0.926705 0.687244 0.83393 0.683225 0.916881 1.19389 1.05512 0.930232 1.09205 0.883463
threshold=22.500000000000004 18.500000000000004 1.0000000180025095e-35 1.5000000000000002 17254.500000000004 1.5000000000000002 5.5000000000000009 17351.500000000004 10.500000000000002 7.5000000000000009 2.5000000000000004 1232.5000000000002 4.5000000000000009 1766.5000000000002
decision_type=2 2 2 2 2 2 2 2 2 2 2 2 2 2
left_child=1 2 -1 4 -4 -5 7 8 9 11 -11 12 -7 -13
right_child=-2 -3 3 5 -6 6 -8 -9 -10 10 -12 13 -14 -15
leaf_value=0.1009509421660309 0.12557948510132402 -0.12786255060763307 -0.0077112958332253515 0.074440693897410801 0.10376404168114857 -0.036420608952670373 0.05493801022794223 -0.079179205615245746 0.073895751353873926 -0.011203310796357297 -0.19960713502676874 -0.15855245167605178 0.13250064592145699 0.018083876214044666
leaf_weight=2.3490395743865511 1.7471895362250496 4.0785023970529428 6.2710525980219227 3.0285456674173465 5.6890175606822595 2.935750764794653 4.525710034184157 10.181685004266908 3.7314462463837108 2.0828247221652409 2.7706638092640787 2.2045705206692219 3.1989305401220918 2.3293900960125029
leaf_count=27 21 150 86 38 63 36 64 191 72 30 69 46 38 29
internal_value=0 -0.00660214 0.00303868 -0.00166003 0.0453139 -0.0168484 -0.0249893 -0.0372783 -0.0151202 -0.0365192 -0.118756 0.000892604 0.0516634 -0.0678029
internal_weight=0 55.3771 51.2986 48.9496 11.9601 36.9895 33.961 29.4353 19.2536 15.5221 4.85349 10.6686 6.13468 4.53396
internal_count=960 939 789 762 149 613 575 511 320 248 99 149 74 75
is_linear=0
shrinkage=0.2


Tree=42
num_leaves=15
num_cat=0
split_feature=19 8 27 24 27 4 2 14 4 25 2 16 8 27
split_gain=0.802954 0.72634 0.659438 1.06008 0.653205 1.51828 1.41509 0.790867 0.870278 0.610409 0.484483 0.982056 1.07173 1.05794
threshold=1.0000000180025095e-35 1.5000000000000002 16.500000000000004 15.500000000000002 8.5000000000000018 2.5000000000000004 535.50000000000011 3.5000000000000004 12.500000000000002 4.5000000000000009 1364.0000000000002 2065.0000000000005 1.5000000000000002 7.5000000000000009
decision_type=2 2 2 2 2 2 2 2 2 2 2 2 2 2
left_child=2 -2 3 9 5 -3 -6 8 -7 10 11 -1 -13 -14
right_child=1 4 -4 -5 6 7 -8 -9 -10 -11 -12 12 13 -15
leaf_value=0.099680776533873389 0.10047886789322308 -0.0849390536066882 0.088648380800426668 -0.15528436401328211 0.055217529440869842 0.03982757433046747 -0.17502784149325509 -0.018030775584553373 0.17377895772209684 -0.10633052182565227 0.073687067666665426 0.042487446250245038 -0.098607876864867466 0.013643576571132417
leaf_weight=2.5203931611031427 4.28419837728143 3.5200682808645096 2.0057476591318837 2.4731916254386297 2.1423623110167673 4.3126741612795723 2.1286072063958272 3.1901559685356915 3.5265472512692213 2.8641774195712051 2.5533888791687778 5.5461225293111083 9.8771251139114593 5.088674137601628
leaf_count=21 42 43 52 100 25 55 44 39 29 85 33 78 203 111
internal_value=0 0.0261546 -0.0224818 -0.02969 0.00923578 0.0294232 -0.0595344 0.0659223 0.100087 -0.0187719 -0.00897015 -0.0181336 -0.03261 -0.0604401
internal_weight=0 23.1046 32.9288 30.9231 18.8204 14.5494 4.27097 11.0294 7.83922 28.4499 25.5857 23.0323 20.5119 14.9658
internal_count=960 277 683 631 235 166 69 123 84 531 446 413 392 314
is_linear=0
shrinkage=0.2


Tree=43
num_leaves=15
num_cat=0
split_feature=18 11 7 19 7 13 20 12 3 4 7 13 19 4
split_gain=0.745589 1.06759 0.942297 0.928254 0.780113 0.9412 1.10525 1.96006 0.995327 0.933434 0.923327 0.777421 0.77374 0.724843
threshold=4.5000000000000009 2.5000000000000004 1942.0000000000002 1.0000000180025095e-35 912.50000000000011 4.5000000000000009 14.500000000000002 1.5000000000000002 1.5000000000000002 7.5000000000000009 1418.5000000000002 5.5000000000000009 1.0000000180025095e-35 15.500000000000002
decision_type=2 2 2 2 2 2 2 2 2 2 2 2 2 2
left_child=2 -2 4 -3 11 6 7 -6 13 -8 -11 -1 -10 -7
right_child=1 3 -4 -5 5 8 9 -9 12 10 -12 -13 -14 -15
leaf_value=-0.11632336872828747 0.11462120158067948 -0.057490073493555151 -0.13802836092031462 0.079571731758339953 0.10230922367850588 -0.12339261091238347 0.20416569731096695 -0.13696524796111695 -0.033697941402975246 -0.043492490107794268 0.13776441467807507 -0.01129280425526907 0.090829314013603932 0.017935852965695585
leaf_weight=4.4803485919837822 4.7871289836475599 5.0612961432198063 2.3612979513127348 3.2428549895994365 2.7761181851383316 4.6840093594510082 2.4364718303550035 2.7025473878020421 4.2721127551048994 2.1680881297215819 2.3346979338675737 7.6018294703098945 3.7458035815507174 2.1034617314580828
leaf_count=125 64 107 59 34 37 83 52 73 73 32 30 125 39 27
internal_value=0 0.0393981 -0.0153183 -0.00396605 -0.00794643 0.0108244 0.05143 -0.0157215 -0.0232333 0.104447 0.0504894 -0.0502405 0.0244786 -0.0795944
internal_weight=0 13.0913 41.6668 8.30415 39.3055 27.2233 12.4179 5.47867 14.8054 6.93926 4.50279 12.0822 8.01792 6.78747
internal_count=960 205 755 141 696 446 224 110 222 114 62 250 112 110
is_linear=0
shrinkage=0.2


Tree=44
num_leaves=15
num_cat=0
split_feature=18 15 0 20 8 17 6 2 2 17 18 20 20 6
split_gain=0.491556 0.989508 1.36542 1.07478 0.940659 1.04865 0.721424 0.610007 0.733741 0.539528 0.785606 0.903526 0.983621 1.01627
threshold=4.5000000000000009 1.5000000000000002 23.500000000000004 18.500000000000004 2.5000000000000004 13524.500000000002 2.5000000000000004 231.50000000000003 334.00000000000006 23310.500000000004 2.5000000000000004 14.500000000000002 12.500000000000002 2.5000000000000004
decision_type=2 2 2 2 2 2 2 2 2 2 2 2 2 2
left_child=1 2 -1 7 5 -2 -5 -4 -9 10 11 12 13 -10
right_child=4 -3 3 6 -6 -7 -8 8 9 -11 -12 -13 -14 -15
leaf_value=0.1482946579558983 0.0080009282696783968 0.024808081072658538 -0.17380398375075978 -0.22411090621901955 -0.01999362534569038 0.17247998312766044 -0.057454332497182174 0.098352740605190503 0.10790146149353137 -0.14884445354120909 -0.11918967853374796 0.087150580397288291 -0.11496938934289574 -0.088629626148733986
leaf_weight=1.4662071354687238 3.1854499762412143 16.5401238372433 1.1112515109125585 2.127474680542945 6.7034631392452866 3.0208842440042645 2.0306817494565621 1.8428807271411667 2.5600183818023634 1.5069042518152844 2.7271542121889061 3.3688969602808356 3.5335997576476075 1.7872065897099672
leaf_count=13 42 230 39 58 133 30 47 32 44 43 75 67 74 33
internal_value=0 -0.0128504 -0.0387364 -0.0508724 0.0319526 0.0880598 -0.142722 -0.0301582 -0.0209455 -0.0351443 -0.0228859 0.000460082 -0.0365984 0.0271047
internal_weight=0 40.6024 24.0623 22.5961 12.9098 6.20633 4.15816 18.4379 17.3267 15.4838 13.9769 11.2497 7.88082 4.34722
internal_count=960 755 525 512 205 72 105 407 368 336 293 218 151 77
is_linear=0
shrinkage=0.2


Tree=45
num_leaves=15
num_cat=0
split_feature=19 17 17 8 2 25 17 17 30 1 1 17 17 29
split_gain=0.549436 0.637417 1.0787 0.772822 0.79 0.543851 0.513373 1.0033 0.886846 0.865156 0.600696 0.904605 0.739655 0.575306
threshold=1.0000000180025095e-35 11551.000000000002 7780.0000000000009 2.5000000000000004 969.50000000000011 2.5000000000000004 21452.000000000004 19569.500000000004 3.5000000000000004 1.0000000180025095e-35 1.5000000000000002 13961.500000000002 16360.500000000002 5.5000000000000009
decision_type=2 2 2 2 2 2 2 2 2 2 2 2 2 2
left_child=6 2 5 -3 -5 -2 7 9 -8 -1 -11 -12 -13 -10
right_child=1 3 -4 4 -6 -7 8 -9 13 10 11 12 -14 -15
leaf_value=-0.14175704763689764 -0.051098591027521949 0.056031396113280486 0.16267416007383018 0.0079506594728614849 -0.12021566147798768 0.07588000173470448 0.064553441235142769 -0.17650090392050821 -0.20889850527777451 0.050812650429636813 -0.061233316928962868 0.12858136336013012 -0.039802265763478846 0.023298572041851387
leaf_weight=2.1578877720749103 2.6934891038108635 5.0812313579954189 2.9644558904692531 4.7716402939986438 3.2231291854986921 2.7033571568317711 5.7202943637967101 1.8125347151071753 0.90584188088541828 5.0838606909383097 10.218546711083034 2.2118050759891057 1.9755029468215068 0.80712990742176771
leaf_count=55 31 55 32 70 52 37 81 56 46 92 236 37 61 19
internal_value=0 0.0226201 0.0657478 -0.00495751 -0.0437202 0.0125068 -0.0190524 -0.0335647 0.0267501 -0.0215968 -0.00829277 -0.0291512 0.0491407 -0.0994903
internal_weight=0 21.4373 8.3613 13.076 7.99477 5.39685 30.8934 23.4601 7.43327 21.6476 19.4897 14.4059 4.18731 1.71297
internal_count=960 277 100 177 122 68 683 537 146 481 426 334 98 65
is_linear=0
shrinkage=0.2


Tree=46
num_leaves=15
num_cat=0
split_feature=23 4 2 4 24 30 29 16 4 7 2 17 4 1
split_gain=0.474113 0.931169 0.822314 0.713636 0.64717 0.74495 1.02354 1.09984 0.595518 0.709012 0.586096 0.81224 0.585293 1.11148
threshold=1.0000000180025095e-35 7.5000000000000009 202.50000000000003 23.500000000000004 11.500000000000002 1.0000000180025095e-35 1.5000000000000002 3116.5000000000005 20.500000000000004 552.50000000000011 821.00000000000011 9870.0000000000018 7.5000000000000009 1.5000000000000002
decision_type=2 2 2 2 2 2 2 2 2 2 2 2 2 2
left_child=1 4 -2 8 5 -1 7 -7 9 -4 11 -3 -11 -14
right_child=2 10 3 -5 -6 6 -8 -9 -10 12 -12 -13 13 -15
leaf_value=0.08621981017418541 -0.21433130367280204 -0.092321458202533194 -0.15162817497720413 -0.12423598683970581 -0.12020032280617972 0.0014873736105718259 0.062556795166353638 -0.19862351404490081 0.10815585530117731 0.030348597189800455 0.0928341611000843 0.054326389349689058 0.064125585927241352 -0.087715373506284375
leaf_weight=2.761361915618183 0.85553140670527028 2.126163157168774 1.3874429747811614 2.1687792949378482 2.2755552951712152 2.270403977483511 2.6201189935673028 2.1286510904901661 1.7440176412928838 9.7938742800615746 6.9729857593774796 5.2194379684515297 2.8029038996901345 6.1802409897791222
leaf_count=30 37 30 48 58 66 23 33 53 25 232 92 65 51 117
internal_value=0 0.0168206 -0.0216458 -0.0147992 -0.0241335 -0.0017824 -0.0364027 -0.0953439 -0.00396576 -0.0136631 0.0513035 0.0118796 -0.00346881 -0.0403382
internal_weight=0 26.3747 24.9328 24.0773 12.0561 9.78054 7.01917 4.39906 21.9085 20.1645 14.3186 7.3456 18.777 8.98314
internal_count=960 392 568 531 205 139 109 76 473 448 187 95 400 168
is_linear=0
shrinkage=0.2


Tree=47
num_leaves=15
num_cat=0
split_feature=2 12 16 13 24 13 10 0 24 16 16 19 10 10
split_gain=0.441241 0.645253 0.77999 0.837682 1.7327 1.40015 1.0884 1.17643 0.986361 1.35236 1.31723 0.739676 0.759059 0.989854
threshold=1443.5000000000002 1.5000000000000002 4488.5000000000009 5.5000000000000009 32.500000000000007 3.5000000000000004 70.500000000000014 42.500000000000007 15.500000000000002 8624.5000000000018 5346.5000000000009 1.0000000180025095e-35 52.500000000000007 71.500000000000014
decision_type=2 2 2 2 2 2 2 2 2 2 2 2 2 2
left_child=1 11 -3 4 5 8 -5 -8 9 10 -4 12 -1 -14
right_child=-2 2 3 6 -6 -7 7 -9 -10 -11 -12 -13 13 -15
leaf_value=0.054166192989458961 0.07549094330283336 -0.12589108854581005 0.10399658610512869 0.068281702418582862 0.19646763501968148 -0.19681094830126916 -0.14118381300573654 0.072612023696839154 -0.16221076237250187 0.18627182996429306 -0.18120814437184174 0.059418291213617691 -0.14179452565961057 -0.00057018623302256715
leaf_weight=4.5161872575990865 2.7841974401962934 2.9423984813038286 1.1335374084883354 7.166490183910355 0.95186606049537736 3.0510557416127995 2.6653312855050899 1.6774133788421748 1.5793339695082975 1.3626563629368318 1.5114704091101883 9.7154064439237118 2.931811861228196 6.1488247427041642
leaf_count=66 39 77 18 119 15 134 71 17 76 16 53 93 60 106
internal_value=0 -0.00643547 -0.0294249 -0.0159721 -0.059629 -0.0878495 0.0204044 -0.0586038 -0.0283457 0.0244077 -0.0589816 0.0172732 -0.012841 -0.0461665
internal_weight=0 47.3538 24.0416 21.0992 9.58992 8.63805 11.5092 4.34274 5.587 4.00766 2.64501 23.3122 13.5968 9.08064
internal_count=960 921 596 519 312 297 207 88 163 87 71 325 232 166
is_linear=0
shrinkage=0.2


Tree=48
num_leaves=15
num_cat=0
split_feature=22 3 17 10 30 13 22 10 2 2 7 17 2 30
split_gain=0.480269 0.770864 1.20949 0.840784 0.736571 0.978009 0.816608 0.729444 0.584036 1.6333 0.855968 0.529138 0.849799 0.635834
threshold=1.5000000000000002 1.5000000000000002 14782.000000000002 42.500000000000007 7.5000000000000009 2.5000000000000004 3.5000000000000004 38.500000000000007 1369.5000000000002 969.50000000000011 893.50000000000011 22104.500000000004 527.50000000000011 6.5000000000000009
decision_type=2 2 2 2 2 2 2 2 2 2 2 2 2 2
left_child=11 2 3 -2 5 6 -5 -4 9 10 -3 12 -1 -14
right_child=1 8 7 4 -6 -7 -8 -9 -10 -11 -12 -13 13 -15
leaf_value=-0.10826887611855698 -0.11584625563715285 -0.037022140889361503 0.035973251808875957 -0.0067482201708823873 0.13207714424996725 -0.075745613681872756 0.14917419917606609 -0.11147967280316184 0.12677322001658609 -0.11300325622907635 0.098223828636261612 0.10967979969243258 -0.0039093397804105751 0.12384851378483311
leaf_weight=1.9109221436083297 2.0052939031738815 2.7809165174257924 1.5981353855459008 3.4352372714783979 2.0848862652201197 3.9273994370596483 2.2065731820184737 8.3723802040913125 1.9291104299481947 3.2319547479273742 5.7260634079575539 2.7844728594645849 4.252729935804382 2.459330631303601
leaf_count=40 46 59 34 60 36 117 35 225 21 64 84 37 67 35
internal_value=0 -0.0130163 -0.0348838 0.00377461 0.0243575 0.000888137 0.0542347 -0.087845 0.0247891 0.0080296 0.0540122 0.0338784 0.00940112 0.0429017
internal_weight=0 37.298 23.6299 13.6594 11.6541 9.56921 5.64181 9.97052 13.668 11.7389 8.50698 11.4075 8.62298 6.71206
internal_count=960 781 553 294 248 212 95 259 228 207 143 179 142 102
is_linear=0
shrinkage=0.2


Tree=49
num_leaves=15
num_cat=0
split_feature=8 7 11 7 7 7 23 26 0 13 7 20 30 12
split_gain=0.400239 0.469469 0.769321 0.423276 0.710339 1.00584 1.00191 0.395363 0.551327 0.472911 0.598383 0.782667 1.16057 0.551859
threshold=1.5000000000000002 489.50000000000006 2.5000000000000004 590.50000000000011 957.50000000000011 1241.0000000000002 1.0000000180025095e-35 1.5000000000000002 32.500000000000007 5.5000000000000009 1042.5000000000002 15.500000000000002 6.5000000000000009 2.5000000000000004
decision_type=2 2 2 2 2 2 2 2 2 2 2 2 2 2
left_child=3 2 -2 -1 -5 -6 -7 -3 -9 10 -10 -12 -13 -11
right_child=1 7 -4 4 5 6 -8 8 9 13 11 12 -14 -15
leaf_value=0.11875111742138995 0.024238929097622094 0.073092580665387707 -0.21423403039482453 -0.086467546251696559 0.14980006437737634 0.062131209466771677 -0.11849411931234906 0.014059130290386745 -0.0055968813516670043 -0.036680713153534182 -0.22112151145207554 -0.21499652735060307 0.11268617007136075 0.07888209259073671
leaf_weight=1.8284839916741464 1.0191489614080631 2.3263201275840393 1.1536348894587716 2.1892826122930256 2.4045344042824581 3.2295415289700031 1.982392582518514 15.785562551231125 2.4416543859988442 7.4940856519388017 1.9291388085403016 0.79252401256235294 0.95127710117958486 2.1206608153879642
leaf_count=27 19 33 44 42 33 42 46 233 95 153 95 43 23 32
internal_value=0 -0.0122596 -0.102378 0.030409 0.0139358 0.0427958 -0.00657079 -0.00647353 -0.0123468 -0.0388472 -0.0823332 -0.133345 -0.0362393 -0.0111918
internal_weight=0 36.014 2.17278 11.6342 9.80575 7.61647 5.21193 33.8412 31.5149 15.7293 6.11459 3.67294 1.7438 9.61475
internal_count=960 770 63 190 163 121 88 707 674 441 256 161 66 185
is_linear=0
shrinkage=0.2


Tree=50
num_leaves=15
num_cat=0
split_feature=19 24 3 18 18 8 17 7 27 30 7 27 20 7
split_gain=0.471027 0.4622 1.19189 0.693244 0.620296 0.697049 0.597335 0.77191 0.414473 0.556267 0.629487 0.408402 1.08022 0.951248
threshold=1.0000000180025095e-35 11.500000000000002 1.5000000000000002 3.5000000000000004 1.5000000000000002 2.5000000000000004 11341.000000000002 1375.5000000000002 1.0000000180025095e-35 1.0000000180025095e-35 1632.0000000000002 7.5000000000000009 13.500000000000002 1035.5000000000002
decision_type=2 2 2 2 2 2 2 2 2 2 2 2 2 2
left_child=8 4 3 -3 6 -6 -2 -8 -1 10 -10 12 -11 -13
right_child=1 2 -4 -5 5 -7 7 -9 9 11 -12 13 -14 -15
leaf_value=-0.1277987388352628 0.070682554347800769 -0.22144818084879381 0.083023326235817443 0.00052011352255795654 0.15881006513909435 0.015600757167019551 -0.10042757674323402 0.045780406425981218 -0.0034232985462073436 0.01403791443669491 0.12957951248730504 -0.09355377515316661 -0.1114445727224594 0.051163492854805828
leaf_weight=1.323906813282522 3.6916877207113448 1.3897528092493296 1.8599846968427298 0.94586285739205767 2.9297934025526038 2.5365220038220286 3.0962167324032634 2.7073965729214251 4.805219471629246 4.9555790160084161 2.0224957345053554 2.7126332375919429 6.1492726579890586 5.5016073551960289
leaf_count=20 41 52 24 24 28 37 41 30 78 114 25 102 199 145
internal_value=0 0.0222342 -0.0364296 -0.131557 0.038685 0.092357 0.00778681 -0.0322213 -0.0186235 -0.0130956 0.0359746 -0.0304379 -0.0554476 0.00337272
internal_weight=0 19.1572 4.1956 2.33562 14.9616 5.46632 9.4953 5.80361 27.4707 26.1468 6.82772 19.3191 11.1049 8.21424
internal_count=960 277 100 76 177 65 112 71 683 663 103 560 313 247
is_linear=0
shrinkage=0.2


Tree=51
num_leaves=15
num_cat=0
split_feature=17 7 16 17 17 19 16 16 30 14 2 11 2 30
split_gain=0.392555 0.851667 0.604888 0.872955 0.577381 0.496376 0.524806 1.40357 1.02509 0.66522 0.777154 0.613977 0.9512 0.791088
threshold=25593.000000000004 1969.5000000000002 13751.000000000002 4055.5000000000005 3068.0000000000005 1.0000000180025095e-35 7289.0000000000009 5346.5000000000009 4.5000000000000009 1.5000000000000002 577.50000000000011 2.5000000000000004 870.50000000000011 1.0000000180025095e-35
decision_type=2 2 2 2 2 2 2 2 2 2 2 2 2 2
left_child=1 2 4 -4 -1 6 7 9 -8 10 -6 -11 13 -13
right_child=-2 -3 3 -5 5 -7 8 -9 -10 11 -12 12 -14 -15
leaf_value=-0.13177234722260714 0.077696110373506891 -0.1364576832987445 0.13972464494039882 -0.21785673779070294 0.14901788525267565 0.036342522163441526 -0.080192379135045191 -0.17471546419141215 0.11378716566360098 0.028624024033095233 -0.017048325552891562 -0.025004814368956518 0.0090474120385250229 -0.21486186807138674
leaf_weight=1.204298308584838 2.3612405137391752 1.9144385763211165 0.36582654318772156 1.0772463126631917 2.1041915018577191 15.639971154159864 1.6437171095749352 2.2136963272350831 3.2330993497744203 4.3410935936262813 2.4277459301520139 1.4749421160668137 3.4025619125459343 2.1686105875123758
leaf_count=31 47 52 11 85 27 215 50 89 58 76 43 18 72 86
internal_value=0 -0.00604974 -4.31557e-06 -0.127208 0.00460161 0.00885094 -0.00983546 -0.0254997 0.0484069 -0.00474996 0.0600567 -0.030542 -0.0669941 -0.138006
internal_weight=0 43.2114 41.297 1.44307 39.8539 38.6496 23.0097 18.1328 4.87682 15.9191 4.53194 11.3872 7.04611 3.64355
internal_count=960 913 861 96 765 734 519 411 108 322 70 252 176 104
is_linear=0
shrinkage=0.2


Tree=52
num_leaves=15
num_cat=0
split_feature=18 16 23 23 8 17 15 2 14 2 10 17 2 16
split_gain=0.413919 0.680726 1.3873 1.06673 0.839017 0.667962 0.583468 0.623275 0.585472 1.09695 0.914899 0.7629 0.551339 1.06505
threshold=4.5000000000000009 2405.0000000000005 2.5000000000000004 1.0000000180025095e-35 2.5000000000000004 20365.000000000004 1.5000000000000002 231.50000000000003 3.5000000000000004 500.50000000000006 71.500000000000014 10658.500000000002 757.50000000000011 3694.5000000000005
decision_type=2 2 2 2 2 2 2 2 2 2 2 2 2 2
left_child=6 -2 3 5 -5 -3 7 -1 9 -8 -11 -10 -9 -14
right_child=1 2 -4 4 -6 -7 8 12 11 10 -12 -13 13 -15
leaf_value=-0.18556272841121388 0.15663293357891817 -0.037414688180991369 0.18795125232677112 0.019696315862121269 -0.19891416964106945 0.11313045773588015 0.14058694900833413 0.00915658486433432 0.071884927754897562 -0.076249518273715525 0.067748371805283966 -0.11635752670478064 -0.0019243086222840496 -0.13613190265155864
leaf_weight=1.0413620499311971 1.5144716594368208 2.3897039424045925 1.4990820761304346 1.1316134942462668 1.8507871153706219 2.3267467604018748 3.1862276664469373 8.9603690440999362 1.3390283877961331 3.3654423445696011 3.7110464520519599 2.4131784848577809 5.4898191345273499 4.1556888332124799
leaf_count=47 17 50 20 22 69 27 45 209 21 55 53 56 87 182
internal_value=0 0.0323856 0.0119278 -0.0223466 -0.115967 0.0368531 -0.0127522 -0.0349911 0.018424 0.0431412 -0.000734263 -0.0491805 -0.0265636 -0.0597466
internal_weight=0 10.7124 9.19793 7.69885 2.9824 4.71645 33.6622 19.6472 14.0149 10.2627 7.07649 3.75221 18.6059 9.64551
internal_count=960 205 188 168 91 77 755 525 230 153 108 77 478 269
is_linear=0
shrinkage=0.2


Tree=53
num_leaves=15
num_cat=0
split_feature=1 10 1 2 10 27 29 2 5 2 6 2 14 6
split_gain=0.2743 0.668229 0.588121 0.650309 0.459215 0.73225 0.675857 0.660721 1.06927 1.16741 0.76261 0.804055 0.589165 0.6118
threshold=1.0000000180025095e-35 78.500000000000014 1.5000000000000002 1080.5000000000002 39.500000000000007 4.5000000000000009 1.5000000000000002 1077.5000000000002 2.5000000000000004 677.00000000000011 2.5000000000000004 1263.5000000000002 1.5000000000000002 2.5000000000000004
decision_type=2 2 2 2 2 2 2 2 2 2 2 2 2 2
left_child=1 -1 3 -2 5 -4 7 8 -6 12 11 -9 -10 -14
right_child=2 -3 4 -5 6 -7 -8 10 9 -11 -12 -13 13 -15
leaf_value=-0.10966026628755728 0.066094716134542389 0.059378653810053542 0.11802942973515701 -0.061082432096345396 -0.17715177093295847 -0.060989520837914868 0.025084549524317535 0.14475810078988546 0.12462102427665667 -0.16697629165864403 -0.084374872075676968 -0.033777361559141739 -0.11981555260913013 0.053304012694618846
leaf_weight=2.6878298470401196 8.8659568057628331 1.4347636216843964 2.4669878850691052 1.9646682343445707 3.0364263034425729 1.4517956889467312 8.094807903893523 2.0542925522313444 1.4632349570747463 1.884853760449914 2.450157211656915 1.9830170936184002 1.539677317166934 1.7385433514136819
leaf_count=79 142 25 33 47 69 50 196 36 26 73 59 37 51 37
internal_value=0 -0.0508306 0.00341705 0.0430249 -0.0118145 0.0517081 -0.0220818 -0.0457225 -0.078869 -0.0338321 0.00364745 0.0570663 0.0190962 -0.0280048
internal_weight=0 4.12259 38.9944 10.8306 28.1638 3.91878 24.245 16.1502 9.66274 6.62631 6.48747 4.03731 4.74146 3.27822
internal_count=960 104 856 189 667 83 584 388 256 187 132 73 114 88
is_linear=0
shrinkage=0.2


Tree=54
num_leaves=15
num_cat=0
split_feature=22 13 13 20 13 26 10 30 30 20 18 24 16 7
split_gain=0.373144 0.548832 0.689877 0.694475 0.643737 0.70071 0.88492 0.794762 0.472161 0.610866 0.460559 0.459162 0.991156 0.880782
threshold=1.5000000000000002 6.5000000000000009 3.5000000000000004 21.500000000000004 1.0000000180025095e-35 2.5000000000000004 57.500000000000007 1.0000000180025095e-35 6.5000000000000009 12.500000000000002 3.5000000000000004 6.5000000000000009 5294.5000000000009 1555.5000000000002
decision_type=2 2 2 2 2 2 2 2 2 2 2 2 2 2
left_child=-1 2 4 8 -2 -6 -7 -8 9 -4 -11 -3 -13 -14
right_child=1 11 3 -5 5 6 7 -9 -10 10 -12 12 13 -15
leaf_value=0.032167987674366343 -0.12325821756190317 0.065266524031183146 -0.037378870002737916 0.081569149441450148 0.089625278055698143 0.070923913800065061 0.029894422606785681 -0.17516272022524618 -0.019395745728432112 -0.22218783849281359 -0.079552686589615118 -0.15340253324557382 -0.045559002905563438 0.13046060298227066
leaf_weight=9.9251083105336857 1.3858375618001471 5.3976130509981868 2.3031603243725822 1.0858042169129465 3.7412447573151422 2.3188656299607828 1.271644502761774 1.864660555263981 2.7760082307795528 2.3698187165136919 1.465460623585386 1.5431060241535304 2.5891750170267187 2.0276130954734981
leaf_count=179 68 80 57 24 68 50 24 73 87 76 44 39 62 29
internal_value=0 -0.0121968 -0.0317812 -0.0694473 0.0038133 0.0229621 -0.0227566 -0.0920204 -0.0878415 -0.118795 -0.167687 0.0226805 -0.0146355 0.0317457
internal_weight=0 32.14 20.5825 10.0003 10.5823 9.19642 5.45517 3.13631 8.91445 6.13844 3.83528 11.5575 6.15989 4.61679
internal_count=960 781 571 288 283 215 147 97 264 177 120 210 130 91
is_linear=0
shrinkage=0.2


Tree=55
num_leaves=15
num_cat=0
split_feature=30 18 10 23 26 30 28 16 28 25 26 11 10 5
split_gain=0.264197 0.493568 0.646222 0.64532 0.633676 0.493236 0.704943 0.643324 0.726765 0.807854 0.522863 0.696684 0.587625 0.621579
threshold=1.0000000180025095e-35 4.5000000000000009 42.500000000000007 2.5000000000000004 2.5000000000000004 6.5000000000000009 4.5000000000000009 2751.0000000000005 8.5000000000000018 2.5000000000000004 2.5000000000000004 2.5000000000000004 68.500000000000014 2.5000000000000004
decision_type=2 2 2 2 2 2 2 2 2 2 2 2 2 2
left_child=-1 2 -2 4 -3 6 10 -7 9 -9 -4 -12 -13 -14
right_child=1 3 5 -5 -6 7 -8 8 -10 -11 11 12 13 -15
leaf_value=0.025580380340103188 -0.10561750504083067 0.090024194112849246 -0.089975870738687541 0.16196791922205062 -0.045618060351186596 0.17659313054384823 -0.16222039321314141 -0.046644194686362134 -0.1064363916283817 0.10585511869554552 -0.094722372615634723 -0.01968964854804961 0.20989707238252989 0.015805123769900745
leaf_weight=10.487762095755896 3.4167872217658504 2.2342390730336765 2.9131235679087712 1.3052478975150732 3.5932877117302269 0.99175131082301771 1.5850051072629856 2.4420606063795276 1.7780674611567517 3.223768777155783 1.8521644166321491 2.589011964504607 1.341396074742079 1.2992597734119042
leaf_count=175 111 46 74 18 100 15 53 61 59 77 49 54 24 44
internal_value=0 -0.0112081 -0.0252301 0.0348567 0.00638637 -0.0115075 -0.038304 0.0252772 0.0051174 0.0401255 -0.0186533 0.0106854 0.0480171 0.1144
internal_weight=0 30.5652 23.4324 7.13277 5.82753 20.0156 11.58 8.43565 7.4439 5.66583 9.99496 7.08183 5.22967 2.64066
internal_count=960 785 621 164 146 510 298 212 197 138 245 171 122 68
is_linear=0
shrinkage=0.2


end of trees

feature_importances:
Column_2=60
Column_17=57
Column_7=56
Column_16=54
Column_0=51
Column_10=43
Column_13=38
Column_4=35
Column_30=31
Column_24=29
Column_8=26
Column_19=25
Column_18=24
Column_27=24
Column_1=22
Column_22=22
Column_14=19
Column_25=19
Column_28=19
Column_23=18
Column_29=18
Column_11=16
Column_20=16
Column_26=16
Column_3=12
Column_6=12
Column_15=9
Column_12=8
Column_5=4
Column_9=1

parameters:
[boosting: gbdt]
[objective: binary]
[metric: custom]
[tree_learner: serial]
[device_type: cpu]
[data_sample_strategy: bagging]
[data: ]
[valid: ]
[num_iterations: 10000]
[learning_rate: 0.2]
[num_leaves: 15]
[num_threads: 0]
[seed: 1239]
[deterministic: 0]
[force_col_wise: 0]
[force_row_wise: 0]
[histogram_pool_size: -1]
[max_depth: -1]
[min_data_in_leaf: 30]
[min_sum_hessian_in_leaf: 0.001]
[bagging_fraction: 1]
[pos_bagging_fraction: 1]
[neg_bagging_fraction: 1]
[bagging_freq: 0]
[bagging_seed: 21187]
[feature_fraction: 0.5]
[feature_fraction_bynode: 1]
[feature_fraction_seed: 30770]
[extra_trees: 0]
[extra_seed: 27351]
[early_stopping_round: 0]
[early_stopping_min_delta: 0]
[first_metric_only: 0]
[max_delta_step: 0]
[lambda_l1: 0]
[lambda_l2: 0]
[linear_lambda: 0]
[min_gain_to_split: 0]
[drop_rate: 0.1]
[max_drop: 50]
[skip_drop: 0.5]
[xgboost_dart_mode: 0]
[uniform_drop: 0]
[drop_seed: 3778]
[top_rate: 0.2]
[other_rate: 0.1]
[min_data_per_group: 100]
[max_cat_threshold: 32]
[cat_l2: 10]
[cat_smooth: 10]
[max_cat_to_onehot: 4]
[top_k: 20]
[monotone_constraints: ]
[monotone_constraints_method: basic]
[monotone_penalty: 0]
[feature_contri: ]
[forcedsplits_filename: ]
[refit_decay_rate: 0.9]
[cegb_tradeoff: 1]
[cegb_penalty_split: 0]
[cegb_penalty_feature_lazy: ]
[cegb_penalty_feature_coupled: ]
[path_smooth: 0]
[interaction_constraints: ]
[verbosity: -1]
[saved_feature_importance_type: 0]
[use_quantized_grad: 0]
[num_grad_quant_bins: 4]
[quant_train_renew_leaf: 0]
[stochastic_rounding: 1]
[linear_tree: 0]
[max_bin: 255]
[max_bin_by_feature: ]
[min_data_in_bin: 3]
[bin_construct_sample_cnt: 200000]
[data_random_seed: 4084]
[is_enable_sparse: 1]
[enable_bundle: 1]
[use_missing: 1]
[zero_as_missing: 0]
[feature_pre_filter: 1]
[pre_partition: 0]
[two_round: 0]
[header: 0]
[label_column: ]
[weight_column: ]
[group_column: ]
[ignore_column: ]
[categorical_feature: ]
[forcedbins_filename: ]
[precise_float_parser: 0]
[parser_config_file: ]
[objective_seed: 9093]
[num_class: 1]
[is_unbalance: 0]
[scale_pos_weight: 1]
[sigmoid: 1]
[boost_from_average: 1]
[reg_sqrt: 0]
[alpha: 0.9]
[fair_c: 1]
[poisson_max_delta_step: 0.7]
[tweedie_variance_power: 1.5]
[lambdarank_truncation_level: 30]
[lambdarank_norm: 1]
[label_gain: ]
[lambdarank_position_bias_regularization: 0]
[eval_at: ]
[multi_error_top_k: 1]
[auc_mu_weights: ]
[num_machines: 1]
[local_listen_port: 12400]
[time_out: 120]
[machine_list_filename: ]
[machines: ]
[gpu_platform_id: -1]
[gpu_device_id: -1]
[gpu_use_dp: 0]
[num_gpu: 1]

end of parameters

pandas_categorical:null
